{"weights": [[[0.49718336388481155, -0.009071572101380099, 0.0132184894120706, 0.8212021510279326, 0.21293548284642538, 0.4039312814791416, 0.6152853838905337, 0.0005087424967014087, 0.06313066142101986, 0.34612877470147363, 0.6846446067933925, -0.6497847550397777, -0.241772603453708, 0.24893028837841724, -0.3023286954629798, -0.7676472691020058, -0.14672756678657906, 0.1493094471340004, -0.727608013786001, -0.3909574657368846], [-0.26064315741793354, 0.4744070276811516, 0.4060177562614935, 0.7226258576576023, 0.20278259408973387, -0.016175221828046205, 0.9976942419643016, 0.6994074312972232, 0.6904657827046374, -0.009820300612616517, -0.8751688833108298, -0.5191021221751932, -0.618223008714833, -0.5481505166856844, 0.9002475054919286, -0.4464057300908215, -0.7194504966846818, -0.24161236643906836, 0.15365686653617372, 0.8731583748302552], [-0.511889007250304, 0.7098981969094653, 0.9132669311084183, -0.4797095235729687, 0.6621245678315846, -0.17539864172972308, -0.604123412245317, 0.9079550200057853, 0.30612819479836517, -0.44802371674955643, -0.37890872342393656, 0.5348920968387134, -0.9536695833664885, -0.18807335524134428, -0.4366153945682194, -0.4364941424457769, 0.8616766338503759, 0.09004057205659044, -0.9699340824955422, 0.31989868352703277], [-0.7658431643506556, -0.9249326788194534, -0.419158803014398, -0.15209210290594855, 0.4884725669892105, 0.9069523718917172, 0.3524209201089672, 0.5921994444387848, -0.6325585775516289, 0.050125433964919086, -0.1527567031105168, 0.7014221495876392, -0.16358331355615396, -0.9333970186681555, -0.1166269563473219, -0.6207175520487407, -0.6809017583912842, -0.9073380087903222, -0.9031112753360531, 0.3806881917543574], [-0.9130683671744575, 0.687138301600486, 0.13444490325321667, 0.7453814088770412, -0.6613992050408459, -0.5054323520471022, -0.4620767153942833, 0.5167270268132851, 0.3837697441762298, 0.13832637898362332, -0.21147350535227627, 0.5678324381309898, -0.7933142614191899, -0.9890210158229009, -0.40456436579573873, -0.28405538998947777, -0.6980940293724944, 0.8840932526063303, -0.9668609526337948, 0.6121216883419991], [0.9653873149388335, -0.6608274615579273, 0.4196885529122234, -0.6635560393967752, -0.08216378890094989, 0.5135276259015153, -0.6036911944694621, 0.543761334288372, -0.8624752078922486, 0.7568485967178049, 0.888737565956093, -0.9489314367759776, 0.8080854571895391, 0.6834388631730548, 0.25523091846046664, -0.38092039796090416, 0.5934140089609863, 0.6134666221338436, 0.9048422953287982, -0.9336340169226671], [0.5167104440736647, -0.6544073568265139, -0.40399628316138325, -0.2648241568953076, -0.06761022978428333, 0.39321902522411234, -0.9558780457066762, -0.8620908233957687, -0.8714530610919464, 0.547024093708284, -0.5544291549381852, -0.7517161902575, -0.15078989497462114, -0.7505189374296737, -0.799568249319516, -0.3731664257736713, -0.7912045806833305, -0.7402650443925163, -0.9952562522423483, 0.4836540362744184], [0.1562323795092455, 0.9224000968691628, 0.7404654258930874, -0.7032507505667989, 0.7702965042949939, -0.3463358560405041, 0.9952692828631766, 0.7416194716192228, -0.5682218116064526, -0.31014183116476834, 0.09050981822440174, -0.5510332623736924, 0.02910552464852345, -0.3015135710814538, 0.45336065851224916, 0.7677935675168619, 0.5617962868831994, 0.09969877628116497, -0.729392923257733, 0.7202368285246552], [-0.7516722833888865, 0.7256189807386766, 0.83429475572666, 0.9382865259894053, -0.3625490918627916, 0.0006910594287019567, -0.287645154276422, -0.7364793796205309, 0.6356458084711432, -0.521973323835148, 0.07641762134983643, 0.10164114372381028, 0.5852167791739211, 0.2297433612435431, -0.7719061357464776, -0.545903049171788, -0.7133664395640484, 0.23328098359636806, -0.7668009788644812, -0.6386039234267773], [-0.5594458669157218, -0.9508475015548772, 0.534676421593858, 0.9955970272265371, -0.5249885714420353, 0.6188085642910979, 0.7899764843960542, 0.9976503603754558, -0.43607607767108014, 0.9695240849393472, -0.26005642305445065, -0.3270656472706688, 0.0676046871961773, -0.5860488846893124, 0.35530010343986596, 0.15840928222801254, -0.569208466518085, -0.37344105713802533, 0.1396376764192231, -0.6010997594354812], [0.607876077892606, 0.8180062742650205, 0.7665063153576093, -0.9375524065730862, -0.8938311288069272, -0.7329032480238249, 0.01372603702595998, 0.46684640662818544, 0.483337372301613, -0.9075584678185162, -0.03167357635140777, -0.8385315422358635, -0.21043234842638925, 0.17038648067672368, 0.6371549004839498, -0.9763548958015273, -0.8566934350547892, -0.13975640224230124, 0.6592466839434432, 0.7513823995684263], [0.6980831558030847, -0.0911817623797384, 0.08273133914594544, -0.39159634533224597, 0.44523414094143976, -0.9621397840861208, -0.09662020636333501, -0.01068954443579928, 0.14682459301499895, -0.5351490414378253, 0.5630196791128155, -0.36891512268821924, 0.2962883406163854, 0.20974071775390501, 0.8183093825150831, 0.10782401436958633, 0.10574104222106695, 0.5282527798753671, 0.5220087008437331, -0.6017391214758991], [0.9538139830541188, -0.05746411405274898, -0.7209020531808235, -0.36764410666045655, 0.09934177878674588, -0.02182135389598816, 0.9137859118121441, -0.5309811068814121, 0.03517983801406932, 0.2950142930511648, -0.12082885197065818, -0.30524506108804395, 0.28071406636916163, -0.8089905732948781, 0.15276064382033439, 0.3308724659003548, 0.42777523981850596, 0.40576390589214895, -0.9004788701130482, 0.3344705714015388], [-0.0693297098943455, -0.009060934220963324, 0.46079120811452, 0.8988544136863308, 0.6472490816911118, -0.13260965911386458, -0.4012572947796351, 0.39770390554303403, -0.016430614926178366, 0.28846251059775363, 0.5771468650941902, -0.8805373706724073, 0.18589866981244407, -0.8607118292412475, -0.6357085214052689, -0.1499104793061834, -0.8121189708401806, 0.0974451651156345, 0.6220089756033327, -0.21398747829285303]], [[0.8293536052057602, 0.956311568618468, -0.21735214224312238, 0.41734440424504293, 0.7588177666809297, 0.03397777211795505, -0.4274432798240997, -0.9966485667158347, -0.7465442777596554, 0.3527073603687394, -0.03131124877093483, -0.7616872487506423, -0.034308860414292486, -0.5976598052246436, 0.024020475103902594, 0.9519119672355296, -0.7904437160861708, 0.6727393970713853, 0.6183350730657475, -0.671596209754052], [-0.7346569953967341, -0.9250019694354554, 0.4458761842755703, 0.07706892400597232, 0.04941631915474276, 0.7491886112481376, 0.3420846048695907, 0.35569370843073855, -0.455148578778942, -0.91066064712926, -0.21758391202325345, 0.602250752309774, -0.20621973916112357, 0.4599659311059898, 0.886509761386038, -0.6094935939965596, 0.6233364994522448, -0.2535789596067246, 0.7571880108836713, 0.938848642164489], [-0.969075725425848, 0.7549007231350222, -0.006954020914707648, -0.42840525798449325, -0.779224736183662, 0.041967663419216095, 0.9510667917104083, -0.037099280184428984, 0.8763074046501931, 0.7078231615857731, 0.7786213598444671, -0.4240108746080711, -0.0357961691644344, 0.1627053198174504, 0.8086050967164253, 0.015948199115515482, 0.9972842315606261, 0.7056008568593535, 0.31643010563843954, 0.8291186173502529], [0.6346771874268129, -0.6257384716048107, -0.7170446191360424, -0.6574835211494412, -0.06243975062047835, -0.2576598608045768, -0.9871344294235855, -0.29634651353238795, 0.881908838076993, 0.5408452700708719, -0.39828884160716416, 0.04312294604318123, 0.8178630881699984, -0.6540479911493244, -0.12483938795268967, 0.6531246203374632, -0.5959050968979267, 0.20288843947616475, 0.9607157766713383, -0.6933848215980554], [0.4478902749921869, 0.2007688896498332, -0.34614377887280856, -0.5594781692396498, 0.28103497457491367, -0.3335692219646915, 0.09490252078092021, 0.21242894750432129, -0.6126508165113951, 0.12521469283845588, -0.24805459383743744, -0.6892270702066561, -0.4317329282801168, 0.7590494848723903, 0.43133448979729194, -0.14647915118517219, 0.3769911366838208, -0.5426846231649576, 0.01735789635058893, -0.5823572788350659], [0.748634645431894, 0.7768947556067178, 0.7021105025840486, -0.04281532744987504, 0.26173456719567634, 0.5485662499026844, -0.7738892946731581, -0.8499605981640179, 0.462959894213548, 0.4285390446762203, 0.25619880539791917, -0.5930970477419213, -0.1931130069756808, 0.7402385902268578, 0.029749173970899268, 0.7625380246862838, -0.846124213229964, -0.2816080451549732, 0.4732567564257737, 0.890003213305365], [-0.594457502791732, 0.14823996835055997, -0.16589475088207228, 0.5741673928528592, 0.4117916804984698, -0.6109571975210535, 0.6186770844365865, -0.8224657358006882, -0.24913958846068573, 0.7131957763047452, -0.10048960968314646, 0.6928852964474184, -0.9506693426747375, 0.5233018795279207, 0.0924518651598969, -0.8693631567943041, -0.918484716625978, -0.4633869123469043, 0.9465980172369401, -0.392023600677037], [0.6034241954038655, 0.021391942018194054, -0.17525700804760258, 0.8615213821260468, 0.6706308523033904, -0.6147383266677973, 0.7593246144519206, 0.6977737081058306, 0.18533127609303413, 0.7511149238458215, 0.40463193776144935, -0.12440763875879912, -0.17461978137970413, 0.15740819673008932, -0.5088521088224027, -0.9868765282505483, 0.997067624326609, 0.9447958040443458, 0.471477721280839, 0.8425812394676138], [0.7450765679096523, -0.48502609345055303, -0.6184407187976613, 0.09713487549812538, -0.8023736460759707, -0.6451925831031693, 0.9278292210074797, -0.07721572197085114, -0.8790229617902958, 0.5524611285183187, -0.9056235454206798, -0.6240330930459905, -0.5199002603440077, 0.03644310779063353, -0.8499834792929328, -0.6816520037119911, -0.1930698074607502, -0.027754513632897604, -0.03562909159022731, -0.6754165798186715], [-0.2000256287874258, 0.7925007968767557, 0.502881218809093, 0.14912881368016428, 0.7574535260860717, -0.4225765019289387, -0.26648182974249, -0.9082185509514422, -0.230970680146096, 0.4007796499552294, 0.44951945315634756, 0.8768505076537225, -0.7095065777381226, 0.7893066283577541, 0.47179575738026913, 0.247954548869892, 0.22081757123239387, 0.07811793011755563, -0.7193446479775549, 0.6806328661551915], [-0.38273094136736474, -0.33138121515775154, -0.17484274197571548, 0.7439727468417006, 0.8328155887471946, 0.7058182007784235, 0.19577192782523167, 0.6658877364261835, 0.6199830596495184, -0.6976592217132873, 0.07322097958575147, 0.16411290241946852, 0.22435558346404894, -0.06772371437783065, -0.8075848135521924, 0.3878086960124991, 0.6055915547095325, -0.7920286159618228, 0.26355169471304296, -0.2846661153123464], [-0.805459549862592, 0.48591106278233, -0.06472758140831503, -0.7245634765255167, -0.953381507193154, -0.5998271189219151, -0.3505198230171196, -0.7446554967857024, 0.23485810990646483, -0.6643205464291895, 0.3653060790799807, -0.5339116406750399, 0.3533332950106802, -0.5061833085865932, 0.3497661165419266, 0.760648628469319, -0.9546716261938168, 0.6838284889832746, -0.9589402231369535, -0.170731451565187], [-0.15331210675783247, -0.7121169772812617, -0.9198519557098892, 0.9608053219303161, 0.1482610573379608, -0.3938757741854513, -0.006524183928868776, -0.7468469186300308, -0.9577456842107883, 4.5811578134324904e-05, 0.0940810613516001, -0.15230028077551183, 0.4803153975434924, -0.9256352848974339, -0.5563974127049256, 0.990549871105556, -0.3790986427200125, -0.33333587360349615, -0.557057404014758, -0.12233102549132568], [0.6741987032278405, -0.014618682132477412, 0.33030795613641084, 0.745324864433268, -0.5581051605935006, -0.17274360890098794, -0.40888089882071643, 0.9555814342391225, 0.21079860368288994, 0.16511969387296577, 0.39230099820497344, 0.4930033528349025, 0.2080596072980514, 0.17698469217608204, 0.6532699770842101, 0.7589655512989948, 0.11620460460047499, 0.7759314939184765, 0.31391314647285173, 0.14231089210431502], [0.4037163828073851, -0.14891430023386198, -0.5630710677004456, 0.29223824335356374, -0.3505201574138863, 0.19559442760124846, -0.8884807000535595, 0.10339664592114439, 0.062226604589154855, 0.021240748801694354, -0.6341707923643043, 0.4112671793320428, -0.11017015840493638, 0.044611812208791735, -0.4232307936557891, -0.444040095436778, -0.8523537061935433, 0.9628224061257065, -0.6820858487115167, 0.6052608234944796], [-0.23223104737605005, 0.30576768178985847, -0.7886079632303742, -0.13265299201485092, 0.49865192996608876, 0.8957873263757439, 0.6874495397041043, -0.7838768644963052, -0.9986948247988172, 0.7506561841418096, 0.34780007634077115, 0.5236420358454519, 0.33885675147369976, 0.43859484466796617, 0.7410846884884379, -0.3384074620818731, -0.6506724949100635, 0.23839608476238716, -0.8649011718555724, 0.7756358865038704], [0.6146612481502503, 0.6558477264871527, 0.22092927895076886, 0.3054510571013729, -0.8251123479631837, -0.8064584732603683, -0.4667424600702075, 0.22446523136368257, 0.9880471143602019, 0.9401698006205443, 0.41968777040990823, -0.11906995695941203, 0.06424104343357584, 0.11716635818389598, -0.8116265226594725, -0.18471165433945314, 0.3333195005355334, 0.5874033164913426, -0.9495380525954042, 0.5683645277580616], [-0.7113370275741036, 0.11234789365972042, -0.9335822163550467, 0.041560946046013125, 0.5104954034190061, 0.7514844079938454, 0.6759319546895766, 0.7793355844899934, -0.8376354432756585, -0.7699680476184787, 0.7233816676335065, 0.05728519578286173, -0.9118447241769463, -0.7155412442444593, -0.041491770065775535, 0.8355651572749827, 0.36791105488639686, -0.5825075752473652, 0.9966870469175535, -0.7690126826309529], [-0.7467641857255756, 0.7235915567832238, -0.32878609058535324, 0.33075668627744403, 0.8511123547549242, 0.3069813987831913, 0.5392599208439472, -0.9899098241187345, -0.03751499652909107, 0.28799004438088294, -0.7725275590752771, -0.34334494421119355, -0.25759574100772453, -0.5436390791951216, -0.8160613897479942, 0.4406854786040535, -0.8103105463499376, 0.046081663044137855, -0.13549536733702783, 0.2351730910544212], [0.2845304873710055, -0.5208901296675681, -0.6995746732307335, -0.49388924797318556, 0.2799830151830984, 0.9745460540808395, 0.30931849976686676, -0.6145771590655915, -0.40098055797200516, -0.25242968211017236, -0.021466252696488164, -0.16909022594359158, -0.4877121967923015, -0.08509956611541702, 0.3536985178024643, 0.4204313642119837, 0.6123382314723003, 0.8206396822093327, 0.3435230895024617, 0.6502248735587737]], [[-0.28635949274097805, -0.0066447969628014025, 0.2074501944173195, -0.9161399521500417, 0.1805968279419503], [0.6384946381045924, -0.1856432539017665, 0.5722748913978846, 0.8602839009198928, 0.7359922877424887], [-0.6129791788938828, 0.15941814768156615, 0.023065899192964423, 0.315497486895447, 0.30646901575803165], [-0.6193424877636302, 0.01123612586935585, -0.15047392736026355, 0.09349631308035655, -0.6501473841161933], [-0.704337577804115, -0.7312630050036417, 0.8115584733201702, -0.16457028198080637, 0.9136855413715228], [-0.6361650266999015, -0.2933568648654319, -0.2472925741144063, -0.393554804890603, -0.27815445627419133], [-0.9739548372008358, 0.4525474330363508, -0.11947695708273498, 0.2698634254863035, 0.1674762624139683], [0.053258626600392045, 0.4299886849946917, 0.8986892830330135, 0.8292436713306077, -0.3537334193696231], [-0.22276029541047326, 0.11801744855058893, -0.5265109859479604, -0.8683178644211631, -0.5369192980959747], [-0.9269754576530935, -0.5664439931620184, -0.8073979861391545, -0.6835049263552437, -0.16445918900868262], [0.009128878992843648, -0.3601023211710068, -0.5229786350505108, -0.9808187210635839, -0.898571154374701], [-0.17838923168295784, 0.16862479556924148, 0.7313352318973194, -0.903584498519062, -0.9805741690449372], [-0.055097569497631005, -0.4291129387228172, 0.013038013342002053, -0.31485372041533277, -0.4242188233611093], [0.5197065550292239, -0.061626224662626905, 0.8801515896348782, 0.5553174550098507, -0.14351875266027303], [0.4745874938041017, -0.5966048405990227, -0.17612996993977803, 0.45986957558167707, 0.08061321478406769], [-0.16106792315027096, -0.4918147963288044, -0.382552879542726, -0.5797888888813052, 0.5096781539409916], [-0.8872415985586637, -0.23925524889545358, -0.8070320628009457, -0.1905429363311426, -0.9370748497563666], [-0.6247950701493976, 0.6263529073219147, 0.7255501781732574, -0.5368326855039498, 0.2950979465312342], [-0.049292930418780356, 0.22746937828967373, -0.062270412666510566, -0.5338221911878527, 0.9842362383278656], [0.8133924559909904, -0.11753455128554413, 0.28899680435271735, -0.8685393364896503, 0.15617643839792317]]], "biases": [[[0.7037053270207803, 0.6374136718251162, -0.42003878705258857, -0.45989548945910275, 0.4887365609677541, 0.21230286545499544, -0.2667295571358004, 0.13223583969869468, -0.15196631129995986, 0.6806710939879737, 0.17590081619831044, -0.29086235776895153, -0.7013595608982099, -0.8873390694561853, 0.5395207478214143, 0.7211978437902509, 0.6032840472837024, 0.7823944779786187, 0.6830677125790805, 0.2296004310744444]], [[-0.05904144174685921, -0.8149131111769397, 0.6007868807708814, -0.9751030693413887, 0.45086692472574663, 0.9957919307039567, 0.28483858408178286, -0.7801915565809814, -0.8703576426838207, -0.6595643728016809, -0.06999870201238867, 0.4789351027270172, 0.33102260161553776, 0.5902423459055128, -0.18888086632829792, -0.5051352517377794, 0.012710714728290995, -0.20593455865612964, 0.7880014470944088, -0.9355893638102142]], [[0.509955240896341, 0.5117032326821602, 0.9003179755202744, 0.14864836090471423, 0.34552632774218006]]]}