{"weights": [[[-0.5476891685085887, 0.9548183059665676, -0.8867266832378955, -0.8142376624591898, 0.483846009340265, -0.07293843823361512, 0.03625980465497736, 0.981202056689247, 0.5783982549921338, 0.6356054325180636, -0.48025962313844617, -0.9091138327427852, 0.1463462145091592, 0.8953497559504668, -0.9476669768717167, -0.9418088224076753, -0.6955299732918172, 0.17166284679742394, -0.794601934246852, -0.63190159702044], [-0.2616338345731539, 0.15118499626148263, 0.9528908686995312, 0.8063627810119369, -0.3424055491107385, 0.20351402936231033, -0.07722940744280993, 0.2197460001303888, -0.7665534460138488, 0.6152458481242773, -0.2326294079800848, 0.6272523242010952, 0.9226422445775324, -0.6700476091271739, 0.3640660537070586, 0.9604781488474572, -0.8807475336398489, -0.14128459972958196, -0.5058783029635636, -0.9267457903700018], [-0.45119777734794697, 0.4998687553577448, -0.38335300476142176, 0.8684184699287962, 0.3611133029683644, -0.2798747755294142, -0.08911905716830915, 0.42528864279093526, -0.8369659603872559, -0.6535542338081688, 0.299175819965517, -0.4075136728693949, -0.3282564499789753, 0.6200306505366111, -0.40413259189247475, -0.4185656845566894, 0.7703020692344618, -0.6079128801676243, -0.040663668274872, 0.16223406739857027], [0.47096148315830777, 0.9830902240677353, 0.15323980321838682, -0.2968665692761925, 0.04915261403638782, -0.7840483264288536, 0.1947555872116602, -0.3841842991683593, -0.5818335829191084, 0.36301777284788095, 0.2636362957968652, 0.7070334097679929, -0.8211072389448242, -0.41698504404482617, -0.8903556706202205, 0.7814156949769016, -0.9762044200335396, -0.42280903759587773, 0.5229593715242813, -0.6851075109135414], [-0.31026555751578555, -0.5954824108616645, 0.19676382772365097, 0.28614770968662495, 0.45683835881733725, 0.8804253300084639, 0.9012775707864329, -0.27186007367945453, -0.594002681808659, -0.9871496731959237, -0.7161472853307111, -0.18094082622504026, -0.9990109743275348, -0.1375983409197723, -0.8390951183119855, 0.5001159764364944, -0.6286396423958895, -0.2525387186274215, -0.6243320760574032, -0.13706704816624704], [0.0953837352767708, -0.5826699133281423, 0.2955091076983558, -0.09492463658840067, -0.8208660852443712, 0.28796543008630815, -0.05318515835747273, 0.573725980998731, -0.25808200898734723, 0.44034975992901493, -0.8191600553985867, 0.9595050149735924, 0.6541826983283499, -0.7928713970015495, 0.8305970749474951, 0.4800206859760019, -0.24619324956274524, 0.9570178189697167, 0.9733509075515965, 0.23587793238151056], [0.15402041950469436, 0.017822008979194726, 0.36291339878336726, -0.8319113988510964, -0.3226487805279703, -0.16816882186424453, 0.7518442873223417, -0.2981287427509829, -0.5649284497981009, 0.6060794786014689, 0.9812510764168307, -0.5267086888355996, 0.8840510576177143, -0.10485830865602819, -0.20526664973756104, -0.24497205102089392, -0.3175826409345215, -0.138931156303018, 0.6038557184535462, 0.8645726813601027], [-0.39649440730634145, -0.5433370268743933, 0.45833626583292286, -0.1951632227140554, -0.47035982261438813, -0.9748475664195688, 0.6495285639526762, -0.8603290293465125, 0.6323490402148655, 0.13001306627149, 0.39242312109676014, 0.1386251886081029, 0.2396831433032709, 0.25854964128625335, 0.6329223893222313, 0.2801720646105055, -0.03311876208524778, 0.5880988760032315, -0.896938819382451, 0.9890581270008176], [0.7863794063069334, -0.0054535824565355995, -0.3583855679159662, 0.26095054791002226, 0.8270009338705735, -0.5208813146722855, 0.3548289416447439, -0.7907002024570824, -0.320025774466667, 0.5472846850736861, 0.3282438145428468, -0.6382991008456138, 0.15958948662682437, -0.18751748960741854, -0.04008549464682587, 0.5052593199138122, 0.9851582445022717, 0.6353429798818129, -0.1976036622323849, 0.9478866517074249], [0.6107269022542325, 0.8638372655203901, -0.11790841099747307, 0.626124270764078, -0.49723137243117965, 0.2931961200162865, 0.49122699448147444, 0.19716212221023688, -0.8817435448260504, 0.4525252276757321, 0.2735677892280224, 0.3500018274238774, 0.7669285048805699, -0.9390802991932807, -0.37012996765723294, -0.5274001651128155, -0.28608887942784933, 0.7607759737424697, 0.9237539979124298, 0.15112817077745255], [-0.15412381584454815, -0.2789756095435354, -0.8184840898350483, 0.7553413977465424, -0.5169390572172401, -0.45698875021442875, -0.6171652510534114, -0.04400750347606697, -0.6504700447551093, -0.9965408146734951, -0.2640668305825222, 0.6967044304500747, -0.1057682642556439, -0.8197845257107752, 0.5489090191736987, 0.6302156296080201, -0.37356830273259933, 0.7978428698033009, 0.3450876241188827, -0.22633224418161446], [-0.4942426510081708, 0.5546359345560614, 0.2491119613259145, 0.33657959112006286, -0.9927425216205745, -0.929145825863152, -0.7684120398463081, 0.3046919896729974, 0.9369777426524057, 0.4102352788648733, -0.047636209349386505, -0.23166092058181453, 0.506499509419027, 0.9192145397136495, -0.4047185743267836, -0.8685069405329453, -0.0069067863605878355, -0.4384295975891701, 0.994833335491633, -0.9582202015373817], [0.7531021311210884, 0.6338786244082539, -0.3545985228119015, 0.7599061146628507, 0.5818030766713573, 0.2732936204722973, -0.5967575800888678, 0.7674192860184645, 0.48544961097777994, -0.5341609188432486, -0.363828684778716, -0.44856485488151865, -0.2865932873635557, 0.9399597412235463, -0.8231717110264669, -0.30498864251954827, 0.33327217062000836, 0.37430400753348336, -0.34938495756364274, -0.8511727094037362], [-0.15632094875886615, -0.9129415455002181, 0.24292178562973765, 0.6199518836247893, -0.6138652816297421, 0.7369470612976528, -0.2967500177875302, -0.7687692398139319, -0.04207791774410219, 0.4533334902713806, 0.2814804813544305, 0.48247037483069577, 0.5785560375907706, 0.9784444987488796, 0.600739933867785, -0.4314528220948586, -0.6973925554732969, -0.4255412591001142, -0.8790853612217204, 0.417606134962369]], [[0.9243424612815867, 0.5442417952513505, -0.26381630827276337, 0.6764134621107547, -0.5592223165713366, 0.5186322575129272, -0.5829027490305032, 0.017263647045060004, 0.6764696332294489, -0.3484909007974122, 0.6728636381313373, -0.2821392874702233, -0.6283253709582952, 0.1274487962774138, 0.33007669206065837, -0.8537943013584053, -0.4005356498995656, 0.4883806374925832, -0.4236441855831663, 0.9957763973111298], [-0.9476844615908182, -0.682556707340831, 0.8587379321739788, 0.7984801970617139, -0.8055891757164377, 0.2617992171107173, -0.6997611740469691, 0.5934309561343485, -0.40353836684724986, -0.8266821768137085, -0.6925992224832349, -0.4341320792222967, -0.9846759715010132, -0.28412856497857364, 0.6790185118384322, -0.6729358982457283, -0.6556430698537976, 0.23505812900638112, -0.1828779170211554, -0.4980690016379137], [-0.040064550307855384, 0.6833431194973414, -0.4734917369967129, 0.0324393443368467, -0.8959247629816856, -0.8329037993667474, -0.0829576186148655, 0.3403039449662477, 0.9928107389613505, -0.35460974070038254, 0.2785271909648144, -0.5225881368945429, -0.8828994309357878, 0.9541638670651427, -0.935699861839703, -0.3944257259918489, -0.6915506523308628, 0.836943831356769, -0.8707603134882036, -0.1864778057031231], [-0.8781126797159622, 0.7132726563939209, -0.2797172799209069, 0.7655529248088606, 0.9265840395857359, -0.3219103392795952, -0.23766425003570957, 0.67242516481403, -0.153202940797738, -0.15694281276285027, 0.06201484647841915, -0.7710466201698336, -0.4222105604004023, 0.1579555640455852, -0.619056583063724, 0.9276938366319567, 0.3130275971377574, 0.4333923196816345, -0.7532082640273654, -0.002823974248365335], [0.2860128833494078, -0.6156082272612331, 0.05133941101093198, -0.001658876240905327, -0.21900510396398598, 0.5752203058869445, 0.29073900342561143, 0.7872811646148741, -0.012108326009523163, -0.6617286916072065, -0.8123794630773145, -0.6304817985698914, 0.07429761818707248, -0.6173772346653223, 0.8375123362020198, 0.7673115188781825, 0.7120909466421541, 0.16743370792228585, -0.7904861858067094, -0.11544492940133866], [-0.01275739497828221, 0.3431556677783927, -0.339742642398166, 0.855031097939865, -0.29023375676242624, 0.8250151604674012, 0.9624579519669287, -0.978626698081539, -0.06662668413579165, -0.2885809586721928, 0.9000866816679283, -0.6130196609515981, 0.49847512607961364, -0.9402320292926525, -0.6110177224178295, 0.16372864091591377, -0.6153193691206402, 0.8148815380743586, -0.039954203083528705, -0.17070770166449112], [0.3424662677092494, 0.7069102801216072, -0.2055999106850115, 0.2115012142192969, -0.7757925778485653, 0.7247242669150595, -0.4132134098799085, -0.9417711967993798, -0.8129076501751473, 0.6722619322594372, 0.7625647628740342, -0.036847441056016006, 0.5977298231680261, -0.39023246816509105, -0.16875679377477115, 0.07614846249174034, -0.9322290045316695, -0.12135159783767757, 0.22282665842731197, -0.6624645361502086], [0.42731343486019124, 0.1647284919901557, -0.22204332911591496, 0.7330586588989423, -0.7552934924480412, -0.8279381007801894, -0.29941220454346906, -0.24125668735167993, 0.0171402700185479, 0.14108789234933639, -0.6259804119096319, -0.3031582934419217, 0.1646513949778048, -0.14975358148213158, -0.7398357877688917, -0.16347799243305094, 0.7423640577001984, 0.9340003908434289, 0.6851287643338799, 0.6573205938004765], [-0.14330527309239116, 0.7728749564233628, -0.22058072405257168, -0.8412145928557835, -0.9760357801175055, 0.3098999091124921, 0.19274299317865462, 0.2542929670685763, 0.7228250482030434, -0.3584114825748197, 0.1635277320121864, 0.20616054329017097, -0.3818521587575936, -0.6183007335033055, -0.6173556589684555, 0.2673592659223816, 0.5689536525494945, -0.20926534098809024, 0.3930641444983156, 0.45599299993215614], [-0.07056098438144942, -0.752345585336778, -0.615738776473048, -0.1749934051346096, -0.0415047524537, 0.5455982335520775, 0.7087177650962768, -0.0744718322086022, -0.022782675431820776, -0.04160082307573498, 0.8765199524045584, 0.17935999104804234, 0.9804609456188664, 0.7759288956498986, 0.2720509489512448, 0.4305676988572411, -0.2898582778862251, 0.5940960047390498, -0.9086761470584506, -0.7347307768497175], [0.35626315823727506, -0.013516929585599469, 0.08130640666201683, -0.6968391602762816, 0.7558464800156965, -0.10771696659224883, -0.20857578937230992, 0.6072336694928677, 0.6251400138031735, 0.3260342608640352, -0.420721321685652, 0.8522193229806656, -0.583843004553904, 0.7029574486034551, -0.3547536478254516, 0.5390644290733688, -0.8163903456871628, -0.34067023444415145, -0.5887504703778292, -0.9232832725371083], [-0.49256902885456255, -0.6296920112365016, 0.048636987944931986, 0.6164489808405942, 0.7220991075160739, -0.86018793914335, -0.687814429219018, -0.11997183407562395, 0.9042732835303153, 0.1383769211928425, -0.7889597122908545, 0.9538532669567699, 0.1984789352958929, 0.8368579342808957, 0.9711213806352677, 0.5775076246921171, -0.30835225252593723, 0.8553977325627855, -0.6673966575412702, 0.650452131919385], [-0.9507696356636453, -0.815718574276594, 0.07187372949045523, 0.3909763691289092, -0.9370264600168647, -0.5916146623694369, 0.8856501289949943, 0.9174690494569802, 0.43823327146745417, 0.7485471515191153, -0.873568218662589, 0.4494646778158038, -0.6290904069159584, -0.9747759110268286, 0.02432933676268556, 0.6823624587596437, -0.16571221190471896, 0.5575496342860744, -0.47440979096198177, -0.5714193065479909], [0.23141762173333613, -0.5103711456808473, -0.14197098532563746, 0.9964163528571233, 0.3591931089062579, -0.7282357944838125, 0.8042154698970165, 0.6339240980705747, -0.7389884533684621, -0.1978832818013989, -0.5137512506494895, -0.5336094500697284, 0.8308002109492691, 0.46844534786830305, 0.89778513536248, 0.9670593761962578, -0.8488385266968239, -0.26842052197654787, 0.8462031726683561, -0.10589698486923549], [0.8225852561823124, 0.2749012009233922, 0.5689633990523233, -0.5518779744044784, 0.12319961030803817, 0.347414129866636, 0.08289927767464311, -0.9063819661138204, 0.9127857606555243, -0.3396592831287564, -0.08018656019323545, -0.0752721054217631, -0.6013742344488455, -0.409234852850332, -0.1602344742485109, 0.9717693588123066, -0.24841361366085168, -0.56659991787173, 0.842453732228849, 0.9816406147657935], [0.8248691270815565, 0.1858738387339136, 0.7131611798438118, -0.5868585678509823, 0.4910631750505665, -0.26335600900689915, -0.257680579380845, -0.7346726690793282, 0.3901026612752472, -0.04354619769802537, 0.052706387801413124, 0.10631942204765821, 0.28671735950355837, -0.6634847920540246, 0.41456049763891234, -0.007706072309720868, -0.6327734871241206, 0.5397070319929349, 0.3910969629364638, -0.3438959627256746], [-0.31172919169480573, 0.5966682838720081, 0.6543013694217814, 0.3494341668659131, -0.5367782144267348, -0.8698078297623191, 0.7849273034183253, -0.5356814260253107, 0.6302087752866257, -0.03619129671559418, -0.04484283852048465, -0.6167230980551368, 0.12457816953006029, -0.5306999344356378, 0.5593396356262383, 0.5515112283038666, 0.6446629993786395, -0.2782955892595629, 0.24695024610042116, 0.9742331580065076], [0.3515400058839677, 0.34357679610227687, 0.9911868752302144, 0.006664408728308757, -0.5987037174348175, 0.6930885739654231, 0.9054800312765869, -0.9125286825784811, -0.0904736510859987, -0.36168123511413786, -0.42809407905019836, -0.5101781427768162, -0.40880844725869947, 0.15289999944552468, 0.6774448941879372, 0.9164277774729508, -0.35389138834977873, -0.25394442519706883, -0.8782612455118832, 0.13364414308521755], [0.914472136817311, 0.5790211935118581, -0.09344246446171178, 0.4148358650275379, -0.1913411139640151, 0.8913502230970101, -0.14325550278998378, 0.6131476646084839, 0.06354829067971646, 0.938965222079132, -0.9353088555950895, -0.7982222942800863, -0.996429170930067, 0.3444113254424477, -0.8993031981241113, -0.9522132022294232, -0.10111760048513774, -0.04627944002260875, 0.5550608683352452, 0.6722185000571805], [0.10202369390431998, -0.253487880941174, 0.7590598764860852, -0.47532754194373705, 0.4574489471900425, 0.7636678316996031, 0.23217069405844093, 0.5773238020379685, -0.5375628647144699, 0.6840517717701131, -0.9361086731224253, -0.6348938841037235, 0.47567309706562777, 0.34079422029841355, 0.1300502240352559, -0.48160431886825483, 0.7907085345550324, 0.41319481161411753, -0.3368034518357004, -0.9162421579692754]], [[-0.3386426198732071, 0.3925901039186903, -0.4232670030778538], [0.7837884461944225, 0.3591951098810986, -0.18643145774218284], [-0.8825991909300528, -0.8080018204897523, -0.6342377355364812], [0.5814859627914932, -0.2739665612163107, -0.979391559120099], [0.3899465511660263, -0.4859216825393453, -0.21295101107944103], [-0.25442276409324194, 0.3305166098456518, 0.8644793432715054], [-0.8900207455961036, -0.3747785480467343, -0.8944208403317244], [0.9194191759260404, 0.10590057947554499, -0.7183228810648714], [-0.9471101877799326, -0.42723667723016834, -0.7127904411430681], [-0.4015044876214, -0.4905485338280948, -0.08457746240803043], [-0.7716884691156722, 0.08246991155297456, 0.008934981025312094], [-0.4683374288378406, -0.31001150247497455, 0.14331150560283], [0.7782638038837064, -0.0066657121168700595, 0.12199391118351377], [-0.011827761208884846, -0.660486812732282, 0.29717035836964323], [0.19745921574638192, 0.9268287308775389, -0.6917267443352739], [-0.5895057686681566, -0.926939876726379, -0.5008215518947035], [0.8534697431094727, 0.8659814623906172, 0.7243163952030172], [0.19267494336378044, -0.2678691746341879, -0.740221631042794], [-0.22157601731780785, -0.6519151161322878, -0.7993326222789869], [0.3274556355780889, -0.24320208165265544, -0.36709787633339963]]], "biases": [[[0.12410062066060479, 0.4890478652368191, -0.08861853162075639, 0.1705529729141153, -0.3946482040650934, 0.8257960983286934, 0.004442968517395451, 0.6564037346565559, 0.771913036201423, -0.9619290156128044, -0.20871635029230728, 0.44964218815241797, -0.18157267976606173, -0.8360404901802723, 0.2033100738191358, -0.6539610157594431, 0.04224558706843373, 0.9167825030009102, 0.6476977882701551, -0.5467041014096854]], [[0.9965224554690104, 0.09801041044850534, 0.992082554387216, -0.45133946977189066, -0.31379873423553484, -0.8423616491525863, 0.5255664796982726, 0.10307366570682275, 0.7540003063409373, -0.045932862444599154, -0.2567748771088856, 0.9415254953111329, -0.8113059063851524, -0.8229838743860358, 0.16975568826409204, -0.7747108864013588, 0.14671337841505228, 0.18487948912332275, -0.5360474350166551, -0.04407506030906072]], [[-0.35850506797011117, 0.7734167089168946, 0.5538209052768126]]]}