{"weights": [[[-0.17441864508667781, 0.8450685143390329, 0.25693626021846727, -0.8830748414698384, 0.7013133732823558, 0.8506956955511848, 0.018999987732043255, -0.3390062389333879, 0.9707915797559628, 0.3282789375737374, 0.7023181209114773, 0.3214780317099035, 0.12846241646828038, 0.6880477895466615, -0.21098325610833069, -0.7507579343399684, 0.26541424876193287, -0.5324465499300752, -0.8135419619724886, -0.5131162156037874], [0.48538234188205465, -0.2820492703282549, 0.8028748594860164, 0.45926781617265156, -0.47464735457817886, 0.570911871511345, -0.14605329014979884, -0.6677038472551207, -0.41059092602178215, -0.3235745033327069, -0.6807048247176855, 0.2881473376045023, -0.5779919965686582, 0.8313647253724572, -0.5641719420766695, 0.16210996868340577, 0.9684846724038987, 0.7171334861358178, -0.2969296590942154, 0.3014596596850392], [0.781197964795896, 0.0836723563441093, 0.21723676830485972, -0.07551473632834793, -0.8851436751814994, 0.9594712597301744, 0.561871357979723, -0.5775761474780317, -0.38140829715631996, 0.9272210770005214, -0.23116034320767032, 0.2366644161328173, 0.31112924530926445, -0.5258983966833883, -0.4078633836843353, 0.6139028462581786, -0.245616632670846, -0.13610041707239962, -0.07278598070923259, 0.6550566669642715], [-0.6134451694941343, -0.9444470426352947, -0.7006630341074209, 0.5959931567638834, -0.46614503801094487, -0.33880817919912953, -0.5732662789127481, 0.27677718988629074, 0.854351479639123, 0.9299024061075121, -0.10832167899173673, 0.6049589063627185, -0.002076366375976413, -0.18208455427556114, -0.8057107805781771, -0.16881020978281103, -0.9456226797399556, 0.7833349137208967, 0.6892395522055641, 0.6411106109643818], [-0.1154918323919325, -0.3876521721890027, 0.8808743041652698, -0.25170156902153296, -0.714301803764601, -0.0073375799073576164, -0.8871171202244816, 0.9372599169676872, -0.9104070486695344, -0.6060050960647356, -0.24082380713548468, -0.5751916594397408, -0.7985277962424362, -0.9981831827909033, 0.5255887060883231, 0.1157084772598107, -0.5138074553903347, -0.016621320983349452, -0.21779543353204334, 0.4654778044702985], [0.4651801137765559, 0.11249691571262477, 0.28005998511858343, -0.8704089618987936, 0.003829678266410008, 0.8106589600412213, 0.9779167989831985, -0.2726286235832944, 0.21195916040999396, 0.038608606959227965, -0.48973031895563346, -0.058515169731020666, 0.6725402076440385, 0.8846246325148444, -0.9142157501341566, -0.6843957332426074, 0.4455559650058598, -0.8729997715760864, -0.925022909156491, 0.02639892515301523], [0.8021179155423641, 0.40455739450740125, 0.05315509135108454, -0.27516573334627603, -0.6468823595103075, 0.38578506415243563, -0.6446047003032369, -0.7219497493820306, -0.970386964820269, -0.8925032262652475, -0.6982105157178848, -0.6035667335067691, -0.228328248129408, 0.21803091817051, 0.5250130092554741, -0.27494938915857436, -0.049399490867463314, 0.8126249592612618, -0.10674769080054824, -0.6730953802502941], [0.3761233264874866, 0.15511002804558527, 0.7804720324413466, -0.9991536715399967, -0.29475717765889997, -0.1926279300416558, 0.8316682147590029, 0.9091423935999723, -0.742556148751734, 0.1519070164452223, -0.36093624837965854, 0.7699381910658583, 0.7808990014891455, -0.8793177699948613, 0.6315833932467947, -0.9400614200047148, -0.581295912793721, 0.24712672514492562, -0.48790498791126957, -0.5750365404353195], [-0.23057925699905124, 0.5189959471190462, -0.5641520885018005, -0.5660897161435083, -0.8341587377888022, -0.03933104314874569, -0.4824677514432836, 0.6091254613869634, 0.7987664942011641, 0.6738941350549446, -0.5670094985344147, 0.10190377439649878, -0.9209286989309389, 0.3836161566282459, -0.9723192992266432, -0.9651359722752384, -0.6996321297765249, 0.885389223449282, 0.44393667961982164, -0.9718335420817725], [-0.30585160116207, 0.6114570037156812, 0.2757549938510453, -0.17540888916092268, -0.16733396737363515, -0.20634773455344968, 0.031113244587395172, 0.5932084948814627, -0.8165223812858253, 0.9100105421065368, -0.28857876569144447, 0.6865917155882555, -0.5721132609421644, 0.16743014621653063, -0.8621170828573792, -0.8474946133695334, 0.4615792916403134, 0.17464864878048392, -0.7363216808445943, 0.726690901946095], [0.9992906377302759, -0.508186633476921, 0.12454262023584461, 0.915361869135733, -0.8817777040773347, -0.031373852013293124, 0.3725109120442749, 0.9924114358467644, 0.003930596259000607, 0.7166270965691262, -0.7090703295087546, -0.2905529093423076, 0.4343801063358246, -0.7333750290673269, 0.1460964301963792, 0.390502647947661, 0.5739358322273005, -0.47938329454477846, 0.6609933501706122, 0.29994061547504747], [-0.5595094875864042, -0.11709371708113281, -0.9358438119284609, 0.895100503864483, 0.7987082828255356, 0.3675107535441533, 0.09728878470335123, 0.6559965601096283, 0.5206423902990363, -0.8125941675063055, 0.007257311103443964, -0.31987536559854823, -0.2941883383925499, -0.8934389510074412, -0.8352502047096895, -0.2295474590237483, 0.6373631149905772, -0.7294255741475051, 0.862108930220558, -0.4946683597124817], [-0.3821375876952853, -0.19208235617219627, -0.007068829391465359, -0.12841403285271924, 0.6122874936395812, -0.6808095325482164, 0.6786518451556272, 0.39204047967524924, -0.35291901924652946, 0.3493178113316737, -0.26252377121162884, 0.6503454558004469, 0.9992591316779551, -0.6241921735480132, 0.5768858573692133, -0.10113291485762654, 0.7019491939985341, -0.36441624953082696, -0.9714246956459114, -0.6940382926391091], [-0.4053550550839524, 0.4941116394279714, 0.6849153214369015, 0.49163974007038047, 0.9536368118377363, 0.0650829740357497, -0.8049162102823135, 0.41407183810465664, 0.921805007189167, 0.2995380844792972, -0.048069163532533654, -0.8277590422872625, 0.5388358997125982, 0.8191212874554603, 0.8277956578345014, -0.6849993831629373, -0.8801227008819967, 0.8174144098708933, 0.24469888787995808, -0.4434351454954413]], [[-0.827515579063552, -0.8821702173794723, -0.542548682170223, 0.1962425425399612, -0.5286565448684732, 0.9504099927344429, 0.9352860612542204, 0.5526413551039262, -0.3979761036083751, 0.09180953771825706, 0.5143651530933879, 0.7040035554338131, -0.041112884788396586, 0.06397809566742896, -0.1941928091470808, -0.7599677085492338, 0.6869017381127334, -0.4669687426176632, 0.09103097985042785, -0.5290033898669593], [-0.4905447342509135, 0.9197025922229707, -0.573175391343058, 0.6283674397817094, 0.31940926572073214, -0.43929391819690133, -0.6025052025318645, -0.42893913275593176, 0.7304918117869534, 0.020769269353737352, -0.6598219151834142, -0.9010226025308079, 0.19330424530244872, -0.06617108493082968, 0.2187736373998177, 0.9857316435792047, -0.6669092380565838, 0.3583540823082185, 0.0413109645184766, 0.09992331990398684], [-0.23552440819676912, -0.8127541695901248, 0.7407896314855815, 0.93740240800004, 0.7344396041227548, -0.2138658059423093, 0.5004786788768973, 0.731011382711821, -0.5680022204233426, -0.8824960890229723, -0.3564819491490625, -0.8572718329342031, 0.006654584853892809, -0.1980032005492831, -0.08571791971355869, -0.6720199679405172, 0.7255364030208835, -0.8401321396430885, 0.27741275919844166, 0.5300218144211424], [0.4454895742861469, -0.06299049744125718, 0.5200710581957171, -0.6945348309295822, 0.607141786668425, -0.6422136298895742, 0.1491081052804304, -0.8167425654291176, -0.4861673523824459, -0.7832629429968638, -0.7472477359197323, 0.37736005599819133, 0.9932811441205447, 0.2458509169897911, -0.7386877312807572, 0.5553618061877252, -0.9465431786824254, 0.9296280607838168, 0.7515799712868325, 0.6561425558415741], [0.5688094852538697, -0.5890136375484167, 0.265499490994497, 0.346896575720556, -0.1496054601985377, -0.5536182747740674, -0.741896183489476, -0.22580979915681598, 0.48583701631602083, 0.6972612530686193, -0.42856748723363736, -0.4341697000491751, 0.91704744694702, -0.4043356671634277, -0.6642947092088201, 0.8383561931188068, -0.3530767317551562, -0.588837176704206, 0.5778121962259626, -0.5098680942455855], [-0.21373969139753868, -0.37139859525195895, 0.2773783085565482, -0.7992097012709984, 0.30854839492035, -0.597776119646986, -0.12797492062568194, 0.4602507351268541, -0.04068654142497885, 0.5091176344759747, -0.8939114279028484, 0.1377593820432239, 0.1891367440656062, 0.17861685624457024, -0.8284663829233834, -0.8179155694796874, -0.6057732926608332, -0.8141184697053032, 0.12278959647288223, 0.9801410887026158], [-0.0541074349269135, -0.4507882966232237, -0.686165155205881, -0.7292734119202715, 0.49616784099198585, 0.616000981178632, 0.9517581196845024, -0.2111728503172181, -0.9384297748044512, -0.3477904814484689, 0.6841945942819734, 0.01432402146982259, -0.5273241840364671, -0.48942873406942633, -0.8125005241057006, -0.5731008050434849, -0.30514180743906283, -0.9588174524633957, -0.7244823175673587, -0.5743884731641957], [0.260024377668308, 0.07778999656611152, -0.5580399119430746, 0.3617580858489622, 0.2948642058911588, -0.3281244683357867, 0.5156275166478788, 0.028571678519935917, 0.34884023336835623, -0.4567194949549489, -0.4644219309215143, 0.5947805587292345, -0.04547703378480139, -0.6708071841552672, -0.9124340368052921, 0.8653903547651656, 0.9562420914380556, -0.05339718908841373, -0.4860097961528205, -0.10127782335692159], [0.9756051203121408, 0.3933703635443053, 0.41030758210520824, -0.4472088285307012, -0.85083372170461, 0.31540229473864323, -0.28926467430888225, 0.757952774936199, -0.38596113982769253, 0.5697971049813528, 0.4410682304018745, -0.8105592294152393, 0.8651220051068484, -0.17078371045200402, -0.46254819869657626, 0.3228977002315112, 0.8431980085310109, -0.9797169271895556, -0.708411228334298, 0.07049390071664119], [-0.7777625051036869, -0.5962761261957077, -0.27730030828136987, -0.32572680662284137, -0.21597197212801378, -0.6878863877226584, -0.04241783752544759, -0.29675037453258657, -0.7998374837949447, -0.2207275929410486, -0.6475069283664812, 0.3758250819694451, -0.9032528618409756, -0.9417729575589726, -0.14973852335684468, 0.8219618903848249, -0.4131539222866847, -0.4671318822612023, 0.7691495123933012, 0.7618274882646279], [0.30411908607219496, 0.5133204104371516, -0.8688318808237216, 0.911694320385265, -0.2689084135842572, 0.3632505321364943, 0.011732112091357605, 0.9990940380317395, 0.39164373969336963, -0.9229716645119279, -0.21867937499160384, 0.22031082344266806, 0.25113916413003645, -0.9252849834509396, -0.4454360127453134, -0.8173439309413164, 0.8582855711051784, 0.9683566226606661, 0.7739801821140002, 0.7143186061716171], [-0.19204130603114145, 0.13591169673240433, -0.3869804714745786, -0.9333275893980117, 0.2969145447114776, -0.4115011047595778, -0.9922402607536027, 0.666151147411097, -0.4198804975698809, -0.3911789980204432, 0.3672184563353158, 0.9887633080903593, 0.699862091033548, 0.17207706806160594, -0.43094516223380674, -0.2774771979796189, -0.9172783820480337, -0.22166643720297596, -0.7848067517997206, -0.685340679902265], [0.8237547673997268, -0.3418831064044545, 0.2093463806742908, -0.384227136856496, 0.05528438976333394, 0.9583970948679061, 0.25700816366097534, -0.45046745133481414, -0.5448351934923434, -0.46630562811396103, -0.5492143026962419, -0.6150355332001525, -0.4274418325767395, 0.0227375891690742, 0.2737630133344193, -0.266771939706719, 0.43850159879849127, -0.6749766307221574, -0.28760426816855755, 0.23011847610387592], [0.5949053857317554, 0.40064559163822056, -0.6853258630226049, -0.3135149994402844, -0.7333797790854057, -0.932484854287569, 0.5648886152767731, -0.4650716707758422, -0.5234173002128504, 0.47124504542979717, 0.6550162226542395, 0.6139069274265969, 0.4825220853860208, -0.31423773700537505, -0.5638440460251759, -0.9324376461288251, 0.6887116491397911, 0.15284460204225225, -0.44432127929448706, 0.05323288214526811], [0.00417272381214806, 0.09628627712612059, 0.012900089219782362, -0.2748440729511996, 0.08094677360456304, -0.11036954552385736, -0.2967779058917437, -0.21312450380494896, 0.8092168038741228, 0.8600123756589573, -0.6951630700318348, -0.5774050386464542, 0.2507571290682691, -0.611892371542522, -0.4561149456332292, -0.3577480179312287, 0.12534352884506506, -0.4294530647387662, 0.09237172964067097, 0.8210176548324748], [-0.978557903598293, -0.9780448265412982, -0.36625120158053126, -0.5826222788724771, 0.5482265646521258, 0.46320870213733056, -0.5628619912776123, -0.0882190779488925, -0.9158335179842958, 0.24938589998443894, 0.22349978739650744, -0.8903643223479996, 0.9077112242734973, 0.36133869696959997, 0.7226033272200134, 0.7191689566858506, -0.7633318131378888, 0.6590165712630682, -0.578571079411472, -0.004088502778751613], [-0.4067569546897183, 0.4989004808368618, 0.30210194845613714, -0.151237359484373, -0.7643220524961052, -0.042606004234289285, -0.6119256236080468, 0.18189135599232942, -0.03344820879606303, -0.69008874186928, 0.848322721928267, 0.16416112034291563, 0.5059581996585989, -0.5030914237983586, 0.5404736057845931, -0.9817182942015812, -0.8670395870156113, 0.08025477431076733, -0.13417936687734278, -0.8653609501020416], [-0.14266365966624828, -0.5744572686128064, -0.24730527534342772, -0.4539389784480663, 0.3790266536496709, -0.7211359531119985, 0.7442115658895703, -0.7656640077355066, 0.2621263639468656, 0.6190514244582075, -0.5036370604091798, 0.30853349489613247, -0.13869061697502727, 0.7287306919493004, -0.33844507024021375, 0.33403569367258945, -0.28243792696266645, -0.8483717693063546, 0.7122820449282685, 0.664527950721598], [-0.9926018207049079, -0.8787635924175867, -0.5475344548604744, 0.18893104327103338, 0.48618715214207375, -0.12453593942520436, 0.429946176528077, 0.38968221275241355, 0.8194799725844406, -0.03850776266217815, -0.9281659643615832, -0.5425139401725909, 0.6954021419236933, 0.5046248023966489, -0.9549075671461911, -0.14582906968126474, 0.7701744934821246, -0.4683891377116949, -0.08699292179433793, 0.9519899181199958], [0.8192315299585851, 0.1994567364058848, 0.46722913759090523, -0.0345799965255158, -0.9984404672041032, 0.629858005545205, 0.4667592463491277, 0.6530878107413289, -0.7909627190568203, 0.3604324044699616, -0.7073179526950433, -0.5857942844428523, 0.7051196302642866, 0.9828407093189508, -0.9569719923776421, 0.36341237999863085, -0.7437623792336401, 0.792381217302859, -0.902036095674212, -0.18997831520130593]], [[-0.37938683750207014, 0.03676474481349157, -0.9377999305871698, -0.019232056846448353, 0.774160669090252], [0.17347488001054523, 0.5889980589649426, -0.47350791400182146, -0.6904320450333337, -0.418347533421346], [0.22620959329715173, -0.9737818365855104, 0.7942771034480067, -0.8973159777269373, 0.49684010505652965], [-0.397882643280943, -0.9275936543122456, -0.2935308927186002, 0.9552361417966762, 0.5014860119325486], [-0.8208533249151262, -0.07570050780243509, 0.9112505937041926, -0.6818852020728616, 0.5999816160590754], [-0.8837076294750892, 0.85233666031865, 0.5071410382903936, 0.13604325423488572, -0.8671092749936773], [0.43661625092329426, -0.5260766487018071, 0.9950645196443819, -0.8798610437451684, 0.7055205763647447], [0.036288455671547704, 0.9315693924287118, -0.06912082857441293, 0.7063190658891765, 0.30267728957686213], [-0.4475170479393036, 0.327258942567757, -0.7432458342988149, 0.1773464215018128, -0.6464530190893842], [-0.6778959093932537, 0.8189242503911436, -0.7836177500446169, -0.196173227973665, 0.6841630463962589], [0.5041316995340717, 0.7671169163952833, -0.7445747490922745, 0.16297365828111343, -0.2713337621944649], [0.32055215512776347, -0.9738004096016282, -0.7365752165364272, 0.1962914857963498, -0.3696974987573789], [0.037381780066455095, 0.062160312524399464, -0.4518966799676587, -0.6041310607577035, -0.4142541505757711], [0.5677835923739041, -0.05183963028817096, 0.10163822980069925, 0.8918177750817942, 0.5314371908573101], [0.5731955861108495, 0.4799764503598878, 0.5424204461544571, 0.10013469778830708, 0.19705687287748685], [0.9219586459774449, -0.19227473466915024, 0.4728934506122582, 0.07317629478669585, 0.004104167532481995], [0.6830631129351441, 0.06746835212675628, -0.6193953358092912, -0.871103512036584, -0.7792768978446445], [-0.09602178023091934, -0.29373209216731655, 0.3779188371936617, 0.15469481133040586, -0.5055222045444874], [-0.08336977631356479, 0.620186005004159, 0.2681902090303825, -0.057840633919920226, -0.7281063868148487], [-0.914784046292149, 0.4595943573992449, 0.35496144271216834, -0.4011264801109893, -0.7585673109707951]]], "biases": [[[-0.7131948709378944, 0.852400295069895, 0.04036097003817596, 0.012316430355149732, 0.09457371481590116, 0.6817667844675441, 0.6316952071351094, 0.889488645951078, 0.9935285151092026, -0.7389394499986703, 0.3716385521955379, 0.9979988601582763, 0.5422407583677211, -0.06605708863807824, -0.8345399461885596, -0.9428664224140559, 0.6002394839930811, -0.7113330111395395, 0.7103552539459916, -0.7171200616348932]], [[0.15131407614393644, 0.03439189233056328, 0.7561334594196809, 0.21618478061562452, -0.5082572236975396, -0.5682288271649527, -0.5083586714261441, 0.03816936202221033, -0.9198344306301425, -0.9756354036203485, 0.37561079752165805, 0.6439798244525503, -0.7315640441259894, 0.5214664033246157, 0.9875123615382235, 0.8800682066526722, 0.020228149287662145, -0.6021302554320653, -0.7358641650401707, -0.2770432867010524]], [[-0.1544475922705586, -0.9116010042254659, -0.7660839889962672, -0.7127919875641084, -0.27434054255345]]]}