{"weights": [[[0.5435056920938237, 0.8416754161792037, -0.8507422249228185, -0.7157132815552145, -0.20341027078268326, 0.18329382837357522, 0.8937143350380081, 0.8875115285415822, 0.3894649145047704, 0.7406815088778091, 0.98957265851493, 0.8341626131833295, 0.9131446491888686, -0.8017842665762398, -0.9766246002269261, -0.5576864093970013, -0.5682930823928776, 0.6174400990650402, 0.7650592977933275, 0.06760393704833478], [0.22432112327223974, -0.23262493683644192, -0.05881367549991068, -0.38173488511594234, -0.9220130378608697, -0.02611368684426374, -0.6710787771344684, -0.7757414542045058, -0.7225392682568368, 0.38484469116479936, -0.03572271471080679, 0.859480581153242, 0.5138606033209778, 0.48540263805615314, -0.8865303614905262, 0.9885273967472852, 0.892197145331165, -0.6975297576318353, -0.6255371254737505, -0.11055657349105785], [0.6604237340611314, -0.9321249564578207, 0.8906613953247275, 0.4112327463471861, -0.15581745523078916, 0.038594480881725124, 0.49399717387820785, -0.15193898979810982, 0.12131625746191443, 0.09491024047689467, 0.664952272165173, 0.7567423276076171, 0.0384692709284391, -0.17835120152214334, 0.8518272570736751, 0.701752463978955, -0.7213672718487163, -0.5629885379453716, 0.5389144766064629, -0.5989744228145562], [-0.1049319550786234, -0.26325954169206844, -0.14488882577427464, 0.3250462532067355, -0.0363106297254463, 0.21726518495715763, -0.9071608145701171, -0.7715036706845906, -0.9444032539499541, 0.6454993415067027, -0.47094678689177694, 0.46915210368318006, 0.4991609065383915, -0.5651853231709281, -0.5587658780994367, -0.4129243221907182, -0.906558463399735, 0.3071842989017657, 0.9910176553247265, 0.5328908037664943], [0.6687803609501439, -0.6175648107879546, -0.37482988360028435, -0.7563480266845557, -0.06489088730430104, -0.36574054832998293, 0.7997284414854517, -0.8686148876525217, 0.7102128210790353, -0.8007727710282955, -0.6094968927104956, -0.7692323870191842, 0.5083143784792084, 0.40759528099391695, 0.833451268314576, -0.901233835097474, -0.8080928328504684, 0.07537167563773406, -0.5491744036058759, 0.08952166575834508], [-0.545751190379238, -0.18000421477276407, -0.999739985899109, 0.9638812263572902, 0.41019073965299824, -0.43594013295959155, -0.7472037845703341, 0.9165931803124312, -0.3682500087243683, 0.9651293576517337, 0.7906510792132271, 0.6510569753934603, -0.680922407364511, 0.875841667333352, -0.88344485828536, -0.8102129080344795, -0.4120048802689229, 0.5082115048830878, -0.07557380993448781, -0.25820192904198014], [0.6401350955020222, -0.021575102312562766, -0.18642790348276828, -0.2198093695221106, -0.9143049145791102, 0.8657847658789251, 0.5678771161010092, -0.3050661549156686, -0.9503350975874192, 0.21273976687396923, 0.7052958365556552, 0.678890250858665, 0.965242488484489, 0.03480387641989302, 0.9403009793172441, -0.15727556256526265, -0.7661108231873011, 0.45268009664920084, -0.6080609971332289, 0.9042240927766234], [0.6719827905625346, 0.5161742402848266, 0.33683866140171426, 0.9149015190250134, 0.4329407871930506, -0.5077550562612263, -0.7440280603598906, -0.34387120575962427, -0.3573184937810763, -0.2968907016008753, 0.7481498299386147, 0.47466904284289324, 0.19627897134242134, -0.7909356887712855, -0.5292716883226676, -0.2404870563713999, 0.6532299193455626, -0.49053050142221033, -0.7849717330791817, -0.017923373133526432], [0.4901476373752862, 0.8784322678006775, 0.7155925403562695, 0.5483435882370893, 0.3460220346460503, 0.8908402270710523, 0.2021273371409249, 0.32732243183598175, -0.6764528320256502, 0.514423877625005, 0.3289270594910192, -0.4530894317651126, -0.8391238139789872, -0.5888719521687764, -0.40848166889741067, -0.7667311720718379, 0.8444070672762098, 0.6758390005031185, 0.7147879729934403, 0.16788224491486226], [-0.7999993368227223, -0.2579796611300249, -0.16819708090790408, 0.8515581600479589, -0.037441979157085026, 0.9637470376347721, 0.9161279750292199, 0.002197904851417576, -0.6501963388200349, 0.8969080283693602, -0.7675005515569859, 0.7081926720784157, 0.9550661194592842, 0.5377584906711703, -0.15293025261183946, 0.9947653637680827, -0.7594614325731177, 0.40671793852677496, 0.7927430071024835, -0.6377235142730611], [-0.12165264518337349, 0.014966209908592765, -0.4809072746138301, 0.8609640048467468, -0.41491769065224204, -0.8044181498377212, -0.1331748313408303, 0.520893708979911, 0.8499525901235003, 0.27657529718911067, 0.05760596235917803, 0.5125489922942188, -0.8553815138299297, 0.7220170279234255, -0.7640594674265546, -0.21376749188960353, 0.9190764805375973, -0.6684272140489913, 0.5893399723667543, 0.845474735697018], [-0.48924410984396793, -0.5638170653659702, 0.3607716139116486, -0.28339181565898786, 0.9880493093101099, 0.4010616834459879, 0.7304253761473725, 0.30390524883187564, -0.342374812993937, 0.6698681397299331, 0.8548004411653738, -0.7009269197022081, -0.22065286216412683, 0.142562804953541, 0.7929696829284747, 0.476046466243883, -0.36418265708861175, 0.2668205676408486, -0.46542064685753926, 0.3462288569412615], [0.31001599028274485, -0.4221830745065551, -0.3703041891961609, -0.6063739628005191, -0.5492835372885143, -0.8909567058919634, 0.08832418068156134, 0.0906857825094316, -0.39921620405494207, 0.8122086240071655, -0.49266540091309396, 0.03290257498179394, -0.6668756149659094, 0.7342872881230385, -0.8839412126301371, 0.9313986889807131, 0.5033127023111814, -0.9334226298567843, -0.2521751541933619, -0.3801228074837195], [-0.18230821209672432, -0.24704395586392547, 0.06808332301061437, 0.5203418906709296, -0.19139153576002998, -0.46121842465391194, -0.405920033138357, -0.8636955326034625, 0.3147087561608042, 0.8290349394195786, -0.9200357253657752, -0.44639120895768936, -0.09497738296070435, -0.5413509399136773, -0.08525667192154263, 0.6160984121315753, -0.40991446106664275, 0.5782608062017904, 0.18149157683683237, -0.19929944177156855]], [[-0.7893797867398804, 0.6415446666330409, 0.9209825582711446, -0.7844777864337376, 0.7820892985931571, -0.8219088422485974, 0.16710894220547234, -0.7953596820053186, -0.5453098030986783, 0.6809855880561055, -0.17063473613961833, -0.1965477749304363, 0.021606197026260432, 0.23586885419309644, 0.5400930809741118, 0.5498889067242994, 0.4031190470078456, -0.19158183313806743, 0.20409479429940114, -0.7981469251692204], [-0.2962830301875541, 0.50184723130797, -0.6919598404721783, -0.39775445739156345, -0.007716370940751727, 0.2391170995537022, 0.46982960580665156, 0.7212768590050072, 0.13269897139778752, 0.5936973109566643, -0.6131457768721391, 0.9407080364840035, 0.4673180871604563, -0.8770007732119778, 0.732426694609928, -0.40960084172330924, 0.2835025075517854, 0.3055872041890728, -0.5751821804047994, -0.48809710767842684], [-0.084296617326719, -0.6171304659870509, 0.7068189090922354, -0.9078487040501997, 0.45618696151738036, 0.2010582921332007, -0.9081519254295995, 0.17932999524301163, -0.9028325008805143, -0.5295614632819101, 0.30264996129053623, 0.0919662590286856, 0.14620055971651436, -0.5677480940304036, -0.4949274938622261, 0.4346275184131063, -0.6109369504922784, -0.3052635949308684, 0.6984180674315368, 0.8202453848370836], [0.6551714499612127, -0.9113150010372852, -0.6692563855851912, 0.3220749354680015, -0.6632962100269375, 0.16705934836595016, 0.2545178225140259, 0.8756492826810651, -0.5585895567530992, -0.19517959870848056, 0.22064674654029015, 0.30639341946646903, -0.7416661664595898, 0.7694720703056106, -0.7648075853339382, -0.44075828075098045, -0.19206238660127384, 0.9307616787954824, -0.21358075412399002, 0.7416973791283106], [0.9854689272193742, -0.7299000745871007, -0.9952334955843809, -0.9942548187388798, 0.7271707564833549, -0.33374462042980046, 0.7051498758160433, 0.10129866115549757, 0.8594045113456674, -0.26501544964465173, -0.430278891120887, -0.12420309201112212, 0.08143114298793863, 0.8891094695173298, -0.06462269492535966, -0.11189051077278855, -0.620808336623369, 0.21292714789795375, -0.6892833785283528, 0.2584008325249325], [0.02669788343023738, 0.9520599055662002, -0.3132199163100706, -0.5069198688974283, -0.05587215326812012, -0.30842852420612576, -0.2037678792720916, 0.8436905015104605, 0.5086721116619901, -0.48245692330131806, -0.6012006096426035, 0.9666718665466554, -0.37117237723443663, 0.39779853783640506, -0.15544513164939655, 0.6557275750522946, -0.8897168205662469, -0.2501709289143823, 0.029346597941756203, 0.6689684164331986], [0.5571699126254754, -0.2073917178634601, -0.4952193846447779, 0.3131701158043634, -0.12576219652685805, 0.1435965802994903, -0.9676621083306705, 0.004098450391375685, -0.7562533056116028, 0.48114786744172644, -0.7266629077970697, 0.9003263645897641, 0.33363263174794233, 0.18524805016191515, 0.05829326768929066, 0.26523257929993527, 0.06988368100686726, 0.03900925887755813, 0.3334089192348637, -0.5539199997740352], [0.639313752739217, -0.5087992146639055, 0.48813326168104343, 0.4826399909429484, 0.8886372540638829, 0.9460715875813628, -0.9231122513587444, 0.10214630552280757, 0.14180558340835647, -0.19229749621593917, 0.281039877185999, 0.41772169797264413, -0.09063533235127519, -0.9666879309994789, -0.7420650281664871, -0.7956081213197124, 0.8168881209068093, 0.1575980857106547, 0.6894766140162756, -0.023946711630836726], [-0.8154977479530294, 0.06537128061251685, -0.7162224637563706, 0.050563138531407814, -0.86512555289661, 0.32734376537839416, 0.17000926374202519, 0.004912775839329253, 0.05958716258907226, 0.008428206309105235, -0.41073419894734164, -0.633204605047295, -0.1995496574849034, 0.08611331542638712, 0.24503033575824817, -0.9363915771293991, 0.16792298338760436, -0.5590594562062015, 0.9872039730470425, 0.028870802200307466], [-0.6827157069892686, -0.86298446914856, -0.030956900984964397, 0.9910525962673318, -0.05591779997970936, 0.21892217328785857, 0.7180595975004418, -0.8901443446349835, 0.3699402921942352, 0.6503291462280503, -0.26531835340936993, 0.4551780856311858, -0.571535763554557, 0.4598376543284661, -0.2609099788451954, -0.17067105530920634, 0.22640255861815128, 0.7613562393822626, 0.09674729227653267, 0.3137663553388019], [0.9535910245713541, 0.2852588142061625, -0.06579210279687953, 0.42496931205078603, -0.6369558371085224, 0.7583719809030134, -0.41833461970053354, -0.5716214965954063, 0.9806489642588123, -0.2844389529053919, 0.23043328154215104, 0.761061937280318, 0.48950411574944686, 0.43143631848503716, 0.22400966291413327, -0.489661750789417, -0.06146486865259537, 0.024941871971646545, 0.08112949435998029, -0.6456572002893124], [0.11108590794766338, 0.11009613535312646, -0.19640133191694864, -0.2376634740277852, 0.6734334481688029, -0.045601231224567496, -0.6080707907105953, -0.38062766815167115, 0.9596613512154728, 0.5598344065282437, -0.565650582700403, 0.5218888299203397, 0.06161031847259202, -0.22435258754503917, -0.8652222433182504, 0.9273470421073673, -0.6956367721755554, -0.15812051752252576, -0.9919207170755266, -0.3779458584729536], [0.4715865907226664, -0.8460478429483878, -0.3315606130374935, -0.7224551534189168, -0.4161243984851586, -0.9166526902094019, -0.46640415217247, -0.3009749408196942, -0.8816757949818936, -0.07791067001313445, 0.60845001963306, 0.4602887793805728, 0.6019949367692505, 0.39328164952109557, -0.2039857263185587, -0.9249167869495423, -0.6087079921179073, -0.7713657937706513, -0.04830578732990509, -0.3177569325718388], [0.00368980363350091, -0.8025179007611729, -0.6916332077026992, -0.41096553159794236, 0.7812678939860569, -0.8348671698143779, -0.6150525358584864, -0.6640934869675135, 0.2955965368671496, -0.23662150087800238, 0.6181610047690989, 0.43576347180113606, 0.9365096863326192, -0.19758614436645372, -0.542488866319565, -0.06235692116686997, 0.8562335791335223, 0.889732834070635, -0.9368544226225912, -0.7518756532959343], [0.6433614996164307, 0.10428042175051155, 0.8020951960023497, -0.9781770172854567, 0.10593808830048523, 0.6211800166309034, -0.6791170824417976, -0.9254041270564335, 0.7755098426346441, -0.8682330682504453, -0.9463303810967301, -0.7106616005312232, 0.4401537625912557, -0.5937323657122136, 0.9681428710972599, 0.6478470780898062, 0.872738359509933, 0.027226442334689738, 0.7056418830045685, -0.5676158212672511], [-0.28788776407232164, 0.27729364573003634, 0.13163975452116117, 0.5279301407059649, 0.12685804028446945, 0.49349903261466865, 0.22294981810399328, 0.3936734911213351, 0.028105081465826798, -0.28014275412657885, -0.20342743384512052, -0.19834550529114137, -0.1612745750233613, -0.7451599936964608, -0.9964933332246555, 0.25213755661559833, 0.9094766048769578, 0.2896166098900723, 0.8408403080423241, -0.2515290430342698], [-0.4474227870451921, -0.9212692803120348, -0.6467558636581032, -0.6015118987746635, 0.41525203524494336, -0.38679086837370247, -0.5276334188210259, 0.5676853879928567, -0.08841931763981559, 0.2635576444295773, 0.7887690373507708, -0.508367290243454, -0.9247562073259992, 0.5573079824690621, -0.968000611224491, 0.6544519305681262, -0.880622670328717, 0.542025889728583, -0.05349276758635613, -0.8278538246256768], [0.16446248446717115, -0.7909692679315428, 0.8494314517845394, 0.7698527622018572, -0.7603329507585115, 0.3912356883523822, 0.9761448137385076, -0.24069428445218488, 0.6547035001153383, -0.08769367656082805, 0.18362709261321353, -0.5372775037621609, 0.06670025339677887, -0.04484165128802786, -0.712265923309851, 0.8008637525888769, -0.5425642936575363, 0.14253284626897034, -0.182836512078709, 0.3951573659888459], [0.15757658319068768, -0.5758937755623685, 0.23235061888618525, -0.12498636079898917, 0.24628459978333428, -0.6654702379691413, 0.8712090894971991, -0.23711395832927473, -0.7007140643294316, 0.04749042456623109, -0.09438755030237123, -0.8272631067814944, -0.9384104188256768, -0.40334554884113993, 0.8166431313577476, -0.0758590799898946, -0.3380221697992303, 0.11698130173530608, 0.6887801752167175, -0.6813176161759325], [-0.28871353854320914, 0.7648737268336927, 0.7107572057505285, -0.09468596758691383, 0.33783807188871573, 0.4402792639299, -0.05376818360381175, 0.8345630135123918, 0.9569031989838985, -0.8320969192918672, -0.15508640925791872, 0.6229123778743004, -0.23475230259050472, 0.991068842564431, -0.5812679692858673, -0.9255668783151272, 0.30290742744364363, 0.5839529145568947, -0.923190623795052, 0.23085414322597786]], [[0.15588877519876276, -0.8487692138257514, -0.3424084288386051], [0.9994429903678468, -0.313691385747781, 0.7738207712379754], [0.9841796222122277, 0.25294677048777725, 0.5688574718025987], [0.24253735012765532, -0.6920078602995117, 0.10175561846468906], [0.5498716083168667, -0.539549696720238, -0.6691461265474183], [0.37237836313082395, 0.9923477198000432, -0.9017647664525343], [-0.1928206095680567, 0.5930277035920377, -0.514335115187931], [0.5353608236752558, 0.18257985431030166, 0.8716735635984334], [-0.2282749104397972, -0.514107998296699, 0.5463821046780961], [0.10781471831942313, 0.8649074245774604, -0.9995275939612867], [0.701193318030028, -0.32045844401329426, 0.41999304759546296], [0.3392794475826859, -0.33564044698252227, 0.2988381923027228], [0.04445954212904568, 0.1442963740411547, -0.9172049221971219], [-0.7074953572999378, 0.49633474095752517, -0.4526475198875166], [-0.751263794407963, -0.8529402469346894, 0.712779609044766], [-0.30531143129565064, -0.9184789643469711, -0.2091333765744703], [0.8295834316544402, 0.7395639382952031, 0.03163400286547491], [0.3732453738650927, 0.38934189773525074, 0.3001984355138696], [0.8472174334050249, -0.8110430681919376, 0.9695146523285116], [-0.3905510919497768, 0.4721390059436219, -0.8860152035098099]]], "biases": [[[0.32579978353532435, -0.2386716300554339, 0.8712439108082883, 0.5382067387681684, 0.2574698044859274, -0.920393522838181, 0.1530054313897724, -0.3682523675477123, -0.026110136927774752, 0.703681700173489, -0.8288953346555099, 0.8240806660637703, -0.5030233287439811, -0.2796158406935807, 0.6811930915909425, 0.6005697043629488, 0.011943366702103608, 0.940547373342081, -0.6781999927286722, 0.6498771269250381]], [[-0.3949804477287364, 0.8273275435357677, -0.2940426017104014, 0.5177163843898263, -0.6602605953269849, 0.13712153781933667, -0.9441441910292192, -0.3589021446916345, 0.6738341800954397, -0.15551762245747525, 0.9027628754354293, 0.6298332132710316, 0.06577309744964621, -0.9409207063345069, -0.6104465718004253, -0.40800181978701144, 0.10255672330714272, 0.8724246027573008, -0.3475266564803019, -0.18645286606447398]], [[0.565236730677418, -0.5328616047279056, -0.2929571599983314]]]}