{"weights": [[[-0.5803375808249651, 0.20398525725872796, -0.8317299314069233, -0.2363009538156462, -0.1650407829835716, 0.7654526073117698, -0.13934848152403823, -0.8412711874245469, 0.1564891465164373, 0.3742936329779665, -0.8267354645990872, 0.3125002758117401, -0.684170517873846, -0.7851068016469043, -0.0011386526676198105, -0.9588000392427958, -0.16792088394051397, 0.5138961133929498, -0.2759792104306755, 0.02059241329664996], [0.3784954105297338, -0.8385810981846467, 0.7620783646986904, -0.38939078261853655, -0.5905265416960892, -0.6555018970216573, -0.31844360100218294, 0.5224501525354519, -0.8957093329379833, 0.08312613811587877, -0.9705421145760824, -0.2482692698523894, 0.15598815688220347, -0.45137756560605014, -0.9127083795378061, -0.9718491650526919, -0.5186352168321486, 0.3851163919645262, -0.4920715353032694, 0.9097196763299238], [-0.48146737856812405, 0.513903745826241, 0.5268530085445273, -0.38689723981592783, -0.3102615612304669, -0.27326584556767664, -0.8232908507185517, 0.26985195874209644, 0.8928326220866694, 0.24705580492046697, -0.49514475568515914, -0.035162326866710725, 0.16003331353249228, -0.3161625856632626, 0.09673682434490449, -0.8586520632559889, 0.8230117054361443, -0.7655143924297378, 0.311031565289835, -0.9203652077177635], [-0.40412025420165265, -0.651898139413158, -0.4000965561767704, 0.291350320569151, 0.33167288797342964, -0.7545027019810999, -0.05969072634929362, 0.3564894495973958, -0.4093606935848171, 0.25301201515853955, -0.4478010016211722, 0.840209951654528, 0.6179118877072729, -0.5088870291375187, 0.572001413639486, 0.6593965888310638, 0.15045315809950677, 0.34588578582524887, -0.19098427146831853, 0.9090206507927119], [0.9130498234304107, 0.827727188610019, 0.2819453436117558, 0.6167113387979397, 0.921631745679202, -0.3399813440618755, -0.15114967056144923, 0.3421953902241093, -0.10359364754451139, 0.811856559680757, 0.6553051242834147, 0.4080162600179831, 0.007836601192812154, 0.13410458017783844, -0.08660327881341146, -0.465804906938853, -0.8525934229406917, -0.6638165869339556, -0.9761769097352866, -0.6937204128807468], [0.9352328132754146, -0.7195562322583609, 0.41918724849995037, 0.12558241671779413, -0.9622236333759968, -0.04872457139779507, -0.4162848853228027, 0.5344493434633697, -0.6394825042369405, -0.8463444750444709, 0.061294417968775994, 0.49523435769563084, -0.9862832516329327, -0.9401918999346457, 0.2616031987679188, -0.326939717840079, 0.2713700431669188, 0.7414980639159776, -0.01134502370298418, -0.6701436601392428], [-0.13553510167248217, 0.061805398481238116, -0.004802248910343199, -0.9152041379357809, -0.517932156544743, -0.5767210241260265, -0.20848036541492587, 0.31080087174034454, -0.6109353328541873, -0.42907126397556716, 0.15085649844721982, -0.8132539147017854, 0.02437084813355228, 0.8365565987306927, -0.2571927888763361, -0.925265561250094, -0.028930754165483963, 0.03253859861624786, 0.17237125854177449, 0.25989651389965474], [-0.4528415678278823, 0.34014629750421, 0.6763512953704662, 0.12360397018870417, 0.803776439193328, 0.7241004785810674, 0.09380430742145762, -0.42752744108533003, -0.33531013348695216, -0.11060375690972779, -0.573312539313241, 0.5035885444473327, -0.3339179303656479, 0.5531141137120055, 0.20609832348646484, -0.16787688984945115, 0.02049194637933227, 0.8373836256839589, 0.10059573994112014, 0.7187967993523257], [-0.6781536248882787, 0.21529742021283282, -0.10604415542539236, 0.3163317617855155, -0.16686954258776887, -0.6128154619068507, 0.2931725276464199, 0.8123821975395522, 0.3034284342056981, -0.9710914938406916, 0.7311124472007058, 0.18947272609527888, -0.33284586745085787, -0.6763224142136732, -0.3751802018833479, -0.9540911064894215, 0.1574565748425778, -0.2393393406409925, 0.6084410630721506, 0.718560866681504], [-0.7913673046620942, 0.04589742819624809, -0.2606373977882588, 0.9762022282281604, 0.7677830003441128, 0.2798250176201196, 0.8251768988449906, -0.6030435383783357, 0.05498665316808449, 0.3142231983713635, -0.4146221459093411, 0.3805664338944681, 0.7177407798741469, 0.12368203827255186, 0.31274857928556377, 0.10579116352959095, 0.6008211307557252, -0.3641045198913353, -0.5356855997285368, 0.6514354639163515], [0.7060853616101013, -0.11431958806856302, -0.17624116375405485, 0.7960776177267181, -0.6326862281397785, 0.5284063611506242, -0.2598929250411224, 0.07922239634097572, -0.453430872689226, -0.6532915713656398, 0.7328260887758955, -0.5962976133686151, -0.563235205765585, -0.4052453998140473, -0.6156228499699674, 0.3558664534118179, 0.5817006153481536, -0.4397088659828241, -0.11992966588729082, -0.2396008243629122], [0.6588876050454266, 0.9132289984851685, 0.6764937478131428, 0.261268074391489, 0.0726737107874127, 0.8254045007469208, 0.48101302780489497, 0.7902443759042728, -0.540693403552855, -0.09168919139228193, 0.6780430897254683, 0.3285542673228652, 0.24843120457701806, -0.8115972423741682, 0.09906113942452777, -0.441077726121506, 0.7862347626725497, 0.2166605119740137, 0.8050256174125414, -0.9469052906846065], [-0.5993392222668668, -0.5114015853254192, -0.37396952825454854, -0.058246851744188755, 0.19400790351654584, 0.4973423060636164, 0.5633667779556906, 0.9811826934984278, -0.3949087094870998, -0.5548059204188975, 0.9037453080049427, 0.9640084886010243, -0.991003425887061, -0.9075644291201743, -0.6932525138382681, -0.38279993637941834, 0.18141531134888367, -0.09311817764811003, -0.9946738492269069, 0.5617985576821976], [0.926050716712991, -0.48525158114211675, -0.5182503279319532, -0.10269505199465123, -0.6943847203403557, 0.23801034065073168, -0.7694773418803935, -0.68711479025324, 0.552545733954678, -0.25217551367770485, 0.40119308416330335, 0.6683110831852033, -0.7776893207266453, -0.6885096021819221, 0.7605378368595246, -0.2213165538755668, 0.6466818116008453, -0.3536453246009903, -0.2317998744847869, 0.39197758095019863]], [[0.3327420178683542, -0.5992045220362281, 0.21228291828267687, -0.7131227077054492, -0.0970491396100639, -0.04727361652016682, -0.0996190523230367, -0.574658242622275, 0.16523915409030066, -0.9068281584005022, -0.6315032550962689, 0.009602831970369818, -0.00790670544327754, 0.7497611698590874, -0.9703252465745014, -0.771880724241482, -0.8155376302633399, -0.43785798876401993, 0.2353460520486299, -0.20616212366086506], [-0.4338476696459592, 0.4386370522233274, 0.13156334688781546, -0.03808287420332945, 0.19054715290857116, 0.07557787926956738, 0.5979455301136021, 0.9725297629227523, -0.617591069197728, 0.3303207102815433, 0.2562677938741269, -0.8723394942930656, -0.8306726347726248, -0.9152807169138064, -0.44289384668521214, -0.43155981558013456, -0.9749267826476904, 0.6959860955616497, -0.7340730652519221, 0.3991557644522479], [-0.24219033819059987, -0.4759265103121486, -0.7203836773301717, -0.9830694562324414, -0.4898807626593653, -0.7470522141106377, 0.5880525061328365, -0.9793894493812061, 0.3906500616384121, 0.5601016615481451, -0.08705290153640366, 0.999196036802334, -0.8571700629685288, 0.831851078338391, 0.41169532904538264, -0.9087719367921772, -0.6864971219848288, -0.3887649327642748, 0.8801785183883775, -0.5317758389924885], [-0.9204331072476277, 0.7869937194507308, -0.4672610049000725, -0.5158979105582653, -0.9861040905731786, 0.23190030413000495, 0.4800553854072489, -0.8751026981277088, -0.6389619117725738, -0.7935552075562786, -0.8273856283263747, 0.2665934965987795, 0.03443670334235094, -0.09291008173376247, 0.5354573792626076, 0.48592176608856086, 0.2803598143314998, -0.6821729681362487, -0.0004357741777774038, -0.10722279823546921], [0.09128712161240315, 0.6470134306142854, 0.48084641793802896, 0.6480841898965273, 0.6643802676924124, 0.5004003549746225, 0.9459994472293964, -0.7771311997800008, 0.9407730867057118, -0.2746924489089766, 0.1799928473695398, -0.2962717439631406, 0.6432756160072957, -0.5775819653650796, 0.8230210961587614, 0.6015686784596155, 0.1940639591475477, 0.3815233227836583, -0.6996030990719468, -0.5070038863945343], [0.18601029229814658, 0.18288627680633862, 0.2426849262860915, -0.4513679591649793, 0.21974393451780694, 0.8809162452845125, -0.5618418509480274, 0.578401705928836, 0.9867974683897276, -0.2616022556508111, -0.20318253047903378, 0.14071232528405808, 0.19483220591592576, -0.9240281062192219, -0.952967941810507, -0.5156894198469404, -0.335081953051493, 0.026044951748624534, -0.9123398469452915, 0.9178288163523312], [-0.8682877383390359, 0.5554602898253602, -0.9235592299558637, 0.6483964156853761, 0.08184945958896095, 0.9777386612645738, -0.21845007238991965, 0.812965423035479, -0.4871284948708572, -0.9085942314583126, -0.4462956859900713, 0.8887913349950294, -0.12479385174561042, -0.8154451449443489, -0.4210189040105383, 0.028005518283326314, -0.5540801319848498, -0.7859474407154483, 0.6156991275402586, -0.5634325031180178], [-0.8898424165994718, -0.33737337493500275, -0.7785766098280891, 0.51442472425775, 0.9127751025013429, 0.9182774163717005, -0.6105541270068995, -0.6862058571706307, 0.525468612186905, 0.3452924151308401, -0.07515746288855563, 0.5575949265044933, -0.8748291345022736, -0.04062436551355897, -0.02669544005361857, -0.04628929686047378, 0.5832405528427107, -0.3785827303585274, -0.17177147362774403, 0.8068171835092415], [-0.18849900944258202, -0.30932522306461174, -0.18484870143069698, -0.24042551918129051, 0.27890840562295005, -0.44553343267647705, -0.19985030795812464, -0.7360960630924707, -0.8217489222747081, -0.5562957263269412, -0.7232401833242481, -0.11011588012111351, -0.8310049734100571, 0.1929831787695382, 0.25952202759443876, -0.5783077071251279, -0.7024618637690645, -0.7477454529916794, -0.42937274272293746, 0.17654848916761767], [0.7007336918513991, 0.9280651051865894, -0.9299884690879878, -0.5604551788587808, 0.6898722244635245, 0.6146613512660226, -0.4863477449397571, 0.8274904125383158, -0.8076255434423727, 0.25868533355227674, -0.9567295123261261, -0.5020793635826584, 0.29008150228213103, -0.3781777669144415, -0.1268097930426979, 0.8269872757537462, -0.4108801203115007, 0.9046804414632159, 0.8614876013486152, 0.7123494290782117], [-0.2918202167433126, -0.71509889509794, 0.7179401926932221, -0.003973970160976226, 0.4404677403913271, -0.5637489316415378, 0.2665342134054849, -0.16509480174992963, -0.604429841373493, 0.23437750440685923, 0.08874880878469527, -0.4443820739415385, -0.3464091569041843, 0.8087657523412486, 0.43974471240580915, 0.6644322480807012, 0.1698474792425113, -0.17807397491443822, 0.5879514254426625, 0.7573350891391653], [0.14123684272871184, 0.994561094181931, -0.03175923249824453, -0.1333754828152205, -0.5555509041031257, 0.6314557563690957, -0.8648199621401411, -0.22412929805689874, 0.4928383163702499, 0.05849242244503561, 0.26489429288696154, -0.9694324213268544, 0.48941485238369764, 0.15236529394088794, 0.6539762153983582, -0.9118935673789383, -0.24599174516380584, 0.7454451423378106, -0.505991126245291, -0.08365828329588387], [-0.053982023830148274, 0.31529503737715614, -0.9230797904370422, 0.05538653332239618, 0.8668087846753612, 0.5990797090671074, 0.36785818795781844, 0.04258803047137727, 0.2640440777655384, -0.4308517942175065, -0.6886963468733933, -0.35749173985716376, -0.23779999954220465, -0.7028114059074837, -0.3455383069155824, 0.9942598578166362, 0.07082817667083607, 0.48746759603189527, 0.5766896335225931, -0.14647452435799813], [0.4695987543749385, -0.11743118475688341, 0.3718987511553027, 0.39225414406850057, -0.018172877663904297, -0.5964722916894736, 0.1463071790892596, -0.33445915185514186, 0.9736554374035211, -0.3126370361437447, 0.5429657293511387, 0.6207864834016896, -0.8727820940767794, 0.5320207760932012, -0.5836913873430989, -0.9923104200949211, -0.2536200781084874, -0.0322019132554181, 0.4647446009684604, -0.5159238487077453], [0.11674207391291325, 0.8938914400929117, 0.7262915364917948, 0.5728748097011769, -0.16593886098925803, -0.08862167364474982, 0.02443759409022883, -0.22401572987104412, -0.23393247467197864, 0.5031326713320166, -0.6586489339981623, 0.5821560084651116, -0.13741841668567556, 0.35470297073756507, -0.6500898259325114, -0.5323269129075381, -0.78382050130022, 0.6417140351400563, 0.6435677808102627, -0.2441083139394007], [-0.9862289769145003, 0.2368437466626867, 0.8159909619384589, 0.7708299283413156, -0.5170850750160678, -0.7309844034381041, -0.29634445346236205, 0.18726818392302103, -0.5995552688815873, -0.712259522803562, 0.587232686713971, -0.06729353244106884, 0.5438453424710104, 0.6874214112819361, -0.009827258666638361, 0.2806393841768655, 0.8994279839089929, 0.06661722111125412, 0.6929194018445881, 0.8905887714342993], [-0.5135780441888564, 0.5571495080869617, -0.3135938997946799, 0.38734686016974584, -0.30929852402827596, -0.15796341738308195, -0.10465030602909708, 0.8962573859961971, 0.18221339072368226, 0.3233308911602457, -0.20902857469411762, -0.531200558618705, -0.5253060820752598, -0.5845136629404253, -0.039078268027108454, -0.25781995531468804, -0.9427958435547916, -0.8917018917091912, -0.9076041110306996, 0.07760371839073743], [0.36189539370152235, -0.18694821997492195, -0.10120332850906966, 0.20484357920871266, -0.2938220778388714, 0.9669545105071518, -0.3635009650055836, -0.3753047530355986, -0.42287392626710596, 0.6775421295698478, 0.18790633168126147, -0.8608664129181531, -0.49326775224003483, 0.9430080212408551, 0.016058134001567748, 0.8670927025099031, -0.4307036433067162, -0.8042121923188603, 0.12891772670202561, 0.8123823624406663], [0.8958685040140466, -0.9470689720509877, 0.8553186565550481, 0.2736145362619009, 0.4052069782987171, -0.5464037261616805, -0.756174436235352, 0.5441855406404315, 0.0444470810502231, -0.909237066031394, -0.742958703591966, 0.9624260029195368, 0.18088483072104444, 0.2054585289472386, 0.631209731491921, 0.7914947240482724, 0.4615364471625363, 0.10910471122861676, 0.6965235283092186, 0.9323240337368373], [-0.39600752324172106, 0.979597791933914, 0.2340194864060594, -0.9236633651393136, 0.11680608396316772, 0.3176951043501659, -0.2425055572211665, 0.17423996856383983, 0.5171555712894096, 0.5454966978818667, -0.3648013245014958, -0.6725861581708297, 0.2560215250379039, -0.3967579877214422, -0.15721221219357528, -0.3115213324008723, 0.2048372612931224, -0.6140799412186968, 0.009165341460927623, 0.3110135926352615]], [[-0.6388829346312785, -0.6918787903501271, -0.3309030114767293], [0.46337545823346193, -0.28977730033678406, -0.0039602019448767845], [0.9677744762472513, -0.6562853870224723, -0.3726713233404706], [-0.23291338514543858, -0.5211778732906887, 0.22049902883257277], [-0.15450207482060563, -0.9227915227567893, -0.2365125936917125], [-0.9055031198949635, 0.3780969350077763, 0.5095641089796448], [0.24739815182173186, -0.8796592982998306, -0.05490381373464781], [-0.3954290461898733, 0.08477257817729122, 0.21289322751327244], [0.16978929742237625, 0.135887881670828, 0.2025953697963372], [0.7320203987903733, -0.1730797171875842, 0.5201743267484853], [0.35662924154808673, 0.8538803901868504, 0.8647961544649461], [-0.1697082355293973, -0.20522378528060492, -0.601819839822908], [-0.6542936868511451, -0.29902344225553557, 0.9578263154356976], [-0.48347154840957707, -0.9811392590130033, 0.4722495623217575], [-0.6769587300369533, 0.8304044531958359, 0.25306963441575414], [0.4665239975562343, -0.6226887020323895, -0.8782478547234573], [-0.36688698577946344, -0.36821034083994597, -0.6339478354143533], [-0.29018702705367794, 0.0935334333622666, -0.9461887615180773], [-0.45761931177237636, 0.2532011278978694, 0.6961676544220856], [-0.9538087120950407, 0.5341761345755942, -0.3182214547588955]]], "biases": [[[0.5202370882095642, 0.9188804779902262, -0.43619987231691093, -0.2526856034119136, 0.03950594804316787, -0.038308100157050884, 0.6761769097279413, 0.13785584540758378, 0.5866612771211279, 0.973814399284733, 0.31478047169226264, 0.9550914597230087, -0.6867683374535589, -0.3463186361964903, -0.6091137841220846, 0.12173011728160965, 0.5718994937796966, 0.7435307358599865, 0.864678480443333, 0.09298442423674125]], [[-0.28016226478446615, -0.8196474035193813, 0.9928049608611864, 0.8651520097683294, 0.44907878494144726, -0.5917836154395753, -0.49192907230327343, -0.17388133744221745, -0.8132884959106252, 0.6714348982955989, 0.8482612499121045, 0.34620971433566683, 0.8018893615875149, 0.3212664159559637, -0.36439416564030536, 0.9084009644505142, -0.09562329799760638, -0.47800925438896913, -0.2229904918058636, 0.9954894856853158]], [[-0.509455259295789, -0.061718859454545694, -0.508906675459359]]]}