{"weights": [[[-0.8240592527760509, -0.13291350511130928, 0.3019078526566197, -0.6371930674558317, 0.8791941041950977, 0.11206404260821934, -0.40537320930467247, 0.9972323495318864, 0.017030141359967166, -0.35322371808328445, -0.32956252933444574, -0.4832109635099082, 0.23191075207298373, 0.16386885755593283, -0.2802673330662573, 0.9514000067333059, -0.6559743412948731, -0.8471045195433393, -0.0012840065274171142, -0.009761710409267987], [0.04634718906616642, -0.2665552356073595, 0.738889974341709, -0.6317455462770103, 0.9085598041183529, -0.20702832641997504, -0.7022807444349484, 0.03092742516027358, -0.8637187806226498, -0.472153741140793, -0.32236108433315436, 0.9936750409470758, 0.23736951438128928, 0.29284466569504986, 0.8330046247035732, 0.8926488121567435, 0.721251086852748, -0.19819764005214124, 0.7767607334847935, -0.5139464052953586], [-0.7171929841451135, -0.9847969619987054, -0.06681949078397387, 0.7703666336330526, -0.5912152587346409, 0.04926797294619689, 0.4102348302936638, -0.7999968347623538, 0.7849691989969689, 0.7035728149278244, 0.1679107544945142, -0.8271730064790013, -0.6838810875846331, 0.7492198062500492, 0.08509874037583343, 0.9942529633812165, -0.20854986946456022, -0.6150443162370687, -0.22592945152780874, -0.8145999153894845], [-0.23139526307185143, -0.8477038647276485, 0.9836483831420548, 0.40625254866597604, -0.25626784990618723, 0.5618409310578583, 0.49073789945648283, -0.3434688948550193, -0.6395065546915344, 0.6829410228187973, -0.026266266684328743, 0.751551800046325, -0.5513065412225875, -0.864354691140039, 0.6806735038540324, 0.6932633367700378, -0.7568921395447918, -0.01964874004321815, 0.04666596052488181, -0.064344045667031], [-0.5217932612796643, 0.1267548550273887, 0.4942393474977811, 0.5496818651642179, 0.05808726011329712, -0.42215663752800703, -0.44373220725242835, -0.06614576406297967, 0.2377016799040026, -0.3561299076578437, -0.22645971648909136, 0.057495136813450864, -0.6476375119192637, -0.05664946832012374, 0.20415526055939104, 0.25817339950880047, 0.12084257807879584, -0.9661948295041813, -0.9470877719869741, -0.7007751761805869], [0.5403441334719425, -0.38752435071059543, 0.9420993258198382, -0.8065753165914482, 0.4262830067002048, 0.1866718155373075, 0.5229423096678261, -0.4729941330508818, 0.6485920354929937, -0.8877404386014358, 0.09550767431592555, -0.05123314545169788, -0.5039862402628197, 0.5419852968203507, -0.9325834888284861, 0.43783781995327686, 0.724149720445749, 0.10662692946525887, -0.2963688163150935, -0.7507163751776313], [-0.6230989912836677, 0.5147320789500878, -0.6467111596676545, 0.7549433397642415, 0.4041346089881859, 0.1824406938719163, -0.5313161569723874, 0.6135201208303995, -0.8285651850146998, 0.060848714108489466, -0.10712087026207451, -0.7416780029803038, 0.6114987780268817, 0.6834697980901823, 0.5928189473836913, -0.7761672855743444, 0.015640923980339005, 0.27100146091292476, -0.9009231724174667, -0.48767470127687784], [-0.48434642910224035, -0.6373585310554399, 0.5175314481966398, 0.23028431741055955, 0.1804308773643497, 0.8235706337283846, -0.341083051512594, -0.47568867294796635, -0.8580683610889543, -0.5428995107388455, 0.5120698528344816, -0.6164161453445116, -0.23329429800759427, -0.6208917272227805, -0.5024271835494543, 0.5242773394925815, 0.2956084386440607, -0.5915652962541469, 0.9535563563640173, -0.4193404861364507], [0.9830805755461121, -0.4779685932132096, -0.6368179477516358, -0.19361065951272982, -0.7865203190106789, 0.27857956065942213, 0.42301424923259523, 0.9339024039342412, -0.2536216505034514, -0.8588111970967554, -0.9942452370365953, 0.2870908834282522, 0.6275373091909446, 0.13804044649447134, 0.1897492213303269, -0.8564216277649339, 0.1277078438264858, 0.10985560140320594, 0.9551194031290728, 0.25301337848584304], [-0.5846097102288608, -0.9424504333253536, -0.7018053704307521, 0.7854712314538244, 0.979993546152431, 0.10013580369792385, -0.8789776708327557, 0.7719379093877048, 0.009092827763438116, -0.5733442067296823, 0.23258066001915467, 0.7598355330098485, -0.9460139080041878, 0.5143797767930864, 0.7115980345613528, 0.28995568204988653, 0.9550673527763018, -0.5564927398569282, -0.5270162353193351, 0.26444107821235563], [0.14703102904244458, 0.5603316248080425, -0.9429811611206433, -0.7232447438865994, 0.6644743002271711, 0.11033702791663713, -0.8064627032282117, -0.23518897939775152, 0.5404046213213594, -0.38503403701930816, -0.5141887205999682, -0.8989272365584435, -0.8026472177602513, 0.8021975959586805, 0.32676786309464934, -0.43326237334282847, -0.3343594476589886, -0.39693978703036703, 0.11173400324931015, -0.1452136926452836], [-0.5526639194484768, 0.8325322068692229, 0.11449051729534143, 0.6210048686192569, 0.2798192604961085, -0.587493778059492, 0.8985467403278131, 0.51957017952374, 0.7621013668686327, -0.7805308185193878, 0.715532098802184, -0.4355043057886345, -0.1031760018116552, -0.43046554485959576, 0.535665236384081, -0.9840888876076561, 0.8650352313007938, -0.597513936571072, 0.754394687698887, -0.5726674786930528], [0.9018321456464609, 0.590968141913071, 0.7613740353096696, -0.2111260767337444, 0.5492641096865238, -0.4749963211303949, -0.31224010757197984, -0.5866821191794109, -0.4521457947377394, 0.3199038728802506, -0.1284745743349196, 0.5735044892851813, 0.14410859710780066, -0.18626073791919873, 0.6450916832658036, 0.5929168306935841, 0.5830307590110941, -0.265655151743059, -0.7532915076507576, -0.5813456980217695], [0.9419635580065382, 0.8911860059051409, 0.5276409273667133, -0.4519329460398367, 0.35514847953466266, 0.38104084276280137, 0.4480135383714401, -0.9353360466225746, 0.25673393288471913, -0.48182814362564863, 0.24882917977881958, 0.5138327317378968, 0.572535237770101, -0.35836451319627316, -0.07494913008554271, -0.4709958467573123, -0.35453622711980737, 0.5077005533868642, 0.9943772641523214, -0.5033496848723744]], [[-0.40063477598960207, -0.6005127277540496, 0.06989065846447051, -0.2663371368385279, -0.6236875312660635, 0.46942484124053396, -0.39359793674618326, -0.19322818923430995, -0.051000554910792584, -0.4617516936926698, -0.3901688163733079, 0.22773699144132675, -0.822379706994077, -0.6694045372444557, -0.9882432304882256, -0.7141601627820247, -0.7468454744585875, -0.4268938448524726, -0.5007355956213633, -0.4815175848549249], [-0.07772674976293215, -0.11056194945409747, 0.6856699122654468, 0.6289847745609243, 0.6695645344323189, 0.5896060097493518, -0.11532564631904019, 0.086498438224619, 0.9631381791513798, 0.09460662310817014, 0.31135461075467075, -0.8958992879041567, -0.7686760527394854, 0.6300462563151954, 0.6246972355589793, 0.07425970554411698, -0.5982390637608457, 0.8330539121285372, -0.9774174270691105, 0.42500478991018853], [-0.6756256341634626, -0.5273724342221242, -0.6761166514161814, -0.889945581123196, -0.696596863253585, 0.9285270075348586, 0.7580916667119322, 0.1268870325121081, 0.28878500924174677, 0.38695488767492425, -0.35901510381426016, -0.25983033392673316, -0.04489455999209868, -0.351346792075913, -0.1758676058706996, 0.9314308972933811, -0.8451650016060868, 0.19734639198554493, 0.05271455187547014, -0.8456338398421472], [0.8300415814937541, -0.3734518875678374, -0.4183763248293497, -0.822338735730654, 0.7168949909484075, -0.7016630453311299, 0.9562969623282052, 0.2753983132451727, -0.8252589770791892, 0.5295148845861355, 0.21091694467032807, 0.30433696313653247, -0.033667892454719794, -0.40223454053806007, -0.4510268741999577, -0.8262529482587933, 0.9088027784568875, -0.4893264511282349, -0.2211970346245553, -0.5537889576018153], [0.9188321184833981, 0.39098799218217395, 0.7005815019494035, 0.982272845077282, -0.7795588276325514, 0.17366638620839403, 0.7440399405960072, 0.9996164720044725, -0.24417974073596715, -0.3788957949762608, -0.1700165935134439, -0.7092194974917292, -0.8319060264447784, -0.5907006928095835, -0.16588117905063515, -0.12574585644870728, -0.5972893105377606, -0.4739240008216825, -0.4664890920357123, 0.6174828985531926], [0.9738510930664999, -0.402247199026343, 0.1893957393427792, 0.0919960283922292, -0.8342290716264986, -0.652846476564092, 0.7513140508253815, 0.061177980068608084, -0.47206924448799503, 0.27305932187694304, 0.7287578348206392, -0.010331332690034278, 0.3781142564104927, 0.5427323161214055, 0.24446919382553145, -0.26734842480192067, -0.9949003374244341, 0.8481238065331018, -0.12975937518826197, 0.70177146036805], [0.5303640243796799, -0.9447969288529496, 0.032812707715420775, -0.8614299560490324, 0.21666632001278674, -0.8352998795241675, -0.8617438186240602, 0.41171943585135384, -0.5921609710154268, 0.5782176276490882, -0.8014937232584185, -0.4272879448824869, 0.6660266511993167, 0.6194836239013859, 0.5166270151429022, 0.23970413276230484, -0.4970842468261949, 0.5871022185942707, -0.6692953632130083, -0.27905503037941437], [-0.36748636825694914, 0.37166133590706774, 0.5310450808787981, -0.9611932620315047, 0.48365132737246785, 0.7975573445135054, 0.5339926540110076, 0.349857618630685, 0.011971059180770682, 0.9772569276769545, 0.05613484044813721, -0.2383953349039638, -0.5530614353845236, 0.07489084438995519, 0.8410196009534838, 0.8579856010896789, 0.10381611998938589, 0.17925546142863458, 0.05705021696475887, 0.39788429764584765], [0.8217879917789976, 0.7130080189434396, -0.9378627857868738, -0.2727047971695633, 0.9782469694179188, -0.9963342646840272, -0.7026694420609891, -0.819073207585028, 0.6472780400125306, 0.18183947634787145, -0.39818997881673246, -0.6722745709633429, 0.6489390663408459, -0.589773611385533, -0.5604084664444449, 0.36788444673032017, -0.5173939295511103, 0.9018098335699951, 0.6117767239213971, 0.15516458567308566], [0.07170428981904653, 0.20774715217097484, -0.42983795325809404, 0.15254976466777803, 0.9543291311803497, 0.24076869516381416, 0.7338963303834152, 0.9427299719690738, -0.05684382193103654, -0.1257285079996635, -0.3784573675885794, 0.3189496789290607, 0.33909395558433864, -0.8655857501111803, -0.7508721380701755, -0.24258714562312456, -0.911228088132702, -0.3807088978710278, 0.5766723889366778, -0.3220068625759267], [0.09182557284374537, 0.23144882819365864, -0.37090722783552543, -0.3838195494354024, -0.4377996748344051, 0.9880338573657585, -0.6948316770720349, -0.6344421697201736, -0.8803052921250436, -0.43247328949416475, 0.5263091791198218, 0.9558143964746395, 0.8250280737266851, -0.8601526857494843, -0.7419600754976323, -0.10129954248378281, 0.7724667942110841, 0.5109454127732018, 0.7793506170493614, -0.5854142258908086], [-0.3672818305680252, -0.26712888652607747, 0.9845563055724813, -0.9703754185559041, 0.805100011915951, -0.19563516259625957, 0.7413079746619202, -0.2587470690425244, -0.8978373580037426, -0.4282616659554477, 0.2340164558303477, -0.5774141343684593, 0.4930803644341071, 0.5875859325870674, -0.13363335586608738, 0.55628683659084, 0.381656875790122, -0.41213267304341206, -0.6686049897094861, -0.6891270084050909], [0.9158668478326821, -0.6557334362202198, -0.9126331027998458, -0.37464329517368977, -0.8476356801687817, 0.5465611573065172, 0.38558285707918394, 0.17551659006890907, 0.4829156124773333, 0.656277204661398, -0.5227013405561995, -0.8020114051421503, -0.8832632007780532, -0.2259074309735405, 0.3692544028942415, -0.43621183634209926, 0.760036094686958, 0.7445045125516923, -0.7432753559131664, 0.8914252196049262], [-0.9735905097747286, 0.5676049757457202, 0.01603000199413951, -0.37979067690243107, -0.9063750787957758, -0.2695334509278544, -0.773778136726226, -0.2919546993416804, -0.026255411839418485, 0.34040659044705146, 0.8207921220804617, 0.15693050643474482, -0.5576228840215793, -0.8727497638595387, 0.7791680618261856, -0.1846223391253492, 0.6201252684854706, -0.26235403933333235, 0.30151923938040026, -0.6633195816347075], [0.008834183073580526, 0.9197759818001598, 0.9460706843628364, 0.9478060847256633, 0.9564586470344982, 0.06630363074002776, 0.0531655679056795, 0.22842376569839207, -0.9280749505267281, 0.7702416543888899, 0.2985819611285654, 0.4791803655450373, -0.2679559993437204, -0.8687418620233449, 0.21085801139131566, -0.4482467856936794, -0.6332426823568447, 0.8732346236942412, 0.08434233996443363, -0.41624421084982544], [-0.3956058239818354, -0.13851516968519628, -0.11584269014835935, -0.23324682728894874, 0.12703876988976215, -0.5923442219245807, 0.13129821545297138, -0.4764364985448064, 0.8938451178630484, -0.5698235384615324, 0.8757880870284331, -0.6885685636630856, -0.24747343411111933, -0.25998820657120936, -0.5183033271907636, 0.4865622343282294, -0.6220033817670623, -0.8768380719485289, -0.11884270960686916, 0.7252845037611857], [0.4352367731463018, -0.3747823139177031, -0.004249137422248639, 0.6910474642757127, -0.19203802216799093, 0.04779849288111615, 0.4490243650291683, 0.19408264844742273, -0.3921004374200794, 0.7333294212460013, 0.6031972114997095, -0.15622176175797553, 0.1326228187485743, -0.996090376956849, -0.8275445165608841, -0.48940282432214643, -0.28194222024897986, 0.9097710942739452, 0.45758089432004345, -0.8721109510158951], [-0.466027774847676, -0.9926820417093181, 0.6129975615795789, -0.23028070109359278, -0.11816808354283648, 0.19663348044971052, 0.9856208762530949, -0.15385582651556562, -0.8590657785928799, -0.22045945952524781, -0.23387940108866268, 0.30491830931758823, 0.16182930221320824, -0.589239318518701, 0.25229258638230756, -0.03407904323078381, -0.7738554477324207, 0.76586832356355, -0.44388712760774074, -0.9546704737872644], [0.015860100768041674, -0.24346563276351163, 0.7890673978404283, 0.17100240286666124, 0.3722597324068109, 0.4096795040822694, -0.4813017853979029, -0.36321331778942256, 0.9469701560497099, -0.840396907553338, -0.783081731423328, -0.1891443886353723, 0.7112928996990824, 0.3653652265641758, -0.13246079726190274, 0.15038141209931344, 0.7569661707891304, -0.2764844348379887, 0.7353231337852402, -0.9130780646855368], [-0.10851646841240514, -0.34659325879611114, 0.11620970405830655, 0.7216149793871991, -0.5515628953905352, -0.30640043458288746, -0.009682472676533882, 0.7952007184484564, -0.5154823138951448, -0.09741704287682174, -0.5275102721898732, -0.21095433646392858, 0.025172284379451515, 0.38448678976910045, -0.6412518223930279, 0.6941427085496554, 0.5306684396229586, 0.37150336435012576, 0.058988189050135365, -0.7288025763686692]], [[-0.5178097418299212, -0.6447593660684119, -0.8858011281375213], [-0.7318118684851906, 0.0940869837805538, -0.3502225706980906], [0.8473540396318764, 0.9690765523957565, 0.6786643495147322], [0.9287959676314279, -0.15525930573109248, 0.3686185333548653], [0.32716245431606583, -0.8899057786712727, 0.36171668836919046], [-0.2841612715097215, 0.5057526251607525, 0.2860321132333272], [-0.1016458167233516, 0.16803737087394421, -0.590765840943936], [0.4435636969018255, -0.31253261698569856, -0.8718420577175034], [0.521681936305143, 0.7172770755004125, -0.5372938554831357], [-0.8384351054131993, -0.7927108547812247, -0.9180303720120784], [0.020557184255546312, 0.629134333140901, 0.2897875243556711], [0.8962753295161696, 0.8101228456802418, 0.8517961968270142], [0.9310147645341296, 0.23785623176906512, 0.6089459921068396], [-0.07582357574488507, 0.24728890598725495, -0.2924075193988471], [0.3450692994726998, -0.8822147438124297, 0.45794530574254444], [0.015190750883666393, 0.7324171700255753, -0.11900034364950485], [-0.8918275337598296, -0.5707222350408727, 0.23293306545023396], [0.549900596981914, -0.2273530270892279, 0.006354127099495566], [0.9423405582638535, -0.10682886392013402, -0.7164305562126168], [-0.6724550766137016, -0.5920128358851029, -0.8617667520008485]]], "biases": [[[0.8072971065670513, -0.5053803781958288, -0.9424381171528846, -0.8866357143729271, 0.4958817222671401, 0.055771917988811204, 0.6835704499147137, 0.27307897989872676, 0.7720128463428455, 0.6938614862050541, 0.6409231318393227, 0.2743150349758887, -0.8765026762852388, -0.19184560459319333, 0.25829025952297613, 0.4474798195055263, 0.046283155796035036, -0.012836796258210992, 0.3131812415070423, -0.579129627008995]], [[-0.04129597517864947, -0.30033463428431295, 0.49097593755809044, 0.2043554769689433, 0.34101123268363365, -0.6709032566480617, -0.9687050605679313, -0.8952753512305762, -0.6746052237129154, 0.39648326576382487, -0.6890442749216998, -0.7151480757586275, -0.19812364346420108, -0.2448846523770689, 0.12686445429765159, -0.3915886872326888, -0.18665571207062515, 0.05899416770519972, 0.5553077059424392, 0.8790402564432858]], [[-0.6715990026027192, 0.605872279491958, -0.32431561527701813]]]}