{"weights": [[[0.8533663779599634, -0.5325463916416817, 0.43494506673665634, -0.27213721407908764, 0.3030464551657579, 0.6883065762777891, -0.7049935706159864, -0.7584227861000139, 0.5168663969463321, 0.7909644299489837, -0.08908995353243743, 0.3357809059173269, 0.41130313969062704, -0.0760940374340604, 0.043486080707461294, -0.10541065484454437, 0.9147891243190567, 0.6947182647967884, -0.2795225888272783, 0.20596345075194655], [0.13247730987027673, 0.9822496086094654, -0.2436518706924684, -0.9350930700376641, -0.5274526374702577, -0.4845978519431453, -0.7193904196771257, 0.35147071242094796, -0.598992354139535, 0.6266540437359223, -0.4659889679975009, 0.46370241781743027, 0.05991254170317539, 0.13495629836652756, -0.7767035256445929, -0.18767183388716502, 0.9363242430051559, 0.9700319571518863, 0.2916651923835343, -0.1515768351559863], [0.15629450313603388, 0.39907174565393766, -0.24028188831519404, 0.33578318968507936, -0.8602160533593164, -0.20428904893691846, 0.8252087148094271, -0.290146184170609, -0.9134557534605161, -0.6202103250277731, -0.8074792337371004, -0.6974209311686617, -0.9025390715416035, -0.3704377432761028, 0.3967458108435713, -0.22570342069590454, 0.8046791710474666, -0.05426488752151015, -0.9647392243481068, -0.47794814523337537], [-0.7426332076865005, 0.35103594787644243, 0.34125277476386406, 0.5788083629716683, -0.6399343314031247, -0.18368295326435158, -0.9642184810662426, -0.09371214170179365, 0.7323235538472375, 0.4661229441041481, 0.5274352627944261, 0.7276936141533727, -0.5849200734707434, 0.08712469097218412, -0.11562659671853326, -0.7301065081410114, 0.7037998626408326, 0.09283606480309992, -0.981996424218144, 0.3924941267294568], [-0.5086706501313627, -0.9078536276616869, -0.5361208756374287, -0.09688043991551853, 0.3988997463835884, -0.34459544205631887, 0.08451252004853815, -0.44157962525096406, -0.9865283817598147, 0.360471295275024, 0.3251704589465265, -0.30570589361581546, -0.881291553579933, 0.3633080058230431, 0.7310554634390114, -0.12172479444496309, 0.5465514488898244, 0.8325056831503217, 0.5305243924307164, -0.43324979448575807], [0.4997999920952243, 0.26205924212304055, -0.6892281687346884, 0.7478638330553207, -0.9391277482706495, 0.8092651222216019, -0.20078121693520923, -0.21748178752346936, 0.3512386732152637, -0.3978044599804973, -0.3748438816122752, 0.29284517359152473, 0.638866364785224, 0.3708827037530962, -0.9615325198758533, 0.017954530389076018, -0.6624311849308091, 0.3380126911599095, 0.8294867771225498, -0.7809783980485621], [0.9852290300801807, -0.2206270197470035, 0.6288841563203176, 0.6592568536647336, 0.13112209207725134, 0.9702705743049715, 0.8339376559226495, 0.8519266803233387, -0.5400903191720752, -0.017820982135451358, -0.24975579411775972, -0.6602942852251064, 0.546900308356838, 0.3859055420687496, -0.40185066483109, -0.7763931291583226, -0.01536878086461102, 0.3140151451601272, 0.3978100419028294, 0.1669713788848295], [-0.8507947698600493, 0.5992670893122798, 0.29432606928091576, -0.5910095735662444, 0.2570322225097692, -0.8941062976298395, 0.28690216621027664, 0.6004203351310906, 0.2602997795649489, 0.19927239419423692, -0.31910233895910234, 0.6399948989504198, 0.2665350943424514, -0.09967510085283204, -0.8736435223513448, 0.5183152652155909, -0.14438482067948155, -0.45940462817884886, -0.3586460270163303, -0.28696021085341417], [-0.3336163912710668, -0.10771548065434566, -0.6823414533758574, 0.7010042085127022, -0.13606661848815182, -0.2456059626085838, -0.10260602228003557, -0.5539116698584685, -0.05606367640831378, -0.8006559439094687, 0.15773206966739206, 0.32417297208866325, 0.5576333990668423, -0.17309956903393764, 0.1907823039957619, -0.100307974746213, 0.5654505066445343, -0.3267499532424367, -0.02626439585651985, 0.1536265463799822], [0.6534085837529107, 0.6154485811263859, -0.9044145325303048, -0.17287655498486387, -0.46478419475717625, -0.342092593996858, -0.8299335977266249, 0.22550130788045064, 0.6431314158899737, -0.7342598700134675, -0.9604019327093201, 0.0903904492027432, 0.32426468312238255, 0.6536416399264124, 0.9746407271278406, -0.6988213529347249, -0.35941440721061757, -0.07299051568214088, 0.06219105488828158, -0.6465619899328581], [-0.6488215752909072, -0.778909636442606, 0.5806075522632022, -0.6600396085857541, 0.6247130877910096, 0.8305104231314309, 0.6141088125795597, -0.6111658738280057, -0.09740886037075125, -0.9139099376628779, 0.03327918120390083, -0.8670342531083544, -0.8061020034043247, 0.040468972780881574, -0.13418708232276955, -0.14082559306863618, -0.8557495059890852, 0.6573054810013279, -0.6647017775928208, -0.23835449763291439], [0.9237013021194724, 0.18550493011524005, -0.841606253401413, 0.22678037749632507, -0.37602301224935486, 0.5310608812778004, -0.1984636247730014, 0.8667760445411137, 0.24668522698412243, 0.4962792717272031, -0.7775961344619491, 0.7163367787127186, 0.023258257286530304, 0.9207109517852647, 0.16043400730979185, -0.2143142035004122, -0.25898061311340115, 0.6114373648584452, -0.716779962215613, -0.6224801559723181], [0.9223672537201204, 0.15147733292394094, 0.4797864313963065, 0.9785783739397531, -0.9246730731292054, 0.14064565249064143, -0.3564539480380411, -0.7666050906926574, 0.22827946262246535, -0.23309677333986434, -0.5705430737037231, 0.7013007588856381, 0.15129639286690888, 0.28264565131261943, 0.8419690759399545, 0.15697994684882488, 0.5455118050972252, -0.21427859472166721, -0.6225977665081801, 0.38105563499336537], [0.9265022143267325, 0.6159811536302635, 0.07512546453226387, -0.32883614640024916, 0.25127113851020644, -0.39389350714161053, -0.062203328009171166, 0.1499591591235916, 0.8272522483835087, 0.39970195035296574, -0.20158234223816507, 0.774627475158294, -0.4441358451625754, 0.5743418395051525, 0.2557606913758719, -0.6726223432299472, 0.8903797646513658, 0.5600630624825584, 0.8525983316269838, -0.9032969237112412]], [[-0.09274692952684926, 0.20558929077251253, -0.8522777733451081, 0.35978614866523295, -0.28508574523498, -0.14787706653212873, -0.6337777232509327, 0.4496891301052055, -0.34260948482246323, -0.872087160672659, 0.7960373692982208, 0.08345627659100119, -0.9380359706215651, -0.04874815208691774, -0.38418958830520533, -0.7100200277681219, -0.9768666240104364, 0.8956025557064922, 0.1566949052142943, 0.9593505889904426], [-0.5431278183678114, 0.332767988742646, 0.6147192598578637, -0.26514765753773384, -0.6090633471558438, -0.207910084294054, 0.7620715330216405, 0.2333536552714104, -0.5545122101183044, -0.1394768065096843, -0.5098611003858964, 0.24533895783098303, 0.9393703536384417, -0.4119384908700625, 0.03567153263770373, 0.9942962833344153, 0.5053549636153818, -0.09379280081326269, 0.3846896150582888, -0.2859218199321052], [-0.33356145209705734, 0.5640188276256, 0.16821554859668408, 0.6544385438418063, 0.6121726056357124, -0.9894268529025865, -0.6467110789015573, -0.7012687839006857, 0.1107091688443933, 0.5137303204445511, 0.4049127472135514, 0.4190393992382293, -0.152741799302472, 0.15321246862013593, 0.5051053852299181, 0.38453340354288557, -0.1946233288033361, 0.8200299752635678, 0.8533991321648946, -0.755674411883041], [0.23624888858912452, 0.6927072511321708, 0.22815575431026636, -0.8970842925749094, -0.7045512562976082, -0.3119703030114398, -0.19723811660863855, -0.965027723308368, 0.7845824374174879, -0.5892429038823683, -0.7436583782260231, 0.5161974200126747, 0.17063652802002527, 0.24196325605113977, -0.36881302508828684, 0.08585195491538977, 0.575883120138234, 0.8853884859794425, -0.2683267379187575, -0.5524012112206962], [0.28106752294819226, -0.36492709767236975, 0.11330184033257695, 0.3877155766412137, -0.7268417486910563, -0.5979421697528673, -0.7055206665415963, -0.43414996485571367, 0.7329945154910451, 0.9150012661991391, -0.6899045019351655, -0.6632436306367169, -0.5993251816816676, 0.6120612794196758, -0.5866910998429751, -0.36252960749689267, -0.8486205436829719, 0.06236954552278173, -0.6642336072657529, -0.8792863612906654], [-0.19430183116536037, -0.42715178060379677, 0.32700872844117734, -0.9541215452537026, 0.8100447176214465, 0.4013849696654075, 0.10008997788440332, 0.027844678735709394, 0.894695666206025, 0.47064974147924965, 0.7325301230477115, -0.5641432611116577, -0.6611480848911937, 0.0410488995204632, 0.9341026384213549, 0.15606604745088326, 0.4901854835446713, -0.4596045535782278, 0.8446858871914531, -0.46210876945931667], [0.9036482952061835, -0.785086016398568, 0.3849396553046789, -0.49703577358331774, -0.09634661247740484, 0.9357673993100188, 0.26760073623932024, 0.4147280403935232, -0.33813929315593283, -0.9790293570331385, 0.4086006275233114, 0.6015301042538941, 0.508438075619543, -0.553520421810332, 0.20075174319653066, -0.6906448916542847, 0.32543430610433144, -0.517983287126055, 0.9226301728452446, -0.5309575075768136], [0.4264511080036817, 0.8455240407180744, 0.04170208658368613, -0.352688964882649, -0.2628183169522491, -0.2549956741197177, 0.14157317749362064, -0.6977360355967481, 0.5749357106709494, -0.6431281569004479, 0.5062130100040783, -0.2777194170771262, -0.8023735704054848, -0.7797742034714954, 0.8814279136407459, 0.4531527696570068, 0.7394984362766062, -0.5823601562888683, -0.7585383360197759, -0.6982725924268365], [-0.6019166933535463, 0.3054201172098292, 0.8332508112874912, 0.6219822294849569, -0.8052863839534661, -0.928802957738099, 0.9789661463253077, -0.5151121691106442, -0.983984941377632, -0.5134369189733836, 0.33732573659395415, -0.7353066261301922, -0.8554672045589635, 0.9780567052295221, -0.6189547889379321, -0.21131872790167017, -0.2103789020475677, -0.4479689936148883, -0.5105028910160925, 0.1396304393126293], [-0.22664331863725784, 0.5742618244673385, -0.5668696822363342, -0.23560816958948405, -0.1747122710222282, 0.31269288819273133, 0.6569383335975774, -0.3090590880036055, -0.7183655200819983, 0.1475636146784336, 0.6712347524777003, 0.4558776797425832, -0.03668642905630293, 0.3422797756286411, -0.8117496329361213, -0.014311013910737858, -0.9211827032851512, 0.9567389253479937, -0.9454566137381561, 0.0310502856830408], [-0.6133058093108728, 0.7556864638482377, 0.3303922525713128, 0.1462015486474031, 0.4396886263875288, -0.06304604070217312, 0.04490630871567891, -0.7426169381996497, 0.511687669258585, 0.9295789060925015, 0.2111660132945108, 0.7858494158153049, 0.656047642910913, 0.2611030678945334, -0.36621914241774345, 0.6819528187117627, 0.9507044960194608, 0.2535301668159091, -0.060520197814100785, -0.03357521854191936], [0.2610393611522386, 0.03748648507141028, 0.941273759357133, -0.7330393788528591, 0.026894403626720464, -0.0062866655714450825, 0.9035974068087278, -0.09510578501359568, -0.3483497415868648, -0.41336636207513777, -0.1686204762054604, -0.6995796226067021, 0.33948290052930363, -0.5180906488218604, 0.1966259548287861, 0.41255428767685687, -0.12436502398425064, 0.6693125636768888, 0.03711285213533122, 0.44317752437864], [-0.6231865744552239, -0.345612152974194, -0.7391974766672837, 0.12404379205239113, 0.6093958136029516, 0.4051912819061807, 0.8485789376266031, 0.9337223542301709, -0.4898915571014495, -0.5248174002118573, -0.27626377254872403, 0.06216212834591528, -0.515864827272277, 0.726862573839633, -0.6632532749191808, 0.7013017253251357, -0.9037597453134034, -0.9545034177118457, 0.2751417160519023, -0.5892988435676361], [0.5217853864020077, -0.808139960181393, -0.0138916675756251, -0.9643456008694735, -0.37113842135668373, 0.5573873601990313, 0.9136857841416686, -0.5176058316966496, 0.9398263498933019, 0.4457257790591005, 0.13263236194851435, 0.4687257059447043, -0.35054888950061347, -0.37464137786569607, -0.5555419779372781, 0.12329524164767536, -0.42120992180970007, -0.27879054501551925, 0.6202259348576689, -0.5061415121298607], [-0.056748770826413386, 0.04060535694458123, 0.7882902022997877, -0.12874388356420252, -0.04522472497380603, 0.23378414840965211, 0.07019612829142319, -0.29214223295643627, -0.8477534701495855, 0.5365238271000816, -0.25496677521845035, 0.7991098858823331, 0.42940919775167585, -0.15032421242398186, 0.17809069015611811, -0.5879759251292211, -0.14213083727404396, 0.5293254220631285, 0.2619449682559962, -0.023799182866921065], [0.5769065426641908, 0.1419525093046774, -0.42522844239684066, -0.1767279019210306, 0.320537601503601, 0.16733589390328252, 0.9774166635210988, 0.1624087110432182, -0.68685567369505, -0.839941123782048, -0.2689836263631533, 0.4789752732234769, 0.2545988030441009, -0.529770303640362, 0.41772732822174574, 0.29935071456752893, -0.7167167001228725, -0.5645307003377571, 0.36181517260116935, -0.7430314577113812], [0.7743518022875131, 0.19639405874402804, -0.8039895095102392, -0.2632248802004846, -0.4565889069251392, 0.6016487658261112, 0.9684374508179663, 0.3499599107096185, 0.6923111032726141, 0.14608068623426873, 0.8322719883274892, -0.5712582582859334, 0.5911597574609497, -0.35349364024783236, 0.8288067082033179, -0.9514709158801022, -0.9244898651674487, 0.14543754436342504, -0.15517890139062507, 0.7052749042213302], [-0.3810863490413634, -0.4137885266013215, 0.7480969164328164, -0.7824922539729418, -0.36622881290857, -0.3183716452667684, -0.5990305745175806, 0.8291313127450597, 0.6434203923874944, -0.13149788383788996, -0.4080320908017816, 0.25171040085619767, 0.6574082097195555, 0.054088606280170204, -0.6159664282330006, 0.1393031571938801, -0.7961755401525128, 0.6720342339324967, 0.2889381144632408, -0.07884070842373081], [0.37603087588470885, 0.22988006329155608, -0.8297149176613832, 0.3486891183578049, 0.41296918421026163, 0.5305555515028801, 0.07800553916271591, -0.7249440629520663, -0.042856395693171345, 0.36802667460206884, 0.522229357589832, 0.9540606716669819, 0.5583115643128318, 0.28575105923509847, 0.287263690183444, 0.9471845547465134, 0.6916906359016908, -0.8111545857458962, 0.612551990994938, -0.4365259947994051], [0.19853558024821427, 0.982601266791711, -0.42280721043116687, 0.19525736469492538, -0.6623964243649969, -0.3708424329423323, 0.4857915135947475, -0.16513029745538566, 0.09368324802491701, 0.7977367924067569, 0.7829144876855305, -0.1432770930145939, 0.7318408186780656, 0.9522524155044025, -0.19041075085228676, 0.6851333782468145, -0.10455267897585885, -0.9261975649650485, 0.9293498953310089, -0.210858773914808]], [[0.08779035868154383, 0.9077067243592387, -0.4676049264683788, 0.8843890887465202, 0.27699845749413665], [-0.24068345113617573, 0.2654950011919204, -0.3889388390209352, 0.3900324117241165, 0.36682193285803666], [0.5032214896150675, -0.9964588856471159, 0.04717623198790122, 0.5815273206859985, 0.6924437191303057], [-0.03915052420814691, -0.9349801806184546, -0.1737482919436506, 0.2780546679828233, 0.9378937322605314], [-0.03850316211417382, -0.9254506296598959, 0.08151933502201825, -0.49405639753304076, -0.2252554027210314], [-0.5168160316782291, -0.005035390896637848, -0.5551626271021206, 0.9314259157820857, -0.575103228290238], [0.7701234724424137, 0.15431675739795359, 0.6171965100701027, -0.05450922615395948, 0.10132127838922012], [0.028311653414412108, 0.5596532666798772, -0.12641498540184237, 0.6430846325491897, 0.8956658417425842], [-0.11354547770760948, 0.3929529977424995, 0.4191617043574003, -0.7121787617062549, -0.198713788455809], [0.8654876818210429, -0.9653703166743801, -0.41956538726538395, -0.19958636280878905, -0.46754965114912195], [0.9123385502439216, 0.11629872637022443, 0.7848853845685944, 0.30033484923861375, 0.018522806486164223], [-0.31154382281738124, -0.7647797651646953, -0.25118517638321936, 0.4542377197440788, 0.6880853079375904], [-0.4324606489572478, -0.04567606752540443, -0.10698015693043605, 0.4251075851854136, 0.6077586019736747], [-0.1600837623049871, 0.9145299829590505, 0.5878978537496797, 0.6859992474325671, 0.9920412015262137], [0.10163818576030303, 0.06351481417443328, 0.6658667893946844, 0.5658836852302067, 0.17273376573422206], [0.6737705500844395, 0.11995766359370585, 0.8845713529329087, -0.6081229743562275, -0.5617433295011689], [-0.09567336463235798, 0.6945672167371202, 0.930178751571725, -0.8012574870751819, 0.5009326716746236], [-0.5975332256277608, 0.7803359877715494, 0.4638726578471615, 0.9659748905854268, 0.04166958127728759], [-0.3775950548625451, 0.4063762638820414, -0.6851558039606369, -0.14898402160391178, -0.11584171453317538], [-0.6169166651916189, -0.2980694466753735, -0.28773909969628697, -0.568957891621449, 0.7725209192863258]]], "biases": [[[0.8581005884111221, -0.8754437180129493, -0.2066896931463844, 0.8118494475452125, -0.14547669112404327, 0.10601991677147171, -0.33024849769188913, 0.025104387212306012, 0.07641352139524216, -0.3749510202324271, 0.7851610286791588, -0.2571169826152895, -0.00190898404121298, -0.236047833357506, 0.6873621351722401, 0.27579555203595363, 0.12476644096002021, -0.609563683296888, -0.546679582108669, -0.21866927197033825]], [[-0.7147630266212552, 0.02829693311871262, -0.6719765784613363, 0.36548781800868224, -0.4355699870868823, 0.47058359073973555, -0.0154733791708479, 0.16456024069866193, 0.16923258633640792, 0.7439977209726576, 0.44951118725107264, -0.6122105472387049, 0.23434302019235176, -0.474350711230648, -0.8948317051074048, -0.27893362370022534, 0.9203689213281572, -0.5423142016403526, -0.9818073563005818, -0.5110088628222949]], [[-0.24294892009724123, 0.6838414109335049, -0.3240029103244071, -0.5876705182895248, -0.4230366921946149]]]}