{"weights": [[[-0.48533690960871456, 0.06510499979583484, -0.5790872989727114, -0.7890553030988892, -0.3852208505183987, -0.9969037584981986, -0.6386960768530856, 0.7650454978634509, -0.9517001229561552, -0.5484721014214144, 0.9163418562763088, -0.3784491293806873, -0.8214711144616034, 0.9252707173494286, -0.5264320586746627, 0.2981873415591887, 0.527123860059596, 0.695912614853784, -0.12235095282797892, -0.6713147984351895], [-0.17453422025893706, -0.44381605649323985, 0.8045474998892987, -0.36574529466837014, 0.3235427824251653, 0.8321014127017634, -0.21205916471119624, 0.8601276029779019, 0.07253230772557906, 0.8443506012952926, 0.8272207957045323, -0.1876029672865811, 0.17147349826080727, 0.7080095189530999, -0.49719284815636744, 0.3389445297149667, 0.3086147850824261, 0.09366462254290298, -0.7557835251018648, 0.5959164581595491], [0.026210521058500857, 0.0982029739949386, 0.723706357753191, -0.6828387669341776, 0.0132927207130622, 0.824012161480598, -0.6751901815151979, 0.7309304125365481, 0.48697565019313105, 0.9706012326104614, -0.6808133323810099, 0.6779018090216427, -0.06568740983968357, 0.34317227462136524, -0.690354902177893, -0.019173401873998186, -0.19396498618660796, 0.9424399968810515, 0.3657421719825229, 0.15924985933472624], [0.4693999579526811, -0.923197226784658, -0.3061836140357983, 0.9923334748761059, -0.3107372685957508, -0.9514624767330018, -0.15678349429233962, 0.2832654717688625, 0.6438260989134388, -0.684054068800878, 0.3159496906378403, -0.14272862934568664, -0.7936482151218682, 0.1575044901868119, -0.9524802025764114, 0.42887683798881104, 0.4822503117493764, -0.7331518274226683, 0.5824303647965792, 0.01812680080530127], [0.9320060974383193, 0.6278776777058763, -0.01466318079055462, -0.600189959502853, -0.8741217027803592, -0.6917917541932128, -0.19289216150901312, -0.19385644731707874, 0.027091188057003723, 0.22720355701320893, -0.8372313599548242, 0.7336982655834143, -0.30981956528615306, -0.12248188478140976, 0.9756663610247074, -0.7500546903205378, -0.30507344359179034, 0.7537287778532022, -0.37755460291597354, -0.31699146849183313], [0.09143552845860392, 0.3177646812552555, 0.715395118515556, -0.9235800314558535, -0.22241320950176613, 0.5633561846622444, -0.8824591439203537, 0.42497126410947406, 0.8947453448444143, -0.13313774369498854, -0.48808925518252555, 0.2744232101484121, 0.17693053831613326, -0.9038642719068508, -0.40312466603299457, -0.9900292737928726, 0.9870297811606452, 0.3852655557481057, 0.9201012436593816, -0.24621099878962638], [0.45051320328774946, 0.2971529070083232, 0.2906507885008731, -0.9309582612182867, 0.8276528835459573, -0.800269195508355, -0.815181557378641, 0.8374212023680832, 0.44747555033744035, -0.2361592680311695, 0.9826813780807226, -0.03629017867533135, 0.5387596305573512, -0.12895695384506656, -0.37110286097345124, 0.9081600814378015, -0.8418484883714592, 0.29433505351350564, -0.16808747274732783, -0.37526645599301856], [-0.9052582856228055, -0.7601511867836128, 0.6948528966016894, 0.9409054451532639, -0.582179358020908, 0.6445270177244466, 0.8259254659591042, 0.3617907545468111, 0.5387221968604581, 0.09629243068604754, -0.17674670779172552, -0.014287718421221562, 0.970335323674274, 0.6460280576454536, 0.8535598254739181, 0.28816556949408634, 0.5940951113160264, -0.7994273396862601, 0.7319838534251537, -0.5823868808401496], [-0.061100011514546804, -0.17370465905653898, 0.7414769158274559, 0.8364180779617065, -0.8573984033852591, 0.1592025700842974, 0.498161692602618, 0.04966874631926799, 0.7893350309679774, -0.1905965269734775, 0.36609005572838726, -0.4989635626386255, 0.6274800664248952, 0.9475911085358155, -0.7721912944838336, 0.36291747728898116, -0.2630124855296332, 0.4752866256433661, 0.8107253030766985, 0.06616034608867771], [0.4616513531308757, -0.951588183219132, -0.5675080459517654, 0.17967393838876577, -0.33712805716521266, -0.39233895481866776, 0.5761038631373754, 0.9221759998524639, 0.797328355665121, 0.205650266767879, -0.9164434301243303, 0.44146426928868365, 0.7799119441293714, -0.11242862503724682, -0.21774173514981277, -0.8408187391663127, -0.47433909662757556, -0.6662535340956963, 0.43487526888898964, 0.5544870328214422], [-0.8938483096654617, 0.003741315573204229, 0.5768557386484985, -0.9859997898986375, 0.07224385705448766, 0.7509654052431305, 0.7023179687597152, -0.9170887802223269, 0.5268147992139487, -0.4950510807628241, 0.5369890282309344, 0.909396165458012, 0.008878074398646074, -0.8185510551925701, -0.9583313060412222, 0.8961839587920313, -0.2146879279160201, -0.6207300696367639, 0.08961693759841172, -0.9016572423258633], [0.771805920851889, 0.8163881262344264, -0.7748983638576394, 0.25385798954100935, -0.8229740186311785, -0.7676766669172876, 0.6449283420730716, 0.3430694375620502, -0.5909054770590292, -0.9132173747043153, 0.13792992094219403, 0.2772568633460528, 0.9555650155691775, -0.4916235442953101, 0.27847528018525036, 0.14755531137195055, -0.014507678089454412, -0.75842801811588, -0.9631958979786146, -0.9660159219374904], [0.47413338004843486, -0.5903791130667608, -0.606772245992663, -0.3830672767505463, -0.134842176119655, -0.9542296103431012, 0.44066836523318087, -0.3324151747775941, 0.8897062624489716, 0.1978665349814266, -0.1858180011590438, 0.36932801815796856, 0.17661195353935888, 0.7886762892309009, -0.1707071745244353, -0.14684883235223078, 0.9268447334071026, -0.042731604924549416, -0.04577402836188105, 0.1126658024127154], [-0.20535934637677244, -0.9573039839991988, -0.24752016986755976, 0.3106199499034088, -0.8175421962565323, 0.8031483076391848, -0.19832303371112547, 0.6472682192932304, 0.3812291195870423, -0.6221224654814086, 0.04421243729262381, 0.16589245690442778, -0.3502207645013178, 0.6071029242569919, -0.6975476090402764, 0.041887850518845804, 0.8383879195038686, -0.12361710091747735, 0.3970589381284457, -0.011425421724375218]], [[0.9200448201724218, 0.11494773382977885, -0.05596132383925401, -0.8126788129538336, -0.572229636403361, 0.11083290191984951, -0.05224984536134181, 0.4095586528920139, 0.8850365352389908, 0.580610660234119, -0.46531291047140333, -0.6430513269194338, -0.04800025370586414, 0.8400844706826847, -0.033896447493292126, 0.9534773497798659, 0.5205544131576874, 0.651245925269569, -0.5863676721196858, 0.0963737001785554], [0.5612669114416424, -0.5157071512359588, -0.08871340269635408, 0.09818807927501227, 0.6207715438612278, -0.1536245655909272, -0.790717733343101, 0.34051872572749575, 0.25686738525337516, 0.4126054179583094, -0.5901643068946949, 0.2666187468987171, -0.2198839141085147, 0.40214864775452863, 0.2580050064548609, -0.155624635230311, -0.6849801200061432, -0.08883235571828907, -0.9145311199423474, -0.2530562220328616], [-0.561320535385947, -0.25567687883172385, -0.5793226454619169, 0.6698018829984311, -0.9897490124799693, -0.9692732555506727, 0.7002630279237219, 0.45708884317516363, 0.4661255425901305, 0.8593205654161038, 0.259965489231859, -0.28021346533684777, -0.7374436971015217, -0.8826450298049122, -0.5864533706184472, -0.6758305221657814, -0.72305084006112, 0.6256706991214562, 0.667062337173729, 0.5151353702851098], [0.25602026077374385, -0.7620591825261995, 0.7949679134267975, 0.9816282591178722, -0.6770956523721379, 0.6272382035915833, 0.03131178727046913, -0.0038921189456095906, -0.2681498268963092, 0.8613568353260994, 0.9600390834533958, 0.6188280266199455, 0.7338657652532254, 0.6896340019329674, 0.04544520819244369, -0.8118303754118907, -0.06876977489738945, 0.009894602088316384, -0.7203931983123428, -0.6387498151859197], [-0.3461496032748881, 0.9228459258230648, 0.7832301970533624, 0.15625552433401046, -0.06468945191740993, 0.968243032193888, -0.7819240417124904, -0.4172179866558732, 0.562236054383076, -0.35961727518655096, -0.9299993956400716, -0.7789573589356895, 0.9878222220643225, 0.5652142424528792, 0.44664507688541843, 0.3167771575002396, -0.5307353023522057, -0.29805350083844195, -0.24777324664298073, -0.06369368163420819], [0.0657271624725504, -0.6357128083061767, -0.9066816121514831, -0.4112345646821216, -0.5719497696636333, 0.590199483107396, -0.6422627590246357, -0.9639077516065704, 0.9747920082492669, -0.23728037354500398, 0.36569001607807494, -0.5995176749460773, -0.5356051006446854, 0.1729448709035566, -0.807650208371079, -0.5666539606471799, 0.013500522524336311, 0.5868871913577132, 0.019697506703620027, -0.13290709044051408], [0.10731366649314533, 0.6010264138114956, 0.8057057937733789, 0.9228657689737034, -0.46053820770038345, -0.8250205693497643, 0.6312319198851535, -0.7180911854270355, 0.7096244934702807, 0.5659956519148099, 0.32179022879932484, 0.18403750510285088, 0.750618823538489, -0.6641506294901214, -0.43868006365334455, -0.32294464260776934, -0.30284652926628763, -0.45711213206133716, 0.6027301221364263, -0.8989390854125496], [0.9111772296612186, 0.6977057302287906, 0.6942897164568178, -0.856956157610868, 0.03353260834572902, 0.6917111851486661, -0.2713703175990094, 0.4983875976951624, 0.06685795049628784, 0.9884926435539325, 0.03313564455945639, 0.41662471266346524, -0.1317249461996206, -0.5222891685222983, -0.06953500779059985, 0.3601199699334572, 0.7796740070975705, 0.637345519470681, -0.6431572907706744, -0.5043207701870482], [0.18847909933434215, -0.9107915589633024, 0.49114455949421587, 0.25508474899675093, -0.19947157673307814, 0.5337348745405099, -0.7714400537073092, -0.9638171349717419, -0.29976282152915323, 0.1404800813998175, 0.4938058068816342, 0.264979220791971, 0.06201927137989416, -0.5892576360993458, 0.8008291215800118, -0.5667703056386035, 0.5973310509062817, 0.23699695082406214, -0.932207160509887, -0.529879875993859], [0.8609011914096232, 0.05020470360288165, -0.717733221351158, 0.1628532831987397, -0.03642149053176147, 0.828170755144845, 0.6767876493310021, -0.27375776117106043, -0.5091098387517865, -0.7149389898279772, -0.45057287274596614, 0.6713017416862646, 0.7918403364416167, -0.6096091557677223, 0.6979460295637014, -0.24468184300351825, 0.7945310684454925, -0.7021099689390635, -0.14488160935793215, 0.613290423714651], [-0.7156985303038927, 0.573882879786169, -0.24188410540495764, 0.818213198251081, -0.846585709256209, 0.9606964764260837, -0.1591282699867107, 0.20422707260113282, -0.3762439179595609, 0.45271865329966676, 0.2508539742760767, -0.18531710232681298, 0.9648215492658696, -0.20181666383232488, -0.5042448740463625, 0.445467100023041, 0.9988569311639044, -0.8080620734507657, 0.2869939322398418, 0.4366819245826423], [0.006728053209015261, 0.029789995199400066, 0.8188487237056297, -0.44626146752253715, 0.7426869640046996, -0.1865002763473722, -0.1798450466354411, 0.5153866585788796, -0.6640246445526552, 0.7676271152657437, -0.28855041544024007, -0.9332122830418765, -0.7702396123807276, 0.9128477025979862, -0.9061123731616625, -0.7638124563175077, 0.5434740830691629, -0.6505453203492502, -0.36032991761340205, 0.0060341429351518094], [0.8229433244459508, 0.9684485777492713, 0.4071371746353001, 0.8186695285113978, 0.34520085180049853, 0.8081859521549817, 0.007627715899837462, -0.5683269155028354, -0.7900975942196, -0.6421927883037046, 0.11932158749058286, 0.5773878842859372, -0.9424580653424994, -0.7187603464614538, -0.5497965335355219, -0.9928206803404345, -0.8428943489885579, 0.705967171950266, 0.725039698005139, 0.7896863886280576], [-0.010067909404570807, -0.9857382220234341, -0.86789469767766, -0.9220649306800699, 0.7478804539230479, -0.9448763664483397, -0.6287421054391458, -0.8323318699051945, -0.15894614507327098, -0.6107865387145786, -0.9446554256646003, -0.8336896708711345, -0.8816703484266102, -0.7836285583865321, 0.9889199325606766, 0.9664119421424471, -0.1626423120319016, -0.9695359363886824, 0.9942439760904951, -0.13189876714912674], [0.5161773534017755, -0.46348276442461356, -0.26648079596791496, -0.36830450993404606, -0.6818328562772962, -0.8354853037717349, -0.15251958517551611, 0.6937908427005433, 0.2979606358741611, -0.39307386374693487, -0.212220087647766, 0.7911940272897813, -0.16852037753153648, 0.25195401196928513, -0.2650655263113164, -0.37810932928504704, -0.09725031821666996, 0.7359674085815744, -0.2567955956886425, 0.6029940080542917], [0.9234577406777358, -0.3881196455097127, 0.5779928976523125, 0.3002228443208128, -0.6298380192731996, 0.23035668637457274, 0.2768684393124934, 0.45395908067033175, 0.3692833765648662, 0.8051478338911433, -0.6879729206167453, -0.28853877336420264, 0.5440024976596332, 0.44654768062899186, -0.5886340714385658, -0.041840822773917985, 0.9441809881171217, 0.23980857780201048, -0.9965564217610874, 0.3582246745256783], [0.7274959343292642, 0.23488515782060815, -0.14045885110795142, 0.45199544891451104, -0.5806991419065093, 0.5281998781243691, -0.29766090527082945, -0.7946141978434109, -0.9038411161632403, -0.9244838488321785, -0.9746419026320068, -0.8161423970533821, -0.4899098147580154, -0.1227195724337975, -0.05466139528388614, -0.9371161213054073, 0.48070930408154977, 0.9095461423916422, 0.33987229792026463, -0.6474856717456976], [0.932873976681331, -0.9690137320519543, 0.23325450980697737, 0.9281021067125668, -0.6632940578460558, -0.5084830483320022, 0.2650698755853378, 0.9496488797894855, 0.43800283541947116, -0.952393067353311, 0.8233338819172036, 0.13224988083147116, -0.38653368532986665, 0.24135584828301582, 0.359934965607845, -0.801897380067532, 0.5306964762010682, -0.20001232575268646, 0.750503203189496, 0.4203934707245356], [0.5215954543671097, 0.6688600076380231, 0.6653038985462918, -0.17482899186798528, 0.8654122767579713, -0.07077852605340307, -0.9183910695009321, 0.5266207993605976, 0.2718851604878254, -0.23638573022969367, 0.5748111441141617, -0.2850657035672155, 0.6149924302720793, 0.08071935160698773, 0.9502104086754755, 0.6642440627365074, -0.8115763810007934, 0.08883687898834158, 0.7008678138081876, 0.34741319742201693], [-0.45886766992524164, -0.09852289162889782, -0.245030413892378, 0.5408330455625947, -0.05337416257948746, -0.6094611803811718, 0.29367681870839224, -0.11172473551066253, -0.6242371068833983, 0.9364214431263598, 0.2348352034939063, -0.4068133301996266, 0.023477916807582933, 0.8039801461017395, 0.06362931239464831, -0.37585676871868157, -0.6618130108480877, 0.6730194130939382, 0.37692284767170303, 0.18819139891191283]], [[-0.35856319223592825, -0.1978494947592646, 0.6920900016921174], [-0.15762001134308878, -0.9978168200746176, -0.7191329799109936], [0.7976421358220316, 0.9976079319547349, -0.518898295413901], [0.2296981587555389, 0.6013871136740936, -0.9460090565848065], [-0.027601008429598117, 0.6527776889683028, 0.43601020453695893], [-0.4858439455195198, -0.15203997129088642, 0.8222404221668265], [0.30872349497247065, -0.18814857423348297, -0.6657534164515087], [-0.0193437446677871, -0.3858630277968247, 0.9855123335453431], [0.9690219163764306, -0.8047553543609929, 0.08765274551216273], [0.5357184183207995, 0.12978127160536013, 0.5327244842972394], [0.31144844449302767, 0.09734595016347347, 0.7648509653017959], [-0.6169564850981533, -0.790770457544351, 0.7730263789273109], [-0.23644190034387558, 0.44565504927232036, 0.3138494973693762], [-0.41732368953300436, 0.650238544518219, -0.7190405067301768], [0.7251566129669555, 0.6654799975164218, -0.8978738574770326], [0.6860596979270444, 0.3781993128455472, 0.8003585705540492], [0.21216425756436386, -0.23103515351051263, -0.02411903194489118], [-0.9093430967129998, -0.25087746538973477, 0.030190478341532323], [-0.8967320857191947, 0.7056879296840004, -0.7831573389389266], [-0.5560109088488745, -0.36225706344597386, -0.9393855093503081]]], "biases": [[[0.4501469777518141, -0.6850591290311565, 0.23447112283514482, -0.6994078400436965, -0.5403816147157694, 0.7290342382993793, -0.9918059692651349, -0.621397804457914, 0.333855013325411, -0.6698376870755969, 0.08147471346449375, 0.06682464848324687, -0.9772643035337449, -0.5262916323640188, 0.6655182579097361, -0.47623215657012774, -0.3500781397046342, -0.4504151505726781, 0.255618062223971, 0.5923644036587856]], [[-0.9446933210743726, 0.6658797972911878, 0.5567109455042833, -0.6846981630540685, 0.01393296586466497, 0.6850174549998422, 0.051695967900829976, 0.8437384033877968, 0.15025386078657155, 0.13412014812858697, 0.9265747329358323, 0.4341751940931269, -0.9546538800869688, 0.18312287652074355, 0.8384749241316318, -0.012106940823367829, -0.16306970066776305, 0.46317294310455126, -0.19207173344859862, -0.6384590947705331]], [[-0.221262833010186, 0.0698579968948323, 0.399972084755559]]]}