{"weights": [[[0.8380257794197361, 0.8988213949059476, 0.7223535262915901, 0.8643880677333304, 0.0014985754475445034, 0.8162262213110172, 0.030966158781577713, -0.2946189909560619, 0.9851767912080727, 0.8322514357014861, -0.11666911685536441, 0.09448649409292331, -0.27130414161458494, -0.4256769414671755, -0.38644046850969116, -0.6696236420990331, 0.2877824099292756, 0.9317490977686691, 0.6342689823882715, 0.9585574439922688], [-0.5000459459060504, 0.8090581444022378, -0.25189006166956873, -0.6216361436400148, -0.3112312067409284, -0.14298890885043214, -0.3459090627850694, 0.868907546403549, -0.8297921438631961, -0.7388036584973299, 0.8379603499376835, 0.6819920780738837, -0.5934388427285067, -0.42291418216390064, -0.7934843788197503, -0.37880746785693153, 0.16389525054179765, -0.8037332657781129, -0.7068989079926431, -0.49092414649972804], [-0.013509901600667229, 0.7929243140254247, -0.22381680459844477, 0.29466333883196105, -0.178882432262796, -0.3455008630641343, 0.520117031127137, -0.3288507801817402, -0.1277762257009536, -0.7003285265246026, 0.3488180274963706, 0.932981536140403, 0.6904420591771887, 0.5409642325600696, 0.3256461912204689, 0.9491215923983531, 0.5904207224237383, 0.8530076135697038, 0.6295560955165522, -0.3509689854635214], [0.19728769873418006, 0.03511089589239624, -0.5176507074326322, 0.7118319941519875, -0.6491555086001124, 0.8094737162914327, 0.20624872436555197, -0.6133784904264328, -0.7789132602865352, 0.03841129394993836, 0.44877334528512036, -0.9332325431011166, -0.40647385809277803, 0.7457918541969961, 0.7516173463943177, -0.8356446345365673, 0.008729579473145455, -0.09481148091347591, 0.7570844426075598, 0.16554311525003107], [-0.6349466121202136, 0.4948568275792615, 0.24937197469450356, 0.45826943658852404, -0.8705106424540001, -0.32282482910706856, 0.6392796358201007, -0.13961239699533112, -0.4914800640309911, 0.5442232782132843, -0.8927149345173473, 0.9151572302060758, -0.04024008381306321, -0.8656638191880033, 0.9635884564951598, 0.30961723900849614, 0.29252957528937396, 0.16351028575387194, 0.039852572635542316, -0.9841177608581477], [-0.18561960180797077, -0.11571339821532378, -0.183670567477771, 0.6892506208831819, -0.46043884737712304, 0.3708767264343831, -0.04917307077709987, -0.3049430109608129, -0.09646434647472302, 0.07505653439303317, 0.7174233881898824, 0.7158301170608625, 0.1058537822828729, 0.018077850469321755, 0.8903674263645278, -0.5007172013807084, -0.11282539497124455, -0.98554498713376, -0.77545088807965, -0.12283880433443439], [-0.4579635365257242, 0.20840843780942508, 0.8474828299051309, -0.8209715312437924, 0.11516109839135891, -0.3423221045670559, 0.860614545957092, -0.3312898349096398, -0.5701796498325808, -0.6300272283381474, -0.015454003009820694, -0.6343460972590034, 0.10110027606562388, 0.03655662307434682, 0.014441390156777922, 0.8262950267011218, -0.9433016764257347, -0.35705528110869333, 0.11585344824862909, 0.9878080975028849], [-0.8317108775683326, 0.21374302591620542, 0.8923879398147221, -0.5040866228876144, -0.3041138543066577, 0.16341960104962738, -0.3685482518346799, -0.9733792941955797, -0.872004495073365, -0.1006054815895614, -0.33090340054496625, -0.23816878161753863, -0.4632721494205674, -0.8055468773253747, -0.3459866408154322, 0.6760962160874164, 0.20704636355428452, 0.5451212039083733, -0.8821894086013589, 0.7474487846134308], [0.9379709857020455, 0.22885449105874134, -0.2756184791152634, 0.4680971751702838, -0.9316684307275087, -0.46269064423594597, -0.8716135806230212, -0.047733716402216464, -0.5343048909631221, 0.9027427997156123, 0.7731953425109412, 0.4593690144539959, 0.5393277620052925, -0.041038436901449815, 0.3749460437353589, -0.21845329278824033, -0.2874517537187178, -0.2933975540410074, -0.37881785669025847, -0.03994306585882934], [0.49987585660819533, -0.8112756655784001, 0.4454498833588929, -0.28860027593178983, -0.394618690940328, 0.7568626518485724, 0.4084347823460459, 0.4827017797792825, 0.6776748056884172, 0.9170580424985513, -0.16216542872203088, -0.05003477846118809, -0.4179892623280983, 0.8562996381791284, -0.15879406676048835, 0.20441343982120275, -0.724588924222326, -0.8755843146995796, -0.8790834548810349, -0.09559294596539658], [0.23748859596043914, 0.7670625962575321, -0.656988968834759, 0.5248535245217887, -0.06807040864723635, -0.2757808261986334, -0.6289378331504041, -0.3578045249764412, 0.644978098742377, 0.22400863337062504, -0.6901158612044505, 0.7047370958450936, 0.8879525135094435, -0.6414831247182462, -0.0983670165049999, 0.07712311367609215, 0.2679139360476652, -0.7533957606557522, 0.46583044476936064, -0.5115154605982], [-0.01620693896703651, -0.4600517895070504, 0.11773703021675241, -0.2648794271631152, 0.9972005217955857, -0.27192594487621213, -0.8597868944264968, -0.01817817598921856, -0.8086612667229764, 0.5247987203469977, -0.2744650556514321, -0.2436281753735665, 0.321370020287318, -0.6060396854559313, -0.6388818477465048, -0.8494222680442536, -0.5422323925392285, 0.32512320598175215, -0.060853255952095564, -0.12829325317893803], [0.47562062971305763, 0.5842915031083868, 0.041144332202195155, 0.966252146694782, 0.7857597179970499, -0.7953500295656253, -0.04852836696425711, 0.23944473644943454, -0.5210358713010406, 0.6893840007842145, 0.6675349089179019, -0.3216984654202504, 0.771564152434469, -0.553963326303881, -0.5896079867722728, -0.2636850549517473, 0.3782599429578193, -0.16635727373644138, 0.3949520039331511, -0.9741620230629091], [-0.42351812780663933, 0.36289670512435435, 0.10583527940956228, -0.319372326876612, -0.46647434744552974, -0.3044517469665504, -0.6533632726343082, -0.8875659825184135, 0.18202349256297, 0.7632899666484867, 0.8423170275853507, -0.48257821306859894, -0.9339552832939295, -0.17469060107875412, -0.9111895486661041, -0.4757603139547759, 0.0998934152854043, -0.1455066504611675, -0.1974755862824944, 0.4912626661684285]], [[0.8253936086510869, -0.579826637399363, 0.7646333689267748, 0.8101836639310329, -0.6104161898086016, -0.5777750933017183, 0.5495530259194952, -0.8838942770289844, 0.9659784904215356, -0.17301964979127682, -0.14521109971362955, 0.6733140629557255, 0.16874640551937237, 0.38709200714502034, 0.6992976615136561, 0.1756635160580995, -0.8858814153995611, 0.6038360953694035, 0.7257083175588956, -0.15253581462075516], [-0.2806805460546904, 0.16135591366423907, -0.6688597272634678, -0.08450556675905241, -0.5482206613701579, 0.3111526790945398, -0.9994308289343061, -0.7454152981109599, 0.3756672232002922, -0.7511851379370837, -0.7141300230099212, -0.1283326817303756, -0.6616099813059559, 0.18549482362664382, -0.7866465378645549, -0.16374952292707712, -0.8826147130802227, -0.6808197882612086, -0.474562386576066, -0.8126823914705437], [0.46864496010031687, -0.7495961356858281, -0.5611367142953076, -0.548784731723625, 0.47437240439214934, 0.5375731369897105, -0.12173460120000557, 0.4077507703160159, 0.18940232433525495, -0.7651725833667242, -0.8235052055975998, 0.10943450233529184, 0.4353900731122349, 0.653741876704335, -0.5944241753495667, 0.1979216453797683, 0.4708707596137762, -0.3090102125956933, 0.9853994914414614, 0.8949821052318667], [0.6025666175511573, 0.33603091839962307, -0.5308410091315816, -0.09481497499484881, 0.7977224568016505, -0.824191747396052, 0.03220241685538028, -0.164997185030759, 0.832568825293829, 0.9444608996656834, -0.9369753056444718, 0.14159060976822402, 0.9231658907470193, 0.2838457583407168, 0.5800665326063299, 0.3460738076436456, -0.6415120056807537, -0.7776180560659054, -0.44867856417594965, 0.6959394526163845], [0.3012519651366794, 0.06891207314366321, -0.8827942207411656, 0.6161072263001854, 0.32691704119681453, -0.8223969672639775, 0.7584800811139787, 0.8802576799213233, 0.7877621584890979, 0.6602360714819646, -0.837301853369083, 0.6473704951181132, 0.7121882163112814, -0.1829412571804898, -0.14223227593292553, -0.6440066613022448, -0.6605155947245711, -0.8349229759250849, 0.6693358441121542, -0.9966398656703448], [0.842637401456853, 0.16442209298241628, 0.6292230045150022, 0.5924362236052847, -0.861522297941216, 0.1325028341987562, 0.22942946803440356, 0.4224881380226957, 0.41971886204667097, 0.1393702144074993, 0.908761724380925, -0.21243456460523835, 0.059466368854720786, -0.019327162213949478, -0.36322792725265685, -0.9371192806574216, -0.35378756597659367, -0.8519881590933138, -0.430832215635204, -0.4449487861626531], [0.4337031682164978, 0.22267167811192556, -0.4461982660730559, -0.8570228994651365, 0.2724801304509794, -0.33001012104314453, 0.5087518888010432, -0.6727715983530429, 0.1454363326914503, -0.07219696681955501, -0.737323345800236, 0.30041569905445065, 0.7951832766215854, 0.5273987711235808, 0.6998928735767198, -0.7076859879367114, -0.34693398586543633, -0.5789755328117183, 0.9659489822729967, -0.6358473557388284], [0.6531424581267342, -0.30632620212742556, -0.8597023777611452, 0.01962554293153751, 0.5223783774963902, -0.5641812952564267, -0.2137979591488539, -0.9928165774096454, 0.4221146681147687, 0.19696893271414995, 0.438277505420138, -0.2520613656807813, -0.4697678952190738, 0.009897662342539748, 0.8472858004086754, -0.8650634579673862, 0.38889830259342273, 0.6917779852528303, 0.8283709021449719, -0.9807209354423836], [0.4243362396674679, 0.7003280237167755, 0.30040433600529015, 0.06313356795863911, 0.31931298066508673, 0.4289249147566818, 0.6596025366796654, 0.8291730750895545, 0.4914898679052162, 0.6494709776898486, -0.7642230240341723, 0.9411746295574839, -0.44059556493839813, -0.4157493347374588, -0.9733388872260156, 0.5520580026766284, -0.5832451891629804, -0.21153507823827278, 0.5010437550782196, 0.6050417470231508], [0.9419338303612987, 0.0028795002800672265, 0.7432979343408155, -0.908717239043324, 0.9571862179907709, -0.5600668804151208, -0.11049028286071683, 0.21006430060348857, 0.5657636487205664, 0.5338972770104382, -0.18142681578270436, 0.11999100505154203, 0.5473126973583069, 0.3347465684923987, -0.674603430293683, -0.9594571750399972, -0.5886888693424028, -0.36061142957934034, 0.8755337865733352, 0.7846398244281225], [0.5380527564000088, -0.6904481052010933, 0.6837416107384271, 0.37464801039789064, 0.22852306748715034, -0.5504377019091655, -0.7262249284554658, -0.40751742506852495, 0.5854204766635427, -0.3810810163576597, 0.3011563513353166, -0.40090591275445076, -0.5552679448970077, -0.7634613027955226, -0.06399853613903228, 0.9425394406156136, 0.28380083926521826, 0.7281467328907145, 0.25494631470487406, 0.5675857091308723], [0.035932653610736276, -0.02868605565257032, 0.5617450746105528, 0.16634844757070089, -0.004331445778046561, -0.7301985093500689, -0.5544647155031093, -0.22238512431024193, -0.917274519680009, 0.15595672410046157, -0.7967337013254376, -0.5159984998023677, -0.9624116018591551, 0.35562086501187995, 0.3665427128368979, -0.9515842487990718, 0.470750532103414, -0.9622878777559436, 0.8905205741226445, 0.47604338863780726], [-0.4375802434642102, -0.11759048504150216, -0.597293251361293, -0.4222266618179886, -0.44822828810620585, -0.7975440593819256, -0.8063083369200916, -0.35962754507445926, 0.40308025700979, 0.6313028963053944, -0.21961840269153332, -0.4222492058837355, -0.9184959014657337, 0.1439504414595485, -0.8252267435522371, -0.40758722394362534, 0.7412017106439095, 0.9113381522287143, 0.7416268183848709, 0.11826187416756073], [0.13127785678086834, 0.06915798529521111, 0.05013958145830211, -0.5766244213517819, 0.31052402953868263, -0.8903311306158728, 0.06968739913273292, 0.4614432706131668, 0.13387554703849136, 0.03568891930485307, -0.5998928652524536, -0.17060153050097737, 0.4803791700390534, -0.06771264235495722, -0.592348787321203, 0.45310422076904855, 0.8599879394622765, -0.9960418606516852, -0.43932107064065185, 0.5275584041615642], [0.3620683506553912, 0.6477225145931569, 0.9335289757762879, -0.2701358516493866, -0.41418438154460957, -0.8732613398720994, -0.9366038443885847, -0.24296845895890495, -0.26477889011567024, 0.49361726828214914, -0.9694712922374531, 0.6543245842187249, -0.07986393443567552, -0.6996062727283237, 0.9767908325648285, -0.37360311626790854, 0.9039991584155689, 0.42040752496706624, -0.6781168561027466, 0.18683344334307228], [-0.161850429709955, 0.834009823863946, -0.17527607909903975, -0.08412324501071078, 0.08902639454853678, 0.8705552695369085, 0.38285278995948935, -0.1501547868728259, 0.02576568419159675, -0.4560729760793709, 0.4745912156176213, 0.2847236216095723, 0.790271472562782, -0.42880126576400546, 0.8335691578037288, 0.7072765389281417, 0.8972479698768316, 0.404856047069289, 0.6593709657688593, 0.39807095905910916], [-0.5255118683494804, 0.8563784757388822, 0.14811480226804852, -0.562831070547213, 0.5890186465331511, 0.08273404185619992, -0.24653500651439542, 0.9987808331768624, 0.4425898738975451, 0.46263473253183607, -0.7513899608581356, 0.318224288127567, 0.8002812012025791, -0.2584719766876593, 0.2309438539997919, 0.6479612796440144, -0.2006727128434893, -0.6696047880564613, 0.8085853246338268, -0.054712424450847896], [-0.9487974088538109, -0.09736622840178866, -0.4673418351356311, 0.6806845508139729, 0.5062013716699625, -0.36480055565079983, -0.29780034727362414, 0.037146839054684744, 0.8849486457219611, 0.6780324269868117, -0.04170761112077881, -0.9704170816721334, 0.2015050596843957, 0.0769065479260238, 0.7734247622616599, 0.5847218414343189, -0.5256394347804165, 0.8756064820111142, -0.61274962940924, -0.11991000829508325], [0.11869229901045841, -0.1355551050359014, 0.14597085990396574, -0.841730198907586, 0.3244520550766943, -0.23333280664778067, -0.04269728857225008, 0.5343284989794277, -0.29565569127064495, 0.2226697821967698, -0.027444038225461487, -0.5102312844385122, 0.6233648960415299, -0.9059592025481265, -0.47986415837528007, 0.34034061031855045, -0.855255540706847, 0.4244188489824938, -0.5977452137397827, -0.478529629632072], [0.10965824634843657, 0.7883392802716342, -0.4782925302505865, -0.2630103155133836, 0.6183581188664806, 0.7225924486167035, 0.5594950115985344, 0.9510938536664755, 0.27280097264010483, -0.8083774089113811, -0.5468719862559623, -0.9947434273432316, -0.7500587170288502, 0.3489864393782447, 0.39829653645864194, 0.07812510864419586, -0.16916264321646124, 0.03139209603840554, -0.658418675761163, 0.37045915225602144]], [[0.4242117723826264, -0.5153582253163285, 0.2184207784004515], [0.23148972892033703, -0.7460720706051513, -0.939747732966868], [0.5330755402706566, -0.43673285858769684, -0.42529544204204917], [-0.41289883681602135, -0.9886232917296667, 0.6797497242599144], [0.47627740739793434, -0.3683789971692699, 0.7737603238528685], [-0.29736903504327983, 0.7811783848166849, -0.8375491175973009], [0.8467737671032218, 0.6172634834763471, 0.5044120257615372], [-0.5964526158782015, -0.9382525996849991, -0.7854956894883305], [-0.570552893512698, -0.508086074299331, 0.6204209657251656], [-0.45692659420714055, 0.20005748067992046, 0.6307275223117039], [-0.34046352021853177, 0.75430501967809, -0.20904320670330656], [-0.85423496536822, -0.23537297147882308, -0.5392982906798096], [-0.3087121107727475, -0.28293372809097006, 0.9271579508745189], [-0.6458543757586388, 0.04961517851654551, 0.36385144680908876], [0.5871812840085779, 0.3787302222921831, -0.8168574274196809], [0.606124954694375, -0.08933929596973789, -0.10696216753418253], [0.15786584200524145, -0.8477825503547713, 0.8416217458184028], [-0.14426994627528544, 0.7421015673737972, -0.9228015536201719], [-0.6404146952424137, -0.86531636102458, -0.20597700606096736], [-0.3525761780005101, 0.7584383633421496, -0.5492268972360115]]], "biases": [[[-0.4988600561366734, -0.1676879782560865, -0.9408455382369816, 0.558998010938164, -0.03149857680244339, 0.7186352212515039, -0.42639869752469384, -0.41599818153304, -0.7224871216470985, -0.2337882252902994, 0.37549156057314526, -0.8074133917682247, -0.4986316784191722, -0.5187660366555658, -0.868353529270055, 0.25760233772373464, 0.738466816454479, -0.2558131341444383, 0.30022581962373396, 0.9611506050705636]], [[-0.3952949449367582, -0.7395184393354461, -0.35803736224639127, 0.5401868434922563, 0.7965056662349261, -0.7892918958267787, 0.7179612660536645, 0.09177530711768589, 0.5416333356902903, -0.6405815109970636, 0.6994927898686489, 0.8737480763488095, -0.4624054764801553, 0.7421293352203966, 0.264813973019403, -0.3242733697938398, 0.8963839278800141, 0.06287235136051628, -0.9904689817573005, -0.7407872289525979]], [[-0.3028347540112366, 0.16456882407046947, -0.2378817008198344]]]}