{"weights": [[[0.8921415775995405, 0.600742381428542, 0.8161284945012293, -0.776415115206881, 0.6522358736023672, 0.7973703180666061, -0.8210670026511948, -0.00737804709049894, 0.1681455846485378, -0.5423155755708835, 0.33344587853344176, 0.3998322660099496, 0.7874777660801142, 0.8080584833897422, -0.3091725820611142, 0.9454986466919604, 0.6538421952448217, -0.9921790424321941, -0.11014668220465595, 0.9800461288349316], [0.2161052482468595, 0.012369169506665001, -0.547587772784913, -0.6646362391396099, -0.18406502010052117, -0.32843478118191327, -0.8660872543908364, 0.08940953902367132, -0.4318012474541557, -0.9552453236766989, -0.7955963003259543, -0.5135890064840738, -0.428681217179139, 0.45663519249814444, -0.7803490177881867, 0.1703832644707508, 0.07528685119990497, 0.5843975864485769, 1.157429703813051e-05, -0.49639758281126256], [0.5441312417747799, -0.4480376856529922, 0.27048853570768583, -0.36340033381329273, 0.7638417802054256, 0.8552852053130784, 0.1583357165853252, 0.22045540660456875, 0.05690743667673703, 0.28066030506182793, 0.19825611364220808, 0.5394346135305608, -0.14546183893630094, 0.6796019624256655, 0.8530586189536344, -0.24980366469424564, 0.005497438460815074, -0.5610715349154607, -0.1255967355265708, -0.6945189375376508], [0.0643480883086589, 0.14087896406328881, 0.316786960755453, -0.16087149109015764, 0.5404405311915361, 0.5948370215218339, 0.5981300636217843, 0.734083019949175, 0.732927933908077, 0.9040838175520056, 0.10236648443531804, 0.23452627672334203, -0.21322953351122553, 0.891422227430444, -0.9590497757806038, -0.8217583455573703, -0.21749609935360592, 0.5333831125619255, -0.3082039715248843, -0.652980196767438], [0.149957626742925, -0.5263215994035297, 0.16195657258163987, -0.8644857388430074, -0.7902010643502428, -0.5437961726978007, -0.9380432019841334, -0.07038563405100029, 0.18028032088651136, 0.752496731392881, 0.8748373503737654, -0.36182937214859257, -0.588536377473692, 0.040326457423895734, 0.1585839896835055, -0.6409684900755483, -0.6504962990230942, -0.21697561809467225, -0.17193352607511359, 0.43464552468420736], [-0.6931736793433618, -0.9894083651227858, -0.4808137553225411, 0.3051555634587344, 0.04611025874405872, -0.7774646888853127, -0.19902006861649513, -0.1034769512956486, 0.7098761578322279, 0.07236035864213108, -0.8778355080216793, -0.7789638007117179, 0.2630129597037172, -0.2776450825185961, -0.8762885542783891, 0.30018416203988285, 0.8860542614583893, -0.9030238725858553, -0.5911482038530453, -0.0999487569153441], [0.6976222626477102, 0.09963234668001686, -0.40777356454655855, -0.7260175790912557, 0.9378940059847509, -0.08287111146702664, -0.8659501784370436, 0.9853150468230356, 0.4530848040759521, -0.7057401234006622, -0.30496225334783866, -0.5881768724210661, -0.9613014709710201, 0.567180519712366, -0.21559865931050437, 0.7994688382513169, -0.7451807223889664, -0.22606361536728392, 0.6112843276177042, 0.9159536563794859], [-0.03651819880708951, -0.8148827252400013, -0.10756270093656672, 0.09313039484814323, 0.13186325139732613, 0.31557267745747053, 0.9252357493025425, 0.3994440259944083, 0.43321436741637087, -0.9261050384389036, -0.8475630532778575, 0.5226874317465169, -0.9035886093241721, 0.6026664291446524, -0.03930643243393628, 0.5687360374661661, 0.5421699035735297, -0.2951849790390615, -0.48741106515880905, 0.17551792454127768], [0.10263100430098615, -0.29906098521535407, -0.5231684129342773, -0.5446892905405334, 0.9996189299109774, -0.4829709354754481, 0.4530448785901857, 0.674552010474686, -0.40847600004972806, 0.4100433617320083, 0.7289818609065224, 0.8014101146457457, -0.3479742654359286, -0.5833990637396105, 0.6081653301025183, -0.8738892180792468, 0.8900501913376049, -0.7466285909645671, -0.48154338547342856, -0.8591416797012994], [0.7330814259130087, -0.06646817064101818, 0.4701830914204921, -0.8314073992055153, 0.47721284209050774, -0.2943994761226638, -0.9917602401384633, -0.49100393029464495, -0.6584652257147638, -0.20243062329777084, -0.7159040697089065, -0.984621745833379, -0.5383063637979215, 0.9965983872851416, 0.4483554894031758, 0.05224423000500589, -0.13276179245679143, 0.7540775551702601, -0.9786308417764822, -0.04499308854264861], [-0.36817708578988717, -0.7042687946638748, 0.041925485276033125, 0.9913849432694168, 0.09009107747956824, -0.7501783493791829, 0.7233665201170387, 0.237378864375418, -0.2379904434383664, -0.9972944918054254, 0.9229468924962025, -0.7293875800478866, 0.04337548684600967, -0.5238940560238174, -0.6540546359488837, 0.7934959228461982, 0.9047901428389682, 0.44564037524739253, 0.6065642972012864, -0.3478735932600223], [-0.31109783788126255, -0.016492136106916355, 0.5638515973897775, -0.5174871717666527, 0.7584385881163762, 0.06443528092714534, -0.04308224860824761, 0.38515566559637415, -0.3894911028377437, -0.3107970724389195, 0.5091302616260682, -0.6354352075968914, 0.9167988190436023, 0.9612180590208941, -0.2010081543994513, -0.23245311668317825, 0.4309554272819358, 0.1274616318887467, -0.32902431839426494, -0.7569242857652554], [-0.7639948836079413, -0.4976373360114712, 0.7377689302259398, 0.6384955970683746, -0.8820672535612071, -0.5331070574333394, 0.2149592908609248, 0.21047167569432745, 0.6114659751173992, -0.7351008377034369, 0.9205694010776595, 0.5327712380101461, -0.6121916468802389, 0.2714443505457058, 0.2056669330320664, 0.7193301221680997, -0.8393106700441002, 0.37319888520628974, 0.45513250384916426, -0.4582885079136694], [-0.8872284087927194, -0.6710255359748414, -0.9239041161795749, 0.9137659042746016, 0.4857749671409557, -0.501568583104349, 0.01678695514421391, -0.4194067664061931, -0.7146075255944131, 0.503577930481639, 0.5888377581645385, 0.4448750034556752, -0.2935306279551033, -0.9383991386802317, 0.8663466106375775, -0.06093947994776072, -0.582869733643073, -0.976551497045437, -0.6760989569574958, 0.7850224512878248]], [[0.41966159011506554, 0.5389805524884472, 0.7046026779045207, -0.03225333523657947, -0.8901733022321412, -0.23908429152334865, -0.4875596760365961, -0.5171760727207211, -0.9431470401819999, -0.08576002150068884, 0.8186580066238451, 0.7232310523301231, -0.23695440819835567, -0.787805469700326, -0.10646384459768621, -0.25980857621413733, -0.030597785673853295, -0.9154084670454288, -0.5693676416518851, 0.29455053373760487], [-0.6197917657382925, -0.17433923712599464, -0.41811883037069864, 0.8731766114366264, -0.29486273487999193, -0.6156205414767659, -0.38567067593324, -0.9148891282665674, -0.7755721269262439, 0.12901013780546844, 0.6096975600851136, -0.6887368854214693, 0.8056588584375719, -0.2112884180633794, 0.8072062318962385, -0.697686925630222, -0.4883235533309054, -0.36465140931358864, 0.8339832713199837, 0.6567389777903756], [0.7149092114992459, 0.08685748052310949, -0.7299944281052237, -0.6419081776914701, -0.49133309267249237, -0.9410491526163396, -0.7824520398930341, 0.4428691048150153, 0.5496791823429232, 0.42122620309215675, -0.6913785643305128, -0.7954020150138035, 0.804243826601472, 0.8316576138195355, -0.11083699127112556, 0.828942185873631, 0.10038205638733055, -0.851036151672774, -0.06988116381198606, -0.6051744603071494], [-0.06902533128785171, -0.888722154028859, 0.9933254286902813, 0.3512395699753994, 0.4082405004730596, -0.6421632681213876, 0.845421115490216, -0.4714355074590655, 0.9307736500978356, 0.5888023278275853, -0.776168157849183, 0.9545905937855901, -0.5930729912118005, -0.8265183491996675, -0.4442166176644613, 0.7745906596123899, 0.8278215502348423, -0.974175689294634, 0.09373671065370237, -0.17357741276244898], [0.9394110360215742, 0.07135636515177102, -0.4224283961280857, -0.447138825683951, -0.29688905447480907, -0.33510627169097296, 0.24602727574758165, -0.9279828003685291, -0.7615753970419594, -0.2941825729095504, -0.15899797837668084, -0.8246546225995948, 0.13420874555518947, -0.9920411893400842, -0.52337697603444, 0.8617471348712638, -0.7441723842487513, -0.4173617903737479, -0.9212465293597576, -0.8753011930603294], [-0.031859525482282214, -0.12721092346079854, -0.7758656989965822, -0.6260497304897064, -0.28146967335804285, 0.1822204201794928, -0.6705402180091817, -0.01641312334238032, -0.17121240894364376, 0.42784168893501473, -0.6040050380445694, -0.24037992393641283, 0.16847595050453856, -0.4765330604867968, -0.08441526827829815, 0.9130134779147077, 0.008974367120070825, 0.8962854839892846, 0.5005601127339028, 0.7117631764820436], [0.637607116050199, 0.21268794334554597, 0.863045693527734, -0.6158764614878751, -0.9920771376654312, -0.7901744209868695, -0.8549239198480483, 0.5959043229882082, -0.7163315272432453, -0.8691035931604021, 0.3216002608999342, -0.9879490241322506, 0.5720030127622528, -0.6918866193170767, 0.4239538524407189, 0.2728414911546233, 0.9672277585243079, -0.4456252091525097, 0.7303122455511712, -0.6193057099716872], [0.30143986983183346, -0.13879537349640536, 0.7886043682571444, 0.9085340484182132, -0.937586542287902, -0.18559549910750972, 0.1297715075621777, -0.1159753658624254, -0.46020572257609094, 0.9399891673855094, 0.794977133392565, -0.09974260746408525, 0.9295664699323918, 0.1737216635414418, -0.0219934389926979, -0.10365634108339883, 0.6187889950597043, 0.7322101986074985, 0.8363137212446339, -0.41088898990584766], [0.8689269538438398, -0.17624982711097936, -0.22548221463346674, -0.5769749701022933, 0.271763065638881, 0.7799318830837285, -0.8345609985149864, -0.6099909739924239, 0.006682125360479185, -0.48397426572879443, -0.13337089497796417, 0.3039378565482125, -0.5599246709195225, -0.7280438580491295, 0.5454024678481411, -0.40977794363482545, -0.11625435435977982, -0.643178405772235, -0.8857382746703375, 0.4761329101739977], [-0.04097789640359095, -0.9805709812483674, -0.30462716994985506, -0.7694316177481979, -0.34432417789450165, -0.09692929104282277, -0.5764108487010426, -0.399397572909137, 0.7619785392508436, 0.7835240184371763, 0.7230377018018828, 0.7180089320243099, -0.3098621524924081, 0.7095318158789974, -0.460085743269965, -0.38683425948070616, 0.03559129554369789, -0.3314279008205774, 0.1917529892820271, -0.2241461999303731], [0.9230292364427808, -0.2534242976871395, 0.04985107300104241, 0.8383404520024551, -0.38633548120905314, -0.4591178691784541, 0.13840043649669154, -0.27942663908107845, 0.9598484417467223, 0.11578248200171992, -0.4679736678128992, -0.22271047810939182, -0.23489246927793928, 0.7671860654478675, 0.8941647033893203, -0.9442208280437516, -0.1665426942214212, -0.022710052221361465, 0.5588578831424458, -0.7243486452428043], [0.41669280145793985, -0.8344851382571159, -0.4403371942448042, -0.9900125790106022, -0.17744673486953721, 0.2313924555662108, 0.4895003511487126, 0.8002876639956025, -0.5562406193498899, 0.4966548775876949, -0.365430193640083, 0.6129579723466612, -0.30126835260806617, -0.23549249302531816, -0.504537634663967, 0.1675361371892825, 0.046728191329215685, -0.3195687132581053, -0.6585806454574248, -0.20847413771678092], [-0.5605473991631551, -0.30116087659386115, 0.45398665327049104, -0.5974659635637196, -0.02355770087186193, 0.49467545971509796, 0.014950143514268044, -0.4950103774100476, -0.53633615060047, 0.8864724387466016, -0.12031403457900458, 0.7775870628555024, -0.6279308020861103, 0.5063914940170557, -0.7248704822139616, -0.5106796445200414, -0.20305222011329804, 0.3374360265269616, -0.27923577034106994, 0.9242499443313088], [-0.5362474383096489, 0.8363612328456436, -0.48308327758184544, -0.34835503675866564, 0.8745225332067721, -0.25339075489688323, 0.6708043608959409, 0.6011856836742113, -0.17015224338043122, -0.2860102584483053, 0.163982752967891, -0.6723603537431169, 0.7247393295000419, -0.03779068678474151, -0.24947093099889894, -0.13909501841170258, 0.6383957153283955, -0.46902957749570406, 0.7923301273956818, -0.6102436535800126], [-0.35226491818369365, -0.15830636748451332, -0.7125751106482485, 0.8643289071438294, -0.9600709766625408, 0.6139381339517469, -0.3784510415612454, -0.600957157811238, 0.29018892414262565, 0.8434554243662402, -0.8861147190162684, -0.07569577166474217, 0.29186441698433985, 0.33244132887325484, -0.263539492728202, 0.20607971457404495, 0.914241219252369, -0.13447257434435933, 0.2968634711185445, -0.8342298118884117], [-0.5377019989932128, 0.5568833493546874, -0.7623209990605058, 0.10026811669846492, -0.5755903612727089, -0.08175022080069172, 0.28549446218911534, 0.7161311255820393, 0.6399190206353578, -0.2904446942723211, 0.4479790646360995, -0.8870100429238275, -0.46905758260482644, 0.26872232425093734, 0.4763513282853431, -0.6191513878195065, -0.36877365429675746, 0.6348829389694792, 0.5102908127843351, 0.2006047703654099], [-0.39647974094489324, -0.1769176105394883, -0.8469085343807901, -0.7135540643022935, -0.861010494442465, -0.6636683146164781, -0.9024744450426501, 0.5299202596587955, -0.2762832456038842, -0.5798657658057618, 0.3273754677246723, 0.009935223953854155, 0.0718296881744318, 0.36893644845230944, 0.8579616080805443, 0.4902967035914143, -0.9740836224152349, -0.929766854807808, -0.9790743706047644, 0.45046371977678934], [0.32971274608170664, -0.6731913292952554, 0.23226883518947927, 0.4608233599555922, -0.9631087701924534, -0.8365230053932873, -0.6266726636485442, -0.451048405639221, -0.7873803873611973, -0.5984221787487531, 0.47222666558689386, -0.05398729857646134, -0.4490536312229867, 0.5329465768351778, -0.9005271916235855, -0.567967122773251, 0.03969134089953008, -0.3846360792826009, 0.3522069209134384, 0.17880326577959593], [0.6334086684751115, 0.9477713936824721, -0.9262372670136958, -0.646044227695554, -0.23869559172901678, 0.8633753723910653, 0.7908305660734078, 0.481192580918103, 0.04476670861781695, 0.5575330387041, -0.8501114849170832, 0.8037019430837538, -0.9205240360191835, 0.09612615172855787, -0.8134318702799717, 0.08950585714706483, -0.8779843558747067, -0.17840658994067193, 0.4713978181059755, -0.7309369896777089], [-0.9538549039339401, 0.27855661807784093, 0.6732873102020953, 0.098565936102744, -0.6161052109793488, -0.14496618909714742, -0.7943795896785464, -0.10522121621814406, -0.8940170321766856, -0.3979412613589022, -0.9693921763615483, -0.509156498478361, -0.07187807655563105, 0.7036785484108965, -0.6259773871257974, -0.7630090760584778, -0.07130695848276614, 0.5222082427753261, 0.796363951107518, 0.3379993487110471]], [[-0.8033424910795635, 0.5560859016741129, -0.11741262088769244, -0.598232273297163, 0.348093273287313], [-0.7960746191812189, 0.5059663125742511, -0.12816969756904695, -0.018667952238249352, -0.9312979504350842], [-0.6862022211858891, -0.29699246672679624, 0.3157336881058206, 0.45001375952035927, 0.45052983899156596], [-0.5260538262786199, 0.08065978550373432, 0.22658081433073107, -0.7031413358600413, 0.1363673926702611], [0.7221204807451904, -0.4351066339933922, 0.7695686698366748, -0.651333783113293, -0.40772136676922544], [0.9791941249249481, -0.9486809325584884, 0.7013354647780148, 0.7968308699563549, 0.5691516830427301], [0.1394144316907726, -0.47357817037946615, 0.44337151330673996, -0.6246889897168681, -0.9040963400375814], [0.7355216774901931, 0.11415557091895723, -0.6337433905073997, 0.5533211634993978, 0.08938705743888997], [-0.8691156980612169, -0.750641187846524, -0.13286009798172316, -0.774365887927722, 0.9697072083407305], [-0.8188110486175035, 0.0012880084875293019, 0.024025646720632343, 0.8206200167493949, 0.9069948200582825], [0.26073225994555793, 0.12499862792733896, 0.04045642389929083, -0.9779361923379186, -0.2740251002809426], [-0.7534047000708917, -0.3653199304483752, -0.1641429265192047, -0.9027175308384532, -0.1753633855318999], [-0.8371827221564689, -0.26946182171277666, 0.5450570923291793, -0.7080567673210356, 0.6860649576617943], [0.14120416098050348, -0.16864790367584215, -0.9133010004740787, 0.28642881083550353, 0.9831168054405024], [0.845343875063655, -0.652091023860796, 0.7853373756118867, -0.9213546165157855, -0.7148179089374169], [0.1636092817715764, -0.6805090182238551, -0.4707105281894437, 0.4871467363445994, 0.9529286142795457], [-0.05778010340585649, -0.5534249505165993, -0.20128262197440305, -0.18704014389808932, -0.15808024725823588], [-0.04600529176343371, -0.862978153001529, -0.05174457505559982, -0.41979100572375505, -0.9913663031718642], [-0.43661949536511746, -0.17002702870584985, 0.7139661800796626, -0.37067073291570196, -0.7678475267078331], [0.8898199794151713, -0.14635685341021976, -0.7300642918134679, 0.6315567477134514, 0.386209663759036]]], "biases": [[[0.141451526128614, -0.16074917943344813, 0.6998918447273117, -0.6685650496925102, -0.1727615548762984, -0.7486698133832677, -0.10551052284466023, 0.7239934973548727, -0.321200046501525, -0.7964730440663355, -0.27249184269150795, 0.728972135648086, 0.5077593442936066, 0.6080202969736022, -0.18673281759376037, -0.40528514875134203, -0.594641423286209, 0.9009270309272945, -0.1523144133879395, 0.02640531094372478]], [[0.05668302106501533, -0.24005223340771442, -0.8071065829001338, 0.4271260664139942, -0.16213004724912583, 0.005336935848838431, -0.48147906122350426, -0.6688483773128726, -0.8093413436339938, -0.8626304229705062, 0.619030360634526, -0.7397745324854446, -0.8591540838972629, -0.5424431454999445, -0.5760269053502394, 0.890895238621376, -0.061124154193422875, 0.7381094691548402, -0.31460838416618775, 0.3117488660364376]], [[-0.5216347070841905, -0.08175813590152181, 0.8935572880575964, 0.3951220250362062, 0.9803298264242384]]]}