{"weights": [[[-0.43507618123479874, 0.693881016212555, -0.6437265689422254, 0.5530643639743951, 0.9193906489214652, 0.1514783408458642, 0.710555938816275, -0.49373758106081356, -0.33456531271672807, -0.4515886887175671, 0.9134498853293893, -0.39785532792812384, 0.6250262599685832, 0.9939565340991576, 0.6429796596652357, -0.7859399250980232, -0.6283243567352719, -0.697459882105673, 0.7820255604078514, 0.7252376349167535], [-0.5174895605289924, -0.42995495743731094, -0.6998991016797667, 0.6937087272218951, -0.27767450448844677, -0.45381255128790454, -0.579619290421368, 0.4093875055774687, 0.7169469319183579, 0.15802169110052433, -0.5750986316766786, 0.7439655408457873, -0.5302687465852483, 0.9842143702080299, 0.8805025083052349, -0.6578000090558522, 0.693771203408631, -0.14222127452454214, 0.07748254370666996, 0.8402600246140195], [0.9245361971157962, 0.830051470974728, -0.7194618432765807, -0.18544161134187687, 0.13939853178450523, 0.5813177336502096, -0.09495763059435824, 0.294520201641592, 0.9796839301619873, -0.12975052652343289, -0.4030110573743144, 0.9073330021276125, 0.06294259534278313, 0.256715853038914, 0.9584388615050627, -0.3716588335779343, -0.5832806046109951, -0.48414497617107943, -0.1340932407554467, 0.3925402825947142], [-0.8783884699512059, 0.006812156946379266, 0.09111653186617419, 0.49186466613747437, 0.8692021439892978, 0.5993359616001852, 0.9126362989696362, -0.4104911735042076, -0.3081953026554247, 0.9943224140769966, -0.3511864611739324, -0.041964592219154495, -0.02632461133988051, 0.12194122916581929, -0.9807149618846358, 0.43932207722348626, -0.10827267347511849, 0.6971036139108118, 0.888984281734819, 0.3244266989146989], [0.9407023739638283, -0.0038936079441622695, -0.5673845527875991, -0.8348862315365353, -0.9580144459827744, 0.04823053608217087, -0.19181212373047818, -0.12068090453841496, -0.6224512897784646, 0.21728580828016453, -0.5234255564568919, -0.73267112768632, -0.7479507890194577, -0.8660835154850806, 0.09454573303663438, 0.7792406235781726, 0.24096518706978376, -0.9289351838213136, -0.10540702019002102, -0.6478888365023177], [-0.9985004507438997, -0.5264287779677224, 0.626157356450588, -0.8393309188510079, 0.8642986261269632, 0.11876002905905092, 0.6265651147297753, -0.5970023301551481, 0.28050565839467567, -0.05983736729202116, -0.1934001787757722, -0.18200098868500003, -0.5547048837463713, 0.3630754959375597, -0.9033201484171105, -0.3164038422137314, -0.05292504194714809, -0.6814420589314747, 0.5937039561181967, 0.8495495862382823], [-0.40206383635367615, 0.33529032523151847, -0.5907580411802906, -0.5661573149390682, 0.43805571679856814, 0.6778884027868584, 0.23070797150809197, 0.6894682173995172, -0.9759589705996159, 0.365527234579182, -0.42584337152326457, -0.34810608959087697, -0.9811058480589667, -0.9618414454679862, 0.9749549722723425, -0.06261454293636648, -0.6074944991735645, 0.5740657857001543, -0.9147065819864337, 0.7015958365133272], [-0.5416705214606439, 0.1092738975633818, 0.22993304875745801, 0.8748704219535792, -0.46756945086934865, 0.4251082900498906, -0.12636615125914918, -0.8064192623277426, 0.7953973364808571, 0.6196755435490373, 0.9217969885126307, -0.6818410982375445, -0.27944142765532587, -0.4601317019615905, -0.5173198402195667, -0.5116604905804412, 0.2588275508464719, 0.007676924279583108, -0.8244593257233481, -0.7399625196167763], [0.20481364582311135, -0.9488837555561977, -0.07461459536413972, 0.5787499356584811, 0.9099352288204734, -0.1572429210198134, 0.1886946456265206, -0.9770655152044116, 0.03862343270837365, -0.7796957179104007, -0.5605076501922652, 0.3332361064639544, 0.6713437699387861, 0.24724360105532472, -0.4613645650328191, 0.06287073121463793, -0.4569239524859465, 0.7052455580676902, 0.4019534749989717, 0.3435363356839596], [-0.7424573887534476, 0.4081088298587945, 0.34859450068613684, -0.6368426646754339, 0.5239817909238782, -0.15332280367749562, 0.6820134339007766, -0.9088341016847523, 0.2022090506284373, 0.6055821840714317, 0.8575481939789844, -0.5649222254406225, 0.18151985143915073, -0.4247645730681082, -0.26511118450191784, 0.10528910188536056, 0.4878322742655903, -0.8313536592098429, -0.335081195599346, 0.4192600646852849], [0.6978597291413822, -0.909109050154435, -0.14460350277783163, -0.841930591280067, 0.2959446124309173, -0.0670346762674876, 0.7773499974157656, 0.02395470525808574, -0.5257934112342029, -0.2268047751933837, -0.8524721831032056, -0.146464037218635, 0.009228739235433103, 0.2957721975567458, 0.6872137129850453, -0.5486972887414707, 0.22320869253492526, -0.3557515473993986, -0.44946816198479156, -0.7213001118013989], [0.5786659353313262, -0.7810895346395719, -0.031169362860360206, -0.6967288847083397, -0.3992127888725654, -0.8501350293949024, 0.9039827402679506, -0.9138685397904966, -0.20462336927015579, 0.9910811747597323, 0.16829458546359843, 0.9619453067702712, -0.5781520262617417, -0.7508896166059809, -0.6304268325219842, -0.00011757202815187995, -0.0163666868145409, -0.8678032696353541, -0.812411076353253, 0.12470964740435275], [0.11882769711354424, -0.922351686512682, -0.14436632508858982, 0.9578797546227025, 0.9245492105162798, -0.29708033210376317, -0.9425281495950184, 0.42572672937218403, 0.9008815749471435, -0.540747285311663, -0.9759089916093109, 0.5724308916906005, 0.2157193820942871, -0.5894439393667916, 0.07681455204038157, -0.9447770163924236, 0.8565073834961974, 0.2621045250007852, 0.39411821045689077, -0.0009223239331470623], [-0.2851752412037507, 0.19953376143535007, 0.8917458581145656, -0.24516756456527178, -0.6569434271078893, -0.022903442627268067, 0.5024728968170205, -0.824170001907135, 0.5418533457928152, -0.29485460122849316, 0.5392591991401263, -0.3372464996882447, -0.7016081366931921, -0.08285496497473499, 0.8195644849941632, 0.9308717756447558, -0.805761106378265, -0.9941002629527638, 0.7134764221611034, -0.49128889727920133]], [[-0.21223865270171838, 0.5112972440437744, 0.8026479453721791, -0.9226677079965566, 0.9213593658353778, -0.9590055067676262, 0.21729622906147927, -0.7358025624790767, -0.5585242484291864, -0.8494887026325033, 0.683615874271406, -0.32921183392079545, -0.5888600867364702, -0.8616685038712357, 0.8683601197284905, 0.6138813152633944, -0.14084094934111624, 0.36368562303817575, -0.9316922511210946, -0.44519385427448244], [0.4330533623938151, -0.690004024776985, 0.7707497609861311, 0.8187440772174592, -0.5841066320887178, -0.1359978712341201, -0.3582811772482988, 0.8517436971459929, 0.022989517008667804, -0.35446212244945374, -0.5125253979700384, 0.007986878714992152, 0.7652550536636042, -0.6704838709681646, -0.31299292115383803, -0.3965839554313888, 0.002670978238153321, -0.2628729981396971, -0.21288081182919405, -0.5592227704678212], [-0.05774648971850782, -0.6179653919658432, -0.3569756095697185, 0.21309423164544183, 0.4085740236650546, -0.330938784201918, -0.278674506115288, -0.7997565631449941, -0.02664461484708247, -0.3161075397299502, -0.7239269352668791, 0.0012384089455750313, 0.1383274251457005, 0.3746678610736731, 0.5616559249634923, 0.8905442369118335, -0.7058445143479037, -0.5335360046337734, -0.6878502879168298, -0.036884410880603236], [0.9941357605043808, -0.8933403318530218, -0.1711613996656045, 0.9928848828171932, -0.6153221415415224, 0.4565789998775518, 0.6821705082555063, 0.3876385332877583, 0.23395713808283225, -0.712625738729842, 0.671917272976521, -0.7936459183906395, 0.9721307345843655, -0.059685631025850894, 0.8079937391562764, 0.03915246029822739, 0.021374831054236543, -0.3969376575044854, 0.6089716385974815, -0.8981955888856157], [-0.16701966235478105, 0.1335181432608219, 0.42164990280409564, -0.029566927298410484, -0.99355002246416, -0.47210829456425407, -0.3923342939870187, -0.3386681915590768, 0.6610687779578703, 0.5292132522319946, 0.24958320782301535, 0.6973492233403049, 0.8492099436498695, 0.9155478332233751, 0.12400905217245617, -0.9858773277277317, 0.09664833448567434, 0.9081632336720897, -0.6899262668643638, -0.47131679384598946], [-0.1374464217087752, 0.8631736560621837, 0.36676647703110077, 0.9625703287567322, -0.6647141546799269, -0.6367800989628787, 0.8719657547088595, -0.7800830641739824, -0.791131382580847, -0.19726884126037314, 0.4262852280708824, 0.015892270794759966, 0.2577432633479093, -0.28587204145115686, -0.8525125867753609, 0.6558627754004878, 0.0076281292546855894, 0.3944842685002674, 0.5034126982223746, -0.47578914921990556], [-0.0010852177635598537, -0.5856594137173847, 0.4123244590617914, 0.7176477312425136, 0.49351570364241315, 0.22733221467959686, 0.9134125041947896, 0.2022120487652661, -0.6655858308959912, -0.22640226280180542, 0.10615533200758676, 0.8390457665889859, -0.8154995393569935, -0.2398541221168633, 0.4365591114214449, 0.16195917579549413, 0.40263358368438684, -0.29149206924619486, 0.18095653737202566, 0.6308538612113164], [-0.7353210338272447, 0.577861025699024, 0.19924756242829256, 0.28982564005620914, 0.7001429455848105, 0.23681973789650268, -0.22829054417492145, 0.5914899522233885, -0.571829106754244, -0.31831926845883696, -0.2971587111922118, -0.47388327294329957, -0.2643251011124861, 0.9864721056161225, -0.8841748585076166, 0.923702202760109, 0.49381094184532737, 0.16277598748220323, 0.0371197500581657, -0.6867294448107084], [0.19482231168319863, 0.3271061018368757, -0.8761515493076149, -0.33119392262144864, -0.09602485408855266, -0.395639263420007, 0.8224598734836264, -0.11839647739083614, 0.9259585033172091, 0.43484333223546745, 0.35101010501815466, -0.526936921560635, -0.24589016192260882, -0.08989159447730333, -0.6742398758483841, 0.2650557239215343, -0.8286704903488462, -0.4151697966219854, -0.08027021647289811, -0.9789301199237388], [-0.4491949535070576, 0.6488848307265955, -0.5477054243279502, 0.23578860595675355, -0.20083975972103052, 0.7876800390465584, -0.3416230190070084, 0.506040384150332, -0.8822787391871969, 0.25924585874209893, -0.1994577839559446, 0.9866558652195916, -0.5727152523145087, -0.5008879261394916, -0.7671315176213733, 0.4015903276913799, -0.3001871553138027, -0.2441877212812913, -0.48283152900298276, 0.5323134214270404], [-0.3189051363050066, 0.2850770489380825, 0.40204441608891583, -0.9941939635480463, 0.7335688689880002, -0.9839885325102642, 0.37232031517726694, 0.6895990834396388, 0.39500154803785237, 0.6154313711340083, -0.21943802497794662, -0.49420948981617796, 0.2706300412612819, -0.5083765895183654, -0.4636672293208408, -0.4523387492868398, 0.0138000326068628, -0.3822318716955573, 0.2955564715090171, 0.5254051707729039], [0.2132912711107593, -0.6965642382432087, 0.6851926974222873, 0.3820042742755936, 0.9702898587454127, -0.007450742252886666, 0.5966373051287581, -0.9991658583173229, -0.0962905140528012, 0.7256316866512496, -0.8017010041365364, -0.8623625449214718, 0.5256249273400913, -0.7265570070790999, 0.7902506305425907, -0.5048089113492618, 0.6267837706146924, -0.5145404707549497, -0.6009942247192999, 0.6901820564147536], [-0.7601748691194643, -0.224185539730001, 0.8894667581419435, -0.27348624532332844, -0.24451762737470006, 0.6954363795111538, -0.9969181746281852, -0.23412085649045, -0.8030886509367914, -0.046176837973139095, -0.8360369717002469, 0.7733986484102495, -0.2038156615447746, 0.7798846840110902, -0.21003814786515007, 0.05185617675607723, -0.6679886735624285, 0.5917058531623642, -0.7843604655553376, -0.675992068962245], [0.339033497640995, -0.6779719696102917, -0.5854142463665917, 0.09592555981140838, -0.02951611925039055, -0.49360449376052284, -0.7953723557035062, 0.5856481746406605, 0.1991108456010584, 0.5400842935890955, 0.08720754003219877, -0.4976137680821273, 0.6862090734876025, -0.6464166715024133, -0.7752358558923669, 0.20946555727901228, -0.6314461323555016, 0.9185533344759265, 0.42103561999853945, 0.5730947175563972], [0.5231309667320998, 0.007870657929680558, -0.3356989957966061, -0.684988629574808, 0.10291755910943179, 0.2831096752907678, -0.5627551281821936, -0.5646651816292494, -0.6380277193304327, 0.9675749757876806, -0.9907814819280516, -0.6891307715532642, 0.905213891691576, -0.6538408487155345, 0.43753136794589587, 0.247556572778862, -0.9753739982347298, -0.26755040922489326, -0.9985306031089027, 0.5640392629298281], [0.4768116673432261, -0.4465127023188804, -0.48118290576862255, -0.30704931277066594, -0.6720577004093398, 0.8229078740938109, -0.671190779107625, -0.6815553625923227, 0.3539991026380469, -0.31887477931224795, -0.2521236787725154, 0.3529923639632311, -0.5572431721805062, 0.1679216431653079, -0.01896844126997954, 0.6348660725320274, 0.9303197461998667, -0.9110035322322216, -0.517700525535203, -0.5534742396306576], [0.3486335679126553, -0.1654199113991366, 0.08508651190251859, -0.3222111332085482, 0.20835663031397633, -0.9210901136164877, -0.9428989044486698, 0.5147526321801319, -0.04131630451748336, -0.25048054069545134, -0.23627827112710031, -0.3529966761307781, -0.8107258840641445, 0.9915231782903537, -0.010271688018775649, -0.2812542312114852, 0.38418380638980976, -0.7714650869104427, -0.5462440989449204, -0.6378000166412603], [-0.8160510006709736, 0.45936468402918695, -0.4671221516247208, -0.995967787498746, -0.46691611550624956, 0.03177538954435488, -0.21694701963674845, 0.3057720925901892, 0.9356680763409557, 0.01739022584141736, -0.34308058795829166, -0.7526293514554181, 0.8707557585382042, 0.05272398497533981, -0.49613202215986685, -0.9900488136643399, -0.6095892303096568, 0.777996267831639, 0.3250662597485474, -0.4158967598805041], [-0.6862334589585675, -0.5923417436514213, -0.04421116989113516, 0.24728018082781178, 0.3644790921141394, -0.8451045171858338, 0.5992461102901361, 0.8561894354864295, -0.702794705215918, 0.16524164904829264, -0.8563143825770598, 0.9974859711691704, 0.3441553004174367, 0.4228532450656628, 0.37442708847124795, 0.094376919989412, 0.9233818597012959, -0.30953473958519706, -0.5163495407392045, 0.1660740619114338], [-0.3330254351966655, -0.09880826609682547, 0.6071749785062375, 0.14669848854963163, 0.6944979921454366, -0.9449366999620457, 0.23150950634539602, 0.6820121107151385, -0.7292895045992154, 0.4463792987180195, -0.7602786245579913, 0.842987214909152, 0.2651967009751395, -0.6677272002065524, 0.9015244249986147, 0.781024044450441, -0.48816003834411403, 0.8207886911835891, 0.07568708827935944, -0.7248091540859816]], [[-0.053367165338744416, 0.7996701592683342, -0.8771953841553155], [-0.9679143665336956, -0.8572016135306135, 0.5342926446045624], [-0.564975274209583, 0.6557003815981368, -0.8703529104788994], [-0.003569310652087987, 0.6314553311150413, 0.3081544855856322], [-0.6162505085379624, -0.9004185595094147, -0.21993262270986258], [0.2990917946284435, -0.04744930422575466, 0.527074890710747], [-0.287423111323879, -0.6432872474262312, 0.09146334988850513], [-0.1789451465033478, -0.6639711983418353, 0.11416569131450638], [-0.502751943872441, 0.2742493280195042, 0.9087338917704584], [-0.9481657116352549, 0.8793917950396251, -0.9167180758943028], [-0.76411759438092, 0.20581892595281737, -0.9748831147860368], [0.8525145589214578, -0.8542102868668884, 0.8004534110439541], [0.8105388209970812, 0.7568837809546674, -0.26679204676635093], [-0.506940648349274, 0.8484318423584738, -0.12557275403955726], [-0.6567307304664352, -0.9445417732215526, 0.32967859120101206], [-0.9028805469812775, -0.3924107275543487, -0.2725253158694656], [-0.8812977345264252, 0.9280273505497891, 0.6092574865682228], [-0.39407014123664474, -0.8859631111493536, -0.2821183556002378], [0.0400684859583611, -0.21268417353794788, -0.968981079272508], [-0.7686758709947472, -0.10120649194579356, 0.9932168778134518]]], "biases": [[[0.9861891374361273, 0.6023453826197427, -0.482622852427377, 0.46417605375154936, 0.3590123397870706, -0.2627749466769329, 0.3700751290742428, 0.6710963306394602, 0.6552624887851664, -0.2797073102009724, 0.1948217008382489, -0.8344847148270729, 0.9871382708253549, -0.8334987330032888, 0.44532014406180864, -0.03448543341219401, -0.6877996598319998, -0.7668175363508261, 0.6843542203185589, 0.26797422277526994]], [[0.949336173269961, 0.42044247965651005, -0.3107247426456572, 0.15549671620978467, -0.42962545992170664, -0.29414787118999564, 0.14483411695666537, -0.21363405561659476, 0.3141067906714623, 0.34493848041648834, 0.9477706683432157, 0.28288608287447237, 0.022008843245876708, -0.16264222878054202, -0.10964706609461272, 0.45416854400953444, -0.49020868932288075, -0.8476294490729617, -0.1359758388592316, -0.6353785685650908]], [[0.02237678660855713, -0.48944533082615793, -0.09111737679071763]]]}