{"weights": [[[0.5724076150644697, 0.2552320450644978, 0.11270528750075304, -0.7602195542526811, -0.2164171965215942, 0.9550319308073454, -0.8052156288322403, -0.18505708028791967, 0.9346044690337614, 0.2934730505669607, -0.7626516707939714, 0.6402822344613628, -0.6168923625984055, 0.3105101691842722, -0.00044145657115168824, -0.5360841289788767, 0.5702987989096902, 0.11655303750300194, -0.5684337623265043, -0.4501303109698611], [-0.7244011797017695, 0.9338296172176548, -0.6475805993288026, -0.5746554994062962, -0.21941436818326032, -0.49544311191921486, -0.6900190758295897, -0.33099999305331984, 0.8532645579211142, 0.6065754988268608, 0.4183317812161931, -0.7918069224122419, -0.0969945797863565, -0.6856662728664518, 0.811878192626255, -0.887360303035353, 0.04392514298197758, -0.28913207624514325, 0.7459892796935776, -0.139450310330534], [-0.1142273771188056, 0.37595354463017405, 0.7677490898749231, 0.0373838947616556, -0.6756465485345671, 0.13448307967345174, -0.7419373359535022, 0.9941191196777444, -0.576630364825427, 0.6116152734712252, -0.3266648159646093, -0.5550703689313752, 0.44333098221162004, 0.579082889120774, -0.8440510195112336, -0.22921127010386466, 0.5465268443793716, -0.8010917725435758, 0.7098912585102586, 0.05818378357802456], [-0.1302108409752798, 0.259344853484083, -0.867133449278195, 0.9418562020010386, 0.4674979517935336, 0.8527847484483522, 0.5446597904466832, 0.9688345974489776, -0.888262448191053, -0.026042138688278982, -0.40489012642627165, 0.3160244550371729, -0.364174225279565, -0.23764195439849845, 0.6716133220990295, -0.50972788728, 0.9530581301978998, 0.3898608610090386, -0.172347628377981, 0.9239369913751436], [-0.31114822530708763, -0.10598070298792472, 0.05900973609675653, -0.6792152114044598, 0.4451136289243236, -0.7689395138671935, -0.22722375687828889, -0.2266149585493542, 0.5866148606772634, -0.6039878555890672, -0.9130745281616075, -0.1469775053220852, -0.3103720297485433, -0.8230808999813524, 0.7773813765824469, 0.44372112922987683, 0.08201084583360108, 0.8662792559268095, -0.2440962608767847, -0.428116124987179], [0.3090624970529574, 0.6803249126758155, -0.1396546632249296, 0.5238957173300189, -0.9258439896044559, -0.09921399940542575, -0.7471592911281697, -0.8539142538702662, -0.04641545275780423, 0.6688555781624255, 0.8979504652335275, 0.6624678223423788, 0.1764856815115956, -0.6469683515274156, -0.591330915105567, 0.5147112689303226, 0.320493125287479, -0.3086079627462801, 0.19211669605472004, 0.6912961905245949], [0.015475841199415585, 0.6532138167448531, -0.008539157428998578, 0.2537835895001015, -0.9532468612310667, 0.7759696143117922, 0.9098477425320848, 0.3517055163748659, 0.010056220816908157, -0.17328195380728006, -0.126559180613681, 0.6912274360867117, -0.47079163050934714, 0.2564632007709664, 0.38333429067988267, 0.13247165759663337, -0.19408955989179755, 0.5026821966737491, -0.9377114710430758, -0.21338882385917057], [-0.8585025731962157, -0.6642540572871849, 0.2663033790741087, -0.02579062761307238, -0.06717517128967665, 0.832275892824587, 0.9154713025144574, 0.31180017201449783, 0.016669709443046576, 0.06857279666402127, -0.9262554220041259, -0.8817474070447779, 0.6454558910521222, -0.562821965540294, -0.6399803289277166, 0.18017177081581326, -0.31685492161771855, -0.5469570746086299, -0.5276741304402113, 0.5760206832946617], [-0.8923833984678511, -0.2194441773855238, 0.4343209831258994, 0.9919344564558756, -0.6040086164677041, 0.3925148437497492, -0.5765231790307108, 0.6240518606712311, -0.38596460295354484, 0.750644215731775, 0.7275575902941231, -0.5121738278572554, -0.12246137399098456, -0.764805125746773, 0.8366537368452001, -0.7880307545642251, 0.8947682187296513, -0.3837966406664448, -0.17386180415514896, -0.8996575269040181], [0.31687449686713, -0.0562050987542706, -0.4434662171238797, 0.11873376198050134, -0.6263481864665592, -0.42037267275691437, -0.6208752068406227, 0.7025380691738017, 0.6610678921006468, -0.8642837907384955, 0.17470433023128673, -0.030814901656970095, -0.6310188867561564, -0.5890455612425571, -0.044719966226043795, 0.9800108387899396, -0.07437128616856659, 0.11887525803702426, -0.18833844114145837, -0.4670782254297432], [0.3698332426850579, 0.9373672433479971, 0.5251392679763558, 0.36007042666416766, 0.11638572541977243, -0.6237347239786248, -0.8835604679948228, -0.915369614039724, 0.2825960119671793, -0.5020094655238696, 0.09737767112511775, 0.05035822099541831, -0.6265477573678278, -0.06749279347759574, 0.22793052201790398, 0.7141884777477507, 0.7773116701124556, -0.3276014135562031, -0.692660427171162, 0.05939584542341092], [-0.8299100861567863, 0.520295994448948, 0.47649695582412166, -0.7953064481451289, 0.7365891358850456, -0.2868257810139274, -0.2837269320494846, 0.5154834615548831, 0.49756500278104876, -0.6188164916513328, 0.33532273822150094, 0.2977324573859865, -0.4483319349551538, 0.35549899996987433, 0.5004690542498069, -0.9340891141855436, 0.9674496997718407, 0.8618606553525971, -0.29014410325602724, -0.5583016712030666], [0.5092855266407117, -0.9428154670801332, -0.5978612506872514, -0.5396474583408157, -0.6304879507594618, -0.008866658178771525, -0.0004935795586462621, -0.4854969217092997, -0.5426843307647433, -0.40932469248579517, 0.005205696551530803, 0.18773197729198765, -0.6077488139214158, 0.8267088458117422, -0.2526766147211763, 0.2510597926223246, 0.7846221180697717, -0.25877690170846557, 0.08752274724787279, -0.1883162283496509], [0.8932638134996052, -0.8422692441629029, 0.42475228835041245, 0.15173065594842328, 0.9005253023235458, 0.7520864826665425, -0.4469507133862385, -0.26535300419310315, -0.48588524887144424, 0.9101054365372809, -0.8900937154561552, 0.1414748178053129, -0.6882959240737812, 0.1394536580132113, -0.027438806137275895, -0.27171727998512085, -0.004371317408867537, -0.03811019656942638, -0.9627661413833926, 0.8088854363213385]], [[-0.2123536902450227, 0.052286681787384603, -0.7808796061041408, -0.7290460591968309, 0.9760103107829077, -0.9881832334352365, 0.3838273791238196, -0.8239803008621471, -0.18756459307361228, 0.2527520172751636, 0.39794786171436036, -0.9033310894182265, 0.43758168119888197, 0.5027771744099441, -0.9228071901289943, -0.9492985383320827, -0.9366135170717129, 0.4984766366261246, 0.18141877664046913, -0.1879364075293093], [0.15514020197843292, -0.6300331045406984, -0.5157439711884602, 0.5881422808853454, -0.07320929403313015, -0.08428545136051246, -0.9938810998727372, 0.5490592161623791, -0.9256935225696379, 0.32820618883127106, -0.5075566254199573, -0.37809667552110904, -0.5254552165884236, -0.7422475154678692, 0.23298436362155028, -0.435915934586556, -0.8300549846284493, 0.8350193781071447, -0.3893869604025417, -0.5166629011086512], [-0.7481237958439224, 0.3893680506917012, 0.7591922979449297, -0.8312445627009408, -0.9166174042695996, -0.7780801753908573, 0.08893085480056784, -0.987019973647338, -0.07906304859423963, 0.5743952167460651, 0.758010345729007, 0.8631663242573246, 0.1398063858173686, -0.22146577366007425, 0.3767234420617869, -0.44152814947077634, -0.24064036492697816, 0.993848680442901, -0.025619010332812886, -0.6471466803451003], [-0.33253603484485184, -0.9397878786114222, -0.852658239368006, -0.9546697425228925, 0.6750232366594866, 0.6315300108755446, -0.04148185374792268, -0.36594148148149763, -0.3667256388453566, -0.09764315375214427, -0.2808177155003033, -0.07647381641817708, 0.3147015898663259, 0.9162842178721269, -0.09320404572185659, -0.15218493809546207, -0.988403776291884, -0.961369644930721, -0.97032444295269, 0.004158026538716664], [0.3539905301747319, -0.7215440486833826, -0.408513001543819, -0.9703938341404839, 0.4582685279365861, -0.3091518919308949, 0.4443326659896554, -0.3464278489023702, 0.008456821981163154, 0.1903711704471538, 0.33681155668232776, 0.47541130655520414, -0.9596952314445102, -0.19203880868981238, 0.6740962451961205, -0.016066674922728952, 0.7497919226635055, 0.43438711681088216, 0.37742602547713044, -0.6094576636219298], [0.7395671448724603, -0.7298048254338856, -0.023565597853749454, 0.0698780991291883, 0.3760157935380819, 0.6750779413653354, 0.5075880498734597, 0.5239521826214009, 0.3126452075314827, 0.61496206808424, -0.7985660123714635, -0.6877690955653293, -0.7010910708938236, -0.9482408047517101, -0.9591246252847714, -0.6113898096539896, -0.5990075896431724, -0.8780902804628239, -0.9324825183844805, -0.12428887605161565], [-0.0696980028807479, -0.24772998900496312, 0.9231143839262368, 0.28893704145197985, -0.35345413151139726, -0.5536077598168176, 0.4261843252403932, 0.03419554768178301, 0.3915568239493872, -0.2748592186023775, 0.1792593458579017, 0.8231109881540124, 0.14559292863575624, 0.9371367550631493, -0.6196588109002261, -0.39327819659979113, -0.8954404966642964, 0.616475944779104, -0.6538257001976533, 0.9938248824610303], [-0.718024339673321, -0.7508295349978429, -0.44917359076986463, -0.9983642220309754, -0.31574372559658226, -0.32097314693965573, 0.2695448173209052, 0.5346771522363789, -0.8373885354315704, -0.09661558977429952, -0.12288565284705277, 0.34467821004632615, -0.6421819929674857, -0.015492156920279498, 0.9938297292114826, 0.8211287015854651, 0.4421165213671372, -0.9723356312984768, 0.5524448085765001, -0.8367309132660428], [0.7165571121870657, -0.41192736431103527, -0.6663623564161625, -0.7031485503577171, -0.9432850047604491, 0.04816314149804324, -0.19730629402752964, 0.2242122951262564, -0.45907456236093425, -0.3816682372883795, -0.5743311595371441, 0.1934883737484827, 0.7787283494867927, -0.7941669539177909, 0.7193186105303306, -0.9607100230156822, -0.8910525552764375, 0.5044700872840144, -0.01515440599475748, -0.07544797468455733], [0.07751832402902581, 0.2046979001705993, -0.4657150745940004, -0.962393843259594, -0.9039283682751043, -0.7680495483676506, -0.5652417418036806, -0.4056337325474608, 0.16127926426332428, 0.3450659507519014, 0.5339294707769204, -0.16154560508479832, -0.6926132094556463, 0.37702346436623824, -0.7913364949767137, -0.2535187271490793, 0.7914370699965352, -0.32251666111312893, -0.817102328017711, 0.5765547791811745], [-0.9735136749177329, 0.0664003928646113, -0.1800103199959524, -0.38138651343498964, 0.38549324503005944, 0.6308041521687351, -0.6250787701363574, -0.5944475721860398, 0.8072181585118494, 0.23615577165882118, -0.3100661621357024, -0.5507885635229932, -0.15187933426685785, -0.013013562674699664, -0.5458551707048684, 0.610339904497216, 0.5512947818674472, 0.6619748208060732, 0.37811358972523035, 0.10621256152434766], [-0.6258116101266926, 0.1568778323731732, -0.14569160367208456, 0.8645160201571414, -0.29015481842198976, 0.7075849529678206, -0.1042388970660888, -0.5487216045598704, -0.3185293915141538, -0.6989485802105007, -0.7372367662930865, 0.643262014496844, -0.4539469788186208, -0.4915578071649136, -0.43643136840357877, -0.3129875846859367, 0.36454834835633143, -0.6642474128496101, 0.8245188663509322, -0.13255274548715223], [-0.6039158267111031, -0.8294334876459319, -0.001698731016231303, -0.8014361724605592, 0.48538647199319485, 0.1913964451251826, 0.31759139688827687, 0.2090424353661382, 0.7715205127594194, 0.9631542225930125, 0.28557318213808536, 0.15577745524259878, -0.4867628340607628, -0.873965618620955, -0.15051183424607362, -0.1355374228307027, 0.8176791429523826, 0.6557776346643687, -0.10167377496468077, 0.8631192709296331], [-0.6693151186554391, -0.18491906234428557, 0.7619279243338737, -0.8150602841703096, -0.31600714819623477, -0.6154740535215211, -0.9702219614867145, -0.8010764939374859, -0.6134009956994924, 0.6492485040408298, 0.46568652893816953, -0.5605843649675974, 0.3476396677052971, 0.8945509413159138, -0.02294714767486905, 0.24735588889593818, 0.19568849052034976, -0.28765733368854507, 0.4328717558397568, -0.0755949579969335], [0.735527701646782, 0.4499831493139881, 0.8028931403856661, 0.829913318173894, 0.6899030241632169, -0.24426928326911423, 0.29344062107091506, -0.22424135075596685, 0.4918129782791334, -0.7810415066906562, -0.7459482011911431, -0.8974797474878247, -0.5710009750476615, -0.3550827893316675, 0.42385293858872464, 0.4095861854785794, 0.3884039480265695, -0.28041247296410976, 0.6398456949362519, 0.8804633283696781], [-0.5092783060272168, 0.0051236771262568315, -0.6375931120480494, 0.5752235362040752, 0.8557947298832611, 0.0771942310522098, -0.7370997977627243, -0.5159977979482488, 0.3543902590719512, 0.6635351100634048, 0.18642261001906446, -0.6615445031378908, -0.7729260723463789, 0.13195400304676808, -0.8539930284497386, -0.40981266699341745, -0.16569387491126908, -0.35278249646858306, 0.09345059033706926, -0.5021942640676513], [0.5797690414159391, -0.9799495186705893, -0.9296840155871573, -0.5371782459024321, 0.31517412267190204, -0.5518330322401366, -0.26726206881433634, 0.3978491271395608, -0.3920329349158074, 0.3715915205736253, 0.16977728368062706, -0.6473695862751228, -0.186044423034458, -0.34796577641811766, -0.8703518529730847, 0.14774822211422034, -0.018447026587910864, -0.9410025911486177, -0.1948910471541332, -0.38718222700606986], [0.5576908611575528, -0.00896154913881353, -0.7461105830296668, 0.8730430972685319, 0.47796343660261154, -0.1248183968365455, 0.5000564198954995, 0.0680546561887101, 0.992845344753235, 0.43630453060884866, 0.34696346873515127, 0.39225093215151796, -0.13254712941822344, 0.25358727030664374, 0.2817036285212, -0.7177704052708509, 0.3863543574208923, -0.026423715511499246, 0.3599629618242419, -0.5566665439806833], [0.3016278647489685, -0.703051776102412, 0.8740155188232896, 0.48239811766624974, -0.327855004967436, -0.5109232529244794, -0.6253309664946787, -0.8048977693200816, 0.12688613158702045, -0.7298300892558935, -0.4391401671617239, 0.06304160929902047, -0.22241054964703033, -0.6429464954651274, -0.07963881926458449, -0.829699553689903, 0.5420289119848858, 0.6120594267982875, 0.21617546586355774, 0.14998625754531858], [0.4002542108141336, 0.21832853898592885, -0.5187177653762398, -0.6695058279033816, 0.9033105856188897, -0.5175700327259669, -0.6173128065793962, 0.4514929433108186, -0.9367692380141788, -0.5698854121468031, 0.7794321212397497, -0.4839113290439465, -0.7565410381913074, -0.9912780689446501, -0.06297249091400148, -0.9690556524110283, -0.5531158277242352, 0.7131472053557251, -0.7389282161459874, -0.27230053372108287]], [[-0.0016465369930649398, -0.5313804455977438, 0.5431090200692761, 0.30594971585248043, 0.496094878149433], [0.6514357008567939, -0.09006242588091973, 0.43603567499453844, 0.9899372131399304, -0.016544849344546586], [-0.39453512718783323, 0.17844646308236034, -0.2795740592676692, -0.23482912792372512, 0.3418374146015706], [0.9662052717555203, 0.5417897865079482, -0.6087587655459552, -0.4574211697990658, -0.9708342972831661], [-0.9623159838910458, 0.5772810123541674, 0.9432738021579707, 0.8226459378773872, -0.3262670036231674], [-0.45536464919741526, 0.8639640263507984, -0.1016210351346929, 0.20334216437326247, -0.4269543363937356], [-0.9472783371166702, 0.45241029931924714, 0.032577285609941775, 0.006270626261343448, 0.9722880320259726], [-0.03128150544991182, -0.151247560892102, -0.21676774789403686, 0.8302005107204335, 0.5613399793543064], [0.6265337639573998, 0.5911983407260328, -0.4388299254585162, -0.43115210960441996, -0.039953070562133375], [0.0546877373294381, -0.5424721753134165, -0.31785932298014585, 0.6163568993444029, -0.759654208676019], [-0.2413364355817369, -0.13233961994577448, 0.9982942129960841, 0.8826405347290236, -0.39818353431156317], [-0.31261304938161083, -0.8360109300279288, -0.9034143517052422, -0.8284592034174914, -0.09385481999124656], [-0.9529141267657413, -0.8841431774812407, -0.813091432224087, 0.18401818420104665, -0.38676360681369526], [0.505369481294216, -0.34121537490721754, 0.6855709711376206, 0.5026104938923781, -0.5555279433961811], [0.07588682521181767, -0.04210560412974873, -0.3468211707547171, 0.9926369282137668, 0.8124310589608694], [0.7269978709471614, -0.08138081227793048, 0.9234014933440271, 0.6450922441612774, 0.1062098274921921], [-0.9568033057573053, 0.18254341407259522, -0.6629240100268643, -0.37308876039282524, 0.30238529471930575], [0.13808621390574993, -0.4919460592521656, 0.5787144596376352, -0.7372212200465429, 0.3205151270854083], [0.9868230093799357, 0.940823050602319, 0.6123907982578018, 0.6147789659258522, -0.9533239952215391], [0.9328938405659193, 0.37044044009348354, -0.621322952791016, -0.2953338931476235, -0.5710733484067658]]], "biases": [[[0.23845132845192252, -0.28265155312335266, 0.7500045901249719, -0.9817731732437882, 0.4569936578016005, 0.5841903306523306, -0.8541112513558109, 0.798456871734077, -0.7016319560935642, 0.9867229605387811, -0.9396065595807805, 0.3638306231171631, -0.445110446499003, -0.2008155208769682, -0.5833967645316518, 0.571804847497609, -0.48319093987924155, 0.6429320463294654, -0.6588513050284466, 0.43811630647940847]], [[-0.5423650207306039, 0.46350750888886827, 0.7074849039104423, -0.13337374192441942, -0.3755572741319746, 0.8923045397123321, 0.5712903188603702, 0.34820688576581094, 0.4874306087749869, 0.21746088770953587, 0.5017882782913348, -0.624518559135214, -0.8014542875507289, 0.17474571193444866, 0.9779993128837245, -0.440302090065678, 0.5662367813750879, -0.8704612870490709, 0.4714377427765337, -0.3795772102498194]], [[0.1935423675150838, 0.9453521775075826, -0.6029625689563696, 0.5538181195208631, 0.14661996904715124]]]}