{"weights": [[[-0.4603481791532069, 0.9658900997150746, 0.9144264627914436, -0.5093909549933548, 0.47809019569135414, -0.042281906626007615, 0.7999900618867484, 0.614881001418605, -0.013452204330567152, 0.6929677809028068, -0.6321803260594168, 0.24458404315946014, -0.6316446704391556, -0.9096655598884089, -0.621225209914533, -0.5965694977405263, -0.22196580657490106, 0.6571596352473885, 0.09115074938162016, 0.6235474536842154], [0.13494120744195737, -0.3359581213263858, 0.357837146998234, 0.7200735307958221, -0.5106861319703695, 0.14988861064701675, 0.9565367276433048, -0.1599954229401861, 0.9910545283196859, -0.10551180479924738, -0.36566707314401614, 0.4820147513921782, -0.9125781064435776, -0.2758430216139425, -0.6042638587564921, -0.21427646096006714, 0.5969779155586636, 0.5388903161234724, -0.13993453623932206, 0.9397611234429304], [-0.2258768648458127, 0.6474187834307172, -0.7304361621215278, -0.3197923010675121, 0.39189944135416344, -0.5684949927974285, -0.33879327493781286, -0.3575452972695292, 0.2648443615834999, 0.8471762438667714, 0.9153321071856448, -0.3722850442092427, -0.7405714329765323, -0.3154451747758471, 0.17826721029059622, 0.88012733560293, 0.2373808410110141, 0.1264865075244701, 0.4292995935036168, -0.30635869044239805], [0.1085986964384138, 0.47510142745134853, 0.29746791431158126, 0.804352133526798, 0.502666649050217, 0.2555932697703134, -0.5969482198752976, 0.347503241100809, 0.012641223971094906, 0.8613627315346035, -0.8487014594834739, -0.5855143452293683, 0.9081400533783781, 0.03176280776326812, -0.48138520591705514, -0.0057241992440184575, -0.5572813403624155, 0.20306224220754987, 0.5909754143636547, -0.5837300152885896], [0.41666566086242507, 0.7684285589479956, -0.4972356969805043, -0.21481951558380485, -0.5221115092282771, 0.9010697543387582, 0.4739758793399491, 0.6487116917952624, 0.7485927068460465, 0.1058007881568872, -0.7662162687255103, -0.3838664340456375, 0.2717672545116552, 0.7299273686081393, -0.7345280554142373, 0.33877294620962584, 0.6416012946140797, 0.21398434033728075, -0.02240652244360919, -0.9325942491317345], [0.6304511215745641, 0.9333707148111412, 0.8320588064626091, -0.004008431150823721, 0.08547379014595036, -0.20787069973436645, -0.7814069398291044, -0.5120375103347741, 0.012470861137453326, -0.8254158658206185, 0.3209372955548486, -0.19194389807225054, -0.5814583041547943, -0.12113933152772827, -0.12387964082585534, 0.0005779981633338149, 0.4830015687246372, -0.17328304653111126, 0.4504195687888841, 0.9041329969733936], [-0.4237298804106133, 0.3647934755960307, -0.3876186319689092, -0.3426762178414968, 0.9444817675649193, -0.7410120190518348, -0.7761587281920515, -0.8551303698735151, 0.16258919279455442, -0.4582326740688041, 0.7729097326399037, -0.6739767338564175, 0.12199556027198577, -0.013616557039088262, 0.7933717045477708, -0.6436053482357085, 0.7189450231235999, 0.273216312029513, -0.4016311452784891, -0.6371223990794945], [-0.7295921970655588, -0.12705628658043255, -0.10619091861219387, 0.3682489608941455, -0.17565961488005488, 0.4098548319726538, 0.3817977017556178, -0.024246218991056168, 0.9508536252255968, 0.1976200948572484, 0.5041877602241798, -0.2877468950624018, 0.14397024439195993, -0.10934207943384, -0.8144577078466213, 0.8354894326725519, -0.8184886223650143, 0.7097008463051857, -0.6408271733709914, 0.4617899958485583], [0.9942933393029032, 0.23048561280625646, 0.19381895586707, 0.1065180779114987, -0.5810863458754989, 0.8776967876108193, -0.7546047237404634, -0.5242939376433757, 0.6989420244520983, -0.11756068460911173, 0.40206913047737425, -0.6494139666031054, 0.931398242904939, 0.7521958804608553, -0.6085072635697633, 0.025382352779309336, -0.4370368834249925, 0.09146712540273394, 0.34009425053607933, 0.648395958192846], [-0.7111191990541401, 0.4301981040808234, -0.5491969307391436, 0.3963642769678959, 0.3648000632639694, -0.5961015140430619, -0.4555949017219556, -0.20942283689685093, -0.12876412393902847, -0.18295143448074724, -0.4688766988522617, -0.9045430073518672, 0.9209926820883354, 0.2504492830632734, 0.0157596003591427, -0.9362307918185935, -0.6681032785007286, 0.8327066238485996, -0.14931880808968634, -0.7234820308916476], [-0.9770633296945923, -0.5502900550426282, 0.11958107938721363, -0.5610986707603081, -0.035311152631007925, -0.7411813996842127, 0.6077835188236511, -0.520018966344038, -0.5157103848807714, -0.3846164286191409, 0.8681309946932685, -0.6064959462405028, -0.42701123753860637, 0.13415451522771282, -0.09050709347849839, 0.3712532898658554, -0.3064455243134585, 0.5416088693343439, 0.22582659762227664, -0.6022618751504818], [-0.15801034726793506, -0.218340563786666, 0.46146432503014645, -0.45919047887554454, 0.8457345669933674, 0.8549144726094948, -0.06257038720696895, 0.4250115049355334, 0.8997155039507774, -0.17468743236606477, -0.8481155053796294, 0.38362388568708705, -0.8348801448091006, 0.2840406253495855, 0.09033549906822325, -0.1494949489401498, -0.582811540945827, 0.3591530020234268, -0.6939149945829657, 0.8116566526998219], [0.6121388738800482, 0.2381255558268498, 0.8410684737318115, -0.1727738451740053, -0.7911440914554142, 0.3047409375360175, 0.4872643477769836, 0.05689845131028948, 0.6288700319378715, 0.7900238188665931, -0.10174120600196668, -0.3017461616042174, -0.4287352355744518, -0.2534751473213195, 0.4077345739954179, -0.2418142708232105, 0.6378456193038691, -0.9782157093521817, 0.6303180722535402, 0.8500952353416378], [0.14864669201699532, 0.12894086900135715, -0.2045854792000974, -0.9549835109723575, 0.11684869963756661, 0.6160563035058313, 0.7448325938726965, 0.07137403365350359, 0.6509979526826111, -0.006764773762103049, -0.4672578979858444, 0.05791835302644022, -0.16909320171527265, -0.8638288710429707, 0.5074104535453765, -0.15005041162402977, 0.19986932355910625, -0.38420193365396305, 0.5108959788007672, 0.7153137824510565]], [[-0.442143310550031, 0.593348766267487, 0.9941413921538111, -0.041105995304584475, -0.9814105076244983, 0.4868477315741464, 0.16843505111318047, -0.12606500865648562, -0.689606001887227, 0.08517770945639236, 0.0410917857561095, 0.9834407528986211, -0.2888885816190381, -0.2206327561831356, 0.35902862702765526, 0.31482069453744055, -0.8518550791006505, 0.6721233058294227, 0.33883758375074713, -0.24227835532587427], [0.4691604818214803, 0.6665608961435563, 0.1687113893613681, 0.5456812250303296, 0.2274703374104079, -0.965099597986673, -0.6957334225601142, -0.9560516124168505, 0.6839909489070455, 0.9922948643456351, 0.7949159852922638, -0.7579296000766993, -0.5026019162554576, 0.09023135916194303, 0.9384793542697636, 0.03701726701097674, -0.09564527538483913, 0.09325630937191076, 0.4818557269036665, -0.0588372938534758], [-0.12463559702214821, 0.7121368875241607, -0.3871252613480094, -0.4977024421791705, -0.10266596576119968, -0.6612266214761868, 0.6216131288984712, -0.35290061364372605, 0.3005895269945178, -0.07244104120998451, 0.056454066578491835, -0.5043660609002614, 0.9404362671787165, 0.3597005699078826, -0.3770046531327542, 0.8737775884858929, 0.0040511602988198, 0.74728477434418, -0.15009732287491362, -0.5815212864377242], [-0.5977682030399405, -0.25592628208559076, 0.6332465458105943, 0.014170987234298327, 0.9951576674522147, 0.26262642774879996, 0.2506036503212665, -0.8001213085742103, 0.8591747304205608, -0.7983950868237653, 0.6327134792614391, -0.2838736937060451, -0.6050227325977684, 0.7414595024958142, -0.1374790464920359, -0.664656580702325, -0.06677403289697392, -0.8534009766426547, -0.75713984228692, 0.3988804498373004], [-0.4832423059176536, 0.97738406769233, -0.37053194386210353, 0.49713452037793626, -0.3080413707551748, -0.15888609475334659, 0.26368385394929383, -0.465985692412735, 0.28245863872615096, -0.6688734746036384, -0.3574711116376854, -0.11328045480058369, 0.9766687334932018, 0.41948920909274734, -0.16238384412089557, 0.15733080448134307, -0.6720448845907281, 0.9289138581821963, 0.37790881635897344, -0.7810832912471553], [-0.9493644348289976, 0.3093168357376126, -0.9376069727950069, 0.24220903533855553, -0.6340786897391837, 0.3698864217286837, 0.5779838082591267, -0.3225762459910375, 0.2915417064999266, 0.946559327176137, 0.6561127556968038, 0.8846469730763185, -0.4028091186528273, 0.5595524399197755, 0.7575837828423952, 0.5218127387883462, -0.8765551585518867, -0.3503959699571966, 0.02047693327502209, -0.12031318268275526], [0.1954311529183308, 0.5783512787530953, 0.7134361446085236, 0.6100882685960638, 0.4258331784418752, -0.3080273737482426, 0.5872310346501513, 0.14419944232684756, 0.3317181854831164, 0.17233085635222345, 0.7092078493013105, 0.46277302291073763, -0.05830694552260818, 0.14828333453164233, -0.3341541641431163, 0.34453959327096007, 0.17045298665942066, 0.6992757837184984, -0.33424455241966733, 0.545709770026136], [-0.2832334395744365, 0.744238443956359, -0.14671051138368307, 0.060467083533314314, -0.0483365159719602, 0.23391822571178333, 0.4622881190447634, 0.1102709118926617, 0.31214534719708276, -0.37539097435828594, 0.880255003819139, -0.03480356308099242, 0.578721256708592, 0.6910411775348011, 0.37931906931966664, 0.13665042245715453, -0.24205955624265507, 0.8172743084012539, -0.5165332707834582, -0.16272068747136714], [0.002229590343715504, -0.15189367796627606, 0.9602640676508185, -0.4048104028114663, 0.9878154557835128, 0.9231212782249789, 0.224837946489151, -0.539894354626024, -0.8091492329539078, -0.6718455767912404, 0.20778995209519446, -0.29887251059492126, 0.554914659845698, 0.27527520833647845, 0.789149521629158, 0.315081947113135, -0.15349208533310055, -0.8640279140460341, 0.09087638371635931, 0.4946521420057577], [-0.8995585278909763, 0.005805872621534425, -0.5541512050648667, -0.6230226756926183, -0.12884779069466146, 0.7823487485140572, 0.010408772680222889, 0.6430350895167807, -0.0516519613751385, 0.41040265307054535, 0.5265092211635074, 0.30965905645895897, -0.8821792717926802, -0.8190289334444938, -0.9605055276724845, -0.6704013463502454, -0.09220695635479115, -0.8812445021080961, -0.7940840311410593, 0.5544286348480281], [-0.03383641765297507, -0.6781281160044466, -0.5979208128074931, 0.5056503109898283, -0.5965948219376771, -0.23596332381341378, -0.868640615479342, 0.5118755464971829, 0.8704201633570678, -0.026154547051240762, -0.05530067401532124, 0.0950728558433318, 0.5058427932823417, 0.4297090717169487, 0.1773124745357042, 0.034046493829668734, 0.19585559718498846, 0.25168731976837777, -0.5273182895023514, -0.14014054596711634], [-0.39308866877407667, -0.053234218290103996, 0.5614961071676856, -0.3263041506933533, -0.16890147227088215, 0.6199268440443619, -0.9832216858207443, -0.7496901166313352, -0.7285847736688751, -0.38922968095256505, -0.3222823465643785, 0.2635707698094387, 0.44183908278644224, -0.16290496039889324, -0.7817576649945437, 0.33486449448459954, -0.3796455203352658, 0.046885570473082394, 0.26934309452764427, 0.1661544541604274], [-0.9334790251351455, 0.9143004991814667, -0.6746634876770747, 0.6337707526447105, -0.8821429631788147, -0.6495178644698105, 0.9136417794835481, -0.6009015158467481, -0.007188371644731184, -0.4380704863507032, 0.20245028355956451, 0.41777644319831375, -0.8885973503343669, -0.6926099282870131, 0.3018931230851756, -0.259748114787582, 0.5810633194035284, -0.32940570701261773, -0.492487363687931, 0.5122057141850493], [-0.007958392021284677, -0.8732441484606352, -0.32695422818310216, 0.5526521887476621, 0.08738307926564359, -0.7171931787684123, -0.12391500475566497, -0.464661208645774, 0.2367956039489134, 0.97933786427996, 0.05560315478911604, -0.8075900686227813, -0.28031070053734264, 0.37743793170428996, -0.22053694500750587, 0.02750486580598155, 0.4236600731073725, -0.8468588729751017, -0.9012021570385311, 0.1865952426015407], [-0.18229651758241716, -0.8219144282088393, 0.4503091920001514, 0.23982292846521092, -0.7436317683441953, 0.04370146255573526, -0.9067300953923898, 0.8243740251546243, 0.1996568159320855, -0.26448948508759895, 0.7345022063348228, 0.5308612547180827, -0.3867860463737709, -0.1860421122802105, -0.13947256194630442, -0.8602562362289081, -0.40761247458486594, -0.22397128335569438, 0.8196218905703228, 0.5089776020920065], [0.6302686607438075, 0.06781480048985689, -0.010809715896025418, 0.2745902293565998, -0.997155763387028, 0.4079443763748116, 0.6462301983691665, -0.277935306500406, 0.25636137670114034, -0.30416266824076454, 0.3553129661936465, 0.8731427991270699, 0.571118812109711, -0.723094591045897, -0.9275464376743969, -0.762418084045664, 0.7158761593946319, 0.6620002094465658, -0.9471581464386352, 0.9671366673264905], [-0.1443504504237485, 0.3640379400718732, 0.2797755232129089, -0.6818937604381896, -0.5377084226534727, 0.477454955116267, 0.2949636118701724, 0.3809836847698529, -0.9164152370730694, -0.9967458730689263, 0.7454053873608375, -0.8924101665446498, 0.5343546626867217, 0.9512603842500296, 0.9286228337016667, -0.07080530688589093, 0.4532348119997702, 0.8600442551538334, 0.6249660568834821, -0.9718730691285407], [-0.5613341485030348, 0.34602779605141953, -0.2291263655719289, 0.9875960543018227, -0.3012188977524213, 0.3552479685201273, -0.760473980636716, 0.8739647060933264, -0.538729838093353, -0.6462438372795711, -0.22895909898284694, 0.5504481287785234, -0.48849815693545007, 0.17267827693273063, -0.26707479365240605, -0.12605583799492526, -0.8966877526719352, -0.00717951774481751, -0.47692326363080206, 0.9643165687816306], [0.6657220643546657, 0.742131975425393, -0.4385006530222513, -0.4977714705977303, -0.08621871535686187, 0.8307809308666096, 0.3184663221630757, -0.024368600151391195, 0.7773910967496473, -0.5488625394222861, -0.7133130144930686, -0.8682304264161829, 0.8138899478632038, -0.694859888467737, 0.931798436602234, -0.09371352469152705, -0.6168986426454406, 0.63501405325242, 0.7991072036185172, 0.8810514086820571], [-0.3910667704861064, -0.7918407184427605, 0.6256349151235874, -0.6948604456783884, 0.6386246351999056, 0.4287519201493637, 0.4423157884091986, 0.12169976992327758, -0.1711504582033474, 0.22722563999787582, 0.9348978633283551, -0.6826306909995965, -0.5200687582860015, 0.37346199913115896, 0.8868769941236827, -0.6208576948206623, 0.13959145647859184, 0.48898217026333723, 0.5930462587084155, 0.595845637256629]], [[-0.5677846957005055, 0.31127674350678847, 0.47014241850208616, -0.3172502807505977, -0.41400804763268995], [-0.558765166931837, 0.5261211390804577, -0.06188950900947332, -0.7838432125122603, -0.8677588971754355], [0.07025367431761875, 0.14501545647970793, -0.7483909939110198, -0.41950583881743375, -0.550094576667544], [-0.15085716683770123, 0.45612769023120725, 0.31717214780769587, 0.07157279039867692, -0.7434062494191451], [0.6996671897389377, 0.6020961521976, 0.4873864887077273, 0.3925222913488726, -0.19651254279362051], [-0.18078725309810006, -0.7173118180085334, -0.7398373507642948, -0.404537139290404, 0.08437285873304701], [0.8881792799365236, 0.7998408062286781, -0.6170641971005673, 0.929472369778851, -0.26577284846216465], [-0.8005452587342301, -0.9830903237842745, 0.7754858856788023, -0.09540617496230164, -0.28424636191244823], [-0.2917496102853696, -0.849836578484642, -0.9132630712857868, -0.5751579144555792, -0.1907939645393244], [0.7792894392677625, -0.4457930371038772, 0.15148066626868917, 0.8568455986111447, -0.14444301144945992], [0.07060797540099117, -0.6388773515307768, 0.1142507530562169, 0.4694593560758673, 0.4446778732264147], [-0.898610351559259, 0.5999669544126116, -0.5036009311772662, 0.9479255172511927, 0.632748104437173], [0.9849558948142005, 0.436161901361511, 0.8978839812225117, -0.7480936043139443, 0.9618807960066409], [0.7921901674949801, 0.6774968953307221, 0.6262898825529835, 0.46401711386957034, -0.4276222782807031], [0.1742521009798983, 0.0703177077213939, 0.25648711671524516, 0.40068015842212, 0.44560118125916004], [0.06006386874698211, -0.4379553395104221, -0.4549652162413871, 0.11784409557810083, -0.6785075084570731], [-0.6201726710283029, -0.5576917311862779, -0.5426148955075112, -0.1913882932426414, 0.43597197557470957], [0.5954121483732895, 0.33340109095552317, 0.6216139965983718, -0.5124876681867843, -0.12845762607720457], [0.3306386760122131, -0.6975741629784455, 0.8337885086240273, 0.16579928454879767, 0.7341842540984083], [0.33786672897427716, -0.2042248855021298, 0.3159469751768498, 0.4044621999383238, 0.011951795996702153]]], "biases": [[[0.7731936504894306, -0.7163223491563286, 0.45223080188213904, 0.7606398783072716, -0.07020969812841815, 0.3780662978790812, 0.7656926554296715, -0.22437261540430287, -0.2144456958101053, -0.24699821420365575, 0.7666303809827519, 0.6228802445878328, -0.5838408134159927, 0.1822432166004464, -0.30212410819987356, -0.28115712849831387, 0.07752296957041516, 0.22068507800045656, 0.21873903788413918, -0.4335218269037593]], [[-0.33472443530870843, 0.7548486827723735, -0.4628626892107739, -0.3766981870214581, 0.003871002269877355, -0.978433017530395, 0.6452250045538466, 0.6290076668947546, 0.4307068503442799, -0.13833742955012962, -0.19951829955655365, -0.8656436815877324, -0.5007924380888293, -0.13285785205941059, -0.9695235356935783, 0.6056640728236802, 0.13200521359286244, 0.8589875773553479, -0.15920451468064356, 0.8288796833896279]], [[0.3994071706813951, 0.5060223134656903, -0.00931762890450294, -0.17241542085830375, 0.7190795200969784]]]}