{"weights": [[[0.5101612513245024, 0.38829056473846846, 0.6866800276903406, -0.18639754725674718, 0.9166951721027754, -0.37545392276023737, -0.5178156731644776, 0.5529831294921601, 0.9893923076180351, -0.2108666295073338, -0.43054686998099556, -0.32132278250070967, 0.7164181683436799, 0.48450017434982295, -0.26177163531536185, 0.6257688673251645, -0.566355568066248, 0.1194062513388705, -0.35341894630495463, 0.5046060418337088], [0.5263253696308277, -0.8391652769972788, 0.9865701559624211, 0.29679768168248777, 0.1250704392686659, 0.46802073172043057, -0.934473781650248, -0.7752196213893716, -0.04770475468118862, -0.6941698570351669, 0.46656516968269024, 0.41979099868012293, -0.839404139815374, -0.3141891645881836, -0.37435431171248235, 0.22981199571648325, -0.5981364974379555, 0.5927577397212891, -0.7471991943821301, 0.025479380179699085], [0.7213663290849053, 0.9070728406599651, 0.3750437449645867, -0.8860008203208891, 0.27791130551624876, 0.9128407278715114, -0.9264752912627383, -0.2042450675194254, -0.19768162766870545, -0.248059600222458, -0.3931184393406586, -0.705487658118501, 0.9848671564073095, 0.7002902516668368, -0.9374430725343654, -0.6780539892215995, 0.5238635660851352, -0.1905832478139171, 0.2722626932133938, -0.35739419747367895], [0.17507423657712362, 0.6584726759035531, 0.7842518090695993, 0.1732734095741475, -0.0037163079012165756, 0.9880151342292891, -0.4854277971224117, -0.4203700027996855, -0.7844034375587128, 0.6458926842963761, 0.0978553585931572, -0.06647166851865216, -0.0160796695506078, 0.0522569865991247, -0.2892467507126215, -0.9368765571931426, -0.7230419287963648, 0.007338337484699142, -0.3548527385646796, 0.2696739527976981], [0.08727432048259609, -0.6689496836004605, -0.4564302101204212, -0.2907078421606042, 0.4879859056564615, -0.7418388397826434, 0.6233553299971053, -0.3525256758464801, 0.5344218548287207, -0.7543497576026059, 0.9249691255097154, 0.12893895510918507, -0.12472805078191418, 0.13982360891175083, -0.4957035310695679, 0.5929429109469868, 0.16818056312857865, -0.27776079199619796, 0.6299106607861309, 0.9144287638877906], [-0.1146751737761389, -0.9038576797076763, 0.13574237119678334, 0.13481121374327132, 0.20835685191551123, -0.3788105488853739, 0.3456633561153932, -0.8357551565872101, -0.3420242803767546, -0.919496147481218, -0.11265500905499826, 0.6145069377016044, -0.2756107226247613, 0.9507560499984893, -0.11409838012161488, -0.5378588524937049, -0.1683233888871658, -0.9865379678842703, -0.5000713261341347, -0.3197499647212536], [0.4320127310955111, -0.6629039436725184, 0.16676504214279952, 0.16541280635393418, -0.11214379811946906, 0.4492095861517835, -0.8404530359509401, 0.06884969910185257, -0.6069738027156808, 0.8601237942108435, 0.10131891653592007, -0.9445115697825763, 0.5305298844818569, -0.8213484793041417, -0.7488609914988915, 0.9107696324172871, -0.6868918474811794, -0.42218176775026484, -0.46163001176506846, -0.4822615150030696], [-0.09133355852925651, -0.458637708330051, -0.5800974957486733, 0.9446036111377472, 0.1484477085390441, 0.6711438475103424, -0.4238787336749188, -0.4523918848769013, 0.7562308898769072, -0.2362898335705803, 0.7239013882655927, -0.08425668808190023, 0.758295388213269, -0.37059751116975503, -0.5479612933930986, -0.9645756957833076, 0.6183010734317322, 0.22610419846308583, -0.28465402914973104, -0.661337779747573], [0.358015975665803, 0.6353323552184262, -0.5706261617895407, -0.1279125335613529, -0.5073336024786455, 0.5148357796977794, -0.23853876112107386, -0.18885616310513886, 0.22549854529352586, -0.9507570563451693, 0.6790698282299308, 0.5176999172680128, -0.982234201565708, 0.17282944081576823, -0.3445965561121247, 0.08461813892486392, -0.1722131790951995, -0.9364697903724919, -0.8200989861330916, 0.973774453635956], [-0.6402826072755359, -0.5595289743073493, 0.008824525123425131, 0.45838647084076856, -0.7239329531336618, -0.0583952246860977, 0.3787497830458926, -0.6918831538321162, 0.5293477112336091, -0.3011930932386784, -0.643432494247949, -0.9728043327570184, 0.5936637109811509, -0.4738970454442146, 0.2227501604412907, -0.6872067401767781, -0.8312710244879866, -0.002229446365655585, -0.39658324241206033, 0.9796348432803661], [0.5120071742021788, -0.20367712725481346, 0.013582732004603804, -0.44186491396249594, 0.6385801364056649, 0.9500722880472441, -0.4288064840778967, 0.4610335545325841, -0.4970329419640882, -0.5612850025393719, -0.2135530560846406, 0.9769137433833632, -0.8453204286428753, -0.8052384294934689, 0.4856299581837471, 0.8620261138618588, 0.9884703587338703, 0.24292688391731998, 0.33999170939019696, 0.2496551832960332], [-0.23008765488399185, -0.8989017662132306, 0.7594028894711302, 0.7710379855812604, 0.33535642301007096, 0.9799225357328778, -0.48068917710895653, 0.2670374541691347, -0.2368250847294442, -0.8571639371706454, 0.3296625206488193, -0.7195342067390014, 0.46496765052728795, 0.37912439627237604, -0.29999523441746545, -0.9923690622520953, 0.2327261716507536, -0.2939605812696824, 0.9843492445522661, 0.8686773281127249], [-0.28075979341765533, 0.7756447597588041, -0.37107827653599035, -0.1018752703408905, 0.6325901744057731, 0.29196072835876574, 0.4633720991097492, 0.4183865922158314, -0.22533149793880547, -0.4076272706186497, 0.923573630787059, 0.5163659782699459, -0.7858295943169156, 0.3543474673269582, 0.8956428877815361, 0.03615019543668896, 0.6600523361678015, -0.9397374480598175, 0.3301363380202389, -0.5879884328919545], [0.1428607116495899, 0.2404241970242893, -0.8412809037947988, -0.5704677269459069, -0.9151532221361904, -0.43510008452378024, 0.05391192951284163, -0.33031562393428504, -0.6660953732036561, 0.9309818280631323, -0.47936418166559114, -0.8202757489602377, 0.4503135886488474, -0.8322251132597094, -0.5719453634912173, -0.5468469366232092, -0.40432609632798067, -0.7312672118122701, 0.3615364295768324, 0.29360855799439256]], [[-0.6626699966291405, -0.8396315019041456, -0.08502832046320807, 0.10962239657332273, 0.6816584800242573, -0.9049055500905618, 0.7115284677527622, 0.8120729802357076, 0.6181298784015632, -0.5900053378979124, 0.7458116655828027, 0.1877019706492773, 0.15221878803501965, 0.09787250385242019, -0.4425033089990098, 0.5990025015814047, 0.5898732583148287, 0.24455310069397362, -0.9637255008631804, 0.907144139271957], [-0.5019252540432126, 0.7954882313482619, -0.3137213112025865, -0.5362077095217117, -0.12947249210671963, 0.32520922293018595, -0.564686477590854, 0.790477662616879, 0.3082913905036766, -0.3256419073930712, -0.6202804428497222, -0.48004499309331106, -0.6359155784786128, 0.9240420668602114, 0.8162710797393313, -0.9729166415292643, 0.20395908597664758, 0.21357659298388132, -0.30679063935954143, 0.22652273284775837], [-0.659954798357169, -0.8223017789826641, 0.7619416394102323, -0.509714880098413, -0.36733406966452975, 0.15332534422381028, 0.9241419620392479, -0.25704456940854437, 0.8600817030765782, 0.43369989191595804, 0.9015739051549703, -0.5778406662866782, -0.26677688104606423, 0.9743129022055479, 0.7706415899620305, -0.21293614137958872, 0.3783995293879505, 0.5081285665325026, 0.9064798947936672, -0.7581517265271747], [-0.9437138498954034, 0.7047439074586574, -0.7516894470422937, 0.8478314774479492, 0.7412556242995827, 0.7749677484631339, 0.43504888286893073, -0.7890964655983901, -0.07835564632745662, 0.34697977947370373, -0.43911824311202463, 0.347762297618992, -0.46172754711058595, -0.7029666404220649, 0.5758761514551451, -0.6364927324045302, -0.06715808479346319, 0.15095821434813095, -0.9385614799816973, -0.6740909475494223], [0.865908142781926, 0.11000647750134807, 0.8253125537499428, -0.3851811546548105, 0.9010480990514587, -0.44544270246862716, -0.4036234686747753, 0.589625501492538, -0.808693166066607, -0.08557088172202043, -0.7025775087443087, 0.2623005558770859, -0.0471754514441598, 0.8338027212080945, 0.2564192667624845, -0.48304005747139067, 0.6772920886984275, -0.670350707606596, 0.8197294555064476, 0.4225300326114352], [-0.9200052584542726, -0.5703483072034587, 0.48385882599055186, -0.2752906550132763, -0.8399711551696054, 0.25581972484849036, 0.6615755667211412, 0.2904295981136602, 0.10420286787696198, 0.9512570492617205, -0.269872121774525, 0.549846799230922, 0.5303198854529694, -0.6020365203919964, -0.9856937765756075, 0.8596553278796153, -0.6166098861692884, -0.6249082321488548, 0.34632670845213354, -0.45395207613332267], [-0.025556372968476904, 0.6666523653212237, -0.17131640962961647, -0.17152544166933126, -0.18004476733558006, -0.7770911762857018, -0.30259703758303735, 0.034811667450310724, -0.17529611714235793, 0.6169892140931585, -0.00935685311354617, 0.866092963589707, 0.632411263352125, 0.045761211698200466, 0.7451048883850302, 0.23266540436474537, -0.2312752254510948, 0.6316904342790743, -0.015302297812047838, 0.17516418477571682], [0.13795175402827908, -0.8172936244385782, 0.07894168851131456, -0.029792589192995322, -0.7606810462082214, -0.6585680692005131, 0.20624531383757527, 0.4830483322098602, 0.005122107398724429, 0.8988344480090638, 0.18361305125848526, -0.32684293336160675, -0.5976511660249761, 0.9575631281870833, -0.8590048669025188, 0.6658874695915034, -0.40147528109905295, -0.25141014525583105, -0.04236901594116582, 0.4750935716291511], [-0.4757206251434043, -0.48740400206340695, -0.23777691035406567, 0.8687190383430141, 0.5648779035979032, -0.6742957117062416, -0.04753166975691947, -0.806177284142612, -0.31372248556226956, 0.7534080113396804, -0.8424733822678467, 0.30526382436007227, 0.14606029331739467, -0.22075076539659233, 0.03343560056520811, -0.6922595891886212, -0.2713869340052548, 0.1901825860722901, -0.3631845496781705, 0.2011569690345565], [-0.4695297517792445, 0.30342447694733, -0.21466951910718013, -0.19878301761538375, 0.47580044387670317, -0.9164949898934145, 0.8863281947946255, -0.3738109341838336, 0.5512058141397291, -0.29463419717487027, -0.07342015147251524, -0.797167536950631, 0.6486329687704355, 0.25883231996477574, 0.29773483963676606, -0.5908008332640302, 0.3348904496234859, -0.36257400674807605, -0.6044467649099401, 0.09816634903785837], [0.2640229593075527, 0.19929682429629714, -0.28226915083743265, 0.2422964939795622, -0.27173825809837093, -0.9071593640345756, 0.6014137565870812, 0.2558326123683017, -0.0735137476603056, 0.026403507115576597, -0.21216436854598197, -0.8405941427226924, -0.4185876259689427, -0.6211360798954828, 0.6653447016067473, -0.12185968111941414, 0.8309508599799649, 0.08015432727310534, 0.09039240162623519, -0.6109365564128366], [0.5862435872295868, -0.33779340354622445, 0.8989473405644073, -0.04732402919888434, -0.7301010220420139, 0.7675328858816197, -0.21626901102303875, -0.14313258609685708, -0.28487838570787205, -0.686975810734545, 0.40928690495852815, -0.4820894382115706, -0.8353671684229569, 0.7682165157250254, 0.7734590883165371, -0.7147698305303327, 0.25870315164135116, 0.3475536074786756, 0.8375735069890489, 0.3204217845302477], [0.5319314616852338, 0.5848768138743174, -0.6294652366040911, -0.8269947039866758, -0.34852973293691414, 0.6916838264677183, -0.619535736272026, -0.032807139102919214, 0.6408347423116727, -0.4717493630032603, -0.5691621982611375, 0.4302310823295119, 0.04313998968116395, 0.3836744951344042, -0.38563796959098595, -0.8401295382078893, 0.5519534607670029, -0.1923087768234173, 0.5160736408311588, 0.7314356255138075], [0.7814477223028264, 0.9130365092116894, 0.2929341065388693, -0.005475961134324248, -0.7679116963440098, 0.9005020846749383, -0.5505891716602278, -0.1142686598993512, 0.7299444226300589, 0.6590647064578044, 0.14632637771535095, -0.6763413994654324, 0.768648085840953, -0.16339747137629446, -0.4470963604103164, -0.6740024796842123, 0.15295806805289214, 0.7190456256730866, 0.639096704371144, 0.8507816117674618], [-0.46704299784001746, -0.498271451546451, -0.34996682905862664, -0.8516082378138992, -0.9186261617321692, -0.8187109699607225, 0.46369402633861934, -0.1828385274191655, -0.2316846050221022, -0.06606447547022687, 0.2721229133737122, 0.135385864862408, -0.5629793609081963, -0.46102563623520587, -0.19566396650750661, 0.7697702621050901, -0.05357506691905067, -0.5180691197952714, 0.6290212331669189, -0.5606568380635757], [-0.6189281477466237, -0.27885215051507717, -0.6278988408044115, 0.3866615799730757, -0.3243460522028254, 0.5867872092517816, -0.17603953524637816, 0.3906248363420526, -0.43344506333652655, 0.014110049200743546, -0.7248305202525593, -0.9265758828612789, -0.29734450297026127, -0.4291176204387226, 0.6564857466281333, -0.9504956876471735, -0.24055288404546205, -0.14456711557514068, -0.9135423026539422, -0.2660999353583313], [0.24378701570366101, -0.8802993576956073, -0.861737017106943, 0.43421791875388416, -0.40894899554390496, 0.5319806134172229, -0.564146129808335, -0.6474138715088473, -0.7003753875703065, -0.2885142723940928, 0.48471611897949773, 0.6922905871373792, 0.28138395292398166, 0.20402929853785667, -0.9258778537261041, -0.9674820854364587, 0.13710257230910727, -0.7668511475831763, 0.3464779033671421, 0.7711455764753177], [0.13828685894677584, -0.8525899260807039, -0.030963255824900893, -0.47213596968193605, 0.6902308351229407, 0.8912522870831912, -0.6754027678293386, 0.8358072008777289, 0.13703308608623432, 0.449712865064412, -0.8767615616835505, 0.8105276503544256, -0.7233043734799067, 0.3475093553062276, 0.2883478558380763, 0.6165390635903734, -0.6198114638941572, 0.5744509957305521, 0.7700187565997971, -0.8877718147227454], [-0.4983604102762831, 0.4602400584350552, 0.039628854050034246, -0.6611972360375116, 0.8622242198507832, -0.48714122637634305, -0.8869139903263028, 0.9698493849317795, 0.5014776445134301, 0.4411171994029548, -0.40948197782116647, 0.1769376273089025, 0.4167354941875909, -0.13236997200308842, 0.37789801345806695, 0.3940681868572953, -0.4152314325750339, -0.2669863093022986, -0.1918270027550324, -0.9965894781690623], [-0.787021165736518, -0.8525687405566746, 0.5920631626299266, -0.9508574109416539, -0.35112920095828004, -0.07238786694063193, -0.20139773307518927, 0.4577308091733878, -0.3415455453753822, 0.717943884615702, -0.4889725551705284, 0.8665318535002429, 0.016605719626835436, 0.9088361031332435, -0.429183181093832, -0.7852638582817786, 0.7618073168502197, 0.2863618207900098, 0.2624879326368945, -0.36976147173526464]], [[0.2012470812777536, 0.08834848962912067, -0.8356316909657218], [-0.43902047039800296, 0.012299829077511593, 0.2224004319559445], [-0.16442882166697825, -0.9801903054071233, -0.9204688334123885], [0.5607648663408438, 0.17593883909083052, 0.035509936223358185], [-0.957490505447379, -0.5534737118812276, 0.8264823991346724], [-0.4367513682523143, -0.41605611179379376, 0.3425357679224359], [0.3759701826038322, 0.6878839766629707, 0.8693739184215208], [-0.3779238905689286, 0.4696734549166519, 0.013915185211048398], [0.7235644641038388, -0.8322000673265135, 0.6776160667632734], [0.780232490087108, 0.4182554912766532, -0.31456594495562107], [-0.05854334917213677, -0.9386690746764659, -0.1234215942793413], [-0.8256275154478365, 0.7147794138575077, 0.29357299056448416], [-0.05689531040811624, -0.7555748419178907, 0.15786683945400592], [0.09934338552543998, -0.7742027990601232, -0.3753005111258232], [0.17580729282257002, -0.8808876029724959, 0.4849499893844593], [0.08026625324018122, -0.9465005209282913, -0.5936112308086614], [0.5724192428525037, 0.9770931363500717, -0.2392877753132252], [-0.285749760860291, -0.16970045312672322, -0.32117622950907876], [0.6324105494001824, 0.06678077963422835, 0.123717593359564], [-0.1059209290747849, -0.39963464269222704, 0.5080875302666055]]], "biases": [[[-0.7335405338885752, 0.7059872299836452, 0.758548806502382, 0.6740976602973332, 0.8632473835920089, -0.10573148929657572, -0.10207695087983804, -0.7094752353508265, -0.4381023101273773, 0.290466170232899, 0.6815471702257898, 0.07027899632376133, 0.8789113185607043, 0.9265815677458569, 0.8222828636852857, 0.828216189739394, 0.1622973361240545, -0.26306290609648597, -0.06793512181471661, -0.6893437837128327]], [[0.18614615800241463, 0.705170256397009, 0.1840553877765596, 0.3852465054526155, -0.10520899494350355, 0.5961221958914793, -0.6282817457369068, 0.40482910211100886, 0.30189128862272163, 0.6467535495322492, 0.6345977493256361, 0.5160776226659005, 0.0076984432881443965, 0.33829100824303193, -0.11447797254366576, 0.18477164215608988, -0.5098059380387596, 0.32278726100259525, -0.5385623599356435, 0.4718004244427605]], [[0.812203584795107, -0.7960140377405505, 0.3214147382506556]]]}