{"weights": [[[0.830386548442203, -0.9248129866779047, 0.8153559746156742, -0.28204679553038936, -0.5608165366854938, 0.3400495861214954, -0.6330039056573868, -0.2021144464290261, -0.391368571805782, -0.8691076569508223, -0.2296583945173698, 0.82314998536389, 0.11389879183299678, -0.15479644361540967, -0.01133384178763075, -0.140968237100338, -0.4606484459375184, -0.3329904165941242, 0.9361917620297455, -0.31854752287347754], [0.3232379075412144, -0.5517027498346363, 0.8854087055006634, 0.6519771979028559, 0.3504593734399226, -0.7149966859127821, 0.6972628309524995, -0.6123110796337865, 0.10241350107169289, 0.4523340954977295, 0.14742169130692462, 0.43598658225101694, -0.411725442711393, 0.3602633155460142, 0.805790913071671, 0.24754734911708076, -0.7644421682061997, -0.5739771706934094, 0.3292058110848164, 0.9279526098362236], [0.414809404016085, 0.9232866696122426, -0.4224925525824057, -0.8081904490209231, 0.6730404223687683, 0.8193943117538214, 0.9431427361870557, -0.5680785091491434, -0.13536149711678958, 0.3480863832195964, 0.66932584504965, -0.4248065433502979, 0.058553491813065905, 0.3311052964417285, 0.8514123527317452, -0.6106482297188387, 0.8057944302327096, 0.3355431434906777, -0.6920720496564419, 0.6343197145737922], [0.3042375709139862, 0.3152403038409457, -0.5154012924835951, -0.23912105979528242, 0.015619225495914213, 0.5438317383809685, 0.9306091405306929, -0.4789549879197108, -0.8885351361549982, -0.34262017368062603, -0.9088104310306635, -0.04432613891970849, -0.5713667160318117, 0.5402975119329496, -0.1662596182306002, -0.3573859355709814, -0.023618723638646477, 0.6484088562982737, -0.4180246473819973, 0.8739812881092239], [-0.5672331380074036, 0.6039648111961571, -0.1804639912512911, 0.6249746635796714, -0.5728056605493594, 0.6192931774276085, -0.9476407539164315, -0.9527957335884243, -0.42855310316300366, 0.10182214051852267, 0.9781347175398718, 0.7627759212875185, 0.6026283505459906, -0.5344245439976192, 0.355642070346909, 0.9739675439728339, 0.5883265974994685, -0.580727551746276, -0.25507191483580494, 0.37000190976887004], [0.08912183007913832, -0.9127688490987624, 0.7986004819197936, 0.8802018728940986, -0.43367726306680554, -0.5408916536418522, 0.5969833075084185, 0.9801152818238008, 0.8680655404188267, -0.5248623940200827, 0.6560496045656383, -0.09165745733233233, -0.31714493602593485, -0.543767575021288, -0.9561135633771156, -0.6551761060301886, 0.7704803229928932, -0.7899610814120728, 0.9097691083130921, -0.8647708019996181], [0.27761744746583483, 0.8245113625595939, 0.39830235222923416, -0.171435515605197, -0.21029512934964756, 0.70172219193538, -0.9215496444781603, -0.1974401166426647, 0.23122558760456302, 0.1241147302012453, 0.6936756968246067, 0.30570029181151015, 0.3215750734734033, 0.015830030250272076, 0.07407144442347358, 0.9195182054519131, 0.30138456801947644, -0.29591209434518095, -0.49714672667285775, -0.6181591933848118], [0.4229393704125157, -0.4148813898223991, -0.8996156879085422, 0.49604137517492775, -0.5976873220921939, -0.537157807347058, 0.14444188656700296, 0.371359894436738, 0.828127948790627, -0.8417152362522375, 0.7314710264778714, -0.10598786280820072, -0.6397280051313681, 0.7752323694132104, -0.08177801005764351, 0.3676780228198282, -0.5775727229591932, -0.046163842835494906, -0.6904205862448858, -0.6619399574545706], [-0.4532370812048876, 0.5187694374469223, -0.7747287621285623, 0.9635530637255183, -0.49588500837382954, 0.8994160009945011, -0.45158664699991613, -0.13887952750134835, -0.13817556621868765, 0.9811694772652524, 0.6125932086080235, 0.5481527999092517, -0.5251604132011418, -0.20253984843090134, 0.5525847100603434, 0.9945774042879203, 0.10762524258519135, 0.24301889576774238, 0.018706554452045054, 0.8917449696866537], [0.5445531667811274, 0.47554985478292977, 0.9078845159655462, 0.279438871243715, -0.845320867295545, -0.8553024308593855, -0.865903044769214, -0.7417728225911602, -0.018302537548661624, -0.9923023950168284, -0.5066802026727468, -0.2886099442511434, 0.34615367292316646, -0.6543587705520633, -0.9547062981784065, -0.44608404368275356, -0.6462956415824359, 0.5077127620868298, 0.29445416639338196, -0.046083110836500074], [-0.5667512639100545, -0.5275738501742944, 0.30472536238762205, 0.7026751663660831, -0.7801868922230017, 0.24238012283677746, -0.8264461865479522, 0.3025240116159622, 0.8914230050154051, -0.48579031330615785, -0.5082789394358229, -0.032670507470793586, -0.6167861121210743, -0.8444233204743132, 0.7473771288685904, 0.22591390965417046, 0.5728185331420743, -0.29737610103465206, -0.20160133173147088, 0.24446908187642502], [-0.6204938879329052, 0.43485345379215734, 0.4042850903046564, 0.822100587901158, -0.46825985893791255, 0.9858241142451476, -0.9893830814399152, -0.53441734384912, -0.9877878373040727, -0.9481397102967437, 0.4552471198489907, -0.8528355231490801, 0.8429014187805353, 0.9794748214598021, -0.6360469561041551, 0.6528823379342361, 0.7040689525481385, 0.1734237079887262, 0.7122605613810231, 0.3959413531910583], [0.3870865723735011, -0.8235751603695987, 0.9344402305741719, -0.9056877551809379, 0.07169770038211665, 0.05631916522347269, -0.49856229845579136, 0.6413237760863626, 0.8970373180073847, -0.3604071471131842, -0.6497679957325864, 0.9907358443479748, -0.8909483181091655, 0.8952100406369503, 0.2941794513433942, 0.8575465255881882, -0.007556490818923622, -0.8540676202742201, -0.7867770491153041, -0.9012658078282418], [-0.006521453441520553, 0.4994467555451987, -0.79274416622456, -0.17408165095293282, -0.35340732037492795, -0.6643560131440875, -0.2910249134345526, -0.5230412369755184, 0.950962017473622, -0.595631123187284, 0.7757764487363652, 0.37231457439534243, 0.974410954103341, -0.09665955447026753, 0.4467833406890829, 0.6623148795044231, -0.7177980924665237, 0.39884169511005263, 0.733785910253888, -0.4586674043250041]], [[-0.3027280412835809, 0.46017624709860594, -0.07790562402642331, 0.3171155601331126, 0.08588820822312426, 0.7773121478428968, -0.05053635606526452, 0.3975922229553033, -0.976722695123007, 0.20480669657213446, 0.852385804863713, 0.13875164840628162, 0.7191570206860511, -0.8258670803576846, 0.5028408765019479, -0.7196468793287718, 0.1343268301184013, 0.22205864533394148, -0.005163754819247801, 0.09972751224762266], [0.9376094874713234, -0.40301779011810757, 0.18336679683119805, 0.8474003490732644, -0.41491485445489573, -0.06925537977571539, -0.4229322950979699, 0.7312150756647346, 0.6891266077012022, -0.48524411259940026, -0.3945767457594842, 0.42649359932580166, 0.2587619395609786, -0.47692100046860864, 0.7343911695800536, -0.6644935907684202, 6.930992369347244e-05, -0.3335803056668454, -0.48774804248464654, 0.0364973348365456], [-0.15000294291902283, -0.2921775719143276, 0.6718854784132993, 0.5186362299200835, 0.26958868222280463, -0.505725840116451, -0.4654737901779127, -0.31464736110769476, -0.8664128439893808, 0.90734027140427, 0.46068585117261174, -0.9120190801944699, -0.6566711979856279, -0.1986729626674486, 0.5055683993184541, -0.2930218330916434, 0.93000508532801, 0.9991889103837697, -0.2145461286878716, 0.9611920521713277], [-0.06916774922303914, -0.61331756201742, 0.5420280313066592, 0.8941175594335837, -0.8095900415004842, 0.9850068880047489, -0.9567602803941724, 0.9869544875674308, -0.8637202972634221, 0.3856318691914151, -0.10560197322475373, 0.15186528080897577, 0.825441610077196, 0.25177181770692636, 0.6840882273894495, 0.32857756593943455, -0.3271681377847606, -0.6844459844604818, -0.9371711547602284, 0.9627115539727307], [0.10917594308269618, 0.8533759351840768, 0.10908885096023413, 0.364844481226942, 0.2873685105581929, -0.4461650809912985, -0.3343487602458828, 0.6125773795622953, -0.04724549531494637, -0.6193388242235003, -0.7298058020835381, -0.2552460732014956, -0.4687384233953513, -0.24011140525184915, 0.23551982142976025, 0.5303321206921148, 0.9536854402136958, -0.7574368884512888, -0.4868127292384046, 0.878276197420836], [0.5610694114222283, 0.6981492368627704, -0.056508761673486285, 0.13135057254319427, -0.7189622823951003, 0.7065504940508283, 0.31202948369313277, 0.06513737563501154, -0.08262749659104696, -0.1980561380539103, -0.042471214219846676, -0.5499550788318277, -0.3592739371363527, -0.016805046885612684, -0.3930064087926126, 0.10824449756162235, 0.1952944355677424, -0.825899942688042, -0.7300052542919642, -0.1790657579170456], [-0.810076086591127, -0.23192120239520153, 0.022105360103673366, 0.1200186845503648, -0.8721103812678632, -0.4642030341167138, -0.955833842583572, 0.4963498561683448, -0.5208636510144222, 0.334465797253086, 0.6406105035557776, -0.8368761597826082, 0.8107958385563108, 0.7333384545772197, -0.32761940190286687, -0.5067624726587903, 0.3219298698869717, -0.7453220491183634, -0.7270500149161723, 0.8865496491554454], [-0.1517322226825577, 0.9780931705916476, -0.2919187758092796, -0.25648034601326963, 0.2980599053388895, 0.551786576042862, -0.9929202427806307, -0.34122567605552634, -0.22139414383043277, 0.312790635178944, 0.9113249336369385, 0.8397119478555204, 0.8538733723884717, 0.14079239327392323, 0.5372855610854901, -0.924979627761273, -0.8770722585825239, -0.5913015394029366, 0.2276985760482364, 0.15383005132831085], [-0.8578880764929191, -0.36351439343253267, -0.7548919357439743, -0.22871894290458505, -0.09660524825028793, 0.7990258284497576, -0.5814813955797711, 0.13217621600556262, -0.7580503102125136, 0.2145331576862437, -0.9806903527432895, 0.2744958204321033, 0.7608228176144554, -0.5313480126822518, -0.8387673850827877, -0.546244486012438, 0.43951158717878136, -0.3678416419688577, 0.5274058697972848, 0.3274729785080208], [0.14733547712642436, -0.1166729411962355, 0.22805599284040246, 0.28408029322954476, 0.3428169531229579, -0.8528661972013172, -0.8887561758392819, -0.46856900803692536, -0.3076205128188263, -0.5089816969208003, 0.6194850743661966, 0.5027868032612126, -0.8638624751658168, 0.3991086810434805, 0.22110491373209618, 0.09960753679822498, -0.7915043465177358, 0.4780854173295077, 0.036450230180176346, 0.1841110504836021], [-0.29110506070247233, -0.48966440051820337, 0.8102043626231576, 0.8730002498794338, -0.13221430296192138, 0.49061192830674916, -0.4941823084214585, -0.17708496975984933, 0.7124106120168026, 0.19379841283407795, 0.5472465930748773, 0.40790116371762464, 0.18650643865936845, 0.3608691822340717, -0.5965294822229459, 0.6665192023819857, 0.7137535926069853, 0.030174657581500064, 0.9314503543315467, -0.2541950312715058], [0.9297631439599514, 0.5628668795600227, -0.20642034014669774, 0.5442668124183829, -0.5996972082017409, 0.44109359452127417, -0.8154280387675117, -0.2592187076179202, -0.7579426273523906, -0.7439527833945678, -0.8067968785542841, -0.6123080430768042, -0.44890550228981096, -0.8642571897455256, 0.10102600015344887, -0.9797792701932908, -0.7440152440547141, 0.35498673389320734, -0.5183211488677064, 0.8465102781304636], [0.5547478224077174, 0.40001415606906243, -0.5473564503007713, 0.7305099871448446, -0.025802117420187898, -0.4303477880467015, 0.7970469083432472, -0.30364527235520455, -0.7050908575149912, -0.4064719911599035, -0.05044420733892441, 0.870241783069257, -0.2694944130379069, -0.1932173712010099, -0.6725513778546084, 0.8724675815179772, -0.8140475466482553, -0.008790093611538374, -0.7892560427817756, -0.22643079642448916], [0.7442175726364129, 0.3919539114258388, 0.6384576828382105, -0.6295060972220603, 0.7128984999779873, 0.6782149983457872, -0.18525403541449514, 0.8725306180161096, 0.13613278083545066, 0.11565371727644114, -0.8179358807778467, -0.12480314768521028, -0.24535567517107948, -0.999293325005866, 0.3504675745547867, -0.7304159010761018, -0.2590089118123502, -0.42295864987264364, -0.10364205688859518, -0.9557838774696845], [-0.6891388383932449, 0.8540768280775535, 0.007652444885952736, -0.886325154301673, -0.6781945178618585, 0.8095584027418252, 0.4147266765838644, 0.9682473870891606, 0.8460758675559692, -0.32647779419469014, 0.2411526299353728, 0.37569959490255744, 0.4146611430828029, 0.9394902953246487, -0.8494994118528212, -0.7091999036298158, 0.9299203350047807, -0.21744931422584868, -0.6552927992072335, 0.2690361870730311], [-0.1087314367984702, -0.8760926831638802, 0.382366961679236, 0.3632369266735249, -0.26533257330520277, -0.15454270448178775, 0.4958557006763775, -0.7748698776107452, -0.2017170183112218, -0.33046414799661505, 0.9981833251290388, -0.10700690520165224, 0.1254845413546679, 0.6841500387850306, 0.5805927527583725, 0.9791474733358716, 0.4916796147849185, -0.16118067268521985, -0.844089643542713, -0.16633376988189008], [-0.550858879083695, -0.30760565559863284, 0.39198949790726134, 0.5841165204103631, -0.48756766148003505, 0.05395729419270179, -0.9975873719602959, -0.07479475243310207, -0.1084936433137429, -0.7639711306715413, 0.5082651107543164, 0.8951653622068967, -0.9072544965700977, 0.5701266024221379, -0.5425221647599108, -0.7676113134674192, 0.3527560487593595, -0.5833131632594655, 0.6718450074860278, 0.23888845333514164], [0.02679504173862024, -0.5795248938260806, 0.09051130889868131, -0.09671099889995571, 0.80634808774132, -0.7811683467648016, -0.7933297400617432, 0.42788553242117855, 0.33980238711640043, -0.6276235795722469, -0.2909367024708567, 0.7760228073694331, 0.0560715558218432, 0.36608718357890035, 0.783568331362843, 0.06986478814327346, 0.5588695884416786, -0.6390933601215409, 0.6034162346092602, 0.4250365523969646], [-0.7099660635733791, 0.30682224425781834, -0.3425377899488249, 0.1963787343383614, 0.017080478773425334, -0.24707368069868596, 0.07422475069993051, -0.24855688977874313, 0.3576390383505508, -0.37813298070767787, 0.4520986800752038, 0.7895692475058229, -0.897070115381754, -0.8890310799846206, 0.5044225702763243, -0.5333824014706643, -0.9996948065032791, 0.7483862633495924, -0.431455765785274, -0.9064388217316346], [-0.34606170143570814, -0.1343183466629423, -0.1572788787678947, 0.7685304007335994, -0.11212814524376369, 0.27356644807720976, 0.8279256832237056, -0.7454510600032409, -0.9243591431976232, 0.42956056236418205, 0.2761854207981729, -0.33980566801190015, 0.7360213390863677, -0.6793726665523641, 0.8222662230197706, 0.19649737415507662, 0.28443940791809674, -0.9229289775398695, -0.9842356298861386, -0.8236149846924945]], [[0.3607978871747497, -0.6422996898518183, 0.859991960967784, -0.7490865611042534, -0.43389925032367893], [0.3252963573156902, -0.22581413061761513, 0.36854811696190604, -0.49250521061887675, 0.44741606591400074], [-0.987951070609036, -0.06224608593542191, -0.8473042816946823, -0.18294431141576117, 0.5720615452058726], [-0.5856431903631854, 0.09084479241496246, 0.9522077957030992, -0.3024623533409718, -0.6323133709672784], [-0.3441878011258075, 0.9647974286322223, -0.17496407093322364, -0.779450787875926, -0.1645963594862332], [-0.19444124098366888, -0.47681533964346556, 0.5916304069124241, -0.6616833280774808, 0.5135140920861352], [0.9988472410046392, 0.34173133612813866, 0.7409353880617822, -0.5904728922170603, -0.9568551305424566], [-0.8171094925014957, -0.11055039590630056, -0.9179015111065649, -0.2710566357812838, -0.9111748814267644], [0.7973373755877631, 0.034049357962777416, -0.3794672138525135, -0.2170446994482862, 0.8371293513909908], [0.3547612178784887, 0.3672744068663105, 0.3998313962671667, 0.17724239987143386, 0.8979495102176818], [0.2403426991733224, -0.21257643178492014, 0.9213793692160306, -0.4420925046445441, 0.6877752126954919], [-0.8997727158298112, -0.0018216534900852288, -0.7541701175495927, -0.6824138467292649, 0.193938302658357], [-0.019052873611753007, 0.06242056231736859, 0.06554689194339325, 0.36099787112044956, 0.7039735371106752], [0.9793666934858285, 0.938910693321602, -0.68710560902891, -0.5521864760594115, 0.2601511159726848], [0.8060732059006379, 0.676526331556871, 0.9539235405438582, -0.07571458371292628, 0.052071522412910465], [-0.3683118496579554, -0.9280455935389085, 0.24268970993135164, -0.6187579013024389, 0.45382787453483675], [-0.05710379916589847, 0.018343067565689264, -0.001812278129359468, -0.5222258544041067, -0.5755199519643794], [0.4142602031542282, 0.5226759480284231, -0.7945483236966508, 0.370571194758726, 0.7072595650139111], [0.5725541305297643, -0.7609095944078625, -0.7863340998946919, 0.723794435132388, 0.7190375678507388], [0.5516979146467527, -0.504989362715835, -0.1383347765175098, -0.6014877242843031, 0.5987133318039644]]], "biases": [[[0.37541367392048497, 0.5831718441284532, -0.503645324099038, -0.7763268989382712, 0.01896514268968086, 0.6083934187402751, 0.3907335750231462, 0.3042957953771044, 0.23887209469069082, -0.908225169699888, 0.016402094197747408, 0.7769359714911879, 0.20124319775208233, -0.7678265275610441, -0.18392921740052204, 0.9903665659201313, -0.9790735702804196, 0.03353445622704454, 0.6076681487797071, 0.6630286204664273]], [[0.4053229341684086, 0.4371797234315662, -0.3705590118675588, -0.655522903086494, -0.9622578623590965, 0.2996550467699477, -0.45639375420701755, 0.9359356741819207, -0.053206334658322696, 0.4225987425436011, 0.07599777711236277, 0.3007967224719046, 0.018613210325682417, 0.29271413045900996, 0.3025101721258343, 0.8506294223874504, -0.6173218097748119, 0.184897697918059, 0.028293909797099115, -0.8844095057997787]], [[-0.7892759038352686, -0.8289620988351962, -0.34866772993008865, -0.6527653685902517, -0.8640157566795972]]]}