{"weights": [[[0.6905022910412706, 0.9757592919801041, -0.26796338339369363, -0.5312290159707427, -0.593678366192981, 0.8813161020573816, 0.8100841728123356, 0.6157484397420705, 0.6928952648698143, 0.990196907069651, -0.8039141483058936, -0.41925196961063027, 0.35151070558390707, -0.15149948393290424, -0.6503833715666458, -0.3954214364707487, 0.18581157732715137, -0.8577202510705664, -0.4859013777941321, 0.014664173406081726], [-0.495966045832994, -0.4115812639872858, -0.1462148399555916, 0.6554908718758754, -0.7734038832755492, 0.4614653301610576, -0.45551020844035217, 0.13067669105474589, -0.18674596980332936, -0.8534097028881069, -0.6726618293647644, 0.25882179599339317, 0.28603780949734503, 0.8909175434262109, 0.31043321859429374, 0.03662285746704841, -0.6553244398811717, 0.2928465103794671, -0.2026808704521288, -0.08620852295004511], [-0.5435667688577221, -0.6914215868370508, 0.4289470976997716, -0.47317812157663086, 0.84540767253569, -0.6045480991777725, -0.6391556356946875, 0.6261989412479558, 0.6671411911291327, 0.40431189415334945, 0.33890478304657257, 0.19155260203903546, 0.3185974946870218, 0.33085122081730023, 0.2622074427132144, 0.761061300010649, -0.029498162453158727, -0.4613458175579903, -0.6200173143042544, 0.24558363237146463], [0.34823903548373236, -0.5677953131941167, 0.5628222280595876, 0.4171631615079592, -0.2721205685278132, -0.660839544473923, -0.8437758118713794, -0.6031523352704335, 0.7127779182413516, -0.2126788662142074, 0.9195696122576753, 0.2659855886255864, 0.5158333922691454, 0.9393866184574127, 0.0583079609256274, -0.07613868380214273, 0.4659181805306676, -0.717047771654916, -0.043675847608848795, -0.4049870591325955], [0.5133388977837228, 0.4579077223237211, 0.5652589210132772, -0.37949593464438736, -0.47145700139849955, 0.7202821326388171, 0.9853763851353201, -0.6316400351239615, -0.13298813991155467, -0.7481292775014976, -0.7337492182110406, 0.3616523975716692, 0.9271776807760939, -0.893614202812143, 0.7081025593655808, -0.4088739021122165, 0.5208312494617846, 0.8592453906641075, 0.7466142207715007, 0.43263795306972797], [0.5000083527372314, -0.886916185901619, -0.27986053654011434, 0.49743236976233773, 0.24761773934585452, 0.5360873644058379, 0.09352178314593584, 0.15330542091869126, -0.6532719737511423, 0.9165093979242371, 0.5343347983095139, -0.5855625990058904, -0.5407106430982145, 0.3674433598946296, 0.9874535345312685, -0.6649200207146622, 0.15979981503005813, 0.3893801702165045, -0.5237992449711883, -0.324763712323038], [-0.5851990025719886, 0.7495478017302699, 0.8597717717448079, -0.11491607064713438, 0.07234723182341507, -0.07312419113305002, -0.15606030338766708, 0.0943971760395772, -0.08619474585273834, -0.9757475646393416, -0.47534299344549336, 0.17517912394896906, -0.4971909379965833, 0.27478226224221003, -0.21098808803792712, -0.14115601694041535, -0.9017159251084708, 0.5378469871345322, 0.6685437645953263, 0.17396506634124664], [-0.5173955234130136, 0.11391595056675152, 0.21032919951506446, 0.46571148362213033, 0.9354027207171478, 0.2809587009589787, 0.8958025176647424, 0.5023810237557815, -0.32950858699203467, 0.03222850387742748, -0.03261911394320105, -0.4485625480678095, 0.6939459576688274, -0.3324344242509669, -0.6388212222400176, 0.800114827415062, -0.5393958354935091, -0.758175088306607, 0.2753524467132824, -0.816269931687531], [-0.9752877004127944, 0.6859581398247361, -0.2610870546349189, -0.422376140151973, 0.602555915133135, 0.73935150523745, -0.5209296082780357, -0.044868710577424364, -0.3236323353590722, -0.8739030018573499, 0.9291302280971512, 0.7373228864362371, 0.09939056564726978, 0.8221248533536873, 0.30015628979034115, -0.6782828968437657, 0.7902841333898734, 0.10909799161099176, 0.7101793519095845, 0.35942460753093064], [0.4723770738454225, 0.47404772648775984, -0.44638970998277716, -0.28889465835906325, -0.9395374256405924, -0.289739196046749, 0.9487731567011972, 0.3288357068394938, 0.4260868021954267, -0.4801064162116644, -0.1255531488332169, -0.46293818905402984, -0.7043424538846246, -0.19158910053833234, 0.3701956424788322, -0.5650538726645074, -0.32954258893388366, 0.6688102771089026, 0.9477468967245146, -0.01110895362795672], [0.2963424617452839, -0.6403311273276024, 0.8030031284740522, 0.629719336022835, 0.09734580805677573, -0.06941680865476485, 0.6002552621065644, -0.6386971826256351, -0.8730556846366677, -0.11364338079562009, -0.5049744142950825, 0.5235262090266655, -0.7981805603080476, -0.8700527898258374, 0.7434539020227573, -0.9450076278069601, 0.607826099345282, 0.39055401473104645, 0.9563233740721513, 0.03096095459920334], [-0.8475223131568359, 0.6474482072937884, -0.6503895046414088, 0.29235513779881117, 0.3552812942551198, 0.05551396171268741, 0.2680057815959416, -0.2238789946524502, 0.8419954331428945, -0.7561590765747459, -0.05179034279518402, 0.5735433128474432, 0.45828975386517246, 0.5003012200170325, -0.10336092401204633, -0.1857459205241596, 0.43744770524949406, -0.34294132903802366, 0.5925792182602654, -0.6665841576672089], [-0.7136623488487954, -0.9637931734541343, -0.6191762253664208, -0.016397911311719193, 0.43840851925076874, -0.1780113827367873, -0.05440292973395899, 0.5664770863849178, 0.2970502473931058, -0.09013554534104729, 0.18464351773406174, 0.8096710946655532, 0.6473809297390463, -0.6855099903068598, 0.8881353839511272, 0.19865650262354828, 0.3260513822973481, 0.3398580972177605, 0.18022995769837236, 0.4444232698388273], [0.41166671087942786, -0.4901201026783082, -0.597561287289158, -0.9506995832084628, -0.8202383612077893, 0.7613616164133767, -0.949627002793046, -0.48690929450564346, 0.72244278676065, 0.9738328119449273, -0.8546834797720404, 0.024463115808457836, 0.5411068508989747, -0.8241736312097718, 0.06051537718764699, -0.5015648966455177, 0.554417851329245, -0.7892317007184186, 0.5859911075891304, 0.863614371597802]], [[0.8897646250727449, 0.7562039708048323, -0.23140838553032128, 0.7036821391155399, -0.2819567353498593, 0.5780108866188638, -0.9884267963223821, -0.6835318327250541, 0.17146007326466473, -0.28655171324201123, 0.16540221834876645, -0.3588834397702896, -0.2593490452369982, 0.11709437166443148, 0.8214640373622677, 0.511615658934572, -0.7717014925717058, -0.8514057839331632, 0.7589113172949635, 0.4563559010434033], [-0.6703590969238189, 0.8081577633655046, 0.34709310176195096, 0.8761204735953425, -0.08556558011985893, 0.4975674236928971, 0.4379784995585765, 0.96547637957013, 0.9736725136252462, -0.2717981834431542, -0.8754821214547608, -0.6605167727553338, -0.47909459059065096, -0.7384998028221372, -0.6432570178341444, -0.37562743504884843, 0.23502464627068687, 0.6427519231292522, -0.4720911304246509, -0.001429193217499014], [0.33389360688588865, 0.005142686648422323, -0.5755098781188046, 0.5129537957221662, -0.11099881189946648, 0.4965534827048552, -0.37167992137740935, -0.9917804735441007, 0.3734102062751725, -0.04217207041228588, -0.23689021403295518, -0.3743797861765761, -0.15698302768915795, 0.6977133973880998, -0.08963677583326146, 0.502930176272453, 0.5481992496728596, -0.3388912254247267, 0.9955032237738075, -0.031215425858831525], [-0.5173677646141979, -0.8024160625335812, 0.035672734316136934, -0.5847607643143278, 0.23400025498916954, -0.3354550947953965, 0.4736752444448977, 0.3522425316767077, -0.46420106790527504, -0.11353925792875752, -0.5076778559785926, -0.01931322299243221, -0.7231833170189956, -0.49195150680148125, 0.5596332746388095, 0.43975219718992875, -0.3766318723118516, -0.16151705477099276, -0.7665646045324679, 0.7774786728041994], [0.14206253607474983, -0.8090154377053174, 0.5450480092707337, -0.9096254002636432, -0.6549272633375127, 0.026250783398172883, 0.15209914026843996, -0.6006133239751592, -0.13763759978074397, -0.8774431473826925, -0.4718838701520047, -0.27074624532778735, 0.21718872066672246, -0.3042080753283882, 0.1663903997768501, -0.750766058570739, -0.2987852681717047, 0.808433454539117, 0.023743126938011727, 0.8426333373194324], [0.7623793762126221, 0.4437883831642546, -0.021742266074437522, -0.3441784366707179, -0.12188411995434723, -0.6229573647314619, 0.564882813399175, -0.28293167930920005, 0.013296996931801308, -0.7071151231229438, 0.07840320566015713, -0.8378007600003108, -0.19466216640462952, -0.2758837833835255, 0.23888661332775518, -0.4706700219602, -0.6078319171300974, 0.7076455937007802, 0.25810363191525476, -0.32981423204869054], [-0.8174884606295296, -0.2586508551708504, 0.9258201368284269, 0.9371476561678129, -0.9422875627374794, 0.1928200761207235, 0.974513779028019, -0.8219569333677801, 0.46330210628810886, -0.6482867871086224, 0.024992026355155295, -0.9405264259336228, 0.5133137306751876, 0.7193679911455078, 0.5361168476560287, 0.37300381987191567, 0.5153782953884127, 0.7380964081594339, 0.38276467116307544, 0.9095053829000774], [0.785736658672721, -0.07884720505992848, -0.6245817458585423, 0.9906150367658024, 0.9767861254794923, 0.3591516299886848, -0.07525511233747473, -0.5968848185511861, -0.6084058853490599, -0.34231646801136195, -0.8263618904322771, 0.4662479754594038, -0.2530888373687765, -0.679608543203007, -0.3776734837681379, -0.6367181686499586, 0.0862827819318075, -0.2858643587047094, 0.3357284019849549, -0.1903613323648592], [-0.7088337562820815, 0.7517503195879722, 0.36667453528078364, -0.16372406932762962, -0.5725955539990326, -0.017941677123762823, -0.29033297670469516, 0.9479650357092955, -0.5874677992545592, 0.26667877326407785, 0.8208572124131075, 0.5040824478519057, 0.20599305728629158, -0.5384181631208294, -0.7638992576652754, 0.8409640614385014, 0.21213442647079428, -0.9359736811667094, 0.28345009525077014, -0.7548628532369541], [0.8581617930586796, -0.6244006189378688, -0.058285893558448265, -0.638015893248919, -0.748430293660495, 0.7562490446186128, -0.8178036106607349, 0.2869356510218015, 0.2108360251038881, -0.6386541631296068, -0.2835818533924177, -0.30899766735228873, -0.20666931542865097, -0.9178291768779199, 0.49751256458692983, -0.6151364621004753, 0.11159801649908951, -0.9796627335297612, 0.13337662584880827, 0.5017632199040258], [-0.7108763568199845, -0.8069963583725928, -0.5720136193599383, 0.8394435979242887, 0.9139087129756913, 0.022093405087631357, -0.028325617320931196, 0.927117145928835, -0.8877673143283968, 0.6190207896347883, 0.41562131630178234, -0.5326963394973576, 0.20305845744080564, 0.4509275912397559, 0.8051526957584352, -0.2133514012369635, -0.11443668677056262, 0.9935741705157788, 0.648859857397899, -0.5353584857396043], [0.6148005194959096, -0.6905405692239339, -0.8306312220961305, -0.5314294683681264, -0.14706071687196332, -0.9944106295045536, 0.5918862470959547, -0.5757594086122015, 0.8659058371786137, 0.7442494283556471, -0.47181379361750464, 0.5947351141433084, -0.029409528727048384, -0.4217367452582168, -0.9499162095576594, -0.36583722314494604, -0.5103450586355744, 0.7122936987224013, 0.4726168455332489, -0.011184390445565962], [0.659529542000016, -0.23749873960280854, -0.9430629581907222, 0.07039495832833587, 0.21732024323551524, -0.5519463054890004, 0.6470997747278684, -0.8348018043737551, -0.12603145541758543, 0.9526762371473978, 0.6770294035078583, 0.9916834573419788, -0.7556498747097056, -0.2637560778137331, 0.3369571687166466, 0.9496173175666163, -0.15800861780626896, 0.9985724168533092, -0.9317008914411911, 0.2564173577333626], [-0.8816242387565658, 0.33308248694507747, 0.6599604834192898, 0.8493239983841865, -0.4292608448010995, 0.9418831834044015, -0.0686055123430338, 0.4673123549432221, 0.313922471860953, -0.8585246008385221, 0.4459505325701951, 0.4875976544761309, 0.7025360874254691, 0.8040601567655254, 0.11047674134945584, -0.8163042140434253, 0.8070209493441702, 0.9680310484996792, 0.9516537403682415, 0.07493184649162687], [0.6904170345243856, -0.769931189098696, 0.7295899705423179, 0.042631328938006696, -0.3229069831499565, -0.1223368118372492, -0.8004687364878407, 0.18374631704510036, 0.04366647921218347, -0.09924871524769463, -0.4071274274815435, -0.23352431862445466, -0.9131083039492147, 0.3665691363753758, -0.05785225596847221, -0.44872125212643366, -0.8296396240029116, 0.8360439241938276, -0.42086860845399987, -0.0563995156974082], [0.010188264838646877, 0.22113033942339166, -0.6452181960306094, 0.3243764072291009, 0.5070854668923646, 0.6766914961299944, 0.8475502804427257, 0.5164861146671977, 0.4079127538199858, 0.2930842788250183, -0.4563827158017124, 0.9374988529410515, 0.41466488962606807, -0.8567303029878763, 0.4107091346328975, -0.8746497654950525, -0.3980323207420404, -0.07190398544117182, 0.9267377441296181, 0.6439225444582606], [-0.06053331138511653, 0.47718908180583175, 0.26906111132993904, -0.40420608433980965, 0.9676527180709753, 0.6040270462912596, 0.5445192707354505, 0.15821711425317564, -0.19823383772914682, -0.4009114050876106, 0.825430518451326, -0.10627223658504348, -0.8441146803736765, 0.9768161163123907, 0.019163232105107175, 0.7697871221337411, 0.42997347944022035, 0.2865602081809835, -0.943976666874407, -0.17239748780970388], [-0.029812120534724817, -0.7359832857069155, 0.66124904534858, 0.01947637504138333, -0.9133956615980385, -0.6985138276910774, -0.07283962973459146, 0.01633151349362172, -0.777378682064112, 0.2529975003300069, 0.6916176771466738, -0.7432353183408333, -0.7585296824667529, 0.06383050995886608, -0.5665635306496168, -0.8396994696793392, 0.68584178313047, 0.9336844743778285, -0.8216076368685825, -0.1892571938060008], [-0.06664193204719004, 0.6547564871197551, 0.6934523518872269, -0.9987926643836491, -0.11554338496857808, -0.7988698830917687, -0.9112280853535213, -0.09176714743771974, -0.593037363941459, -0.5263471871032219, -0.964041159516736, -0.9788487269818016, 0.6057122451530592, -0.4268947864233863, -0.928339693764386, 0.4937226074348, -0.6058680612490812, -0.19975988351859275, -0.02762713575955189, 0.47878658658773277], [-0.5820926305473817, -0.3407517408863241, -0.15790996197709606, -0.5858234574215517, -0.9734545859419514, 0.771928411827949, -0.6906247969276194, -0.8978759147437274, 0.25534471282322047, 0.42281084313475303, 0.8169178108775643, -0.7675578302424995, 0.3012951990979791, -0.36456794629867173, 0.036774679830887225, -0.5189396549927732, 0.0872398615682517, 0.22147850308392303, -0.8548842667543943, -0.9565248128259578]], [[0.15900910706931892, -0.5979568476119579, -0.2439828865275191], [0.44579263131691893, 0.7390730809460522, 0.637352417277973], [-0.8727655259858744, -0.8135303351070475, -0.11311586191155998], [0.27109591078397166, 0.6273040060542798, 0.4103621483352018], [0.26553553324793344, 0.2763200044227201, 0.5491014986096026], [0.5528707622717803, 0.5974740975961932, -0.21960565152451572], [-0.9749289278608435, 0.21998595864906512, 0.7073766783380695], [0.5067584991845384, 0.043596698556234825, -0.766011080943034], [-0.7679756738906578, 0.4269202611565037, -0.1614077779714862], [-0.3620607873766397, -0.9703388613514099, -0.24966974109414286], [0.20497769970924873, -0.528955113864694, -0.7494484623353235], [0.7712791241069481, -0.9801847373917585, -0.6878609960483284], [-0.9479310217393364, 0.8450512142389286, -0.32366938352701835], [0.1010143806193391, -0.2705945831235457, -0.5282733196218281], [0.9188179599272828, 0.3765783008954149, 0.9500271213171385], [0.9684372008922346, 0.11932648406165369, -0.7193261023269144], [-0.16643813603943913, -0.24344269991456446, -0.253633391388586], [-0.18483388723405847, 0.6594030688876624, 0.8593711505516335], [-0.10020971827714797, 0.3531249512581822, 0.2485998705848036], [-0.428596303234718, 0.30099138153180216, -0.06540888176696202]]], "biases": [[[0.6534215795986822, -0.7678670379944943, 0.5036741700137615, 0.5729011927883385, 0.8823163703575987, -0.19308623346054476, 0.08642152881810827, -0.15128229131524407, 0.7469858726811986, 0.11163950448773519, 0.621149664715668, -0.4869436240620262, 0.4192536532357001, -0.3839814723224291, -0.6298769163834561, -0.2197463446619492, -0.6752239127239261, -0.9367606539258477, 0.18023787345140452, -0.384056232509155]], [[-0.3951777581789815, 0.2859318222491676, 0.5196268008389988, -0.16483694370405688, -0.1687539861574252, -0.29896982150508356, -0.022728890997219642, 0.03729879430951866, 0.6404692112207153, 0.6091888492972162, -0.07136892158002439, -0.3130295629368427, -0.5082646758577569, -0.9937972875760461, -0.9339379380099824, -0.8539210362012797, -0.00374290435885527, 0.25345084370817883, 0.02836417175558359, 0.004730531576065511]], [[0.959169665542049, 0.12661320787265296, 0.894408552808744]]]}