{"weights": [[[0.7787115384511394, -0.7090680436754637, 0.1127228766032593, 0.5822178742183632, -0.15448197133897867, -0.7573905942460817, -0.6567453842955098, -0.8293952656026824, -0.9771798753555956, -0.7925392461571272, -0.15678158991342817, 0.8749118052972931, -0.6387723464795978, 0.7705401528372873, -0.618872791640088, -0.17125074243193938, -0.10103943861509035, -0.8642438683413372, -0.2877606661489682, 0.18673277472137562], [0.6413907882886012, -0.6134309788416188, 0.025414189632868123, -0.18985601219141413, -0.6881290955572965, -0.014962744365357494, 0.06367796623864996, 0.7380722846089327, -0.8322780123351528, -0.8409780759324978, 0.6766823135346547, 0.7584337293048842, -0.4947581133987604, 0.04349978259854814, -0.6817973762660461, -0.7127240902483729, 0.31134501707633455, -0.20345745367315016, -0.2254115328113564, 0.17994001859859754], [-0.2043242921685109, 0.10999897055606378, 0.42132334643298486, -0.4081414928618974, 0.3311613071532167, 0.6130331507115423, -0.6994588974588376, 0.08301357141326027, -0.84959918909061, 0.5007789549664321, -0.3655929909333411, 0.5750272836155874, 0.5762727285566942, 0.04882466273935138, 0.37371418273279233, -0.9930929949545384, -0.13318343605170302, 0.9682654544302933, -0.552630432979077, -0.6079390083814142], [-0.24199101170106996, 0.6649912709868824, -0.5201558648628644, -0.1692271697535641, -0.7392531120246943, 0.700771328480335, 0.5850583396602589, -0.9327647321880763, 0.7477422210098223, 0.3483631928596793, -0.49625897974710753, 0.14575021134471977, -0.8112311338248359, 0.5185870243256199, -0.6808652093780243, 0.37535620140651327, 0.5584124367997727, -0.056833202977419006, 0.9811187117685811, -0.8849021234909691], [0.3795447044696285, -0.8961724220381446, 0.12288713380707694, 0.16307765396850638, 0.24713528376679617, 0.4991894466106903, 0.06657706725509938, 0.5560627613572118, -0.194971269173561, 0.606603413074132, -0.7243581108089545, -0.8572393493872077, 0.8406550997652285, -0.8013619496277267, -0.31907734987547753, -0.37453952478118846, -0.43753653603059317, -0.17042564514823622, 0.9029233069950862, 0.9466540316690604], [0.853332355008916, -0.8422934718363075, 0.5936172980263164, 0.3874274797003294, 0.20386580049760417, 0.05374876112279536, 0.3084474102967323, 0.12958529321877554, -0.4383350221858282, -0.22614572547402512, 0.5943043818002953, 0.4613064448860069, 0.6811161761754836, 0.14685523313158244, 0.17676962842419264, -0.7723578267424063, -0.23888286993788754, 0.7276176420271754, 0.30004075853413803, 0.6221728032103242], [0.015887605533389193, 0.9682947377286311, -0.9268175605986064, -0.6893256646024679, 0.08808204600561087, -0.5118529269265644, 0.6762126524975485, -0.10554325542026399, 0.7648791643092037, 0.5095951539300878, 0.7273102002166343, 0.3801480806690103, -0.5069921200941034, -0.2668264700811822, -0.5343478182296848, 0.21394224058402633, -0.08710487919589216, -0.5243552369903988, -0.9084548807397428, 0.6547354081655894], [0.9242584350309186, -0.44095196777600165, -0.06732905911549247, -0.3409457903567692, 0.47981100155994083, -0.6949296207408717, -0.040782400137201025, 0.0018390232774012638, -0.9790931584640712, -0.8785375862052764, -0.9811200281611476, 0.1515333077477501, -0.24104195366541648, 0.9536325230473095, 0.9030381186221035, 0.9449646110217329, 0.9746943632954641, -0.7454328958192626, -0.5250800204607469, -0.0687935931922572], [0.9047656962979032, 0.9747490840156472, 0.06861201715230081, 0.22376452783282486, 0.7522426802888154, -0.3517411603471501, 0.918470936611933, 0.8192485851420632, -0.42998733105826714, 0.3945320090958342, -0.14032977139452107, 0.04964540147952157, 0.5981828252456811, 0.971814175730529, 0.8507570433925069, -0.261248602828436, 0.004441716290890962, 0.3052875526983845, -0.9657959193015113, -0.8643236233311948], [-0.023125673071290098, 0.6951702195856924, 0.5550656394563418, 0.668238538548966, 0.013762930035074783, -0.8549611382727837, 0.8751500382438868, -0.38040751395419314, 0.9195233023097067, 0.5379424888812478, -0.8088721201510343, -0.06587921913252615, -0.00256538875275103, 0.9551896176321522, 0.3052270255572065, 0.9423543744124658, 0.8522473388116079, 0.9460683879983594, -0.17316256239842187, -0.41602221742452206], [0.24114411732174634, 0.6764834215225646, 0.35006879432074367, -0.6988786548994563, 0.6336665340922729, 0.465714395307252, -0.7573312225930304, 0.23163686095044822, -0.7346890676249589, -0.16556168263579063, -0.7386308082317654, -0.8311592996227106, -0.8489051243167771, 0.5442429518218903, -0.12162403567690583, -0.6632845199138531, 0.5337386123489982, 0.9063683133402096, 0.3447997240470453, -0.27415507731732935], [0.36924153244699953, -0.6344678809869846, 0.7604600918352926, -0.7056262400640441, -0.6882164824499777, -0.1987187857655044, 0.1447748746876667, 0.8120458126571304, -0.5852316901926913, -0.1411852429491749, -0.3594385290703217, 0.8261881824989548, -0.6662171197877722, 0.8783425669053175, 0.2493001313150327, -0.4153604942453155, -0.8158917726422312, 0.9643327312324876, 0.02835009805001265, -0.5817447983307362], [-0.5811077987088782, 0.8442909973217205, 0.2887232927303902, 0.3337119327237039, -0.7328309974766927, -0.5472066197640881, -0.6379041306203062, 0.005485542579327651, -0.5824658759030432, 0.12854976099396875, 0.662510972742631, -0.7749368384035278, -0.4708453270713995, 0.6297134732537146, -0.5440717642759536, -0.8652232443233734, 0.3733653480873753, 0.5625192879004788, -0.8402613313129994, 0.48934298532875986], [-0.08865112247570561, -0.4478140998513389, 0.19973563753871515, 0.3156829752703434, 0.9259526842910364, -0.7334096313918408, -0.37498152579712385, -0.20602001204209608, -0.4267137374020944, -0.07266531740627502, 0.21498973418751954, -0.13602219278271388, -0.019024210960370436, -0.7142034921375564, 0.4409293195159931, 0.572512419226084, -0.40510980426371246, -0.7665537841939098, -0.7960856419093392, -0.7193198517312165]], [[-0.9791587913383863, -0.0464986785924868, 0.4889099341340628, 0.5651197772662258, -0.29203810945912245, 0.7415292737445276, -0.39779193975005867, -0.8724097039232448, 0.6479890219125213, 0.3623700078016201, 0.4147599495324068, -0.23800361717278462, 0.3932951784886849, -0.4011939430669593, -0.5155148147894932, -0.5413029259864441, 0.6760044932957576, 0.6353179391000672, 0.8698810237544861, 0.35617238521792327], [0.680737370181387, -0.895162015402565, 0.012391809637566364, -0.7121695937259709, -0.2924668814736384, 0.637512384021359, 0.45490218935558047, -0.8571025751026051, 0.32046886119074536, -0.5729759383702919, 0.07170309919067042, 0.1148522734686852, -0.7572664862272405, -0.7858469406611899, -0.6125611436868388, 0.31738210645406517, -0.8710355093098732, -0.36165251953645194, -0.46371391508225224, -0.6172300353911433], [0.6131639569841882, -0.8024145820387389, -0.6106440859745921, 0.9608361440393502, 0.09836524346418951, -0.11735231146313563, -0.9371559930881133, -0.9247593278473161, 0.5447143039472999, -0.13611713174857476, 0.47855937337244003, 0.15160091313223023, -0.3994434093039707, 0.889047165008575, -0.7489238402615244, -0.6461624791318903, 0.5519068899726569, -0.8892310997518014, 0.8734590387939491, -0.9578299173262013], [0.08448367413784541, -0.09464735809177438, -0.002587394411581956, 0.5437148442407329, 0.4695654156900475, -0.7246565243993579, -0.9279753142537925, -0.7210201279720694, 0.11191528995162114, -0.23048823981167788, -0.7794313576676513, 0.0429340227561521, 0.6004062040528724, 0.8242912269569422, -0.9837626616210435, -0.2324717076887013, -0.32269760336307374, 0.7388931095504772, 0.4530026781749119, 0.14337031531433642], [0.21985132795425955, -0.8801739994784359, -0.6581905085050475, -0.8349546389956721, -0.3176436859050804, 0.7524105729007298, 0.8949734493180992, 0.6358107492204648, -0.4349862736552841, -0.2584627785839495, 0.2198614933795282, 0.5744424665763523, 0.7967734269291498, 0.0003607332120094675, 0.3216646788973243, -0.7991731524299286, 0.1960435873974442, 0.7595425616106524, -0.9224747749419964, 0.3650413097317098], [0.834176174791059, 0.30602630318705715, 0.8982585800850496, -0.541337926531859, -0.38163396576553676, -0.2617367296018487, 0.5916947145189282, -0.999238840925182, 0.9294767501122321, -0.7002104259147974, -0.31975734017725643, 0.6935779655084733, 0.5194957359513535, -0.7291501156639733, -0.2144355067556898, 0.05188655196417402, -0.8838108927271375, -0.4810639107889294, -0.6637451578893594, 0.9875280687832686], [0.49123820615070546, 0.15785230867232758, -0.9786562959809335, 0.2862957204765735, 0.46121949654256644, 0.1661289479514514, 0.010108007978825162, 0.5564965365306014, -0.24617101113657824, -0.30955299252531554, -0.8579597014599469, -0.6784787949486908, -0.41129536493789387, 0.12683543079323334, -0.19366733150954696, 0.5941484519690534, -0.8778184366536079, 0.6201533958587764, -0.6112679808597068, -0.5961748057310687], [-0.5314306532825248, -0.7636558359727543, 0.15614221175234144, 0.5765033319215127, 0.7746498139835811, -0.6691394120406262, 0.26517320458238314, 0.345924230542892, 0.839370384333773, -0.8585460692094791, -0.8075524719012417, 0.8228291518221371, 0.660566232081174, -0.3572108606184765, -0.8461532151817408, 0.8179211994684321, 0.8739307871929252, -0.2737883709924558, 0.5845371827077235, 0.7316468363265765], [-0.30710615811836384, -0.47205586522394793, -0.8604995094557075, -0.5985049710079129, 0.9626656221354697, 0.5313837537809656, 0.36816390035544133, -0.4147603298446545, 0.7495058735696458, 0.5671633211875551, -0.15034886574030493, 0.2331190089849049, -0.4323234186002647, 0.8169052425782739, 0.0872915030779009, -0.2546235275998152, -0.5101256289569835, 0.5872027810223905, 0.7262210048692386, 0.4146358770458831], [-0.7355039035725379, 0.9982405442854783, -0.727062618390661, 0.7197713572345159, -0.8030412144715555, 0.9904490584508034, -0.07396277896918724, 0.3736763344951104, -0.24070964414121998, -0.3443455263277797, -0.5877702253495671, -0.7281247281318324, 0.46812956750370516, 0.04160378249580754, -0.4825539482455423, 0.33974771752816935, 0.48160211728365376, -0.4355469818829527, -0.3836751646021621, -0.5276368610308366], [0.9602840063711853, 0.7897047450462886, 0.44487585241216987, -0.07872659686486716, -0.2694586048075933, 0.3450016969774028, 0.006516920598624409, 0.3550415487715821, -0.23648933577623166, 0.06352474213721271, 0.9220558207779548, 0.4293226215712205, 0.9965152665013794, 0.20059313257620603, 0.7475824902775894, 0.2854565008526999, -0.6506567486495554, -0.7863807968420893, -0.5883661959614448, 0.12398142144387014], [0.6256658196989617, -0.06762495176416472, 0.3136612372446923, 0.6905835511240679, 0.14636827762651983, -0.6033481862630401, 0.36879583734087107, 0.9144175239443157, -0.1205706928559056, 0.16069142674047265, 0.774750849808918, -0.5012185124645121, 0.4461036162939964, -0.5672980286279194, -0.9965310069137645, -0.2972013696173852, 0.08312119542417351, -0.11810382856347101, -0.5428108501917959, -0.5388233901767385], [0.678172483526436, 0.7072179963839, -0.5704860668997707, -0.9935741944501846, -0.952503202847333, -0.622548587337582, -0.16286648260671588, 0.01570299191157032, 0.4028313635376988, -0.340831737510084, -0.1964810528700367, 0.8559556656856853, -0.8265448601687029, 0.2896186987543432, 0.5209392198478624, -0.8331068692680355, -0.07089796332170728, 0.3998303180400271, -0.6440979173063883, -0.7702418278794563], [0.643279312461007, -0.4286258717625675, 0.535820213214895, 0.7473362338499181, 0.05729355692390525, -0.3073160944108717, -0.44819826277722896, -0.037925037857256205, -0.9009450010652014, 0.6038653982936917, 0.22738678926413702, 0.6942109112624186, 0.6611355270928578, 0.7751350393781573, -0.6937532418636139, -0.42724657174507286, 0.5104325112008521, 0.8831226149859575, -0.021882809006790183, 0.43286493388840164], [0.42511991788107006, 0.920726269602415, -0.6811235394065349, -0.8161954631844215, 0.9575558578958592, -0.0837039913390285, -0.8711978432441512, -0.9347364596722614, 0.20516077724571158, 0.32173382818755836, 0.5961988561613243, 0.06393559135253435, -0.14348070788771783, -0.87599508188521, -0.6729475391635671, -0.3291613044375732, -0.6474077370540523, -0.6747039220306208, -0.5867634696477946, 0.5863801891025073], [0.7254221749152128, -0.6260872664456754, 0.4298048655828741, -0.9244783696725616, 0.0317822100319014, -0.46111032974627464, 0.9005725849057802, 0.817317030254566, 0.25773120510078207, -0.9339245201048851, -0.20773896160173955, -0.10764804742557144, -0.9726310394784603, -0.49746215519352854, -0.33634616788142724, 0.4698929933780074, -0.49712949077798463, -0.19482836438370077, 0.33638394945644623, -0.979758881646903], [-0.5223896820643963, -0.01901822338315129, -0.3831024830406251, -0.11762439260001711, -0.7914622006014826, 0.4118127021366276, 0.7755121502707536, -0.4715919797370651, -0.22940549217099626, 0.9714597343727731, -0.3754005247483072, 0.0009550626821346331, -0.18459693745205996, 0.2210869129660138, 0.5215844896651269, -0.28066794884568713, -0.17396434549947215, -0.5325698312924023, -0.2846596775779249, -0.6032819330804557], [-0.7969988322244983, 0.5528991994163464, 0.5952240547638681, -0.6081234515613028, 0.27403431883985285, 0.31227068190269125, -0.516615182943253, -0.4900028963314984, 0.5796951084789379, 0.7149559296885815, -0.08479320117114364, 0.33818292653236437, -0.32483075348933, 0.030642327481781972, 0.8935734352141695, 0.6610401869939047, 0.0697014518872634, -0.38644095308503923, 0.5343444988341683, 0.08513019972425528], [-0.3131078576732167, 0.8564353566196496, 0.16881859632884755, -0.6311176972610202, -0.677678446086057, -0.9668115859861115, 0.2565899753979075, 0.12211229885358699, -0.2295416713185654, 0.02735033714568247, -0.3450957936595198, -0.42918180676769424, 0.3514612782894022, 0.6621067715865527, 0.06963036163239589, 0.9635977152472639, -0.6587873998027225, 0.27057202660727664, -0.38103868872851976, -0.22007767920871824], [0.8412656591590391, 0.4269529641023646, -0.09299148613955066, -0.5736512363956594, -0.38286393524836826, -0.6005983901172347, 0.5731251101520143, -0.647203126492607, 0.33627858065840677, 0.800639388538829, 0.5295522993484261, -0.22827673614538924, -0.9031502891080294, 0.2282585324008064, 0.5674280523628474, 0.6561704729079916, 0.9271319053082598, 0.6149029629845262, 0.9952156674986097, 0.03309758167172028]], [[-0.42765010868934894, 0.4808241771867805, 0.9792021804197335], [-0.022452074364158747, -0.785650344796073, -0.056779906890080056], [0.8930066516997406, 0.22874343735592895, 0.2218818180145281], [-0.35274755715019657, -0.023181590992660706, -0.16800055599491825], [0.8630575298036067, 0.5079192747166006, 0.6496694960240932], [-0.005909446653428185, 0.5074570756150822, -0.15338420832998634], [-0.1406910733140443, -0.2791425472246749, 0.15280413777930413], [-0.9005581371928695, -0.0734624246726987, -0.06469245538481028], [-0.6795361782557148, -0.6195030014699039, 0.4464228552960232], [0.9841232170823833, -0.8173960584507156, -0.9347143289408246], [0.24340429093929794, -0.449463900285088, -0.8360429554019788], [0.6627811965463375, -0.8424584199035117, -0.35755197882369627], [-0.793155445222085, -0.2958200188789155, 0.6470478312844206], [-0.7273645629371543, 0.9478311031760871, -0.7455427736325546], [-0.11821361743374892, 0.5941481347591109, -0.08611418942210025], [-0.2521776724068605, -0.7201109469564733, -0.4470119191212103], [-0.17617994317476304, -0.5277127779487985, -0.961503020513329], [-0.8516862107439687, 0.64794135217719, -0.3491104086191259], [0.07943114371573001, -0.2533700337281495, 0.9198104544927834], [0.5813012776101072, 0.3922468776928294, 0.16053448650607027]]], "biases": [[[0.012192039121369458, -0.10593208397755194, -0.5310235132333863, -0.6989631219088, -0.5316695083779321, -0.7152957977449732, 0.41287331170007047, -0.28213911065833375, 0.23061000128655307, -0.7963138625800339, -0.5886589273240213, 0.3059157492684441, -0.02813425933539415, -0.4008281209367297, 0.816231181848418, 0.6086403091300734, -0.4911791264806624, 0.945818568664057, -0.041901403566589224, -0.7514573567935554]], [[-0.5604892639008165, 0.7124477600197414, -0.9172770261831635, -0.9748135363359482, -0.34385131402274394, -0.0866403226018424, 0.18453034577707106, -0.9582841256436456, 0.692580864194861, 0.32794477143780587, 0.3283944592855732, 0.9188449608653086, -0.009821561342251428, 0.7082239778524873, -0.3705189947583787, 0.16696803825820927, -0.4765984077966219, 0.1069581722236228, -0.5147560452563216, -0.854160812493282]], [[0.2236698541376425, -0.10507994725809233, 0.33927078082883266]]]}