{"weights": [[[-0.8105319390146148, 0.46194103500107775, 0.7693278344438916, -0.802089630789427, 0.8321558033894061, 0.32485613156889825, 0.46673549040256823, 0.1303394825525397, -0.6985503371519313, -0.7087001358004432, -0.7453784031851787, -0.008689575990033838, 0.8128359397332676, 0.3559667979008765, 0.698123817277948, -0.773955413036878, -0.1616417470499245, 0.9244050789978566, -0.19746490034496866, 0.9777879450382203], [0.47389916170657087, 0.45933605528224186, -0.8801594448083003, -0.34150236249408117, -0.5007032988395017, -0.9433671985159309, -0.6054211308323736, 0.32779429084489053, 0.8586373403257748, -0.6941069131212074, -0.08954325392808826, 0.6814947057751544, 0.2789532110831774, -0.8204779369660087, -0.47897783828400087, 0.733979698844299, -0.0456665461829755, 0.2982302286314169, -0.1353944530030653, 0.5498984842888686], [-0.5243163366486894, 0.11696052920665134, 0.12656459188536417, -0.8422852780926235, -0.7687353857891093, 0.8512443982653168, -0.7778576411848046, -0.8724653885044582, -0.734394157877071, -0.7935952921278822, -0.643457174873634, 0.1536303351087971, -0.2200072279745653, 0.25689394144930433, -0.5508881758180508, 0.328869577830714, -0.16932562709566956, 0.4118232326589686, -0.7384074348187963, -0.754990374547784], [0.5497678312043865, -0.37891179212259507, -0.9912742390230236, -0.40580262859398375, 0.8323185350901021, -0.365609365309163, -0.5835199032336802, 0.8712294597442543, 0.7104805721725538, 0.5707333392800547, 0.6903121794916312, 0.48145900126307595, 0.22144376709151148, -0.037515846053685964, -0.45419992719893565, 0.6251523061813362, 0.40840574077033387, -0.16290224739004056, -0.13366429087893095, 0.08462165769695407], [0.9888764921516682, 0.014174668974135773, 0.38229211016508224, 0.5954005414079238, -0.8086186393219681, 0.9566857292142084, -0.9251224089879888, 0.013293127782907366, 0.3576982251231424, -0.45646160631240074, -0.2542237999838717, -0.6142537095884724, -0.5779862096101442, -0.051579065534935076, -0.6628279350367712, 0.3179321726200328, -0.1275403654221321, 0.24582912423376846, 0.5296793405889071, 0.859392297933067], [0.19288507903065333, 0.8641391132006497, 0.48690432464615374, 0.7994801465229238, 0.654359365612921, -0.08205453433789733, -0.18936884700985535, 0.3534098170284552, -0.6885071995792542, -0.7885636537201959, 0.41346065612244076, 0.9157974265881712, 0.7070867038971922, 0.8749252191311929, 0.9773007285984048, -0.05048573097625453, -0.9792730891097849, -0.5146726435072375, 0.2925967324957397, -0.46729202264909486], [-0.009778956068203115, -0.10055565667162325, 0.47002096499600854, 0.6889952614995527, -0.5098480246034971, 0.755447777213863, 0.4164814254295506, 0.48119720519258746, -0.18175045742850182, -0.12036816036528664, -0.009955658695532499, -0.326132178408552, 0.21187559111757048, 0.18722728914425057, 0.08199728894854097, 0.02802641182032839, 0.6745194931544523, 0.941832734001435, -0.09735874647834786, 0.5213153852529497], [0.03533131168754511, 0.7936574860900543, 0.9424867574536531, -0.9828566083905006, -0.5469076852473063, 0.22154966697985334, 0.5419064028972613, 0.3101084110383434, -0.7254758559630885, -0.03380631679950219, -0.925964145545954, 0.9041205826133258, -0.48056942485148735, 0.0021054712994923452, 0.39510099753282146, -0.5723214648190114, -0.9132523283793774, 0.8813201134345587, -0.777979321711521, 0.5304451626774678], [-0.24470872227519802, 0.1173633243725265, -0.426561427016372, -0.20490316786362106, -0.34566594398497896, 0.31152373849918513, -0.17906792552309825, 0.8656721060029098, -0.6648848633485658, -0.5297564401418287, -0.5311638663906777, -0.8163334251233487, 0.5581609797957237, -0.29299325114564767, 0.6364174118795547, 0.45362903390771625, -0.632017779021639, 0.5212359622421021, -0.21156348714679396, -0.8090854412439785], [0.3426079064477139, -0.4990011812453412, -0.21137316118116067, -0.9928273117647031, 0.282315415907723, -0.6268623480122584, 0.08411474015352916, 0.9889054905069012, 0.05639510381282653, -0.5328260371837539, -0.9145390385631338, -0.6271374467782582, -0.11847891064207783, -0.6516527620391122, -0.9067543381993193, 0.9552588312619505, -0.33115662183529104, 0.7877664360635874, 0.7448207527377204, 0.13282954428160632], [0.5001316628607544, 0.4307171333080715, -0.3684684173065329, 0.36766475177408164, -0.5699829251497137, 0.5187518389041688, -0.19089715604830837, 0.3226274981670758, 0.7091050192825377, -0.6693176862628689, 0.46118489768198967, 0.6186694673873292, -0.9568161450917858, 0.3057186736770032, -0.3522365556063809, 0.07586623463593889, -0.3072429227447784, 0.1631321671483088, 0.669411959759437, -0.49856963481243466], [0.7349678679527161, -0.15059792217347634, 0.057479999535063, 0.6280110696106072, -0.33416278559025825, 0.39801887647211753, -0.67104834892125, 0.7289650077920058, 0.9791683418864068, 0.794791983914042, -0.3417928256799523, 0.9277413588896035, -0.44715958076214046, -0.8203959044107294, -0.6224323757875361, 0.3845572464438416, -0.25067978663814383, 0.5171664195773424, 0.9984268452877707, -0.1665725490956722], [0.39060190401794626, 0.26114240052384785, 0.24271135453384662, -0.9188850869189071, -0.7316990625670854, 0.688422879143199, 0.22471346806553316, -0.05879155504472733, -0.1461709483989806, 0.6797294101328195, -0.7866576319158192, 0.42611750294408024, 0.6215457490765481, -0.14247854403632831, -0.9299384647981557, 0.06309670515946841, 0.22098818520121166, 0.6300765649699225, -0.043968610185329604, 0.8015800620876021], [0.29976447476320645, 0.8533004915617188, -0.07994688401283834, 0.30675183066184686, -0.6494845541373124, 0.4738019904399784, -0.17441055264619343, -0.3749776575888186, 0.7692179241800083, -0.7272250643290934, -0.8081341074439192, -0.5129381496685064, 0.5607260631825897, -0.12150827047507828, -0.5704218840293764, 0.9492852661147235, -0.4489022913887737, 0.6158192367796933, -0.7982370055797035, -0.7927862861711601]], [[0.8012404248675111, -0.607150860610193, -0.2004038344495176, -0.5167121407316542, 0.6705795942638335, 0.3271689721157449, 0.9805164807146405, -0.6539910442583945, 0.9181865780690939, 0.6563268468191981, 0.9985408199113024, 0.4575768380243139, 0.6249159095957264, 0.6601104713287571, -0.362040750553005, -0.882302979165418, -0.29426170578271216, -0.49276025555412706, 0.3361351635628578, -0.8807413468099963], [-0.4835757634288784, 0.2358150490404729, -0.765460494122888, -0.14903204098856548, -0.14947354145595093, -0.9411124046354011, 0.6334685729245144, -0.6603997077855828, -0.449294153328905, -0.6742002658543855, 0.15510373594619797, 0.8399216326699268, -0.5643961405703735, 0.7376530653520765, 0.5781246771247113, 0.7960314060027174, 0.9030392778590373, 0.5195354549477273, 0.5580373073018394, 0.13905462589617623], [0.25554781878947197, -0.1758741457710502, 0.10075404072402905, 0.8321738466688615, 0.0816023705944553, -0.5883925663368266, -0.5682460024008293, 0.4681778478701375, -0.3241771751583, 0.13412825533691386, -0.13395568591151297, -0.977291753219131, -0.061542667739100665, -0.6476249662740308, 0.9096037826233423, 0.29167845487690247, 0.41972498651735335, -0.713159520825893, -0.28337785222555634, 0.18764719125426477], [0.8106335896586145, 0.09048193838181762, 0.09228737403632459, -0.02723385758646879, -0.17250656022931365, 0.2660408919744588, 0.6690032076169412, 0.5121758102566953, -0.9100297609252641, 0.8700632701704409, -0.25075017457934634, -0.00460124763638281, -0.3537532468894462, -0.7695525523826601, 0.4544034862879336, -0.0907949392380003, -0.1498735737428598, -0.06838177837576054, 0.14888474223081571, 0.7003306868225005], [0.23491096030406067, -0.2953286180560468, 0.6061199474108945, 0.4571740312118151, 0.13128368000673585, -0.922679538639392, -0.43168108881271117, -0.04798173806469852, 0.0762541747988501, 0.38608273108477187, -0.5671514177901986, -0.24203362266088968, -0.7399449812158447, -0.9566187665349251, 0.42038092876603317, -0.7756792940355057, 0.18677752450099994, 0.20215424994056153, 0.4613708242933725, 0.17823011405161093], [-0.7005584106814968, 0.8812712824152367, 0.05669195836597685, -0.7727475797503549, -0.8359528833579173, -0.28275789310256205, 0.3556591169473988, -0.839231045908805, -0.8966068335199813, -0.1457078692333611, 0.939977448544157, 0.6631006049811383, 0.9608896228209234, -0.36618080341697956, 0.2742637090790849, -0.7468149184958794, 0.8593207613049432, 0.6552274709859873, -0.06935377916027585, -0.039430849367736664], [-0.4092326464157958, -0.5167508041399995, -0.6891267013534337, 0.8974649754547075, -0.7093693244909229, -0.992840524104533, 0.1222730978012676, -0.9409335040026461, -0.1607784711792879, -0.7177862043875809, 0.9334487191373186, -0.9440181049558485, -0.6796663658296047, -0.4815726359460897, -0.9957424030374245, -0.6002513504032889, 0.15242531115896596, -0.3551495784959946, 0.6328659428889016, 0.5555583898761349], [-0.5765613848656874, 0.8796720446847783, 0.9122816647014202, -0.7772623585595844, 0.17379858276664373, 0.91836433467601, 0.7012279138829194, -0.7696353340908597, -0.1027608064341119, -0.4748392055642914, -0.38868977374320535, -0.41886026348526784, -0.729416590965732, 0.2206368265619798, -0.9522019134907813, -0.3734648721966576, 0.7650228370049765, 0.7775611075228703, 0.29705488849380934, -0.3228968543203472], [-0.223752460014506, -0.8925825999149268, 0.042449028587368876, -0.14986301094304277, -0.960069950678841, -0.9586944333676553, 0.986678190152968, -0.24755974376116696, -0.4351620281211306, 0.36239919348749483, 0.6778317113053589, -0.37358832733663094, -0.610777104597064, 0.45577532320353087, 0.032101567379417606, -0.4092046264181186, -0.47218914506379095, 0.5742736001523137, 0.3677333458146377, -0.9326705292913073], [0.7354866751161724, -0.5888510303625913, -0.2951819539999627, -0.8582206997258572, 0.5092906068692937, -0.08570752116229996, 0.5949016490133103, -0.7066681195197955, -0.49942149015467163, -0.059884739499197925, 0.6918419205996476, 0.8466795859368594, 0.21317711675673712, 0.9590348678083529, 0.3813491551929964, -0.8545901364275001, -0.42568553527821185, 0.600584611278385, -0.25775132344688, 0.69054687159926], [-0.7190327444063924, 0.20447929909195928, -0.9015017485901149, 0.12281173894403641, 0.5168035802341377, -0.728802288402089, -0.45939057595136124, 0.7063075512048766, -0.7685273675116759, 0.4285753349819421, 0.47258548017651103, -0.8542569308156056, -0.2512434361392184, 0.9022921066958236, -0.9402906642870836, 0.761747425419192, -0.6290636458650471, -0.16378620273537492, 0.6974403713340895, 0.041077186495111606], [-0.6028525249596357, -0.36985123040601287, -0.7930859620121187, -0.2777189409066769, -0.8718617581364079, -0.6644417273932983, 0.6639490545976587, 0.433139635844874, -0.7725255762748713, -0.3085809587758266, -0.4221223185297285, -0.05408504329032704, 0.29164643258115497, -0.9231714040118861, -0.12506667429046447, -0.904787461748418, 0.6064752114582532, -0.44309815864542057, 0.344531992102036, -0.5059530504172589], [-0.9256783026227946, 0.6350373889553298, -0.8767747665906631, -0.3182270287214586, -0.959593818088128, -0.42756999352204117, 0.5359254206809996, 0.38974896466963216, -0.6704276760575221, 0.18148897632576544, 0.19159378715987807, 0.9754261053247777, -0.8253266789264841, -0.7181640633641593, 0.20830881911147237, 0.5828216744668784, -0.7436411120031365, 0.29119767824963794, 0.3444009937488517, 0.6755655131273384], [0.04904147413543902, -0.7440948272043479, 0.25415135475638917, 0.014657054494322086, -0.9242091472500436, 0.8583327269338161, -0.5474587590204956, 0.7142952970447098, 0.868164166176228, 0.31639387862377855, 0.3617683947524144, -0.331537950952856, -0.14551593054215295, -0.831142534701163, 0.20023934821013722, -0.7220177200766353, -0.7463897352933482, 0.24950438202157788, 0.046613172232960354, -0.6193316687269861], [-0.6467785558158701, -0.02019598359847552, -0.5877278142537976, 0.5695347806592814, -0.6002638375965441, 0.803718558003919, -0.5567311315990775, -0.1329201632411936, 0.34535697155501155, -0.7025682973121004, 0.6682814195182527, -0.6851610306152311, 0.6260395740852684, -0.6161258375485175, 0.13871707710879977, 0.23274857678144856, 0.7275032051663803, 0.48760966083885626, 0.4709299626500083, -0.714064288554394], [-0.47999097026562865, -0.852118320369111, 0.9369215420936439, 0.43380875573205513, 0.3177774646027165, 0.6804949523613162, 0.495890510361372, 0.632389608404649, -0.402064344084053, 0.8639249484686036, -0.20875233851099595, 0.02012106900187982, -0.7171909167331791, 0.2959167380766601, -0.9498417613467223, 0.5932026615097161, -0.5676649691037698, 0.5585767342472754, 0.724833140912017, 0.6902559993573587], [-0.02986751553938749, 0.7171146234243162, 0.24929737337236224, -0.3520599137527094, -0.830964365994662, -0.4765468881718722, -0.6815389244587895, 0.072910396031858, -0.6571829364420081, 0.35102926651939304, -0.3436309707484748, 0.8920820939048837, 0.1604355800932904, 0.2911746078632571, 0.7756844462468684, -0.17770387965518664, 0.022135748736001437, -0.6573984091776017, 0.1329392004704708, -0.1078848989648824], [-0.35255963677736246, -0.9066325910611757, 0.09417686742501963, 0.9345246640063387, 0.9781425083270974, 0.4502388776527364, -0.1226102268913829, 0.1717014501782017, 0.4367918622759541, -0.34966090173854836, -0.959997703197131, -0.024449086705884637, -0.829178282969363, 0.8433330796835465, -0.9152618652845765, 0.44015779219328666, 0.31785156922371716, -0.7643059400136483, -0.7340710469838865, 0.7842613857556022], [-0.17199360694611676, -0.19963473027095713, -0.7094902357764115, -0.8213627131631898, 0.5305677684034722, -0.25417377782456363, 0.6211536310449162, -0.6811922241838018, 0.14181278282829712, -0.9888297401358603, 0.5811164289115611, 0.6573739762632691, -0.397551263326442, -0.670288498339026, -0.32031034715811546, -0.657690098248296, 0.08946913686631719, -0.23659696526024176, -0.8918651130237929, 0.856688776013407], [-0.28861062676398164, 0.45368019373187285, 0.22492921277302447, -0.706867675391947, 0.631101576812247, -0.19996708774549177, -0.5650048380789912, 0.30699886245997776, 0.8779910871456074, -0.11167012186556535, 0.5143553636481331, -0.8314061021495878, -0.4771064630582573, -0.309422413467628, 0.9395391308962906, 0.9775440681987779, 0.4063414074128251, -0.3779688508987489, -0.09838238076483963, -0.9278648856482627]], [[0.3032929690496189, -0.36693210396063036, 0.2006112968435314, -0.23946522442395102, 0.5740639904406233], [0.9517478090164118, -0.47998716978390044, -0.5423749395416957, -0.47694652533363513, 0.49848549608503534], [-0.7456789792545528, -0.335384600426623, 0.9617257015512675, 0.9188052644743545, -0.2134044118493137], [-0.4087657930129802, 0.25375065090718585, -0.6362160853488854, -0.39405928508026156, 0.9697316795355273], [-0.8638172589193569, -0.5924077333416793, -0.055277538933830694, 0.619749072106524, -0.34783225706386967], [-0.19945502457206388, -0.41391593208547683, -0.9824518118751455, -0.33457305218064737, -0.023510629486484635], [0.43426411452653313, 0.6436911484311711, 0.1917695409348823, 0.20642638484671005, 0.9568292334662318], [-0.3308029378084494, -0.36537255101343624, -0.6178235082720456, 0.6375920387785823, -0.08095561681402486], [-0.8648635370984024, -0.8435199720846855, -0.49779587314061624, 0.21236133757325848, -0.7635898151536937], [0.9226212658339201, 0.8381999453742635, 0.2287162911384688, -0.5681214846944715, -0.24418909778554299], [0.3423889989753426, 0.7938849816549343, -0.927975085885739, 0.6159005490937068, -0.3833031621546792], [-0.88067862301102, 0.4466934536291234, -0.95164019293618, 0.17144970789037384, -0.32857863287401035], [-0.9912665519867867, -0.3407812433842734, -0.8726384579018698, -0.6771272524078986, -0.4952226134665678], [-0.051554997327887264, 0.2916588201064718, -0.6140402322575427, -0.6354643711547647, 0.7335820614380117], [0.5290126814526457, -0.9274593117140415, 0.3859330468122266, -0.5555976731029235, 0.11846699888899992], [-0.6836966429890248, -0.2906217248342122, 0.3955388556672419, -0.07790370260156054, 0.024470832308579382], [0.2026616981549898, 0.3688307591017559, 0.29328753104674643, 0.49711247364437394, 0.06980416314670124], [-0.4524265878571534, -0.5821914028409354, -0.9233772846126398, 0.2591172188382016, 0.4555547823221884], [-0.7623967858896443, 0.9716650346184328, -0.623433336234611, -0.0030327554672748835, -0.9165279741742509], [0.37675509139299934, 0.2598463456854523, 0.1865210947112652, -0.77565998929698, -0.09618142059002399]]], "biases": [[[0.21359781950033296, -0.29219878766083873, -0.5446105918997626, -0.01928894987054708, -0.016704400581980527, 0.8991425320720214, 0.18005948602579003, 0.8547439295187282, -0.7119857959850471, -0.8302063815749505, -0.880024713827543, -0.8008875894843706, -0.35441488162757273, 0.47348608083023924, -0.16652887177646059, 0.26206983091651814, 0.1028815814002213, -0.667956182970598, -0.11014435768880171, -0.6414100725415766]], [[-0.5167255139872844, -0.6614942442256839, 0.10386114442417904, -0.08229289494028125, 0.5173678986160519, -0.9650046259320888, -0.7972524732503063, -0.6020891239145882, 0.26168458885125667, -0.1701319337282836, -0.795464674630646, -0.5062623685141208, 0.7439581817719401, 0.26773701076086054, -0.4875808859417312, -0.5921191606790306, -0.9623832864161328, -0.6743056566175678, -0.7097068041168855, 0.950747513388529]], [[-0.7514991727226001, 0.6458027806969304, -0.9231762888686124, 0.4022376621014887, 0.906853008864746]]]}