{"weights": [[[-0.872832931464782, -0.6416338993296158, 0.9387049573585449, -0.4338183922813166, 0.01824017001059297, 0.009337639645956353, 0.3681770764963461, 0.31287032601849396, -0.8733562411248084, -0.48710310375905563, -0.46598077724420284, 0.05467885076187429, 0.07487045831101868, -0.7996442265830663, 0.728215456945704, 0.48326687434172744, 0.5266735309484929, 0.9513977102083242, 0.09499318006045931, -0.8318513369796396], [0.3742134478873955, 0.5625291211712873, 0.8192579411722685, -0.8098087511270358, 0.40876774345151445, 0.22134269588908073, 0.06409568403009569, 0.4118793942571166, -0.20520732624439497, 0.5637601923509483, 0.2494865233718191, 0.16712113785093052, -0.4635744849084247, -0.37249613997358, -0.5253668241400271, 0.7658760523685748, 0.9530205287026345, -0.10991579198932189, -0.675358051082873, 0.9414110869909322], [0.9492905743918394, 0.526520802215259, 0.9328018015441899, 0.46017312889160444, -0.7615031899871332, -0.6185968069494856, 0.8144959899715067, -0.908924135972196, 0.00971220052876709, 0.02284277066660967, -0.8585224029070244, 0.6884958538996782, 0.5937511916915683, 0.7319596601736535, 0.8868663043882643, 0.9641356767121632, -0.9101387354994175, -0.8422573161715525, 0.3577662231985843, -0.5348415801024102], [-0.11000091869019313, -0.09070059996761448, -0.4720230729471786, -0.9784800415239441, -0.754596010597679, 0.5558814917350217, 0.8877517228518224, -0.10582486657169099, 0.875885412673941, 0.7719425927766981, -0.2978617643282395, 0.6624682086671132, -0.6361030438628392, 0.7766313501888704, 0.6823026275462363, 0.01639235538653039, -0.6108607201116045, -0.7669649586421532, -0.8599554815434001, 0.48968319885127043], [0.5370779066991613, 0.8438442937090427, -0.5172553202294501, 0.16145890611670555, 0.27753921308114626, 0.9505084366674326, 0.25192094668286935, 0.5646627442461751, 0.5942049838453949, -0.49617687404106703, -0.12289767013877984, -0.09263773443915424, -0.6357236080158044, -0.6400788421947536, 0.22930500634451412, -0.9892394033121725, 0.5963139381138147, 0.3646424296870616, -0.3095884304411298, 0.8240272974642884], [-0.5100584793137686, 0.05449660138130308, -0.22699885804798203, 0.06081961715355355, 0.4170009668878829, 0.9784884829703635, -0.9401080069252861, 0.10325440948429931, -0.7445686730691425, -0.5148967562431339, 0.16314032917968246, -0.035340756617302516, -0.37874767971261525, 0.2960246380998517, -0.7239339913408438, 0.0805980719722843, -0.05916280350819525, -0.19648519962756072, -0.14240516117650426, -0.3351622972829793], [0.20884369572899186, -0.4175901063196692, 0.8585994431188464, -0.10420509196342964, -0.605507616385929, 0.06819048339049738, -0.5764838085743067, 0.11084644359544527, 0.10849587789009707, -0.41161041543939336, -0.10207371154978584, 0.7337067207282837, 0.024594510489803323, 0.06693607807207314, 0.8637623000981351, -0.6031893238093928, -0.25707827780810133, -0.5401283342909144, 0.04557923737444325, 0.6123525765129245], [-0.06506702148533416, 0.034823801348731864, 0.25253812218061555, 0.07174570465882812, 0.5313486553317017, -0.01371148421002788, 0.0230580509005347, -0.6016296348608223, -0.4238615520816591, 0.7053748272630598, -0.3755334003678146, 0.10464685178993638, -0.47399582205267654, 0.6870737776809608, 0.28189506127810193, 0.5337725337975625, -0.46189909044845767, -0.3941284705064456, 0.5624005166797357, 0.8110870603686628], [0.5852951870524206, -0.570833861969305, 0.16812527315094483, 0.5364695695004147, -0.01115382907717688, 0.25284534778793, -0.3981681272471229, -0.6601610070728336, -0.04619492771014899, -0.7846562747753272, 0.4114964232170648, 0.3599713224109258, -0.8150110741027945, 0.6131974468510548, -0.20095971430617188, -0.35697799300870847, -0.2710670690462069, 0.540725147328815, 0.34609450221323823, -0.14523667574145716], [0.8120719238413938, -0.8957747297249754, 0.7692116091425716, 0.8956447206851721, -0.5037409158157167, 0.5301747216036996, -0.9333588901694483, -0.7974797729844154, -0.05891343913897473, -0.8246493208154351, 0.9600077743675939, 0.5660750359000248, -0.36671383472972785, -0.9963878680464877, -0.7580395825113793, -0.26185831093589784, -0.6127364082043107, 0.7116916330403489, 0.25789087328446625, 0.12894228647601125], [0.5339345274144665, 0.1380121952100748, -0.822268505344242, 0.16586930800370814, 0.8716866555725546, 0.4641211695404919, -0.8903909380055179, -0.970242168416571, 0.96515683239274, 0.2364746989850519, -0.033897062814782775, 0.07259407783703109, 0.8949931656876495, -0.7222913396145809, 0.0061391517588487154, -0.27021137990002275, 0.5477646121997211, 0.18349585700713766, 0.405633181257258, -0.16558989079496644], [0.08047836567227784, -0.07180719573595673, -0.9400365483423181, -0.7835097503458412, -0.187403739183035, 0.15510661300023854, -0.8486074804646664, -0.23299330092260684, 0.4607571104743535, 0.9890225357130471, -0.04935329247306397, -0.5204713909383298, 0.07016788428885312, 0.7265246894074346, -0.6746695915900967, -0.19862019218692972, 0.5488087158225812, -0.022201128059704978, -0.41427603207948405, 0.30937314197835963], [0.3796761087044027, -0.14697639979913424, -0.4243317759039795, 0.45210603641248515, -0.09992862237807687, 0.7159275932200502, -0.745542217975266, 0.3795623482502539, -0.5502307732535008, -0.017639229752415497, 0.32042796964724873, 0.9739767548691793, 0.0612889302386479, -0.4108252834503847, 0.6960868231815398, 0.0605324099664466, 0.01995310369376213, 0.4032195497707316, -0.8798029483601704, -0.6061216338121216], [0.0021435496045270064, 0.5718658970725599, 0.2905617702120402, 0.06676212720992614, -0.24793343327753847, -0.389426746675241, -0.39257643997609026, 0.16956268678799025, 0.9996308105085199, -0.7299722244680829, -0.4348001545984377, 0.34062118214250403, -0.7223899807513761, -0.6091343010745764, -0.43101338239183007, 0.48379493781299465, 0.35624018607484564, -0.12033798135780693, 0.22456837626512738, 0.23979345888190373]], [[0.9637226789672035, 0.5212581036708226, -0.5746323262268123, 0.2423917661704098, -0.02900991979326628, -0.014573737578717383, 0.15380065207249016, -0.40792628969018585, 0.7714981905170899, 0.9107751418716727, -0.6997690131604406, 0.09064488756485711, -0.25483041191365485, 0.14904608085448157, -0.32983384486228573, 0.15376971853409227, -0.9806575485314062, 0.2535868814424549, 0.7659680099385835, -0.7269476384321307], [-0.0041254898726199585, 0.8741679653258438, -0.6887117896617576, -0.999909658491354, 0.48436517491325315, 0.6767401106357251, 0.5863044404695064, -0.8535859569121078, 0.9085062351871471, 0.9648985409335222, -0.07044043838642167, 0.6789728112069557, -0.6872146676931696, -0.8745222570519426, 0.059775391349034424, -0.47457237041703304, -0.06916226692679928, -0.533617283787069, 0.01678102609779919, 0.21127557967650246], [0.43325535299487683, 0.7320425329825992, 0.4147688893720818, 0.9354250927351864, 0.8962446973977729, 0.4414702544772957, -0.28533697911546785, 0.9593110054626433, -0.9878243484054166, 0.40887810725087803, -0.4098018343930885, 0.4858423550640325, 0.08340790388569053, -0.4621484763218411, -0.6433934584983869, -0.5271095924664868, -0.08613455150769944, 0.5041048646630133, 0.43726154978363474, 0.992932329490186], [0.31153692131844135, 0.2210735979470091, 0.6463664907309419, 0.45208905807266375, 0.6806957022626243, 0.8693392079336972, -0.6281730842532889, 0.6797227322940174, 0.683719963281409, 0.4328388440787385, -0.2677027406739252, 0.4973297324387784, -0.6520931698791945, -0.6083618830821647, -0.8540445334834994, 0.9001907092489616, 0.17123061998021494, -0.1861157501320856, -0.17368470040479678, -0.45225938276488], [0.5318292258075703, 0.7888636039567882, 0.7022862188667283, 0.7753522026373385, 0.8019946715505064, -0.46985554025815635, 0.04234640647469923, 0.6529873387044207, 0.9361218552787756, -0.20180918569103512, -0.8751533220457477, 0.6065776948979698, -0.1545741910502758, -0.020760451621523623, 0.7528046609532615, -0.1006463446131809, 0.6785643488994146, -0.1047540941440499, 0.9892343204240996, -0.7655871257812603], [-0.3228436320691863, 0.7118163310414964, 0.5533695891487522, -0.3034903887800955, 0.844513869588293, 0.7666776051908668, -0.7199184225429471, -0.02367988732405646, 0.6677359843380408, -0.6369539938135163, 0.056987629655556704, -0.6515835978104785, 0.04238762860821188, 0.8869485922200446, -0.7091208772669331, 0.542769491593001, 0.6772660433381259, -0.01245537100279659, -0.16435653525528693, 0.35955905629225016], [0.4574561689508847, -0.24334269470816738, -0.7809050955855965, 0.9106787548842272, -0.018481985605365958, -0.4322927710425273, 0.2248688590171093, -0.5540230250927582, 0.9875202749783867, 0.304736556909476, 0.8646344339652936, 0.4598787515287408, -0.0002425801890926227, 0.22178757952817962, 0.9113285106025486, 0.025006412927190746, 0.11373360766801222, -0.7820450264911245, -0.12873191322992206, -0.36600177220664554], [-0.5060957655635432, 0.10210190263343466, 0.8409320360502965, -0.891779276888093, -0.8289646414025209, -0.1897969825803143, -0.12981686204819232, -0.24234765310433004, -0.9537027107994733, 0.05917774965384681, -0.23318155155259013, 0.36025529111663257, 0.43253727961388955, 0.6634207382888269, -0.4276578474405077, 0.9922380185558541, -0.5374366756523732, 0.24596808316388064, -0.24744934454355527, 0.9740493238477979], [-0.226233486826787, -0.39246445925944173, -0.8949552949929338, -0.8163576874995471, 0.30464652036931805, -0.8951547422197028, 0.6858377489663101, -0.18677359697756568, 0.574206554909019, -0.627807452210206, 0.7282391050208656, -0.9827609766118801, 0.6025072177391435, -0.20611354119708425, 0.14967827058994532, 0.7097524480227622, 0.268862972545693, 0.17599735050740284, -0.7438371533368593, 0.580841905875074], [-0.47289815694967774, -0.2006261608388924, 0.5375679796200081, 0.25422242544454465, -0.2580444444200005, -0.9699277219115896, 0.4723753097144172, 0.03620403399941541, -0.9426523373907365, -0.251914381284287, 0.296168606141316, -0.9696124788903389, 0.9434538564285826, 0.6130299222600575, -0.515540755145065, -0.5180777612571381, -0.08343461404743713, 0.45849786062989284, 0.3519094805690488, 0.9595216716953705], [0.6516095525836267, 0.45073032950083936, 0.9688406418807001, 0.3196450284084784, -0.8898354272732159, -0.6226337160904745, 0.25918103416125726, -0.00940555234097551, -0.6034699905372509, -0.7355454130508754, 0.4272709568190507, 0.6797064072081682, -0.030312764617239862, 0.020705678037259867, 0.2689728563798066, -0.04990957055696299, 0.8921619690390741, 0.26892430694738256, -0.7526473858133682, 0.3605787853722322], [-0.3423440639083659, 0.6000797001122056, -0.4740020187474283, -0.020135772147393594, 0.5707731375503811, 0.646417685735829, 0.5890292488997708, 0.5218645348767752, -0.5181642342677744, -0.5318006066433918, -0.43458770920875733, -0.45536879764527605, 0.14079404294414388, 0.5630606434678493, 0.36228576798398593, 0.2579474197602243, -0.0715742396385819, -0.9439377895346839, -0.10941266373489378, -0.44573964066725025], [-0.9818812105860877, -0.36839927040643716, 0.932901698681057, 0.13840563605188216, -0.23501854594053362, -0.8006297750263263, -0.8306758066081512, 0.5426981657986152, 0.6547129412547301, 0.7509003089443063, -0.5866884888297879, -0.8206407769173409, -0.8923659211606148, -0.3636873601259094, -0.8523793263718402, -0.028505928182366302, 0.5696317620550753, 0.5021776919367529, -0.2972234832528704, -0.5464038057681488], [0.16882838699171665, -0.9824830007141347, -0.5539128355150378, -0.6903648568955896, 0.8192338653003595, -0.502542765923558, 0.6140593319335632, 0.36535220379059763, -0.0646789247132038, 0.11128105458351811, -0.7117972391643299, -0.344915079243967, -0.9043953994152987, 0.27227426725790904, -0.2563441824177297, 0.9121596749511545, 0.04757344900571159, 0.19892992056381775, 0.4922093405502479, -0.4109683527707617], [-0.15770871043862122, -0.3249773739665305, -0.10358752335055388, -0.9434775959197932, 0.16967593571339612, 0.9987228059146678, 0.36549831429505697, -0.10568415890681182, -0.3715940037586365, 0.8556792184713371, -0.6278471728403037, -0.2912127763990431, 0.9838164818125901, 0.04211637765681808, 0.1516670932984021, -0.6972902453099405, 0.9157808148433708, 0.31789537717512273, 0.8072931297741006, 0.04882031883670934], [0.8042687291733082, -0.19528362279813205, -0.3728729949950307, -0.5465259517750203, -0.31159144556364793, 0.7211597272394452, 0.5069133321440582, -0.32684990347220655, -0.12503636035147303, -0.9543352858132843, -0.302319362069394, 0.9723306262574869, -0.606995940401795, 0.10313577046432987, -0.032958965947967434, -0.3924090891104546, 0.31281079078202456, 0.9769816109816281, -0.6894424793229608, 0.7491540090316744], [0.03811367302474733, 0.0068831016078718665, -0.5070828619253485, -0.9029674423655314, 0.6672650902394404, 0.5214435077026516, -0.5898724733398422, 0.9489291751716311, -0.8880813964959742, -0.5410403498338874, -0.45887915326447426, -0.9299204942564279, -0.29731288927511823, 0.7094182504084663, -0.710473896273859, 0.06569910677805524, 0.22554586451757386, 0.027412708597021496, 0.7997497837734151, 0.8484996590864347], [-0.15403959472659623, 0.33050570529151324, -0.28291591849708153, 0.4607608912289538, -0.48273586761522314, -0.9003140344864926, 0.5466308650083638, 0.3071228039322942, 0.7703065870309596, -0.2527217805427584, -0.6542986275866456, -0.10819082747900599, -0.5869849315838056, 0.3507033806317674, 0.7235175916403005, -0.3730759464802118, 0.20386083247118325, -0.7904875204088724, 0.06456946049277223, -0.32359411000289473], [0.7363084652200296, 0.01519295515615715, -0.4540247896539913, -0.5720777349749471, -0.19142982967903355, -0.8818824427574095, 0.47075940538186134, -0.3349527639568266, -0.8577577669528866, -0.7066473694138671, -0.5933873156905063, -0.1158467693056835, 0.8460004365825309, -0.6570882193811272, 0.7402509181637269, -0.28724529914329655, 0.8788310257910978, 0.6936801707290856, -0.9661389161819789, 0.8833633514627901], [0.6128165746227467, -0.2981086147235932, -0.36799529797312114, -0.3282230816572327, 0.8352892140308954, -0.3715592585235574, -0.0704468928738009, 0.06412179670773788, -0.1877156445751773, 0.787890784156198, -0.04370668847321135, 0.6477792890381238, -0.26606524459274694, 0.1331295954428542, 0.20973995612253482, -0.7101610109932965, -0.25986097003007314, 0.9684375816240844, -0.804504608888772, -0.6306134356288622]], [[-0.2910383929754983, -0.6297763174782116, 0.9204996090251991], [0.360992276000043, 0.6369219395558554, -0.21060490920339237], [-0.7528804931226376, 0.13129413748772678, -0.9890404333014176], [0.9090912466163257, -0.509422131830322, 0.42635587555096843], [-0.859122411203497, -0.2757745762466788, 0.8366737647495128], [0.2502286363766262, 0.17264083201268066, 0.06141472401906167], [-0.7977443258548613, -0.4849968775498088, -0.288174090435825], [0.543097473672165, -0.3849393698890997, -0.07198125553995305], [0.9544032186860214, 0.12877794929176134, -0.29550961929967956], [-0.11853482687258876, 0.37941984779049465, 0.4720312134684286], [0.18920765202585366, 0.925889593458114, 0.3569660531013381], [0.1410559048287543, 0.49662968566508936, 0.38515002305630497], [0.13671233255744508, 0.7053634510737776, -0.8188324647382399], [0.8189235801457191, -0.5969698213870493, 0.569885408281972], [-0.7982348077436281, 0.8710627884789672, -0.5628662611416393], [-0.9061645038468604, -0.8306575058063987, 0.12875553373894255], [-0.8136472561227157, 0.7898132667326594, 0.7467883434796796], [-0.44723402664294687, -0.4807605020753589, -0.5493471295597687], [-0.24925834990008777, -0.4744459586568599, -0.63321008546393], [0.9935229832358494, -0.8405867752063465, -0.6320426287307046]]], "biases": [[[-0.728713633842984, 0.25186734218071183, 0.6182143005943512, -0.6872909596515417, 0.4545618860241569, 0.8903630718429807, 0.1796132904667722, -0.4492066331306135, -0.29692400053745027, -0.5204505283312966, 0.032907052206103904, 0.17742692076700028, -0.8018312653526627, -0.6666551137769858, -0.008064733794385326, 0.8548738576319088, 0.8881242375512803, 0.7279619185707418, 0.8381568653828504, -0.6781633560788849]], [[0.5868115662285216, -0.7821347249298469, -0.1215798037996958, -0.2679316166383323, -0.4910163379988177, -0.2915980175635564, 0.11015095022490295, -0.8126930787489892, 0.7198479134867268, 0.4289179957342377, 0.7857575217752901, 0.26520913546432734, -0.6034624060747971, -0.8470509438259548, -0.4188217222808055, 0.05457433251188304, -0.15066250264047087, -0.9828460769264409, 0.6353445533172271, 0.32509830991950506]], [[0.08613244901910067, 0.09541696873977124, -0.17551697551135836]]]}