{"weights": [[[-0.23019045394692883, 0.006060765607291296, 0.2535505665833546, 0.9915266983531716, 0.833054189239584, 0.7270789681760712, -0.3469988263259425, 0.3034167042319391, -0.390306296482678, -0.48362297994619885, -0.8923797443413648, -0.9450237375000967, 0.9215460137483056, -0.7548521814114952, 0.4590623675408618, 0.6364610838135751, 0.44955526568725435, -0.06867023431079211, -0.23289954869883167, 0.9530034816960689], [-0.9481967870565395, 0.7732321660164096, -0.14128334170866985, -0.7009925715297263, -0.9080756796253528, 0.1259644778539335, 0.8152061717856391, 0.5545960027168972, 0.6470937051831738, 0.16274788255976835, -0.46752591814271915, -0.7834759196583829, 0.8487625407353308, -0.5169892319042946, 0.0657377689822567, 0.6743786124007116, 0.8449164011426955, -0.9037058005314398, -0.45438334805236824, 0.5250875392913354], [-0.40375946609723745, -0.6069428617984143, 0.8472049122112939, 0.7704138188253675, 0.887185578025327, 0.9308766662026908, -0.15188304854322277, 0.4338225647645757, 0.8760093314194983, 0.19801498948409457, -0.7176768531669986, 0.08057961450377649, 0.0677201505899645, 0.8049428534671144, 0.22162375641318488, -0.08199826874401772, -0.501381196872428, 0.2719005982262237, -0.8915176243071152, -0.6058522133537858], [0.34464578442877003, -0.5816312116490703, -0.15016618780401791, 0.42639878833442, -0.3697126062250937, -0.9614201468282122, 0.8705182909144167, -0.761551605150985, 0.9247719363632472, -0.2780921978260078, -0.483414677774322, -0.08592709482700189, 0.1429370396549856, 0.3773938282825722, 0.7643769929092714, 0.6682775091772388, -0.8894936248641072, -0.6016511986902724, -0.8222717494366563, 0.516446646203564], [-0.03933126572832224, -0.9484058054992994, -0.7532828437345069, -0.6350964787415954, -0.5296018545761416, -0.01746779984630331, -0.2824060493882059, -0.44116548103435904, 0.5045345562742793, 0.5704884546235351, -0.51404075427175, 0.0039841252361254575, 0.41213948828885205, -0.6413689405985044, 0.16357109041269657, 0.8795177783109085, 0.14559024053418712, -0.315268463533795, -0.06659444870041997, -0.07716891755723743], [-0.2001517759017446, -0.5376334902144506, 0.307610311251294, -0.8250920659449168, -0.08583673620283738, 0.7532458221188585, -0.0003494949128155511, -0.813986054074453, 0.13397935028948726, -0.07319753317831257, 0.47519087147817185, 0.14199809376456018, 0.3445623831229234, -0.5320523658937453, 0.5525564460072383, -0.1251825495399832, 0.09317262623315758, 0.48757853810955365, -0.681078802100382, -0.7221352787030464], [0.6752710482438935, 0.6384539550955501, -0.5639148785228982, -0.07715210158330299, 0.4281802535742396, 0.9378453367174173, -0.8987766203125473, 0.592084434993148, -0.41908461169662736, 0.9851699331710955, -0.39849013208220363, 0.9981053188305933, -0.03671368324406954, -0.6584194650954323, 0.878032609054989, 0.2677328851320424, -0.06313744471236116, 0.1387043147722793, -0.19723342036743863, -0.7932543161754926], [-0.6874693487568677, -0.6324810077165703, 0.29294972926073637, -0.673282900567542, 0.9201303071987728, 0.2757548451767764, -0.7953464669707457, -0.24278176478158509, -0.07441028473770728, 0.30226142860638894, -0.2336621885598691, -0.9060459694215288, -0.02242041982854226, 0.49122867061708897, -0.9313211316886583, 0.8877556564948776, -0.5369294103665596, 0.9402764506314638, -0.2691573813183552, 0.6543618783454008], [0.24670668500689108, 0.3150159899625733, -0.19142846169631245, -0.032063448834682484, 0.2565730394284478, -0.5438564582518159, -0.3215691935293312, 0.15417148815748627, 0.691604438006231, 0.3746887403755046, 0.9124075251024013, -0.24896509020990276, 0.498629412799132, 0.9149394145152652, 0.1096138843919987, 0.22296244427182055, 0.08651057441434173, 0.39579757893508294, -0.7621945040201572, -0.11645319066883797], [-0.1728101483906186, 0.739572870778118, -0.01408984281067105, -0.30751191750547857, 0.7137790276224443, -0.3885864812730435, 0.328367396171682, 0.44155124425243897, 0.22746941409006816, 0.3255310794645043, 0.12173103507135274, 0.4573106749082687, 0.2956498276056245, 0.8705379583580386, 0.5507194409436933, 0.186390207727112, 0.7223794087097417, 0.2377095023033171, -0.358924485762248, 0.09405829457687198], [0.8136295042103479, 0.5173685318747676, 0.09182285685173452, -0.004330342904704132, 0.3415950771999581, -0.7461205006938898, 0.6157061266729549, -0.11516676809058901, -0.8835946353601434, -0.008742867152095046, -0.39983937717457496, 0.772747448258096, 0.15675169434743297, 0.4765328395535875, 0.08749957632638794, -0.7067346897863, -0.9442773487333163, -0.5734802877679595, 0.47607503398858375, -0.8816329484128231], [0.29865197571922986, -0.6175832571594724, 0.4301064643333823, -0.4088587575729883, -0.296845717515988, -0.23846156393427265, -0.5039015461213379, -0.47892256164213887, 0.22813738528886818, -0.9365631887661223, -0.47940557032973774, 0.49515746325759435, -0.30542126939263126, 0.2892692991591359, -0.1565873318223001, 0.0381942118250147, -0.6191031076573166, -0.9256019225182075, 0.29152149148858286, -0.6075058131523587], [-0.6632772324856151, -0.5140231607340213, 0.7940123685424951, 0.3166762380248711, -0.6812428452660704, 0.7461427442485042, -0.9429929257942009, 0.6979814498011592, -0.5151044451083002, 0.365712801067712, -0.12367523920768231, -0.9870882552703877, -0.027952539310174718, -0.8152537135765305, 0.4457057988584001, -0.5615564500035692, 0.740452295787768, -0.5810612435078211, 0.4026765939023742, 0.2241165039435149], [0.3715108296900198, 0.13602393657827405, 0.4161680108736059, -0.13465622135469935, -0.7092848104287979, -0.5342502569948855, -0.8740176421795691, 0.2191248507007897, 0.854110339260866, -0.7593092017212513, -0.2541655591812997, -0.7917876188574147, 0.7934718374162184, -0.963582082346121, -0.947152608815061, 0.7930959042980303, -0.6555363238013696, 0.4507814277947215, -0.33628287829002557, 0.6598698793383797]], [[0.11350268596845114, 0.6915095256795198, -0.35444076692525206, 0.20384208981841878, -0.9500787420682766, -0.1046789511899926, 0.7668090013638702, 0.34070800345562624, 0.3394174874721101, -0.6880203938804035, 0.31047706714277234, -0.9489726814630892, 0.13648408247038413, 0.5997863524739737, -0.19512007185868985, -0.8735173382427606, 0.7421817278712242, -0.39749219994503515, 0.6219571539165594, 0.13200460982522055], [0.4188750307367888, 0.7277322419801298, 0.4955474724307942, -0.48957744606176457, 0.8136999919835717, -0.022844247611190083, 0.3452222394268931, -0.9453218548719025, 0.25658886178912055, -0.4176064106057169, -0.3622987538822584, 0.9003988512931591, 0.9335498427114399, 0.5574372723936096, 0.19987887737996646, 0.5737845460855313, 0.9669064633325133, 0.9859685131871136, -0.8315235212387324, 0.8098489854705009], [-0.84765554847208, 0.45773326116323143, -0.7584440979218707, -0.13075837542752655, -0.4407504862360452, 0.36602072364397564, 0.06346252738919311, -0.895525834661066, 0.450187818488224, 0.9398418107895812, -0.5488309755261316, 0.46301076996723967, 0.7826080445288923, -0.4964161413077004, -0.17007587861589712, -0.8508271060874724, 0.9076148818201955, -0.13834331696039448, -0.12089613108019193, -0.6230977836156673], [-0.2500200233416592, -0.6815261427825752, -0.7530785630986567, 0.4973052513256433, -0.3595958584997776, -0.8746296445497772, 0.8030663568563332, -0.48607561451591796, -0.32904506656052357, 0.6478540008577021, 0.44264871394399874, -0.6791966248062793, 0.7501274523564259, -0.6353961738319451, 0.4999032439537936, -0.6464646338204401, 0.15303140509042157, -0.06522845578572278, -0.10588269162954678, -0.9358756811826898], [0.7956517908640106, 0.7343102954195142, -0.6430830204740194, 0.185337071596962, -0.9034354070487396, 0.33864383610695103, 0.6077078947687007, -0.7429983151754385, 0.4729787632509548, -0.5129642462479511, -0.9034963385646992, -0.6590551965676767, -0.8474623671065764, -0.12169805502116682, 0.37560982463404047, 0.2710107609844228, -0.4577904077613941, 0.824116563032145, 0.6969853712045295, -0.7658137089827355], [0.18366741987653712, 0.9587400697727555, 0.21719422161145152, 0.12747323973476887, -0.17528627140941588, 0.19907599695411116, 0.11689238320799089, 0.6875752391602237, -0.2965851496999703, 0.39034250944589854, -0.48981060051810954, -0.3295325979100343, -0.07050278405510868, 0.3254526910602149, -0.7725121241329083, 0.3961102549194706, -0.07570310476653819, 0.7818713064339302, 0.009370349174545378, -0.3638705925325245], [0.42148145381394575, -0.5179417550135565, 0.03901577599657302, 0.9307673761644544, 0.3038743654728011, -0.9774288523293191, 0.9510892440706578, -0.2340363868902906, -0.3409804575335562, -0.9064499824316812, -0.9242871514485937, 0.792064180821267, 0.7426889624445188, 0.4139021461418453, -0.11145223829076545, -0.041260272607394954, -0.5044676287530372, 0.16978089272467534, -0.9359334487209641, 0.2557935230376793], [0.4624621188768514, -0.49401886147699314, 0.5015319213367617, 0.7803158560916044, -0.5071422796455602, 0.22640294458310795, 0.962601719648198, -0.112506160937897, 0.39501758021681765, -0.7288695809651589, 0.13989304833233085, 0.8531927443858687, -0.9141231661285416, -0.24732170429230016, -0.8218409878480819, 0.12746567329903935, 0.8112501344085348, 0.5915841968323146, -0.8982475873998497, -0.2719411337469997], [-0.9687600515634909, -0.8926362342372285, 0.2961792631317164, -0.734413277369965, -0.6315278163633318, 0.6176968043065012, -0.8801326774193308, 0.8840562280606095, -0.9057569581215679, 0.42913098487492296, 0.27175743654276996, 0.11813071696392097, -0.4481609883726463, -0.3682213925133442, -0.6503492372658719, 0.0864964109942874, -0.8338314505918465, 0.5214776873372438, -0.6433267939996694, -0.656753357971599], [0.31570190196275494, 0.881245972499936, 0.0684406075914934, 0.012762420913404293, -0.7698411980547619, -0.04054413055134143, 0.5521017515612148, 0.9399993592604046, 0.23999430773344388, 0.24774023502647347, 0.3874787804527493, 0.7872189340302347, 0.3545467527984394, 0.49200913713684247, 0.5255083435756425, 0.9733771191461638, 0.3346852654099042, -0.6616277998799407, 0.19323088042234238, 0.06772608467409058], [0.3685244379921271, 0.3880852968697479, -0.17981860870846766, 0.3301764926714814, 0.9685397274003955, 0.40986629514546524, 0.3743260815573515, -0.560002588232152, -0.16101161874851821, 0.07053252738571869, 0.05412353191882091, 0.705166853578558, 0.05040104818910063, -0.8403092510662447, 0.5628578571483327, 0.7162722739585994, 0.2213205157231295, 0.48895437537098574, 0.8326996835014675, 0.02004143367794131], [0.013437472858258248, 0.23095993989953545, 0.32796221642449175, -0.6120490293693275, 0.4914020360846598, 0.26483442456487594, 0.37340320509692493, 0.967851213006585, 0.5661708008076385, -0.6252621255050468, -0.7428478854464171, 0.6947019612288012, -0.2973027919194733, 0.6992158816050349, 0.27525020723524474, -0.00956858959049578, -0.8026421861522477, -0.995977906257552, -0.9080853843959449, 0.21074393461945173], [-0.23634003477935384, 0.6003772298703263, 0.9393427317018157, -0.2434306446659562, 0.23105080623202667, -0.3934594397457851, 0.20214169466066, -0.8869418338188719, -0.4781528655557852, 0.6462587928144246, -0.12754350025026762, 0.1441104874502881, -0.07189530188976612, 0.7003804749584404, 0.25309447806290897, 0.9754930489074602, 0.9145603456775424, 0.4206827181870243, 0.11948244469781866, -0.14380072386318132], [-0.33256730948535895, -0.009940825872596148, 0.290567288350847, -0.4517512135464581, -0.6857747129424967, 0.6651595244670558, -0.4409068371239966, -0.19985492681240125, -0.9898086014652743, -0.7941675492603635, -0.7481186887293627, -0.44963567994107057, -0.3092830272638012, -0.8456960658376029, 0.2611328600903642, -0.686306792134266, 0.6328695016356265, -0.8253539429226573, 0.1813014850554, 0.43832478960890064], [-0.5638709983968955, 0.9988529522436844, -0.9612956177449437, -0.6477855545903601, -0.9909934893963188, -0.32682583612903127, 0.17716070456470856, -0.09525616230451628, -0.8142945141455131, -0.3311124539784307, 0.9859802404392697, 0.053512190207448684, -0.20522447194775206, 0.4666580276761778, -0.99924886903175, 0.7314404273201225, 0.5448561223252624, -0.5103207608998099, -0.24883887409805494, -0.33848308832699137], [-0.21259223746562994, -0.06355278714643253, 0.42433127524103287, -0.3925183583218843, 0.307881043816963, -0.9086175123118045, -0.7900791124566309, 0.1078350894573179, 0.2086197180518894, -0.5996785892215699, -0.10948506541556235, 0.6529394317432069, -0.803102597378403, -0.4304824776235199, 0.043847574593187666, -0.154485238837764, -0.7689130499480326, -0.38102544080368483, 0.8262052440527698, 0.8431095921343486], [-0.9647908405388224, -0.9585500353179452, -0.12829545862574454, -0.1492588091766447, 0.6674432162668436, 0.2508960902491706, 0.8383693069798503, 0.6176106506935533, 0.10990409500176734, -0.5986598845877977, 0.731393013643163, 0.06307369967576104, 0.6427678585157004, -0.6398064802377692, 0.4858167051231139, -0.06305310424745336, 0.08894194178322357, -0.8846508345175585, 0.8157566229733959, 0.7098597872284205], [0.9558202389764885, -0.7315809297561082, -0.21163043563746853, 0.6849035427673948, -0.34736792748791734, 0.9519911881194436, 0.7665913357778995, -0.5626009710638489, -0.9702542326757542, 0.8886722015116806, -0.738845646159797, 0.711826710220437, 0.4792129915255747, -0.9442147478655432, -0.22519382663665954, 0.6189004684855344, -0.31741539738825586, -0.7284113191335824, 0.5128492817136276, -0.833075631876842], [0.9051272690878847, -0.2577196539538886, -0.1962518181544073, -0.44832614131115944, -0.5982233365675669, -0.08447072584674675, -0.8620805342373257, -0.4254883219766543, -0.7109894642392738, 0.6524800710715197, 0.6473278716391961, 0.8835529812085632, -0.7814378673190137, -0.21914225072688143, 0.8035054654217171, 0.7329144911292023, 0.2265508266289531, -0.252251059461164, -0.9824715521790903, -0.36455761279137144], [0.6605020769420371, -0.929892699566262, -0.12488577527170674, -0.7456528498623727, -0.001572998449032914, -0.5778962970067725, 0.20525041202943517, 0.21219635073507437, -0.5964651917477417, 0.23177876717466295, -0.6404377951428519, -0.23493228201786143, -0.6970332657506615, 0.6817461844268833, -0.6064702524791747, 0.6303226266018116, 0.5124443541792829, 0.8470517704459859, 0.038098912254751705, -0.583636247518011]], [[-0.46921633769406257, -0.22724106467758687, -0.3486324948726398, -0.4702101449581064, -0.8156048969622107], [0.16223382606983217, 0.22435958674331657, 0.2994142842952532, -0.23872841966705227, -0.598566043714645], [-0.4689673110359638, -0.9825472000163054, -0.8893293339942601, -0.3535711740303227, -0.36232631046761843], [-0.7264299581854456, 0.5683653705557619, -0.7524741295653645, -0.5999054722063593, -0.9306902925984799], [-0.3261947071406841, 0.1923944270293858, -0.06436370270279768, 0.4815832692565625, -0.7514799185109999], [0.9208128000602276, 0.2509951095157916, -0.3271461289243165, -0.8464565928341101, -0.999987073236801], [0.33867357849881996, 0.5717809463367436, -0.43374873880986997, 0.16541871858907964, 0.22965274698405014], [0.6338480275356793, -0.41513664339587986, 0.9270274546874799, 0.19295485750267427, -0.6209231759891818], [-0.2935658677149602, -0.7450062010920242, 0.5214960040398922, -0.17144334565737696, 0.7143555170566103], [-0.3259519107474438, 0.2099709896713564, 0.7593573384961374, 0.4360652496635049, -0.8879146359576011], [-0.8971007599391632, 0.28398090636517526, -0.5106173298923378, 0.3647653956868153, 0.3953881979614382], [-0.2835579856960959, 0.9597689604877213, 0.8410305854516484, 0.7009729221835528, 0.9098841443630261], [0.7971238859394456, -0.29773295366114705, -0.2136489137511839, -0.29354275412806663, -0.8840229745400803], [-0.8029488000901075, 0.31589921997385484, -0.6801385161992468, 0.9952649821385506, -0.6308966245481744], [0.11162728276179479, -0.45857890204272245, -0.5922559305355592, -0.3707967026119017, 0.16405403268058816], [-0.414540900220016, 0.6054149275532479, 0.15139458405782702, 0.9541027793504264, -0.35704614457905626], [0.9801936008510255, -0.2227559289587726, -0.41791909627468415, 0.9184983330615923, 0.44579976499108365], [-0.818155412522487, -0.4421278333873626, 0.046402520008074655, -0.9240799570807907, -0.2573911495534571], [-0.5083953900765745, 0.7928285841552742, 0.8129116024152112, -0.4244804835865643, 0.839125027688655], [-0.6708152176834883, 0.0019767473670557756, 0.8649583986215879, 0.9404700163856878, -0.784957503706309]]], "biases": [[[-0.44984740157278, -0.7792817056004349, 0.4444612628459208, -0.919732175634614, -0.7673124623116048, -0.3401634805062206, -0.7563726695904909, 0.027182503820441184, 0.7829622400146481, 0.24925565956738893, 0.2070665863455099, -0.6106836053986135, 0.39172244755784025, 0.741177285126966, 0.01839366340806503, 0.12022453278794254, -0.5205200097027172, -0.40239980971349154, 0.4441093629389661, 0.9411651818587123]], [[-0.7146985519570415, -0.1904229985263648, 0.5042461534715343, -0.2274831715970842, 0.5821025777882403, 0.8812446805116445, 0.4109310832912709, 0.3175796847189172, -0.9136790519834217, 0.812341408379424, 0.29259165159153233, -0.59263414831877, -0.1626997295427337, -0.5254146601787044, 0.4742994231767317, 0.08996641365303248, -0.6222805155970794, 0.29124539918597736, -0.28848028068477904, 0.002214105747693651]], [[0.40077149114325294, 0.4884899965065661, -0.48627209935714033, -0.8962374024805806, 0.922522079857687]]]}