{"weights": [[[-0.1468244077966241, -0.5269792206294623, 0.18845547753256153, -0.8217875501435026, -0.6428191796289733, -0.4565307251112738, -0.8598376697356227, -0.22686849144411503, 0.3478882098164795, -0.6684094870121284, 0.6414496868214647, -0.25604187426218084, -0.24541060316716767, -0.12570246665618834, -0.2559738650617962, 0.3741376991785439, 0.6792931647600584, 0.28119831170675047, 0.8086737425320587, 0.8968066610947105], [-0.9793584898822196, 0.4102890718807448, -0.2954194424489247, 0.8106149624087677, 0.6172839652008963, 0.6287312907819327, 0.17093076261505114, -0.7020218886786751, -0.9753743104687516, -0.17738370085733357, -0.9665466531858813, 0.9107783539088334, -0.6127234759617737, -0.12081796555923341, 0.5630498708524927, -0.17719817045714392, 0.031873486584572674, -0.6538240921878606, -0.2946829538129905, -0.6971380749766034], [-0.5444341841768345, 0.5534101060591461, 0.8858036042041413, 0.003495948427488571, 0.8417804650431806, 0.05526289548519947, -0.25778177478274955, 0.28084694966256585, -0.9208397019036447, -0.5566955386184622, 0.9818030056765599, 0.40934830026343016, 0.18238785685712622, -0.8745869859558586, -0.3368316518503385, -0.6880026855639261, 0.8709369299937024, -0.7668939534856762, -0.2490301705676652, -0.5266249579398627], [0.7285015255449396, 0.6214674796964088, 0.37241161087900965, -0.6250207746219705, -0.5295235089277974, 0.4123432135349816, -0.2515476183923302, -0.43294996941999586, 0.9819878227518704, 0.18028506782840048, -0.4950525397472656, 0.9890793827225632, 0.3892520780722535, 0.04385606923967833, 0.4742060035950473, 0.1239950322074419, -0.8495430348901225, 0.28128439247533876, -0.44675865475775356, -0.6243952063015619], [-0.8637438104384674, 0.32625642149634504, -0.18559181699345184, -0.6834613132865901, 0.8152801751162786, 0.2674684543491841, 0.22444405758134311, -0.17113631207592506, 0.31601493823899185, 0.10857415903439938, 0.3945274508848371, -0.08994278205305606, 0.10058163040067836, 0.24681228254252852, 0.11369834425052061, -0.5606357753598972, -0.5520034128365636, -0.561761527895771, 0.20085292984977654, -0.15439865123483454], [-0.9585959225520628, 0.21095762376951277, 0.05627877322812003, -0.6431381488755237, -0.23530243695989328, 0.20008135186007991, 0.2570850380699048, 0.6038392831642883, 0.477997207362413, 0.7255909420924784, -0.11907110686429423, -0.514575162069786, 0.09353313834052734, -0.6906941221332059, -0.12357784135601957, -0.6004357316371176, 0.8421826839779787, -0.8239464918621713, 0.527906184618113, 0.5813636019577495], [0.29036463076144403, -0.07621766730832258, 0.5117215487685451, 0.12905315583956645, 0.016874210632829456, 0.8062691765071479, 0.741491433591337, 0.9634514010374802, -0.23729707953492252, 0.42159667646518506, -0.609954417820304, -0.927616795538057, 0.46593285099226955, 0.6923728029348537, 0.5834236533302524, 0.015700766877094985, -0.6112869344214207, -0.43671237056668333, 0.26453568698354624, 0.9842199047789304], [0.16353878879047756, 0.3036228026059624, 0.8057231996958691, 0.4816671619930777, -0.581390221291834, 0.2000936493305956, -0.4567727226308598, -0.8444047770961889, 0.5301819327673594, 0.18492748270341508, -0.5855761355735429, 0.8804418103557505, -0.5560135854094037, 0.6168018959869046, 0.30629658556776596, 0.7370488628463832, -0.10498368124682411, 0.21986366252416367, 0.35358102489821297, 0.967089131589655], [-0.017523031113568788, 0.7102879542352263, 0.09140877826314875, -0.20616081682591036, -0.9946492605573196, 0.33976001484064966, -0.5517074125016728, 0.46728060493717605, 0.9198842429902208, 0.14313635981925166, 0.04794632802154952, 0.3479123505855528, 0.39705186962757244, 0.26358349837758976, 0.7421838380723274, 0.16462583207883563, 0.2920122097308935, 0.1969943612976861, -0.5752313419810562, -0.733326681099373], [0.8912605803522637, 0.3108238788378688, 0.14754494031003906, -0.9927389826501678, -0.45565536528631845, 0.15733139147296016, -0.707767633653777, 0.33115578005085444, 0.7943044626931581, 0.4369986338782381, -0.9286101714940258, 0.0702964275914022, 0.4545991646653884, 0.6769758227933949, 0.35309241162566685, -0.3759970749940109, 0.6637170608692249, -0.9511118773892151, 0.7458303511191824, -0.9386419440874896], [-0.699033714330203, -0.6975724493053597, -0.017258279796096065, -0.6078334989197429, -0.8692480052862284, 0.7195095147887713, 0.3081021537035644, 0.35976893771769447, -0.878530916388687, 0.5780466629870045, 0.8175139663700983, -0.9139296515689557, 0.3858337532437446, 0.6058265132876886, -0.5488164052972417, -0.355575108346035, 0.8948092916925678, 0.3574032256465898, 0.45449807743514326, 0.8319946669561555], [0.06039531433638756, 0.10500740165405476, -0.5294098985661653, -0.8231211270660919, 0.28861291181590465, 0.26035425533379963, 0.1949572339305694, -0.4156256739579567, -0.6326134187018522, 0.3105879482689937, 0.6826066469865684, -0.5898905455336627, -0.06914460149529678, -0.14960949045077654, -0.3295683779615295, 0.2756964733959162, -0.600607776177261, -0.3615060252079825, -0.18567333227774707, -0.6075967381511194], [0.23770655658690032, -0.8930138580787927, -0.9938947113169851, 0.7949408121255672, -0.2631510392545737, -0.7139740102533001, 0.5974197893705937, -0.8911363208292389, 0.3524097901306604, -0.4155173126159484, 0.9566824099592794, -0.4023843490860515, 0.9359958864594642, -0.24563817458757442, -0.8037929733581417, 0.8284961558406887, -0.3354603873440476, -0.11653326448919876, -0.566150454808398, 0.08495777091604695], [0.3917665958592733, -0.4788984847036952, 0.13637231396288474, -0.3064154965466164, 0.5154614397500097, -0.2676257198426535, -0.8912596467622178, -0.7196939088579737, -0.703887150342211, 0.9931733374080054, -0.39559258826010124, -0.37627761792466363, 0.2699239812626508, -0.7238311708288043, -0.8295667217737248, -0.012348906499444867, -0.46722309628797665, -0.33107842119446684, -0.8732299954590481, 0.23865850491519192]], [[0.8636477345332785, 0.0926949480718442, -0.4198430816368852, -0.9880039375838476, 0.5141009539432952, -0.9015522288545421, 0.7612862814998171, -0.7734723588278758, 0.6885044028069938, -0.22725233193881533, 0.16881771754460217, -0.3922072515294699, -0.032801805510334514, -0.601526289170859, -0.4487243748247449, 0.8958273041324165, -0.16309920989419346, 0.647214495229741, -0.6598265406981532, -0.08614199823138513], [-0.17984884412699742, -0.15157284551135697, -0.1506007316910467, 0.47067332906670245, 0.6842848491488034, 0.6081855878675848, 0.8771077318020266, -0.693255707591699, -0.6595083384082412, 0.8243108083433139, -0.8019811910531651, -0.6060112302567187, -0.09715757577887474, -0.8205275304555555, 0.3199703090017034, -0.7895072361552866, 0.4189752009615928, 0.22592404890839313, -0.8715656994853287, 0.19571751291467443], [0.5518045431101868, -0.13057342452760934, 0.38422264889985924, 0.02154128171682035, -0.36534014938104953, 0.48725223963523745, -0.9576445261562758, 0.20646909850364903, 0.6761444822946829, 0.8425590498498681, -0.3236689370960326, -0.4478520236835499, -0.9725472742038113, 0.23131058476211241, -0.9759126913319991, -0.74553008076679, -0.2946153300350798, -0.2753750272339064, 0.6183134686874014, -0.3856487860721982], [-0.15273561774612499, -0.03619161376121016, 0.6360521227199616, -0.8059695296596563, 0.6167574141813221, 0.3724994988151811, -0.3252506214637887, 0.16104856375924914, 0.2830226741198749, -0.6828507441373004, 0.7547754048051925, 0.3834576449767779, 0.1627009168259559, 0.0842767024803619, -0.262444110783705, -0.19651182051267946, -0.4650063402665008, -0.8689100726301475, -0.42275168090965654, -0.031377943509916184], [-0.6382783092987274, 0.4759183556677242, -0.6854314443588252, 0.5549844410261386, 0.797499288127417, -0.7190903307387233, 0.88262871579405, 0.5991699703726601, 0.045905022058473355, -0.09847366289066772, -0.4935487167253163, 0.24306784333071207, 0.5197017352540252, 0.49776998326012234, 0.5281270398465967, -0.08739793032754872, 0.5200927999838096, -0.6483635174770941, 0.5340484825211615, -0.44862176650494545], [0.17330968032736438, 0.1924586069302301, -0.5548129750208783, 0.11757742459235931, -0.8763993470177829, -0.07201533255678094, -0.022958976385117014, 0.954486713471401, 0.42184235636412337, -0.8228448303738944, 0.8039078219328843, -0.16971690058419497, 0.07704011678962064, -0.4495100565489589, 0.9129692241226539, -0.3476001232036918, -0.0370244217148783, 0.7692614785342857, 0.16578556248450993, 0.28750734816971457], [0.8155981708507458, 0.32290647199683353, -0.9102362580472163, -0.06323744238608642, -0.2317778720288004, 0.7927612661212862, 0.18057469383383973, 0.8788167468009633, 0.3900138204774253, 0.7870064564907653, -0.8120068583661131, 0.13756735180498425, 0.590478545009862, 0.8333107509961886, -0.5462380841693, -0.45694899261390165, 0.2574594084973578, -0.8596495580575894, 0.7495544653218436, 0.9906765559716386], [0.10495778560329305, -0.5060429165088951, 0.9176417041640459, 0.679867981034838, -0.2363082042666329, 0.4779774876227256, -0.585448833375158, -0.3055664008288721, 0.06717846469019473, -0.6904950906289127, 0.48181698349749724, -0.6954269198171061, -0.1700058510499456, -0.9096068944379672, -0.8338075445306097, 0.891101577446852, 0.5467609708113936, -0.3343019249377932, -0.28305598609370297, 0.6919731396616837], [0.5408500258770197, 0.24751206269867265, 0.8750901247427965, 0.9817892074145784, 0.35056305211821814, -0.043475509681430546, 0.8233158497076565, -0.4732569482389557, -0.9015052674360273, 0.7087748067287387, 0.33682871119638325, -0.257163228457441, -0.639666978413997, -0.09548080513069523, -0.06262807303265783, 0.8403786671064626, -0.8332441697714348, 0.05058795737797839, 0.6212568193103047, -0.8843663233033305], [0.39878431499122535, -0.7910072057300404, -0.2831607980846962, -0.8378668909629339, 0.8398621040213781, -0.18358300439180986, -0.3614188054367189, 0.9478478053555497, 0.502387656225695, -0.1060056713804558, 0.6030694618391135, 0.45166954719973296, 0.4529592801885576, -0.7133340997476105, -0.7312510952884317, -0.8690487094735644, 0.05245205128977615, -0.8437124974198136, -0.35430908850759724, 0.6350600297253939], [-0.38547815820287346, -0.02272598361283773, 0.6329157528242007, 0.26222880063722354, -0.07394244665721028, 0.062385901846599756, -0.9854194171720527, -0.38975448335747953, -0.9895299281375054, 0.6985574710321842, 0.7290282645611827, -0.7175054192966936, 0.8829615487780109, -0.5580161946395832, -0.8775474173516333, 0.008148315620088553, -0.419432800410376, 0.28553690535693454, 0.6867572692858535, -0.9411541520085094], [0.6612684087831144, 0.8507722452903153, -0.2749493634325648, -0.6388043696868326, 0.36485845604272193, 0.3863693643890147, -0.42137464396721724, -0.4666258334631337, 0.698709871008421, 0.30154806953252544, 0.785334551185741, -0.3020133666595286, 0.9027223145073093, 0.6979544569063967, 0.38013628155449974, -0.12256647861855674, 0.34244530058256806, -0.20700122930617448, 0.10360848479175733, -0.9448063936842888], [-0.5045294682739039, 0.5389503245089993, 0.7750983643401415, -0.07545574856767923, -0.4644867298109818, -0.7584641327398338, 0.11907482575283201, 0.003921174374601266, -0.21266101884772604, 0.2676054892431119, 0.7407090204227342, -0.5943449312658495, -0.2878791766254154, -0.5896089931963138, 0.020562549663320162, 0.9867032600248238, -0.22226242335457602, 0.232347479043282, -0.08483148578973876, -0.7655291913631357], [-0.45319214556773346, 0.44910674994873245, -0.6788952994096915, 0.5345289338246868, 0.9083870236889855, -0.06994189283662045, 0.9640121315590797, 0.17121659726632354, 0.2843436055416624, -0.5337389113863917, -0.8261761394631166, 0.6065220640979643, 0.5938480240279049, -0.07369611908109142, 0.21818835558358396, -0.48636170053847905, 0.9322531937075085, -0.8477867152699554, -0.5449494887249053, -0.9298221329233314], [0.38236394004441365, -0.4083156437499391, -0.6907154203185524, -0.59788336577057, 0.7905155720487758, 0.8220009141073195, 0.768229674487906, 0.8738180568383791, -0.9368430678222373, -0.18304832662127235, 0.4894914337035394, -0.8738264305173533, -0.41390362753570265, 0.9343059149464454, 0.7637581264273212, 0.1151525268206075, -0.13282602598853033, -0.6633719585327238, 0.3388396772446143, 0.9274297076198839], [-0.03445754010205415, 0.5064544539843729, 0.9317306771721707, -0.2851831391741091, 0.9516726834614369, -0.557529220303443, 0.5958410360212631, 0.2284254115851374, -0.22541061324964518, 0.38432263018630475, -0.14776110149892085, 0.5784490828277153, 0.19201887730497513, 0.8401462241431319, 0.13446805625308578, 0.25486170571233857, -0.7757502666168943, 0.7381385677908361, 0.8663354874504254, 0.0811876324305556], [0.7761941076094605, 0.16713346245882987, 0.18415148421388072, 0.9518294400005294, -0.08764457592472596, -0.9116424649751116, -0.6500034330977533, -0.8122725791999363, 0.7309106428799499, -0.0013041445256802842, 0.5317066399343855, -0.8932549160192245, -0.22465255333133394, 0.7387552958066383, -0.9398072938253843, -0.6544923239398361, 0.3224204286551513, -0.5758411538119828, -0.6100992091780824, -0.29236325720681866], [-0.8058554821862258, -0.7529998834709606, 0.8922588285969506, -0.5036313690137582, -0.12265417614765295, 0.9662815783884422, 0.8586685120890962, 0.9325262495795645, -0.17407615563285317, 0.10400441900173774, -0.2576504733394951, 0.9117374742935238, -0.6642271969502949, 0.9682272704469801, 0.2764074920723967, -0.31117638817655635, -0.9518029940761252, 0.26403142573473737, 0.3642250137223799, 0.6968261391818484], [0.7436887490912976, -0.0576201568246717, 0.8411340602756794, -0.38002927951985366, 0.19850753089971906, 0.49831214620994024, 0.4873898522849829, -0.6507118978403459, 0.7746500071629012, 0.4476405684432807, 0.33318620537446075, -0.1818073225790049, -0.3751455209763046, -0.10419629576825629, -0.4734255865036878, 0.760156210408121, 0.2841441681261627, 0.5135575152592804, 0.15657050484733892, -0.4030607350620927], [-0.14878572803938916, 0.2664589150859378, 0.8149086955433342, -0.6823026798035747, -0.7828508950409556, 0.43092059108835157, 0.4323742762770313, -0.9978250302095681, -0.40052126538670385, -0.2410417479227127, 0.9484413059494083, 0.1479539459131647, 0.3055099713745473, -0.6078773598888936, 0.7334517173173478, -0.3431576667168863, -0.6801738680047738, -0.9002626584868652, 0.4462018027475405, -0.730379424785828]], [[0.4325720031882887, -0.6672603034437261, -0.8407506140650243], [-0.26764435795791885, -0.7574082924638754, 0.7775420697889512], [-0.24735094117034895, 0.6047936791804684, -0.7362977485304643], [-0.8973333287550098, -0.16519241414095398, -0.511266198290178], [-0.45774893489788715, -0.2581627476247499, 0.5355173440902954], [-0.6637762969711332, 0.37972916268939416, 0.9614793801184729], [0.3000057403283769, 0.34992546057499796, -0.48372992219842725], [-0.4381687506615588, -0.7156151826022115, 0.13037251557394258], [-0.4586396720440913, 0.5972946240194776, -0.22202734161813242], [-0.09202129720906793, -0.7694847704877512, -0.7946482587557253], [0.42037929339294866, 0.07916955530103031, -0.8913679297531711], [0.7709442391147234, 0.18732964229280702, -0.4197264542634713], [-0.9101521134370976, -0.523671465167713, 0.9593652633629162], [0.27569128134172116, 0.6078208089329007, -0.7474566942024861], [-0.7806896956731386, -0.23332528607564007, -0.19041051601873016], [0.264653167061202, -0.5291476446471333, -0.6805292393835429], [-0.7907233740579775, 0.5682807889148644, 0.6627747577882583], [-0.7125863485588633, 0.24874079144195638, 0.5763945255405287], [0.7143677487813509, -0.17718858003923343, 0.035656041468599575], [0.39983203847416404, -0.9827075469645605, 0.9777739320333036]]], "biases": [[[0.4390756831934146, -0.4815606711426983, 0.5086222406911698, -0.021585056272396708, -0.7213935919368812, -0.60740593473915, 0.14161674996605367, -0.3506586242401055, -0.37839956164526556, -0.588085362222984, -0.8277273634292825, 0.9553158887657054, 0.9893741320327802, -0.4845556750793001, -0.6513319830565518, 0.37403445213648334, -0.7457247407803866, -0.7249289267753529, -0.05226492808509442, 0.2296502240621323]], [[-0.42837747337679977, 0.8553484060252814, -0.024604530074881836, 0.3681691205542046, 0.6984282888863418, 0.45655143635000117, 0.6071906220494308, -0.7069128745806368, 0.3790501722811661, 0.8809606206700207, -0.9371629644061443, 0.47165994094947505, -0.5226400418099635, 0.11418429785741258, 0.646254732078559, 0.2843009227167872, 0.3424058419405054, 0.6442221760995157, -0.5310232665223305, 0.5871941922653099]], [[-0.9826795837712701, -0.9805250419484954, -0.24612326717962496]]]}