{"weights": [[[0.6545703639774207, -0.39266036738047516, 0.8748974810667383, -0.8455643381886646, -0.12407557707014805, -0.4253307858939728, -0.2342488347729239, -0.8263531255611365, -0.26248906890126933, -0.87614078450111, -0.13936803911830942, -0.2767091896309042, 0.8725082338590848, 0.0652657983912579, -0.7766634350067738, 0.9707124021485241, 0.6082907408057219, -0.5071033760290984, 0.9050705219541735, 0.3814085801391125], [-0.984787419617972, 0.006445109634382051, -0.25853080247154847, 0.41235283416621726, -0.32957698551326686, 0.33824954374694083, -0.4972656227458834, -0.38061093688747816, -0.09329862010592227, -0.9249122570791863, 0.6622995314292559, 0.6925824871104136, -0.036921956144067236, -0.5301026195581033, -0.2604275704585246, -0.2383143166769932, 0.8811229045428126, -0.1934578850732429, 0.44004057578209466, -0.6024812404626954], [0.006797013719354705, 0.6203624246857595, 0.23834693228688408, 0.4594034599342989, -0.9466039756653801, -0.2761977431919491, -0.7208529674024506, -0.1648461695244754, -0.2852349906908105, -0.27374500499130416, -0.17093590938533998, 0.3305757560447409, 0.1311841320335274, -0.8381940348582306, 0.8920183934292172, -0.9205299980314661, -0.46694794303843956, -0.0066249591710212385, -0.7059096485506582, 0.4878210043776845], [-0.8137206603745712, 0.7477623609381963, 0.4867236307737888, -0.4667748396687912, -0.023380517064437667, -0.18083141054207563, -0.8678486872497142, 0.4805229508254121, -0.8478005052961428, 0.7635505557690612, -0.3097297102958052, -0.6299182894693802, -0.798392525420063, -0.7549320850933285, 0.47979399573136194, -0.14273770124514518, 0.10975497837654413, 0.5438628835766577, 0.7104459050960317, -0.08943778116463563], [-0.44746820242320395, 0.2727701444200752, -0.3698340904756645, 0.1932866503574271, 0.5407308620405467, -0.15131370596568727, -0.6578045796210954, 0.1270724393792746, -0.9411785968207051, -0.990502621304298, 0.7654799209837178, -0.08070535881186847, 0.3061840976903567, -0.24594794087359007, -0.26743117861727206, 0.45770523274095054, 0.9602662987202968, -0.4271520351997731, 0.1311570487864162, 0.35939689411859654], [-0.09620844967468334, 0.14605002107162557, -0.0868206545395862, 0.9801931868451055, -0.246310626615879, -0.7569130628762761, 0.6661414463643827, 0.3970219664979391, -0.0841825331323649, -0.2564688819002501, 0.9359752812305229, -0.3152164332684204, 0.5089428360928518, 0.42765173086504493, -0.9993823930491361, 0.5557300487591939, -0.8995249472886189, -0.7050364170956247, -0.17505267926559376, -0.3182483354375074], [0.12156669868894676, 0.6704501189063512, 0.0816178878624445, -0.49697702164912405, 0.47543582199689194, -0.4994396588865102, 0.3696966634399621, -0.4915598742497638, 0.6567373359452817, 0.5848703115751082, -0.9928766255611221, -0.20437518113816644, 0.7083549665421185, -0.9339237364291175, -0.4443461040273955, -0.8571713739113869, -0.4071211059869768, -0.6107476732786823, -0.5756487086216058, 0.8235209451665444], [0.5419118434622108, 0.42122468186629947, -0.46540820900118063, -0.7520859582471415, 0.786826540372493, -0.24241947272454722, 0.2260544210192803, 0.8862923919159484, 0.01669386973993725, 0.953976588790969, 0.583987251280172, -0.22716243674364112, -0.8349030273386784, -0.893981646750291, 0.5651515489611927, 0.10468924887916864, 0.41774620157474085, -0.8345965601319774, -0.3878043503839461, 0.37276027437156656], [-0.5841431178380407, 0.3112045329893405, -0.7301597755968119, -0.35490826888501803, 0.9468073432910065, 0.7234649320500888, 0.2867345151354612, -0.29715916752171534, -0.8427557423362979, -0.9244662836443402, -0.6473093522037434, -0.9161931780724462, -0.398291692235448, -0.24155158844837143, -0.0035978624702464046, -0.3267348474877081, 0.742206149905597, -0.9877391462613145, -0.022530060361289905, 0.21734575579686344], [-0.6537433570642688, -0.07510321917430551, 0.8760578419043055, 0.8739512260829259, 0.22548335233886574, 0.4573635670252365, -0.524334499805232, 0.29761326548779743, 0.3993165680083406, 0.20713272759417944, -0.39644841105227235, 0.4785242850722693, 0.1801686362514121, 0.5528652307754174, 0.3792197133311317, 0.2734286756188209, -0.0401497921349383, 0.8183572826670058, -0.9821041645521713, -0.5258604134867293], [0.06320662800453114, -0.9887728753655045, 0.0231078918662746, 0.652313287410075, 0.37659335462364085, -0.6010084630181054, -0.48962167036847104, -0.9855794497534287, 0.003607927701037461, 0.06601816945491867, 0.004692348111043909, 0.27327016691176254, -0.778424750761773, 0.7425597849463776, 0.41783912632738707, 0.6683163554398934, -0.6017047911770246, 0.3219290337830254, 0.9928945347703624, 0.8208841501436805], [-0.24522999589473127, -0.4084721143557457, 0.5495855301802699, 0.2616877956968522, 0.0071806187544649624, 0.6972310998120272, 0.05298551158586884, -0.991522823103602, -0.7439357197841217, -0.36485358353818564, 0.27313357564965535, -0.05275889120900357, -0.4630301159870005, -0.19410387580650879, -0.8452737673886865, 0.5556741222416721, 0.12887218089103958, 0.5972944828112126, -0.2193116086960798, -0.8947204225300542], [-0.016198077414395495, -0.018467783234862978, -0.3306996613604758, 0.2610825170158708, 0.8472150917158434, 0.08278136989903984, -0.1878620323900948, -0.12859208681272816, -0.8607769226822446, 0.3355991432241183, -0.8074340462035492, -0.4263169342724755, 0.711436160520585, 0.8719806813978359, -0.5173033827859488, 0.7072348419479533, -0.8496492754732459, 0.46457996275674596, -0.4751869421079018, 0.25122611358463787], [-0.48096104917475646, -0.8390958449277064, 0.029902512675163972, 0.9081221143766514, 0.16123122118191713, 0.20062321964917884, 0.7669329073410278, -0.25906877427015007, 0.5914130588904303, -0.9604570447097571, -0.1060974819645597, -0.24895749759319097, -0.3145092269392158, -0.29439393508671086, 0.035277666750595627, -0.351039639170988, -0.9355506443758099, 0.34645958883784345, 0.1415691083350863, 0.855322459943828]], [[-0.5256562297867691, -0.7716674911257895, -0.7777413124936976, 0.725470230758585, -0.01788803982419629, -0.273185584691231, 0.27696979812275657, -0.7163159876797793, 0.0010114158660892159, 0.5568497134409851, 0.6242132674925027, 0.8876310109728782, 0.46965988525508706, -0.6263190894312687, 0.3774149787060108, 0.1556605922844314, -0.601000760672497, 0.4422103565038722, -0.49590909872128064, -0.3096456619021202], [-0.710200654430706, -0.27181524836622994, 0.8322575212143679, 0.43821210611051864, 0.9007976340900101, -0.7136776815627688, 0.483564074400453, 0.15712881182125327, 0.624474386381892, 0.1651558153752235, -0.6078217127812278, 0.9116592414765889, -0.7743866308508787, -0.13475401697999323, 0.6338097418164168, 0.1559054507988502, 0.9054781829554863, 0.8386009817072733, 0.31357091481284205, 0.594880647985303], [-0.5962276332751797, 0.4773653614792561, 0.23268213223555412, 0.9628016672342836, -0.7469430993873494, -0.9941788488905092, 0.25223049917755525, -0.4797056068254193, 0.07599321280332005, 0.8133292218488413, 0.14799987037682638, 0.25413328628369025, 0.7286195246945457, -0.8464498949978285, -0.8318536863688724, -0.9036170760953335, 0.11535299977180657, -0.1953429281069783, -0.4230096812326851, -0.9112620457903666], [-0.4329113864496734, -0.14322634672881618, 0.7303600656739881, -0.5089947736865494, -0.845590777270949, -0.025667173851316116, 0.032705788620158716, 0.06028777978712352, -0.5900606511170081, -0.8204134415919706, -0.9366699946678925, -0.8359784157970804, 0.5646435897309268, -0.5147280410898476, -0.28339795634689824, -0.8555362561215605, 0.10338195653297122, 0.9258216741567629, -0.928990880397744, 0.7862855387125445], [0.9002562408765808, -0.07446720105709526, -0.7861566006940144, 0.0431121876627798, 0.004502925352998011, 0.9882355835778105, -0.3965234864797469, -0.8905300096261737, -0.7211393999930489, 0.5799879609549305, -0.337309901666091, 0.08423621214846277, -0.18727765277259634, 0.4357868704269352, 0.5383175225920922, 0.16199027067077232, -0.7156182933103501, 0.08169414820514365, -0.5081890966506049, 0.7719878875062995], [-0.4215680105483699, 0.6436211360364228, 0.5571071400062266, 0.3596363940180227, -0.2837559890554826, -0.6913700525210258, 0.5773451788589774, -0.08567120783977744, 0.2127988612129581, 0.9641626360962283, -0.81286673582437, 0.3221162462891809, 0.4005209936433951, -0.36147307585843635, -0.4370998068962262, 0.2745348408833319, -0.3677022186901149, 0.7663439445507199, -0.6305452363817596, -0.6495674323540988], [-0.16644494344674943, -0.3228278656972585, -0.13136711232370413, 0.7053601715630959, 0.4264865168411107, 0.39151513845305375, 0.3365856594821379, -0.6271353076822348, 0.10799120638033921, 0.32120518111653173, -0.3773396775122144, -0.009604472994102053, 0.19906289793607446, -0.9421103853931396, 0.13062972945945606, 0.15365166435625155, -0.06765825311059737, -0.7758700849465718, -0.6837413375375643, -0.3584624475463096], [0.41827129585048417, -0.2920547961391293, 0.3625186278632313, -0.8325757699591254, -0.4353432790563312, 0.15974032345334588, 0.17788821846375225, -0.8299420209453165, 0.8577624141242501, -0.6158939102596712, 0.9226144634107771, -0.5215487716005172, -0.6757928994267868, -0.32026037177853706, 0.16352982018059237, -0.6756246439647726, 0.1170811990211933, -0.1994342131996829, -0.44741872303669217, -0.5325005023058362], [0.3607325472813663, 0.07614842289788704, 0.0015619604597403303, -0.7065396246638154, 0.3734292725289452, -0.508174626497977, 0.8029322714787097, 0.7595263150054694, -0.01677654907048809, -0.7799913916203047, -0.8706317691806496, 0.02820726338427426, -0.5043590274866172, 0.9752700024453456, 0.4940115146406041, 0.39762879977854415, 0.9074438113874208, -0.4483286247468006, 0.4460429848808263, 0.7883618004601158], [-0.46468642937495064, 0.42797670734047566, 0.5138272026815058, 0.06850719775963143, 0.3269797594029833, -0.35444856565990146, -0.9705354641124073, -0.8033929049171276, -0.6454039722414722, -0.4744895967690341, -0.5899851929719473, -0.6215576229768012, 0.8889547075278019, 0.6932248068117965, -0.844730255566374, -0.9416151039176177, -0.9426546010853925, -0.9611879958322445, 0.495736960206294, 0.2944429021540802], [-0.7510301192268736, -0.6350658866888221, -0.7101700396321038, -0.5119060795251702, 0.6777372306063318, 0.7418819537378902, 0.7687041706862363, -0.49048387575432084, 0.8621912489507289, -0.2021412461334009, 0.636091840746684, 0.4263134258125565, 0.7831313848662356, 0.019088635819761945, 0.3301525569921442, 0.5380560776540406, 0.42686008041320456, -0.6255705218654204, -0.1927835972299674, 0.6619088045168071], [0.7155605317552816, -0.30822267809621695, 0.11583853015845946, 0.6801582267087907, 0.971823586438695, 0.23763438472449172, -0.1902348955027029, 0.1776634186563324, 0.19963950815222575, -0.9048906982330562, -0.09832021643534494, 0.0108267406303173, 0.6328013007655588, 0.8173804207595576, 0.607346031872759, 0.00356310673251925, 0.189438985077379, 0.10013997526919316, 0.9917020739400464, -0.23979410191865158], [-0.8800103508812676, -0.690174358179872, -0.5270984528985998, 0.6340869580919515, 0.08202876358490974, -0.5754928950622316, -0.24022746154347097, -0.7083910276189391, -0.5846509137604403, 0.39253727581373554, -0.18748598044054865, 0.9113502772077096, -0.5550759873007154, 0.3186292762089946, -0.8963368936359821, -0.8787167474850228, 0.18219512348499034, 0.7755882661794327, 0.5023957178380929, -0.8062583505369341], [0.9434263801000187, -0.31937618059784945, -0.5128334665442584, -0.8579698653253758, 0.7267615830960596, 0.7098419533550107, -0.10016605010891255, 0.1200396326425277, -0.23234045522527835, 0.3136687043881048, -0.279263189343377, 0.31362109965066387, -0.3351081074593911, -0.779719763300202, 0.16076736943633185, -0.40471640451219093, 0.8179622315439303, -0.41580508805744976, -0.4978129219254155, 0.8618582635076673], [-0.5760675193281855, 0.577901107896299, -0.09283167834103212, 0.5327039375201625, -0.012206583274691374, -0.2922639044415274, -0.10771433271315844, -0.6369487395965785, 0.6761020641135735, -0.1826433094672688, 0.5894283664999849, -0.09301839923469446, 0.6718282537442868, 0.7454129604587039, 0.2572338805768086, -0.6241633270832985, 0.010411280541083201, 0.8799375574344552, -0.9207211997984412, -0.27357832716040464], [-0.5408088482437869, -0.087163728095347, 0.3175961323344958, -0.8458837209308916, -0.8189428940680301, 0.30630664619994796, 0.23676476821461412, -0.9720367871576856, 0.07717065377980203, 0.5895135634467359, 0.15724691577717786, -0.9734280233035717, 0.3920624312121763, -0.039820788698022636, 0.48472643115722613, -0.5305779562194348, -0.5131691946933274, -0.35752925159535565, 0.6280764650592157, 0.7222623215751445], [0.6833058176222693, -0.28001993260018665, 0.14570181322825682, 0.38002239739121046, -0.28533758896781336, 0.15104646016605638, -0.30272714333030337, -0.4694110931184883, -0.105144011525093, 0.14634817399760136, 0.6764939341155516, -0.14337920086091005, -0.15041843682489375, -0.6227479702133911, 0.21746775995007428, -0.08526251671500429, 0.35483056879583197, 0.0026857279951868485, -0.5958743145441006, 0.7765684771144457], [0.3995402047624874, 0.7531351046466186, -0.6658033163261221, 0.618682863772112, 0.9030762296865629, 0.017187663839099754, 0.5496283453453863, 0.6063338300247192, 0.7130847757828962, -0.7671591053530253, 0.43768910456597454, -0.58678827300112, -0.7957222248094462, 0.9726332673618414, 0.40744264499138017, 0.6462979849682946, -0.906743063996339, -0.7137678399910177, -0.41352447775329115, 0.7132959105723506], [-0.6059033323333187, -0.06722029527325435, -0.14014855252190483, -0.14936028567553206, 0.8658563185668477, -0.3887725841670038, -0.745037226049428, 0.052805686613004, -0.40561452477597815, 0.854479621221073, 0.009493320979574671, 0.5638900318614684, 0.9731360762806691, 0.657996370718468, -0.29956348924143406, -0.991365980185432, 0.009765877044819904, 0.4673412704405526, 0.03171623877492147, -0.9438990699981811], [0.22406433966403827, 0.4679153447318969, 0.41046796351240644, -0.8583845741504028, -0.5330808997662981, 0.40646103134816536, -0.16811452506351077, -0.9114170684716283, -0.7702749709647141, -0.9601134841430454, 0.9338313632068682, 0.8595067862764871, -0.0815280469077253, 0.7716685800551695, 0.6732519271362798, 0.7264149422791253, -0.03976599578245121, 0.32848787326185125, 0.9537652330361825, 0.3404034894766983]], [[0.9124196973612264, -0.7205272444375896, 0.4772389094002847, -0.8744061867834771, -0.6094514418313397], [-0.02615093311681549, 0.949903851498056, -0.6732132828664812, 0.396106251041229, -0.967355891207945], [-0.0063333097978028885, -0.1324062126958616, 0.32438747882381747, -0.3119734603397757, 0.7315994256419309], [-0.5917142331898977, 0.8844210583279974, 0.06155315406942141, -0.4026480974227449, -0.0852087391745322], [0.17729959173899856, 0.37739510484894323, -0.639518349668589, 0.5218828326871532, 0.18772890509597429], [-0.06961942460088189, -0.09031349797257171, -0.29243953476313655, 0.05937786902207498, 0.29262011053140013], [-0.7027525784334605, 0.3254184406406908, -0.20390292305982283, 0.1965466134483076, 0.17072067178136274], [-0.2647925658018162, -0.3358171629293374, -0.2101104804310132, -0.06603406408204537, 0.20634182833749004], [-0.024345252339686763, -0.26132628988423146, -0.9022051842358132, -0.12338288581390344, 0.9361055439887989], [0.4696832294879054, 0.8185381355250656, -0.02885662250162757, 0.6625140100718312, -0.3241406699307856], [-0.6727604246600645, 0.5562788764942317, 0.2540357036193739, 0.12173066871760496, 0.20348176556695563], [-0.16305418418527085, 0.25183184873584574, 0.06690418265218723, -0.3562123510184392, -0.6679388919796798], [0.08057265922872747, 0.49285567347009196, -0.6374455998993964, -0.46801451902138935, 0.3683216641258271], [0.14117800515055268, 0.8010093643580212, -0.6387759336917656, 0.9724277722017607, 0.5586259918299605], [0.6810960454047008, -0.6471907486571649, -0.07454541428201877, -0.4538939497721086, 0.164787870779751], [-0.7444271312892621, 0.7299771853054533, 0.3086215836429185, 0.5560485572119704, -0.8372282153696589], [0.6805906165682016, 0.4136489819658902, -0.9319992811672442, -0.295593373068606, -0.38250461549153547], [-0.40951635754207283, -0.05429642297421511, 0.5375017440526288, 0.20608752152217313, -0.513799541470263], [-0.5401422260387172, -0.767913547289651, -0.5469647365758792, 0.7505430304860128, 0.8627138474008451], [-0.09239914436868557, -0.39683531890794144, -0.9242661818183393, 0.06786114196317072, -0.6309393765554978]]], "biases": [[[-0.715396345169705, -0.855802064877988, -0.1567450646060642, 0.2833615655119128, -0.815378340198055, 0.6326371939425532, 0.2235000137931622, -0.43670482429505997, -0.037095113195799945, 0.5298811486148152, 0.9690646833989645, -0.812228703588606, -0.16799967457672693, -0.314418774453453, 0.6015624360607148, 0.2822592228955054, -0.6770439012915028, 0.42320098541728, -0.019509015424575837, 0.3058314991521591]], [[-0.06898487876498804, -0.3215662316077952, 0.7604119114404977, 0.3173051332550829, 0.014555344023629457, -0.3343090309082535, -0.0809599049674552, -0.575111500681839, 0.513053506528552, -0.5753561087215011, -0.5938699150185105, 0.35890822935406597, 0.012354415913685468, -0.8138153719338224, -0.1325783924951942, -0.60477567319752, -0.3086440954125904, 0.18717440895584425, 0.048704213221316905, 0.1851259116276267]], [[-0.2736887312945506, -0.563460571618859, 0.5646748631975111, -0.2027766027093607, 0.19298788542799405]]]}