{"weights": [[[0.13388634909101693, 0.8727415251739012, -0.17089582398695957, -0.2211486605903994, -0.3474307975950275, -0.800668949111919, -0.6974767527292622, 0.8592793882097671, 0.5180665302467538, 0.152372241761767, -0.7481180816888295, -0.12630062261531427, -0.8490244913243563, 0.9420469455754898, -0.133217915641606, 0.038674705345416394, 0.31389830560296383, -0.9737735438450086, -0.9606458301407834, 0.5928235907712587], [-0.9660290584661175, 0.47676363389697873, 0.03718074749275391, -0.9597595784723594, -0.6812769265814365, -0.5873383720110805, -0.9440647896279335, 0.20518970939359504, -0.9389741220687164, -0.5848746216086551, -0.5046235653742284, -0.2564818319444402, -0.5984511478765402, -0.8443285609185969, -0.3302873386222591, 0.8588266980260428, -0.896584395263645, 0.7912717880125113, -0.5761843220970972, 0.3854326990438828], [-0.3923522366948018, 0.43392432065177333, 0.7418079664799628, -0.18317438091902294, -0.6278848401734949, -0.3927419403138388, -0.3607704629449713, -0.6778424624299884, 0.39796788274414996, 0.577950247448562, 0.06412264977342774, 0.5963988281206758, 0.5822309352257538, 0.03380258192452135, 0.5219273871834507, 0.16025172631582163, 0.41865905447283325, -0.8619422143099384, 0.6002422162825467, 0.6100482378737586], [-0.6192070586665777, 0.43805546069407786, -0.6064316632510376, -0.08107890041952492, -0.19798894279446877, -0.6379815254109074, 0.46490965286863006, -0.4204129768071383, 0.1903427132492188, -0.6377184066384416, 0.4503538167258385, 0.3136240716846377, -0.17465509883348473, -0.6758501035038813, -0.512471246238074, -0.8976009312914386, 0.6916259609873194, -0.0913130509179747, -0.4807612605289726, 0.26050223324961985], [0.19284848264046195, -0.6616937220260153, 0.051282591713797565, -0.41574607910982286, -0.7006561685253665, -0.9118297995240725, -0.12848930607907838, -0.2655680180612332, -0.7044211181964659, 0.5928356371788022, 0.06216984569978834, -0.16152835193966286, 0.9205578855170684, 0.568187334442176, 0.906447474486535, 0.7513951146487983, -0.6181288381017565, 0.4314076226341885, 0.44780751562478827, 0.05487897150678589], [0.6598298128929854, 0.5109001423573822, -0.9771258190901351, -0.7152292401759013, 0.5295279197917564, 0.7252073549173375, -0.09369417770706967, -0.08624637318484618, -0.6209028249837232, 0.2552615127821014, 0.47058837454382174, 0.7378110442121428, -0.8691410527831904, -0.7048974507980657, 0.06989508645160014, -0.1236636991039366, -0.03654381092508574, 0.5745642801509563, 0.24653328663243856, -0.07003926935720162], [-0.819361450285417, 0.9899127273535129, -0.8873635746958128, 0.6196322855239402, -0.2856505597461927, 0.29964284843844546, -0.4622896510235206, -0.15921496260800838, 0.053944637737620704, 0.4056420687539759, -0.5202229830917855, 0.6191419506299365, 0.9649923385055468, 0.8258858226168582, 0.28263975063358115, 0.642885294678402, -0.6486126079892816, -0.6707375761516912, 0.571472616310279, 0.27656246494071834], [-0.9189192015403715, 0.7709552934900143, -0.4356652100754179, -0.5053050625562523, -0.9612317555583396, -0.21172005516280157, 0.5834377667361768, 0.7010177245074067, -0.779823544436304, -0.9736468464752921, -0.08677559623472053, -0.2226718259343876, -0.2035266383443115, -0.061295339653015146, 0.3239459355506593, 0.2878863104337199, -0.4486973610229714, -0.16373533647676108, -0.5254602748855652, 0.31541843073219367], [-0.8624815981162424, -0.932882578336967, -0.42599904300408586, 0.7569119439836709, 0.7600834384140687, -0.8969429036548868, -0.06515953103785654, -0.56216862878288, 0.6947374390739858, 0.5118909789681578, 0.9237332350553762, 0.6524296721758216, 0.9433167715221988, 0.7714702064103898, -0.8602719451723837, -0.9961461962849338, -0.22721151416729035, 0.8612464107977309, 0.4921248281651549, -0.09227465614233221], [0.4341907683068509, 0.4310493029085529, 0.12168222250477378, 0.12901528200342338, 0.8484860429060526, 0.3970035257731994, 0.505744546745102, 0.6457836297616688, 0.5796617950729848, 0.27262212641634265, 0.3831842010514601, 0.8167475303762557, 0.6008299046538825, -0.8674754820991029, 0.09311059926555232, -0.8518893794928353, -0.8230861163005443, -0.45275105738096744, -0.8594997830210418, 0.004299048225627766], [-0.61410607785006, 0.37305435341137216, -0.193300263439661, 0.3269600992848145, 0.316364331727639, 0.7124280862385719, -0.6471343019168294, 0.4974132771897193, 0.5216369889850243, -0.8611098593235842, -0.9944283386732804, -0.355131676352167, -0.9783607947502064, 0.8395748111403407, 0.5071040696101559, -0.2062714569394304, 0.023358708425513797, 0.4895864830415688, 0.8167479587575899, 0.7000174428389134], [0.762490023194472, -0.44951810970890915, -0.936171609754721, 0.21636136882909862, 0.8426132791436429, 0.7933483994579025, -0.8058174505328282, -0.9058592539926786, -0.03223574935478246, 0.9541256314549307, -0.32654811482355695, 0.188002645151361, 0.6820953604549316, 0.4649772780753081, 0.42080244446797543, 0.9701131057678789, 0.31654411907748536, 0.09094799925693176, -0.5503924768922126, 0.12403932169608511], [-0.37723552270338145, -0.31199940784202607, -0.07637952699975559, -0.2782998981691136, -0.6970097469753413, -0.44352512488650286, 0.696090026745545, 0.36797960092408233, -0.6090128015153842, 0.4262615089345041, 0.489778627009964, -0.8716741224897004, -0.7463016834180227, -0.33899543665349263, 0.6068200255966514, -0.014527606348475164, 0.7406429317692411, 0.04374732945388726, -0.10945765274883312, 0.19554232558376383], [-0.0910043328785417, -0.025813462452789482, -0.34040933063416645, -0.7405200352536685, -0.6095926784101058, -0.4750354351027406, -0.3282572972386395, 0.0929133133169191, 0.07531028201084289, -0.056241913001899624, -0.9615623049231823, 0.9722043929055417, 0.28775913742876336, 0.27342095382466436, -0.35275775661860176, -0.9843293128361863, -0.5101506669472677, 0.6994944669012733, 0.5669787389129417, -0.29001548872080996]], [[0.014034142390398019, -0.353701864164194, 0.9506649779633882, 0.8673569238377701, 0.23342086162953102, -0.06057316435057336, 0.8177942944944336, 0.9881161868847133, 0.13493607883024628, 0.3902870820535296, 0.2164527520151336, 0.033000041843116, 0.8984614788018277, 0.2105427858874691, 0.0263699433772564, 0.28024135651910687, -0.08117765363404339, -0.646414471165472, -0.7902765726595236, 0.8663801009363732], [0.5843779533843554, -0.6338588400642533, 0.1694780015092332, -0.9765155392535849, -0.928563975854235, 0.6827385794884713, 0.49145831397301065, -0.7974055552505175, 0.4555680360538672, 0.7703941832523731, -0.5164197498866232, 0.9957714257785122, 0.5568278323588451, -0.8829176704394119, -0.15833643775215922, -0.8401464513282737, -0.21174827390295725, -0.5466577129561592, -0.9325722134564061, -0.7720231639747717], [-0.21441524733559114, 0.658806607544403, 0.8072874901343474, -0.6925717763686432, 0.19581856901051653, 0.27489819424185535, -0.8344202762493451, 0.906360130036342, -0.29659852775516393, 0.31618717256821927, 0.33659824630277835, -0.3275424258012396, 0.4650691459343963, -0.5040004728736769, -0.08967903475632588, -0.49601818977272094, -0.9174977222881182, -0.4503588158880645, -0.7282652718907043, 0.768074060183356], [-0.24367593139098553, -0.8011420363083879, 0.06267512961885235, -0.35508365028843736, -0.6190449028311784, -0.5048935372898726, -0.2175344729186799, 0.3307832610822212, -0.16845570413693234, -0.1252647767297086, 0.952036333666765, 0.07430029896970636, -0.58496886403208, 0.30432845270090847, -0.23101852847140925, -0.25704558477351624, 0.8368667519121602, 0.33389432101081296, 0.22359762127898541, -0.3083680830575095], [0.17496713236033834, 0.8453558223004958, 0.5070797706130457, 0.14788781506472182, 0.5742858417215475, -0.04841773599107957, -0.4635678805896424, 0.0345529110268572, 0.07867138408710317, 0.12064647271325324, 0.3343479788701629, 0.19932189472446393, 0.27877914646229907, 0.5360752932935269, -0.6242325177648289, 0.9013341484614974, 0.7983967298950303, -0.149675907967459, -0.818531905227414, -0.3251660585249292], [-0.015196227800386986, -0.5475903274792076, 0.5388389704400389, 0.0255897868373951, -0.5099167606940278, -0.8900879134928621, 0.9416536987484374, 0.966161638970991, 0.40210866347570295, -0.8635366509219211, 0.6510058242056149, -0.6058870110790568, 0.8079617611309586, -0.6276542941561385, -0.9106183300157698, -0.3906480357059694, 0.48412302142556074, 0.7495995554204815, 0.2422478839181288, 0.1556712886697611], [0.9372244641170684, 0.13640172804721873, 0.255559909752779, -0.3189841355612497, 0.9267381434107629, -0.9071774453191304, -0.20668968938291266, 0.764341033840825, 0.008284680494765828, -0.023199445602799296, 0.6237476175337431, 0.7779754980163658, -0.037661679831273, -0.21297829010045066, -0.5839733538531988, -0.5544280251583675, 0.41108119817422173, 0.13411858270344057, 0.9119907045064162, 0.5905205335335157], [-0.324607721620243, -0.8037437892377446, 0.6186389287226297, -0.9894297639549088, -0.7848596134081312, -0.9993236551998341, 0.6557912343304084, -0.3769840485842131, 0.22168523306271526, -0.06064597491945811, -0.8734660749873673, 0.8631051257265232, -0.7104730129722876, 0.7162349473688419, -0.3883928310718048, 0.6209886254837675, -0.7590991204097577, 0.3828302406037585, -0.222999613139222, -0.21607251516567905], [-0.42596096860290444, 0.7664779892753473, -0.9793934656386571, -0.3913811544950334, 0.6854042543607484, 0.7477684031413672, 0.33612969746339516, -0.1739271977098873, 0.5592079375935974, -0.1796122857616158, -0.2900373869365067, 0.29122575475236645, -0.09195665248589124, -0.2694428612427948, 0.08288535269828667, -0.2254219828375308, 0.8534519996938392, -0.8814295401232681, 0.8903432976545942, -0.5696266978282811], [0.012724420470272557, 0.48912788606841606, 0.6827492915070119, -0.46117451941017995, -0.4562200231409417, 0.9375271924158215, 0.10252344415288217, 0.0800180109315678, 0.6009101257957747, -0.6048450627285509, -0.24617099578888024, -0.8510507005231145, -0.4133637284855862, -0.6910090368036281, 0.19585961062358992, -0.39683793036507375, 0.5172535944016883, -0.7995640900966885, -0.9726084735731066, 0.405719639570304], [-0.2585088455683602, 0.9291681961373888, -0.28885638189535223, 0.9747550039397352, -0.12683187017654785, 0.6551468508954521, -0.4911087060620585, -0.4496653069094314, 0.7064618793239399, 0.7791621059419513, -0.5485455193587649, -0.15359657154291662, 0.049586434270732394, -0.9056293886078701, 0.6801393008201186, -0.840910912148956, -0.9816520014622798, -0.08352854554804501, -0.11592303142091942, -0.19223485263672324], [-0.7194792141976336, 0.631276912976124, 0.6602773611890829, -0.25454115957077406, -0.24659442461727976, 0.05308377515383844, -0.2665899599884163, 0.062130581557564346, -0.41188221974003936, 0.4573535692713435, -0.4773478207205837, 0.3928962722807565, -0.5114771616343712, -0.5682708749344179, -0.20096858350152735, -0.5691330665134524, 0.38355670924733043, -0.2617213815375008, -0.6420698983315758, 0.5298629920146329], [0.1197147691266287, 0.5409406189366277, -0.15490219875826527, -0.023313590028422038, 0.1486745470021249, 0.2635304197772048, -0.6991779814336421, -0.25530361395222134, -0.019149925216676023, -0.17455891476485674, -0.948029561621401, -0.5199453901167501, 0.8978541368854924, 0.49991181013194597, -0.9059144644994293, -0.14686215191839103, 0.09176824751939483, 0.2944198638301554, -0.9428993826587877, 0.7991978228747594], [-0.564454908898478, 0.13967320467988187, -0.7504757632709766, 0.09697943652019347, -0.9955729064782837, 0.24662829023303234, -0.7909606880519482, -0.07273667356556834, 0.036542742765665936, -0.19581915049442, 0.20348246741966025, -0.890810094600293, 0.5467732000532033, -0.22716820585461073, 0.5335000826489786, 0.09104341536823246, 0.3905105301310601, 0.09166204877740869, -0.59819809806824, 0.6026338181335811], [-0.15045048392799187, 0.8169294274392589, -0.8212928758962481, -0.9108587958226082, -0.6935872027386307, -0.2816316727485566, -0.5280758846122673, -0.055328126550448165, 0.45362609898802697, -0.7158567703562118, 0.4385076953004339, -0.08537144127636909, 0.5391948553891153, -0.5466738690023787, -0.08436443381649328, 0.49557492836299555, -0.9621102755106921, -0.43203413182783534, 0.7278234934411683, 0.9534282657009441], [-0.9881739927348374, -0.8169819142822243, 0.7980686054040216, 0.4077957817617368, 0.17274425612749766, -0.7270344183994419, -0.9179749293319779, -0.09968750399810489, -0.19005585552414272, 0.9221497585606497, 0.35214618799550634, 0.29679924028354443, 0.25603714054322047, -0.8724384899339888, 0.3276545467606222, -0.783361713206856, 0.8270713408728814, 0.4190999860229907, -0.29596740518888587, -0.9919963203096329], [-0.1616970787912526, -0.8875472937710067, 0.5347487004986193, 0.44942767341006395, 0.9633315025415647, -0.9448611602527617, 0.6956352907612271, 0.4397864389153161, 0.005595838956042654, 0.372571173538804, -0.262297600018196, -0.9382247224461102, 0.17621012724128282, 0.36294268803841345, -0.5099256491380311, 0.13083879022759448, -0.9589666578807938, -0.3751403607501691, 0.9080118912010084, 0.004546124916472216], [-0.2327466105807281, -0.44797011947925025, -0.1732674952210529, 0.16429718555897854, -0.036020206937597665, 0.001874583579655864, 0.6991704391146785, 0.7768269753338881, 0.5326491361277481, -0.20513931693554333, 0.5411073249659999, -0.18982474007042627, -0.04887468434166897, 0.8963863268041194, 0.045585685307727664, -0.5105238743699567, 0.04262276673679288, -0.6121664616810463, -0.6912964875101142, 0.3234619016578728], [0.6447768285203763, 0.36040843857282434, 0.17591353231618245, -0.718949350607702, 0.6234574221986722, 0.16270999977308187, -0.6783374285674362, -0.8780632106395032, -0.7078001597398549, 0.7537169219110216, 0.4702204683697957, 0.310759534315199, -0.8128159000876929, -0.8759609508393744, -0.1592769268498817, -0.8234563359319056, -0.034371140833464375, -0.5034804480363684, 0.22558405081674127, -0.5715006211227016], [0.5938382537776188, 0.6165235013159134, -0.23625502830870748, -0.27926814455432525, 0.49647099905912295, -0.9161615022872687, -0.563342594843949, 0.5563123170663984, 0.7510099844365004, 0.02494266783380472, -0.7996788189685629, -0.7537191276574575, 0.8007549088927515, 0.06404130335188807, -0.30250091722267003, 0.6641086877908102, 0.9841384870788785, -0.6913735802875105, -0.9023644581089145, -0.6945852996173985]], [[0.22867139906768474, -0.5883691087187886, -0.17047348553218966, -0.1409346056719829, 0.18026425610966323], [-0.22378528426326527, -0.31153431596408976, -0.951406768258078, 0.09160573335049227, -0.9107246288502719], [0.04494904049258941, -0.7064821470745954, 0.04326834334279117, 0.9114782651032554, -0.08984483447974934], [-0.4971006045925159, 0.12224192792563882, -0.6301655498761258, -0.3691866673607731, 0.5792396957762254], [-0.3782767879571962, 0.04377325026194234, 0.36048819518943254, -0.25012545528080077, 0.01609864654826243], [-0.8239713261434691, 0.12001269261266256, -0.026651584282168406, 0.09707431474476036, -0.6181674002436928], [-0.811474628146474, 0.165089503498125, 0.4581041405078896, 0.5564158660723868, -0.11911518351480499], [-0.7797232177044169, 0.428009999381465, -0.2513309842824105, -0.7045401152661799, 0.773264531949428], [0.28536907486783614, 0.2726204780295547, 0.888163764241215, 0.5331605852867998, 0.623812802323283], [0.12923870781517732, 0.3707281419289943, 0.23539672309978288, -0.5353101808904037, 0.6275757814419773], [-0.7716258650308538, -0.73236565546605, -0.37950338093225566, -0.4121855003585726, 0.13906464260823426], [-0.04064361524306759, 0.935930244096552, 0.46589152671332545, -0.40210291027120126, 0.6532045730366969], [-0.4301529647922213, -0.720596517871154, 0.8057492504581378, 0.7351771557429325, 0.5870380695833799], [-0.7112604295859952, -0.5669693560344677, -0.07060802805662769, 0.9642799652154967, -0.6648715044445817], [-0.6721239638247356, 0.22707817867572166, -0.9304455393141147, 0.9158666971363987, 0.1249820447432275], [0.3006940567573402, -0.15367763779389954, -0.7879879541410624, 0.46056653519316004, 0.32294047510215096], [-0.7056965161124185, -0.9895434736219453, -0.9468476487392421, -0.42905073825492557, 0.9593421571029921], [0.3717170744563778, 0.9098023290559012, 0.7766617404596725, 0.4357411130232822, -0.9776623749075466], [0.3312760099317933, -0.25380507764169247, -0.16953498690382363, -0.5244371201169322, 0.49856769262664224], [-0.6657347257340396, -0.7749746198029683, 0.49386185313787956, 0.47245387429280705, 0.4060045974302391]]], "biases": [[[0.7512332868168201, 0.40498696406400625, -0.6063649885200086, -0.728985652851313, -0.1561232732505231, 0.615857651145816, 0.7368040596198921, -0.37438358417539486, -0.7933402591453818, 0.9648144709945439, 0.8779211904593349, 0.027518323312898385, -0.4298625046204432, -0.974215175845158, -0.15741849826524534, 0.9762801782963819, -0.4455692631419048, -0.8601520626481598, 0.5976862326956296, 0.6396792366237631]], [[0.7541704575484698, 0.3946646376432319, 0.703955716947084, -0.41578271284149193, -0.3264328820250628, -0.9596648371651779, -0.06252663134225789, -0.3831409139597026, 0.11444624992880503, 0.35236879857275283, -0.05049871446858978, 0.37466062498368524, -0.7727789215761893, 0.8186901823502786, 0.2666332116185619, -0.3913566626992162, -0.9400897391106096, -0.09638915414861793, 0.9193961313714891, 0.852376074757432]], [[-0.21557591390741715, 0.3021361455286349, 0.3371698865847037, 0.045277355237996586, 0.9695372555166901]]]}