{"weights": [[[-0.429705359033248, 0.9262218632916224, -0.7612655899420464, 0.5996332231772161, -0.1783872677021212, 0.35065793737951445, 0.24932800793573406, -0.048157110894328614, 0.8705738814588297, -0.9613705736048699, 0.5813733928898679, 0.897692910697637, -0.7702715384036087, 0.23340100542563436, 0.6339353638728826, 0.356485137971956, 0.9307216333101769, 0.02195996981041648, -0.8495525203847456, -0.05287232284799015], [-0.8140363578703103, 0.5599233550912914, -0.5282006244646895, -0.13226216508101118, -0.6167979134177786, -0.4736250832221749, -0.23573302431580867, 0.3735345983388718, -0.11134477011205379, -0.9704149672100824, 0.9275260692374319, -0.4531136580976589, 0.9941239360318865, 0.7264201125011562, -0.03979270634431198, 0.9717861535961954, 0.49685776766810097, -0.6709801286206489, -0.6095568560234896, -0.5594068094025537], [-0.9371584560242154, 0.1180400372175121, 0.03029744046029781, -0.4544854537260383, 0.9895815391604392, 0.9117694615607224, 0.48511256063998576, 0.9456515630203619, 0.7969753920952185, 0.17523537396434308, -0.05253894435349826, 0.775049184627729, -0.009691338661812043, -0.9168358993773, 0.7240928170504124, 0.7863680280202676, 0.27257600347866084, -0.7806999785353983, 0.4568880826668471, 0.8849913975618771], [-0.6622021620555338, -0.915699445733158, 0.3926876191087616, -0.37763800539147496, 0.10259484935627405, 0.7562685511145504, -0.56663088509485, 0.6171838845604845, -0.7246752637078304, 0.9927164177126759, 0.856319899949394, -0.5736103709472142, 0.8708665367014643, 0.22337325534887387, 0.3455254753898682, -0.20844524455777558, 0.0032162640222654915, 0.4611793496116994, 0.62880260470636, 0.8384807407127768], [0.7833920809280466, 0.8925187744877583, -0.17330939912720922, 0.6815504771710652, 0.25193195686563263, 0.5503813829095319, -0.7160211956394285, 0.4553716992812993, -0.44679834489833614, 0.5366262538083859, -0.577219975534982, -0.8981445884386243, 0.2248223973100001, 0.4317100552836408, -0.48529134475694646, -0.7648494126647456, 0.9857490941344449, 0.8546020017606355, -0.469160745732186, -0.3344839142052358], [-0.8270578535359836, 0.015129988076534095, 0.8068721396411418, 0.9898854255324736, -0.5113474095340214, -0.9204283523428998, -0.41020094856595346, 0.28146114268520916, 0.24057987355016608, -0.4200368662574887, 0.9701938494914399, -0.6961118344706911, -0.17243954151028595, -0.4886894252463043, -0.008830400093360113, -0.155746723135177, -0.40462619669207656, -0.9501357647512345, 0.8147496437536543, 0.26014220336465055], [-0.8804439902211865, -0.9624474804137761, 0.05704938224371103, 0.4911756268762071, -0.6985971182897266, -0.784203858230037, -0.527636147705129, 0.44367694930179846, -0.5376769637898071, -0.6328041420787016, 0.9244713311442947, 0.3260753611166789, -0.6315191236483997, 0.9878859505860886, -0.3317971110473861, 0.2636431674620634, 0.5001817050994495, -0.31740034955266183, 0.503507865850735, 0.5018331414050423], [-0.43105512622326425, -0.43652638992010995, -0.26054861435442067, -0.9179453733727998, -0.7223090451741097, -0.40410605831270274, -0.4121839815251611, -0.35107213493466904, -0.14489148915387817, 0.8769159678786675, -0.29059497831874737, 0.4479122646308369, 0.44145591811132934, -0.512558164978369, 0.717488900189784, 0.6368143893630316, 0.7569440343095919, -0.707314434205236, 0.30030919419778135, -0.6232989725441995], [0.4752294907482175, -0.8907380231721351, 0.7961006387562, -0.5462342598063206, -0.1602184484511504, -0.9402187772586954, 0.055280021298178106, 0.8302418146706567, -0.42960962576879, -0.9522904497449816, -0.7859341673976026, 0.36078180717816655, 0.45703057710196493, 0.05628749987034154, 0.8791331565251077, 0.2618707982317068, -0.283732903597409, -0.5076928808952357, 0.13783875062110518, -0.41226638509768754], [0.0751227446711411, -0.7654109890331775, 0.31437707137180304, 0.6949078101086343, 0.007041706000128212, -0.2634810085806396, 0.8065909162351421, -0.048455281702125985, -0.556817379837437, 0.01971330988231168, 0.42881222946080055, 0.3817576624469252, 0.41263700271714154, -0.044178585397744996, 0.8728476274494643, 0.5937797598865713, 0.3677576892041665, 0.9439281351009543, -0.21544016273939115, -0.9176545587034493], [0.4239386052748002, -0.8785110639127944, -0.32001507675862384, -0.9586805836307737, -0.03289496900067723, 0.9257894365327262, 0.720544452499637, -0.935498529038749, 0.48760055912117783, 0.15302719613370663, -0.9864314494374145, -0.8115038491012705, 0.36822179118398934, 0.29745130332172187, -0.3123885646336244, 0.7169754608760375, 0.6784643807279169, 0.6438278484057214, -0.5484351532714045, -0.5076406985116566], [0.8546350996449343, 0.8850448365057237, -0.5998770959388273, 0.4381452191367736, -0.3285164094303794, -0.26153937535436356, 0.7697893255528065, -0.7053078741169163, 0.40546921631817456, 0.7644374119551809, -0.12141138808544616, 0.9025148478843024, 0.9952902421300156, 0.728500200163521, 0.498916637652149, 0.4742320658637411, 0.40900669484130514, -0.27618581312918833, 0.29995048339111463, 0.8954248740595958], [-0.5711808730973797, 0.8170137599189171, 0.9827366675170044, -0.6748026193424983, 0.8064933065468873, -0.9817762416606244, 0.37849953320018725, 0.12290440161186833, 0.7022946016775331, 0.22707274661821342, 0.8037839251389871, -0.8161679366255974, -0.4750572556317172, -0.8691723204372641, -0.8542958300557597, -0.7194828692712218, -0.639812220765738, 0.40172359702675076, 0.6374919534229311, 0.06582107212969479], [0.12807558024107402, 0.593682987678884, 0.946996976815031, -0.3933423749901268, -0.66440381238785, 0.4339286608759647, -0.8937873120581756, 0.5844999377506781, 0.9801317701139887, 0.5699275899806571, -0.6737424907380933, -0.9804301202409451, -0.0633889400819696, 0.03943172259931438, 0.8763611309800883, -0.12812826912821018, -0.3687001166517796, 0.15174273288986218, -0.03489230811357058, -0.7049159452190892]], [[-0.8806382134359818, 0.532994109965206, 0.5354081333374163, -0.10105100782529686, 0.13610681283921955, -0.8940460584949526, -0.5779114037115329, -0.6818581959431582, -0.8916358695019246, -0.04321643120659879, -0.3030809299268944, -0.5449399271278781, -0.15965372790064336, 0.9969097218435803, 0.08830541716093787, 0.6870047868861782, 0.7986975791925508, -0.8979590524539485, 0.22926716258429725, 0.026022779835217058], [0.49019803905761195, 0.93195955674896, -0.6363798805479934, -0.13504815059902842, 0.7034476038483379, 0.8871803548004393, -0.5609242545859179, -0.3459887827075294, 0.5935533176283596, -0.964916149267725, 0.7997705879114694, 0.31797157335140414, -0.8514033088161788, -0.9410063195130567, 0.8069234504254608, -0.4434219515340587, -0.16335930524652853, -0.9370861835948805, 0.20954161696999551, -0.8591230099653144], [0.38769427792990374, 0.9769507246229292, -0.29263661433905197, 0.7717320860136967, -0.9858597516249019, -0.12766556559260778, 0.9927754499821908, 0.27691301044045535, 0.27571474386764394, -0.13566020125638634, -0.5666779548214143, -0.5560860602318396, -0.1829288353911689, 0.17487689561802444, 0.750815758470109, 0.2707839077742997, 0.09421879433665814, -0.8912601260039879, 0.43387110623535863, 0.12076087200223173], [0.4703550479202996, -0.7229739507248767, -0.9462190703662541, 0.4789520357376824, 0.5153733327538397, -0.6345398523520505, 0.4205507170328979, 0.976564053842194, -0.3025177970682662, -0.1046770220253408, -0.39375061173739234, -0.5923077096584903, -0.9191736888324082, 0.07731672254995692, 0.4536424322928472, -0.9524989086093898, 0.44857837192859273, -0.40413926728766514, -0.09697270120821311, 0.8951017110961945], [-0.6426642491655694, -0.758756200829547, 0.8099843699538947, -0.6584462562592737, -0.3156102064726021, 0.8024385383657733, -0.12289327119846805, -0.47781923839860463, 0.8530897036479785, -0.6934690930224716, -0.1313227198852791, 0.780109642462649, 0.9607074597848497, -0.457961488344758, -0.44032831325101607, 0.461084085000641, 0.39095301927890747, 0.6875451342336503, 0.8148343528606115, -0.7123165198917194], [-0.4212042540025094, -0.7069373358610893, 0.3588319711454804, -0.3232052281493485, 0.15049511328531517, 0.669225977963599, 0.6658152740496963, -0.08229993974835859, -0.8884231547867216, -0.17616799054010746, -0.7836212222971717, -0.3923922187465232, 0.8594846469606767, 0.9158324989936304, 0.5049905092216314, 0.4043085720115025, -0.9512763496634193, 0.9311113267824878, 0.5683361733668495, -0.06236453040019141], [0.47500180784040547, 0.061174231711513594, 0.7931597349316455, -0.19667004414448086, -0.9975260380425248, 0.15487993684293366, 0.0969884760061821, -0.5377484808209663, 0.2368432302286767, 0.7933686997551066, -0.1800860462929912, 0.06533517511548337, 0.2453688175628046, -0.9969438969064797, 0.31911505251332883, -0.7329486170577302, 0.3299479982582565, -0.1555702863293953, -0.4713561447177259, 0.2265847951444273], [-0.9192206920790356, -0.10849347474319848, 0.6310304955138999, 0.7167544981523057, -0.24505127258540615, 0.727044185681619, -0.3142457760050341, -0.7824365629058894, -0.023191131590192704, 0.6385624043065148, 0.027647079272324238, -0.8985518786025104, 0.7347577741599771, 0.9197220094418073, 0.8293089601834032, -0.5559228786561283, 0.824899117479228, 0.8123768645901877, -0.10879631267698131, -0.6906768680830733], [-0.03751983189056918, 0.9096966790140226, -0.43163974395264515, 0.2347208331559416, -0.8435665343996335, 0.5216770123792855, -0.9354812395086316, 0.9118084115463567, 0.1358955623543654, 0.18853482683373812, 0.15560965560728546, 0.5114384440148956, 0.5534134224281106, -0.3076429225528561, -0.04588590454385599, -0.8820229600363156, -0.9961682518722288, 0.8772132269144113, 0.7417613918240302, -0.6193171360397869], [0.8890663989311534, 0.35459178052594753, -0.5546332934064091, -0.9375850006671222, -0.43701413837047265, 0.3405948100142502, -0.7581621047369052, -0.6769904603349586, -0.8375114042418141, 0.39333675602847773, 0.513899225841802, -0.2898366508791421, -0.012211849724691248, 0.13811784668770688, 0.8897451461086987, 0.4740560644097145, 0.6570069816054833, -0.47681607163512685, -0.7417906631758735, -0.5029169702871525], [-0.21628841910266572, -0.5061666223435373, 0.8533013439354271, -0.5044609144485841, 0.6925883417170713, 0.5148775657288265, 0.3893991313455545, -0.8498452646788834, 0.2107566887143233, -0.46077578235058025, 0.5357154542582172, 0.47836412871151857, -0.496678507042257, -0.01718225278376262, -0.6300355300757923, 0.816961053312701, -0.5892536690704149, -0.1528191804339618, -0.27264319282418104, 0.6382403509299546], [-0.6374751430702623, 0.7152920429892022, -0.29089157834775237, 0.24909115841044294, -0.34600260572617914, -0.1502454159319042, -0.5491403220509883, 0.18387565149093033, 0.8077776975661595, 0.6330818212547527, 0.03450215650005761, 0.6905880330368259, 0.6166597027265617, 0.02163252679692529, 0.7761456718319606, -0.0750518563668976, -0.1854266902725501, 0.6470547666435551, -0.0023930240600793518, -0.36414525992923874], [0.07452353632177489, -0.09959253125969059, 0.9071518801680876, 0.563856083084574, 0.18129510864222342, -0.16642641863748042, -0.7511825433802335, 0.03317024526891599, 0.7233607708504766, -0.7280504906612348, 0.2774222406974527, -0.9657647828336668, 0.028879228903287535, 0.178864028160723, -0.6343964037617713, -0.7520980817070051, -0.8802037472029556, -0.20166842914895922, 0.6241983823440287, 0.3972064256980281], [0.798604461620527, 0.8269743850263866, -0.39525900670912417, 0.43891980938650343, -0.4523669234709089, 0.36318526381932137, 0.04609538532161839, 0.2570530588113702, 0.8228614156758118, 0.9207431663399064, -0.2437331929748332, 0.7152276197086638, 0.7817869829490824, 0.22526417257560927, -0.39777268105072827, -0.5690871822847046, -0.17956717714838266, -0.45620579710739584, -0.9333518397166272, 0.6018114087936288], [0.36654555351173745, 0.09497049409643132, -0.9244334008054189, 0.7721900189413342, -0.2552280729050682, -0.5438153266408083, 0.0565288434529998, -0.30745536904941084, -0.5158136318736832, 0.7998843056921314, 0.11269665148421781, -0.8205095405059286, -0.26280601200082554, -0.8576629600543446, -0.8361818298907662, -0.2799664790727754, 0.6486584870480507, 0.5264965701214042, -0.0009164681362232585, -0.14788246760004875], [0.4299609220867533, -0.10040100057918666, -0.7475238704119755, -0.23442819665504455, -0.9089428971834852, -0.9952930922043703, 0.6926868530336439, 0.9804384206779921, 0.9623461792433292, -0.24940303675912934, -0.38455919753744894, -0.4137808178330924, 0.2212751795051644, 0.49916206088872106, 0.0021438503653476992, -0.6889305446648355, 0.1469428062599185, 0.6729391278108849, 0.9328701588044468, 0.23246831313419425], [0.7282839565072128, -0.2524029788531512, -0.35964140287071134, 0.2639067261734622, -0.5630684477005505, 0.030893408253575005, 0.08501451979509533, 0.33321279708924534, 0.7821945067265037, 0.1528415078377514, -0.1336058821659889, 0.04974550432904068, -0.4674700758550583, -0.15598980893809045, -0.8889375676030165, 0.7043059718565621, 0.0021116127590183886, 0.6261385837037481, -0.3001474571364855, 0.3910355773145697], [-0.10780359029435216, -0.19686726296273283, -0.4697610396002978, -0.8136905871645985, -0.19115637979434807, 0.5782508568412217, 0.3619327117353559, -0.4888519780747509, -0.013293398933200917, 0.8166333481951917, 0.923098991147266, -0.6672362596836638, 0.6423746371388575, 0.6012198542632023, -0.5172096071921239, -0.010595319828947902, -0.24384654643520864, 0.8666546949166967, 0.5153637746401407, -0.3628984179795527], [-0.3999517639877985, -0.9562255846980938, 0.4447040055670508, -0.27446487095859484, -0.9774862487231659, -0.9301636491542102, 0.9945677613767174, 0.3636157814866652, 0.16539699081287096, -0.8785179859961187, 0.9560950962629264, 0.29255739978369455, 0.7100090154732139, 0.8340747176256273, -0.98844467389515, 0.5953893148610403, -0.7471917966400006, 0.2263257644964205, -0.3604682472361955, 0.9423586790032421], [-0.6943729182152443, 0.4299199855561222, 0.6297503376952582, -0.2366381041365404, -0.668690145226214, -0.5305776622444316, -0.9985264552034503, -0.502328936424302, 0.8337008978126024, 0.01477268213901195, -0.06141392521297706, -0.06952104399085246, -0.36246818208525533, -0.7667592949348851, 0.81894139480301, 0.3343859142130374, 0.3427961812691678, 0.9373511059689394, 0.7521583696321585, 0.32747708919701046]], [[0.8325416099487286, -0.8122360497029923, -0.20839493495021588], [-0.053454503721228175, -0.7537510035138266, 0.5565471494348113], [-0.9441668855409702, 0.38403113243392983, -0.7462695841086411], [0.09644459085613222, 0.26261319502884306, 0.23784387315930933], [-0.5226739331455004, 0.37376019256195026, -0.9033926941350223], [0.5299229666079355, -0.6319960096894861, 0.42845833670999545], [-0.4753274087588979, -0.8333177516822974, 0.75770239914501], [0.6065184245557773, 0.19538953000414838, 0.07319301021660873], [-0.6031515225046293, 0.28433443455827057, 0.2765888734884048], [0.7272516083839955, 0.49343505839401924, -0.5992011417105652], [0.44888660521152945, -0.9469697843244504, 0.4361707440993321], [0.3925792344413572, -0.4477677680508403, 0.9344115946236853], [-0.6643587212885407, 0.7642128040715557, -0.7005832602313382], [0.7072269165408551, -0.749286490371468, 0.28524730998919723], [-0.5323608290091129, -0.6151933377783805, -0.534540671890624], [0.935126098269069, 0.21581195701072597, 0.0995090840629349], [-0.9803630260987546, -0.9625084533381454, 0.8816806799716543], [-0.20435489656563322, -0.09604886735153628, -0.7828174661073011], [-0.03329323405534734, -0.4018085035614676, -0.6580201583054297], [-0.6089402438911287, -0.8468127154227147, 0.5294877342448829]]], "biases": [[[0.722532754905709, 0.023894359972134405, 0.5101150803164392, 0.08497521057410196, 0.03306528888064064, -0.27501553542239154, -0.5490819149118147, 0.3084171121683341, -0.8980531217024941, 0.7861303176866805, -0.7257192371277104, -0.528616093567823, 0.7822567201930908, 0.2598296572069596, -0.29238957972543234, -0.05118928952964974, 0.7752566438646402, -0.2763880556910101, 0.7443602659780153, 0.7470292834662444]], [[0.29402657799237253, 0.5554646670644416, -0.7875992903537634, 0.7566016847256338, 0.9038359397953226, 0.9538958280191567, -0.7980006973815803, 0.6540500357920245, -0.7274474492654446, -0.5261463336471075, -0.06060454838817053, -0.4159177747505498, 0.6950559608358782, 0.40839070518004195, 0.29329392721176295, -0.5863436745683288, 0.15369924335569163, -0.4260793553200861, 0.6499914587511761, 0.029559034406184015]], [[0.9718215406293207, 0.7711775112478256, -0.9049125035736716]]]}