{"weights": [[[0.8605981247037164, -0.7804318457530124, -0.40513586751396535, -0.28337859601076953, 0.6774747380699633, 0.17851128569556152, -0.5702836868558243, 0.062334481804757536, 0.4871700862177748, 0.5970315600635456, 0.7941080209895193, -0.9281274143910869, 0.02285104628789436, 0.8170972554092906, -0.5194703096401996, -0.9459972840621771, 0.7100497418417637, -0.4929455731814041, 0.7748792066344798, -0.9654999917837199], [-0.3160120299158278, -0.9634058281427307, -0.2713652307202201, 0.4379727955623387, -0.42006876671384386, 0.02690166703782282, -0.21524734753431063, -0.5583998530753751, -0.7665073595247249, 0.7288253969215348, -0.24298941969777554, 0.6590671698268709, -0.5901623190524323, 0.4976261479521622, -0.9611315969179435, 0.31659360663619074, -0.27179208717177783, -0.5926462795941525, -0.6534489736281097, -0.41555307429062416], [-0.8374534842106729, -0.46664986467523506, 0.4501152165019251, -0.1894850206013996, 0.6118443395463242, 0.7342767511979522, 0.8644758666953067, 0.3754098054823942, -0.2929479726199946, -0.02106170277408026, -0.44327838605136405, 0.424829718880505, -0.459718081824686, -0.6694534223199065, -0.156479884917331, 0.07835181407429848, 0.8929010372329655, -0.7374927152663229, -0.6072657299102213, -0.07902880669432455], [0.06860910457250391, -0.39796821243228475, 0.016004775953422534, -0.1335107970203644, -0.6066853645018295, -0.5433084231479248, -0.7662416463218287, -0.9032733598819485, 0.1568580930229837, 0.8783669591631391, -0.2349168776039363, -0.7389139836395777, 0.599297420500122, -0.7355614893312359, -0.5039224135769416, 0.9512777012377553, -0.9436488419882527, 0.2804958202562602, 0.07799408129350804, -0.7763149452173308], [-0.3633777767792379, -0.5654850949846011, -0.5735731867089158, -0.060243544390447434, 0.22760153961247998, -0.08322201596666301, -0.6927342109490671, -0.12520616133163243, 0.9023882087195128, 0.0400438975702031, -0.6030555009451322, -0.5416755572875103, 0.39806325913595764, 0.3174885477945799, 0.42700849555585996, 0.2857707763149693, -0.3105952701668906, -0.4653410120250958, -0.48934170911665253, -0.7533349952949366], [-0.7146918414390304, 0.364453411670586, -0.7705726815381677, 0.6804443730102361, 0.7669960997711782, -0.8841002956065145, 0.3437664741894011, -0.5611376584106127, 0.7024023902585015, -0.6571009873096703, 0.40421977457653036, -0.9905220064377092, -0.18492348942060133, 0.803501600569063, 0.30241454935529544, -0.2847143059863877, 0.38921303460080536, 0.33609704015522945, 0.24604125919926179, -0.6374636561927476], [0.7149449003346657, 0.4884482326261932, -0.38269334789960596, 0.9207455960678428, 0.2532225029685311, -0.7396700943217898, -0.04721609451559172, -0.7678125768851216, 0.5150011097274101, 0.6220603087975285, -0.506355631373075, 0.058795419077497524, -0.507501628425411, -0.23019195752348454, 0.1492091198652845, 0.12331133601940847, 0.2385613434341627, 0.9632577965721567, -0.32497198972872643, 0.42753789325470026], [-0.5529487424080355, -0.14332425261655968, -0.43488081051752636, 0.765136200315174, -0.07544757592327045, -0.9091373580485334, -0.2909347461734244, -0.8218774318012827, 0.5443303875452445, 0.21622269328362043, 0.3704826314192977, 0.9279808787330204, 0.8594561733476915, 0.9016462948620738, 0.4221264401780884, 0.18761977802391505, -0.9417479342749739, 0.7525665424540937, -0.18658572301540066, -0.5711895262767177], [0.698756852678116, -0.7623894118060559, -0.8405350754470582, -0.8354801820814499, -0.7520442629850037, 0.31039743827248567, 0.04545125410067663, -0.9685339973396176, 0.5713998250760466, -0.9899066634736948, -0.10838960929004937, 0.5915495407549303, 0.175007283307693, 0.1899749521767935, 0.06981619151473661, 0.25714570938856585, -0.013097086515154954, -0.2203122552789203, 0.7807737333446805, -0.7322559544092682], [-0.32467399827637067, 0.4375897457894309, 0.4361546278152164, 0.3898031205125272, -0.48814124048927, 0.1438371919579864, -0.09175568490854147, 0.2381230106147425, -0.11171693009409012, -0.726773957534159, -0.486469510072286, -0.8446148214080218, 0.466892195403956, 0.8467668453183814, -0.8422044117763847, -0.6694943344703435, 0.38873161651188237, -0.7304293649181446, 0.9687025339255098, 0.9491087653720489], [0.8896664424247811, -0.5416991949057919, -0.5646625419412001, 0.867440920782534, -0.9957118809863128, -0.9468817627281099, 0.2876555602181923, 0.9801458079219827, 0.8945530980949183, 0.2901002396657304, -0.8468058981786957, 0.35461953226855525, 0.6042234854401911, -0.9421180994224161, -0.02546854120978126, -0.1972366598266464, 0.422040998031709, -0.4788032145192782, 0.7736959443143363, -0.660442925283131], [-0.5541837219158656, -0.6784409496420247, -0.30785377125061775, -0.7635950877800977, 0.44477782186152526, -0.8410876332922286, -0.013828897776337223, 0.9327897713054278, 0.6735003655637628, 0.49288757844965203, -0.41401442438444147, -0.4605212769764475, -0.18496599083004162, -0.2718548139794026, 0.08354340165259, -0.5478622146135745, -0.7880783603141133, -0.6110531611693613, -0.03069378709280013, -0.9125914734969642], [-0.810547528154768, 0.27800883051895253, -0.3522645032351106, 0.2847551098018295, 0.6445555703342867, -0.8085639231507002, -0.14979151757399234, -0.42764632020319593, -0.3110420382790473, -0.4482865863206196, -0.8943621186613977, 0.9588536557301504, 0.029120160802416306, 0.41623781569073803, -0.8339319782035295, 0.12736709482773834, -0.45648167220920155, -0.6453839778977095, -0.8466958110906133, 0.27810306523423534], [-0.5541737877304023, 0.1862790921931201, 0.16238026955810914, -0.149084728361347, 0.37900547408045093, -0.20528990283171344, -0.0999081086806961, -0.5221735618111205, -0.02204450224559218, 0.3716357700704229, -0.5621610061548639, 0.4087810816814279, 0.2415684531548008, -0.9639348752942969, -0.6174041292282388, -0.5372315445093665, -0.9454682982550544, 0.8527144098739112, -0.6517570735331073, 0.05882407510875853]], [[-0.9560279579424116, -0.3221943242613152, -0.640273156872841, 0.24717335819421193, 0.4232180363571796, 0.8653340930079603, -0.3037191831453916, -0.6060112349366487, -0.4962895963963114, 0.4807316521794254, -0.5592035781910487, -0.49340265636666714, -0.3556824386258164, 0.13105682207236158, -0.443781679523334, 0.29674908919105847, -0.8398720370428634, 0.44616710316862784, -0.724012592281928, -0.6532810473947179], [0.4024818306405189, 0.03631210933787754, -0.6334726617900719, 0.5401431619796908, 0.6167620299526364, 0.7428225163676112, 0.46456957720403436, -0.4848277588930321, 0.3899172063869101, -0.3767473455464534, 0.21363653938882066, 0.5077010831820239, 0.14158402451527574, 0.040028469671286926, -0.8110011875838439, 0.5595164055191206, 0.1620334211622545, -0.8964192104807429, -0.5820230162996223, -0.1844131046468096], [0.2597308598610326, -0.43566189491043184, 0.0307160248028866, 0.13740935678159993, 0.6881407342307209, 0.6499258568198358, 0.8883915696654541, -0.6091094906921224, 0.2697849998743931, -0.9784353041457636, 0.5369752327255002, 0.15909383741019356, -0.9895050315830292, -0.9334135376440524, -0.23535040370025095, 0.23080570674912426, 0.6450959643411123, 0.12014530289947722, 0.0964144784504477, 0.13731325158842278], [-0.7466273222128168, 0.1610465602767719, 0.9905495509494762, -0.5874663111357159, 0.4372877859315021, 0.14247849844730864, -0.504401421128071, -0.837743595108799, 0.2721407232898727, -0.5774288417501461, 0.07612144596457715, -0.4090126059546231, 0.7146537921460425, 0.013655148798198624, -0.5697709763857948, 0.8394352057839005, -0.4850365029852828, -0.0927468905414841, 0.010901366376205868, 0.12351522494667266], [-0.9815621271685466, -0.15145804462160295, -0.8897531186379599, -0.9858832511419799, 0.029315898013702935, -0.9117348935418026, 0.09986106687894147, 0.19151260017164318, -0.46778499069296253, -0.3507409041563676, -0.39648434207654604, -0.17850768896181246, 0.6915628120874449, -0.41458902787481366, -0.4568988627325836, 0.6516135804161558, -0.3009629413482695, 0.8687941623517332, 0.8094403300094508, 0.40683877939229784], [0.5068921335972418, -0.3958394306670765, 0.4106313095199976, -0.28971624518521755, 0.86833649548635, 0.6220315014361248, -0.5092800754161042, 0.7124577296848766, 0.06628442893886732, 0.11554824605507008, 0.8174564921543932, 0.875161515237004, -0.3027203417150133, -0.40209632209071833, 0.9771628569896895, -0.5627805317266397, 0.29223036821955195, 0.21017035408543294, -0.06157512986664293, 0.9401140437206319], [-0.3249082939349377, 0.7014356585485673, 0.6567398842286161, 0.4463056597625199, 0.7629213159198993, -0.44647800407528226, -0.24104834594547975, -0.8018142549254825, -0.12869933434678393, -0.9481776857401716, 0.8070953655485511, -0.6967984676126078, 0.5156815676430797, 0.5259300168533045, -0.5095679076449946, 0.6867528344376805, -0.5843848381387138, -0.49071591617651666, -0.0011180640387742358, -0.539263978840101], [0.24262098757952444, 0.17129672660644757, -0.17412833197223, -0.22083890114328542, -0.7888899653526718, 0.03573025021478138, -0.06344283592093736, 0.32633503265393204, -0.124960351630103, -0.8185641747029966, -0.26454996944905607, 0.3718850579044275, -0.057356576020771044, 0.4214283888107906, -0.3596832942263557, -0.0012550120030512257, 0.6827437327584802, -0.2192475021800735, -0.4180401488651604, -0.3854333503795935], [-0.8202203595756803, -0.8386666365200788, -0.04973802834122365, 0.24657086453921706, -0.6528344013322427, 0.28021071561484345, -0.8091998887373593, 0.47287443172020494, -0.8644842464809115, 0.06610631649324716, 0.41522107229937566, 0.41442722529525233, -0.37624255178866806, -0.30158633531056833, 0.8654844967950457, -0.2678732331864415, 0.8303789963963011, 0.5212320753290087, 0.8361652600180647, -0.0734561751104239], [0.2822201274575129, 0.6089657261446797, 0.001489185239659907, -0.9022484079257376, -0.1624113499853097, -0.9385092579322978, 0.8235375331790433, -0.8397338233883487, 0.3209587019060056, 0.8377609392794847, -0.8042549195493405, -0.12544079979814837, 0.8534154460669816, 0.9340157225374888, -0.7093969854463127, -0.705884658907096, -0.918840835557446, 0.012730476812064406, 0.6820747431830427, 0.5057782999698752], [-0.009158582363373968, 0.2994106896173241, -0.34031831191321316, -0.9299769684596364, 0.28549551346618696, 0.6921532401892208, 0.4127154438252967, 0.5810589412192033, 0.3052591019699571, 0.934265322726924, -0.7388179124350329, 0.5359766545162954, -0.7687074316527667, -0.6914434317569862, 0.44397819218556633, -0.5286341402456176, -0.959386095647097, 0.18054776156337504, -0.49477374925903006, 0.22632247191129262], [-0.2761597118250987, 0.707335727273021, -0.2677267322214687, -0.5205002645541634, -0.1441285648994186, 0.9219798397313057, -0.5474905911638075, 0.3780481190323055, -0.453317283664719, 0.5008492935814113, 0.5568848645520768, 0.5820062807500606, 0.2653621932909396, 0.863520233175417, -0.762962122130924, -0.29605337744559757, -0.620575159850884, 0.09347300460248698, 0.01828253813685632, 0.3760890930371865], [-0.6333517651096596, 0.17036420895705096, -0.528788708957836, 0.035314416096170476, 0.2903026103662778, -0.053493887264765894, -0.7464175617523525, 0.5114859255709148, -0.10311695970110635, -0.7902539427531794, 0.8748683530365231, 0.6663908842189337, -0.45614482756810926, 0.11006966907889537, 0.4815429603083592, -0.1693246766377665, -0.5698654646943808, 0.12962566507745654, 0.733094975962864, -0.5801017470939482], [0.7453586155140453, -0.12486404549763308, 0.21187416704131645, 0.14304851442230193, -0.344055564273438, 0.8745846532300872, -0.2588680879246865, -0.6749565768717782, -0.20620936078975682, -0.7586203283788708, 0.4053484508332772, 0.764514593354864, -0.8904996916932544, 0.29647099913726893, 0.11836545075160054, 0.9280114182409527, -0.3372816951093982, 0.3918797969092871, -0.06242212047985318, 0.5632451500580014], [-0.054719173412314026, 0.16789281765425534, 0.0360235721106561, 0.7693295363890662, -0.07548850782551053, -0.8092995995412364, 0.19486813091068123, 0.4245201172294819, -0.3436696477479313, 0.5226673786097757, 0.15654751610034046, -0.8900936312908607, -0.2527290127913857, 0.9616565170047873, 0.2711151642514398, -0.30482008806717387, 0.318046354505207, 0.16724791421199803, 0.26273833009904446, -0.39022368907106997], [0.706033834958764, 0.4542686482285281, -0.426374906064243, -0.733410597860473, -0.017334230829975317, -0.7917047096515397, -0.8010700910618864, 0.4676588956204637, 0.5950166394212426, -0.5763809921303218, 0.9799622967124215, 0.5279786270507614, -0.03777968278433019, 0.22648622896095727, 0.9775291525695742, -0.9705375536070784, 0.30363924122531927, 0.1501541335382719, -0.9457467549150227, -0.7986837720778361], [0.3942489866200418, -0.63778470666778, 0.9879789969606512, 0.9613852167855255, -0.5069665533874814, -0.8284178472560666, -0.2993268980612407, 0.7084991756764176, 0.7391837721735408, -0.09789820569723373, 0.632660750845754, 0.9113877456516639, 0.6527137560530054, 0.13416443053330718, -0.8211748465038471, 0.8278955998720223, -0.7589699578657538, -0.2805950945145037, -0.5558288958362698, -0.7012749939539573], [0.06850869132968906, -0.8685126298244059, -0.7578046511204495, -0.9676941942299471, -0.9679055515548416, -0.6494167068696794, -0.5775119804384823, 0.8935929330480357, 0.8529678019855509, 0.019728399294527854, -0.4131504707669835, -0.8727251856635769, 0.28673386174428583, -0.7070709131576511, -0.5702610358181621, -0.3868720285911087, -0.8715352371042999, -0.7959932036790511, -0.7071429987720541, 0.7521204028002402], [-0.1839566336051015, -0.8955741088560614, -0.8792370912494214, -0.3940763274741286, 0.35281965113971303, -0.7730557043477506, -0.527335415672745, 0.12252857065369716, -0.0010340352259579078, -0.8389895155000591, 0.06733417707923928, -0.28965576930149584, -0.6148567995187237, -0.07101558368157179, 0.19425713156319646, -0.8772736549758424, 0.4570049008336623, -0.6592817338906587, -0.5730571959602819, -0.9784943868657883], [-0.14467509216745578, -0.7098850594247545, 0.08311790181040046, 0.46065371626075335, 0.5776985778757737, -0.28626322687081673, 0.8850918104991135, -0.802442803572079, 0.24831511345202162, 0.8911330831172593, 0.35161861246572257, -0.21206339026474352, -0.5690281222121287, -0.9518545874242283, 0.27075659774974703, 0.7615220950743584, 0.42056920613363324, 0.5942132073668187, -0.5801443199076046, 0.9450642061300039]], [[0.22446347507247877, 0.4755683198148599, 0.9264314782420662, 0.6353653388699081, -0.010209425028673502], [-0.22154711060353138, 0.687566122488958, 0.2859280834088369, 0.10642092020943306, 0.7006651844948699], [0.8845388897389623, -0.02025763410739767, -0.09159278506349033, 0.3341419606762377, -0.7009098750373577], [0.6933132358630423, 0.9972077114320506, -0.9724737784989912, 0.6477400755937255, 0.8430766693300094], [-0.8050106627616238, -0.34289509685722686, -0.7694235750525777, -0.7256234621597419, 0.7572012994957535], [0.6009536011939858, -0.4189939848280382, -0.18040093126438195, -0.8503224087531165, -0.4293473126805989], [-0.2688497020854197, 0.8730029496208669, 0.7021762644088534, 0.5046898366202619, -0.7682858602768732], [0.7923627206671557, 0.6650807299039403, 0.8015514642084263, -0.2315735193192472, 0.02751720614682207], [0.9761004947171434, -0.7995912297335306, -0.14110663398190582, -0.7902494869275143, 0.507367968106365], [0.17947538797820362, -0.6116694543313923, -0.7134654040118975, 0.11606839620741272, -0.8599397556372854], [-0.13978097079778373, -0.2739122867049224, -0.45570428961980314, 0.9422106418420935, -0.686390883686371], [-0.12908280005799688, -0.40933653681640725, 0.13135390735773678, -0.9067273840250072, -0.41892471319695535], [0.762677532476072, -0.5183288221293749, -0.3482152182899523, 0.9969907430575267, -0.8325471936675053], [-0.11192655357615733, -0.49895663114386557, 0.10260574180265336, -0.6535640514245102, 0.0411996128594494], [0.3138351807653281, -0.6765765769613246, -0.5783602735019784, -0.1361525676712394, 0.5005204639294547], [0.9641647509539428, 0.18673968356200854, -0.6313760098940144, -0.08453845588277709, 0.18974676562206838], [0.9054523947717747, 0.6571882726062919, 0.6877180926453665, -0.3509015211398121, -0.7339614866231259], [-0.7901204173587257, -0.743312904997623, -0.2007772931141849, -0.3862617605620928, 0.48880331182521597], [-0.0870348844649762, 0.6974248590643255, -0.6349444603475451, -0.6922156429255171, 0.3622058256105558], [0.16521867609558583, -0.6791259200258413, -0.7246509400731762, 0.22214702499409422, 0.7632214648031554]]], "biases": [[[-0.23149493311497715, 0.9867223016118656, 0.9525712695101483, 0.46303092520266476, -0.048467478189721636, -0.5551784065017471, -0.11396554668339176, 0.498761784393545, 0.31192909481033904, 0.1326393375171755, 0.4137756668003705, 0.28705561954211256, -0.016093548763005838, 0.7356178110600065, -0.3623145917725672, 0.16597354234005346, 0.21934605032914778, -0.4120703550545268, 0.5510710334556124, -0.46580667370694684]], [[0.9767862211365883, -0.4916206282167168, 0.9029815452998704, 0.305787545907088, 0.7364228463546938, 0.5174929623656845, -0.9378205269971487, -0.44549797015117676, 0.7236551091661354, 0.8032970787206539, -0.3320554385129706, 0.6862065267694297, -0.7658522019041214, 0.4632953844729666, 0.3227041068811023, -0.39650184188152293, -0.3686556651765107, -0.41384659463395024, -0.008952607523465383, 0.8559386387044701]], [[-0.09241204177078921, 0.03396629136026186, -0.11772167925701083, -0.04096672181584049, 0.08392138762762924]]]}