{"weights": [[[-0.6150456509644437, -0.24972479666641756, -0.4068067984175243, 0.35050577962517604, 0.6557368678109434, -0.20741641437037273, -0.8635814895723946, 0.7710430739075642, -0.43460096375378754, 0.9311372574941761, -0.23752161997874977, -0.1291037688388359, 0.3699076866344595, 0.24560256661164814, 0.5082184272879819, 0.938976347246639, -0.7140711615160815, -0.19806097983599202, 0.5518598640131216, -0.27994367583074875], [0.2694261896029009, 0.11107367611996, -0.9436409529231629, 0.23653478544048778, 0.6314382865349899, -0.18784549594188427, -0.5950608121887622, 0.5254363896757239, 0.5023944936296296, -0.24157308594408988, 0.8011022645443564, 0.7075907966044546, 0.8670510908886047, -0.9553773912511445, -0.750732243530702, 0.8252870064232509, 0.9398938007240916, 0.7632991697188873, 0.9892047763097125, 0.7138339777436731], [-0.3763544653733586, -0.8175843330949155, -0.9329196407296241, 0.2345009928700419, 0.0671162364522484, 0.42096796982348095, -0.760391070769247, 0.10332370090941012, -0.8837669110381037, -0.748223498682169, -0.1418986970453946, 0.8820877655491062, -0.8682485944669778, 0.10447965950297555, -0.04430077511556951, 0.6461502907988124, -0.5259922787064886, 0.8242826381794173, -0.6223315898800987, 0.49589603090939693], [-0.6205670640782375, 0.4962053048087287, -0.48774183951322936, 0.9750643078518353, -0.40115741598197285, 0.03239827730100209, 0.012328610182681388, -0.6014594810407923, 0.5359931469735497, 0.26889543935845905, -0.7781319564818601, 0.01986842173230352, -0.8670948955836042, -0.4108105488457938, -0.43018305490828124, 0.29593261277140614, 0.4659839363661502, -0.5615009739654913, 0.2595040063881975, -0.7281328219734526], [0.19197315742187793, 0.8550072694293958, 0.3370125072267831, -0.6385748637732995, -0.6946581386532371, 0.48084734337196533, 0.38970698102860446, -0.2359102940720359, -0.4381408145588861, 0.48388759476364407, -0.18850636422350164, 0.16230072428747633, -0.06930505837382328, -0.47263643274524214, 0.7979914836885744, 0.8999625913389766, 0.20893460409044184, -0.25897851767491, -0.13151040905035916, 0.24623109200755988], [0.7643375113453159, 0.2729718357632971, 0.6697225924507493, 0.5182468456174532, -0.3185431696175276, 0.622848326571132, 0.7890172143726455, -0.1192001534879692, 0.5016578553279913, -0.11628496969811652, 0.583259281608177, -0.3771897212441111, -0.9890449912546411, 0.7627859268970327, -0.8917888244059522, 0.6116505744503498, 0.778370628920634, -0.062325596713565634, -0.4956697987503984, 0.29516267277533803], [0.13389009726018464, 0.7954902146456926, 0.12039183601932169, -0.8691306896092892, -0.7277512093431948, 0.16439526685086236, -0.7995087988543597, 0.4284332856160653, 0.0789086343873524, 0.502559303556279, -0.8799744780981327, 0.7238688989080988, 0.49065452895388617, -0.17356329062588505, -0.9567015046752754, -0.5055117176007224, -0.015078987825076107, -0.18514336385810926, 0.3953740340350296, 0.5635130159339659], [-0.10888647123933715, -0.46624112420948305, -0.6142108806084194, 0.895568014415788, 0.2323747584859246, -0.5134061947672319, 0.4682870837658435, -0.29426337121860247, -0.45240495434601646, 0.1197551446907501, -0.3183702373496675, -0.3714797793934659, 0.5295161361082408, -0.7179195835683261, 0.9527323454138585, -0.8950875053022553, 0.11044620550164352, -0.6882754554839927, -0.24146712484506216, -0.020033956125244945], [0.5953394536720402, 0.2895325585582733, 0.9005540547201163, 0.8234267184573385, -0.9945644889926921, -0.9426715891539548, 0.8444010338681216, 0.711886988290223, 0.6432033568286888, 0.6852925957694609, -0.9260255616152719, -0.07992686877770327, -0.6931172285805665, -0.14627700946795663, -0.3433301818364731, 0.1524866081498213, 0.10779888514291658, -0.13122426477349758, 0.9968231388312434, -0.6805716199772367], [0.898879977035234, 0.7180724298455814, -0.45579559583827955, 0.09639787495323748, 0.7036491739360606, 0.534973301979679, 0.11628854264150013, -0.9435933768691454, 0.12524573943755812, 0.9665796994162321, 0.5736339383150255, 0.9182359919584342, 0.434567323429669, -0.5006206032974665, -0.5852514282072376, 0.45201701162925034, -0.010719520638590385, 0.704996743678171, 0.9568992485310066, -0.20307403448643635], [0.5598887978487432, 0.29879468279055654, -0.09408059713964922, 0.9355029293537074, 0.6709159888531626, -0.41564361878088607, -0.026344457705485214, -0.5540650151641766, -0.5884066373175416, -0.4692998916336255, -0.7260140485309863, 0.19391362768014453, 0.6645562988374889, -0.7838805558420181, 0.0339836823072015, 0.7846903709213005, -0.4073611278145326, 0.31587801634304946, -0.558261265539181, 0.30547526039272666], [0.9116487269649336, -0.5037715821068545, 0.5795085704143783, 0.9230451148209777, -0.7335136959617801, -0.5244266676827063, 0.4676558767208385, 0.10192961128201872, 0.15814554452457763, -0.1138596678255217, 0.6749433078268108, -0.41602957686516073, -0.34864412620705076, -0.8384597046778741, 0.1914381733659869, -0.7870093181738784, 0.8840038664196026, 0.15793617573158647, -0.43804073382449893, 0.9857346764444039], [-0.10349353002050465, 0.5561247445098172, -0.4889859713795006, 0.8336446601927665, -0.09022833195016955, -0.79422742142693, -0.657985884855433, 0.3808254944782805, -0.5834213080137185, -0.2011383315775186, 0.9194634496342324, -0.786758839624021, 0.7469937958928523, -0.18685438551892508, 0.42430828664761866, -0.0193630727890739, -0.3374866377196095, 0.8756178248331623, 0.599676593023498, -0.4048387316002362], [0.6813158393495842, -0.515429188357069, 0.3824445571256252, 0.847988487856197, -0.5235852209315213, -0.2530119740364505, -0.9717791960227826, -0.7946911623345674, -0.7324493467175464, 0.6006990646402306, -0.48078520905233435, 0.39390700235631093, -0.28868151060358405, -0.4686062115439864, -0.23231336822826987, -0.6036803317295487, 0.2260632092798096, -0.5377023170774464, -0.9143837866923523, 0.5955055273003007]], [[-0.18815409673603645, -0.43377069954007474, 0.13928937070476533, -0.15739151682723973, -0.5661818117538293, 0.010101753436429162, 0.8771095535005518, -0.840811596418128, 0.10887453972694328, 0.495612221469238, -0.1569324701556103, 0.5816491966256327, 0.9147403313975129, 0.6461579371721728, -0.7562604928843302, -0.09323557252314618, -0.04342950903382414, 0.6334059141295496, 0.8385207711157625, 0.9281123401053659], [0.03680233454216841, 0.9650616036259674, -0.6166790316715112, 0.1546351605324907, 0.2987466880453853, -0.11534995574903206, 0.3213080840917055, 0.8577378090993335, 0.3128593677920113, -0.12747479265665285, -0.759915624652262, 0.2564651078597304, 0.2600519410470912, 0.716595751761012, -0.6299074775013316, 0.17077362799115337, -0.36526037158092683, 0.720423381050439, -0.7634524109088716, 0.20821133020107174], [-0.549935341241462, -0.7539203208846739, -0.09873247986515765, 0.644802301989869, -0.0048094929062609815, -0.49069625717704524, -0.9051226454245478, 0.037985655613976155, -0.8061640331837274, 0.45804955392870084, 0.1595669643587836, -0.6015690124518929, 0.021517769044014257, 0.09862986340368951, -0.9062913899164005, -0.5832302739086481, -0.0707111213226006, -0.13848215144215992, 0.9091225483378496, 0.9112030859463256], [0.6171818134746418, -0.31774289514981313, 0.6997698410491873, -0.3899639923628597, -0.08041463121552828, 0.9729919069271951, -0.13621248968706268, -0.006633534771509408, -0.20232308710116143, -0.17648608207179084, -0.7117327055939386, -0.14596702492833646, -0.2681734686704589, -0.7770071337211719, -0.6736580217981494, -0.25158141303805337, 0.11026987405569799, -0.041650814615573184, 0.19050394410345506, -0.22063085279128725], [-0.06168984295665769, -0.6056231199605273, 0.9894483373263736, 0.7100105680742237, 0.3977246465139259, 0.03141599724484734, -0.4680000911288016, 0.8713911930696614, 0.864286995072413, -0.7430060211553766, -0.608179456710191, -0.01597437651224487, -0.8401504279990155, -0.8210685208448374, 0.4506777085981726, -0.8360086880808462, -0.09597952892085915, 0.29028691775840954, 0.9130811951678413, -0.10429866153227385], [-0.714921207064741, 0.026506933493961604, -0.8904211776283453, -0.5355833818579374, 0.6365825398414253, 0.16058632836490694, 0.43645231788536054, 0.1650380584098703, 0.332394857471906, -0.22051845202961196, -0.35306938578323543, -0.21997224998547082, -0.7496044237152499, 0.09152173620360071, 0.7620167403035114, 0.25487672329643574, -0.3790063324905608, 0.5608703459487334, -0.3062584760355098, -0.264055637131968], [0.8398263792767611, -0.9402024533305533, 0.0418233540736106, 0.5042233538223242, 0.3245637507411472, 0.9224365652203237, -0.2114041039798027, -0.8017786547155084, -0.9912719294431311, -0.4826282940034703, 0.1964690190446834, 0.8257976399723861, -0.9992628802028491, 0.7078016959266116, 0.16374035366645745, 0.2162788259890851, -0.47708802733070366, -0.7802518444333815, 0.09533185130018751, 0.3810401512657311], [-0.039285236754404096, -0.6402482502893356, 0.5189203498308141, 0.6946123177416399, 0.37676154889868596, -0.5708571024508116, -0.7615523858029334, 0.18982786621579328, -0.8824476285948124, -0.3283777409630011, -0.48193166786182107, 0.2975271711022751, 0.5777471547741417, -0.09066354933179466, -0.14144221691867154, -0.7282065693737392, 0.4832463273351555, 0.2957385915015529, -0.9165598403536959, 0.45041404850448097], [0.3571650190387623, 0.9550879657306044, -0.5376317376121134, -0.771962440201504, -0.2995561664611279, -0.4201902688965371, 0.008762282808718158, 0.0073987734624709756, -0.1968829906443541, 0.35232766219788925, 0.6249618711559928, -0.46644871947954947, -0.07176959171763997, -0.852246947246462, 0.15727535201965148, 0.9135949137310551, 0.512091384332261, -0.3375722926460476, 0.7680919826417645, -0.7629378146870207], [0.33355925323979996, 0.9153155469531169, -0.14538397000751924, 0.5917460123760079, 0.24471057543847374, -0.026151259156302675, -0.3672944342189728, 0.09283037709951802, 0.0991950959567387, 0.10297876680531037, 0.22841301684750337, -0.6256082828346974, 0.2068296201988722, -0.9370595667254962, 0.9640585907226182, -0.8846177699822522, -0.038421270551977305, -0.46932158965805426, 0.8488674788055899, -0.8705463098158093], [-0.9071125708233185, -0.3384346469250463, 0.024973729054027283, -0.5991821906473953, -0.8239283485706679, 0.4419146389637345, -0.691487213755978, -0.30112392080259087, 0.10555827444875976, 0.5149086062412682, 0.6482354267666126, 0.8356304958899559, 0.7071292834269072, -0.9598927051938457, 0.14724246563610355, 0.27287577400051166, 0.6726854889891387, 0.6555455859878607, 0.7362589106136432, -0.5125622731941917], [0.8049331975775231, -0.9891742404726651, 0.8383915884435915, 0.01702097993148355, 0.10652251215772424, 0.9469824373936191, -0.6818675913754202, 0.8626167874720987, 0.9825715874258774, 0.6722048607401587, 0.9102027482168076, -0.8021900976834728, -0.6736241083169072, -0.7630569490804362, -0.2548863049747252, 0.8088007355517772, -0.0805557578114362, 0.11500629758868008, -0.29126541469636447, -0.9946364334714464], [0.2683574777971349, -0.5957968100843205, -0.6474712965384544, -0.998101520230342, -0.31794685015317947, 0.9375776126061828, 0.05713674963571158, 0.7519941914388943, -0.08506512598088034, -0.11809475933316271, 0.5714107359883918, -0.024543886158192363, 0.06800611430203074, 0.47099479171361813, -0.19704074221638668, -0.7431925078029491, 0.9564575861897628, 0.46822635644163224, 0.8658344820410238, -0.5012012376713841], [-0.092677617440869, -0.26195299596956145, 0.4462217709540166, -0.3169305178894082, 0.010767595835981636, 0.17747624142147944, 0.30803029196832443, 0.5720960557177919, -0.4949922940480065, -0.7844350052442084, -0.308700281779837, -0.7979853219736721, -0.34590511169705174, -0.8689313254171311, -0.6201111508027752, -0.49165013783608713, 0.41967414591403474, -0.8382861593145123, 0.1997619358656717, -0.35310228097591345], [-0.19045965794947572, -0.3200698550412966, -0.08350332723291198, 0.07064890324192175, -0.46171592097917347, -0.6922742427760902, -0.5242382040036953, 0.11210300929144212, -0.043466884061178046, -0.1892951580122304, -0.20681314781658222, 0.6019474532738796, 0.5105963724688494, -0.7805093602020099, 0.7370983940412039, -0.35022135543381516, 0.08737570440289688, 0.7159319306508416, -0.40519629526538914, 0.9833364538474443], [0.8488201622927551, 0.22010296636051674, -0.9339526799184319, 0.6426472550495022, 0.02052051565492663, 0.4093755050431229, -0.19883524154472898, -0.883096888112108, -0.7105938106094196, -0.7411945342280573, 0.6954046700824517, 0.30113101877872483, 0.41180328462193905, 0.8011242656727775, 0.5250836406981929, -0.21052339122174635, -0.8627638170544156, -0.9197011513524915, -0.27361502546529226, -0.13381175452160265], [0.12687405918350647, -0.2503614560009064, -0.28141013644000834, 0.22906772397345687, 0.13640747933099573, -0.6008139865972209, 0.6221052499942321, 0.2665028783136465, -0.11178825173708673, 0.889389474947393, -0.14321972859979937, -0.918607363502618, 0.38860901508347045, -0.6014640416172361, 0.8060182633238655, -0.2581844671062159, -0.23104366743664095, -0.8140235628118921, 0.20671844590770294, -0.9708049476783889], [0.8743594106841601, 0.05708503642231921, 0.18508044103679522, -0.4815564090611797, 0.06507559700169119, 0.36851699302790664, 0.20385502869822014, 0.3888257637229835, -0.41290239054472133, 0.7854606727779112, -0.6788463995355007, -0.4081893641893244, 0.8229424639404803, 0.10835935773832461, 0.18394447246353374, -0.12468886357588849, -0.972933086246476, -0.33537287340467214, 0.8467251817029389, 0.24310508161994404], [0.700553953074835, 0.9191491733778554, 0.40984225167427035, -0.5312963355882585, 0.8943343550134912, 0.08562824004843095, 0.7312615451740327, 0.891786711664609, -0.04317213310015133, 0.8589345343149342, 0.27717215822031904, -0.48760243904483236, -0.7188726380242378, 0.7107265595898318, -0.29911280220807357, 0.05520786212225204, -0.6215435440978123, -0.5313333622407101, -0.30455139876788495, -0.32860578342593083], [0.20243124171967786, 0.13878785566542895, -0.7506479850194896, 0.6914702353419051, 0.11295915415081459, 0.09110878437643821, 0.9878482689122008, 0.3491644458253731, -0.9648586784436071, 0.20609130889332583, 0.05358102479617144, -0.9116548910111253, 0.47799008620098404, 0.0009031620648609628, -0.5292648404190854, 0.6250662518983585, 0.9975778194113571, -0.2989786167523245, 0.5743444942005345, 0.10546787757534615]], [[-0.061539913276164704, 0.6510760696731732, -0.44601548621130416], [-0.44154274171574914, 0.1834961244928741, -0.29880129150118706], [-0.05782397614296153, -0.11143922752858115, -0.9154637152210936], [-0.930968490184862, -0.8860724332860885, 0.8506490912753886], [0.9785603411825421, 0.8616269273119033, 0.6182646395360598], [-0.5166020088519645, -0.26606693033710505, -0.24053924404735283], [0.5432782752712719, -0.33629633664621306, 0.6598538435315038], [-0.3389588245337878, 0.2363887147504713, 0.9145938313220243], [-0.10945578348627771, 0.5759506901476918, -0.49199452071389205], [-0.1579854772524092, 0.8358983546444352, 0.7822209193829239], [-0.8120863185644083, -0.38219873709472907, 0.2566757373364277], [0.23183353829211284, -0.7616501209676156, 0.12288064019086331], [-0.40632826743713224, 0.9873250600043628, 0.802709405455589], [-0.9214299230656469, -0.13455258589905994, -0.9296275475220981], [0.7960971135577033, -0.06755823473315647, -0.8076124137009457], [0.8622126301082647, -0.35831752696434593, 0.8732865374209209], [-0.6560106446595919, 0.2627594319371609, -0.725136554943145], [-0.1026715521168391, 0.6119547014180746, 0.2711166555337494], [-0.008903363455579072, 0.05075650858252678, 0.7777314615903597], [-0.5038938495899536, -0.7867942575105189, -0.4339149370455191]]], "biases": [[[-0.3683056160484992, 0.3113708278525935, 0.40488490732681237, 0.6292424373738335, -0.27298302407853625, 0.8138711428184062, 0.966986553821811, -0.3602380324455705, -0.8614795413086593, -0.02437713743416081, -0.57500669525385, 0.22958548322286632, 0.9273459631625698, 0.4880521895837717, 0.90476576335514, 0.6727235336300981, -0.12750936953336023, -0.0550879394741397, 0.850649738102979, -0.04574717865196587]], [[-0.9740561481095653, -0.4207693551720837, -0.9277581458678912, 0.5033029577796699, 0.48041199907769916, -0.4736983311017884, -0.1247484823056233, 0.4237268167419188, -0.6275031392396966, -0.5740217373907386, 0.081447247986564, -0.22805416566360304, -0.1474568430347647, 0.72734321474622, -0.6668019075222058, -0.9698631006844238, 0.29715689371322407, -0.7728357495879041, 0.45938122695543737, -0.08529890756374403]], [[0.4022218913941593, -0.8613359721511749, 0.06640079990287395]]]}