{"weights": [[[-0.8255947633878142, 0.2856876053155173, 0.578637724851659, 0.4015375000618473, 0.0950349908193342, 0.7212372219831316, -0.12661434237150604, -0.6998068064775025, 0.3879648505354969, -0.27598521898889294, -0.2770536883780572, -0.655926410965594, -0.1055777472422681, 0.17911327733988402, -0.8475443867014065, 0.44774755257894294, 0.4220915754800121, -0.590212687470332, 0.5850269100876522, 0.43848221582070535], [-0.2675657884887468, -0.43800591019158874, 0.9762200702283115, 0.5985401284573051, -0.035364421482361186, 0.02758045785167229, 0.8786671763228695, -0.9767237723431275, -0.3538830000764872, -0.6066848560290328, -0.12330999743653481, -0.10662254570424623, 0.7728791657015437, 0.38053121404378487, 0.19297113386850273, -0.6719782951827185, -0.4828327264108867, 0.607969413456428, 0.026274873669384746, 0.20369704690986046], [-0.8945938019681625, -0.851216557723697, 0.2155706187889932, -0.16403859749248695, -0.7124338896971114, 0.20882868771747365, -0.2852802546005544, -0.6824164779708948, 0.972559585715435, -0.7749046381207818, 0.4777446410592854, 0.3380513182970448, 0.9391256265643178, 0.4082758510371609, 0.6924150981636261, -0.6352271601634698, -0.7343218085991279, 0.4036858719368983, -0.05191383797713445, 0.9874009270240767], [0.13756540367947823, -0.44266779572466675, -0.2217640621841599, 0.8783023503065566, -0.24183940565581818, -0.8671643852067652, 0.22979026483538245, -0.350036452907456, 0.3460228866451067, -0.263386291976794, 0.25057887745090546, -0.4381981102188537, 0.49521585944483903, -0.6697454350606418, -0.7544975847323092, 0.6096016848287169, 0.02548932945298077, -0.37823478410052735, 0.3279658744651217, 0.6989240361466551], [-0.3598935409977895, -0.3844452587253637, -0.5805836323652507, 0.8140169424872334, 0.5899883930847594, -0.6466660679858118, 0.3559743625830831, -0.30768992649556126, -0.016932051523521396, -0.11954690280804892, -0.8638119566180824, 0.4769101743043924, -0.3000192636550252, -0.9501158665571754, -0.3986222947734195, 0.9044584212280413, 0.03276619500456435, -0.6927340897435237, 0.4978724115090907, -0.06660816981173268], [0.4630647466929798, 0.14382170801528238, -0.7563420676902819, -0.08279636215629038, -0.04833035558973964, -0.4353515498303453, -0.6643222631430565, -0.13577255132045685, -0.06904128972761137, -0.9573565928328247, -0.3894177958959468, -0.2195463435351379, 0.5999601162826453, -0.6206084210614449, 0.8134776025845951, -0.32543819029052545, 0.4539374605252582, 0.29659347983179374, 0.2980497080581819, 0.5503275218190646], [0.09158691783426032, -0.31334994610229994, -0.8678636481609789, 0.510205416026825, 0.1562850732628318, 0.22115042450339462, 0.42419265381506177, -0.8676136988979519, -0.9441615001404051, 0.15183756977420626, 0.41773727345101275, 0.6532370119368154, -0.05891201267639712, 0.06037474982089175, -0.3637986721185824, -0.30640305633142817, 0.7505360473504328, 0.31001415496986273, -0.5058363320551382, -0.7576391371531757], [-0.9793260403922028, 0.8136863038180489, 0.8330975569258168, -0.9693626446860635, 0.3138850266719513, 0.30691256269503264, 0.29863776381930696, 0.6042905218221677, -0.09767909418641851, 0.8550472860557594, 0.1303385713489309, -0.06458588982002422, 0.33804756187029716, 0.5768922367885967, -0.7893435392886552, 0.874332905092519, 0.6755022305836804, 0.43620855131553915, 0.1317876299236156, 0.8797508659544191], [0.8121713238626673, -0.6055542286462972, 0.7498032956424516, 0.07121645228631568, -0.6175620461429423, 0.21274737970574864, 0.31775768253748016, -0.6385035772787531, -0.5241047853739049, 0.3737273915389956, 0.33631148185364124, -0.4012657625407745, 0.5300879813626092, 0.85529383331886, -0.5144262570415379, 0.18482191605293896, 0.24802017795283837, 0.2716511163628923, 0.8696806689584324, 0.08650390041636835], [0.4376764493670331, 0.9822152870735539, -0.5745020011767794, -0.36641782704263837, 0.8415770862067209, 0.5518048516250698, -0.5824434932035114, -0.47123994250850676, 0.29389532242075034, 0.3432104326761538, -0.9143140228386561, -0.551875945411147, -0.7926306096556694, -0.12588298424783662, -0.8097487586184409, -0.09642656112447745, 0.7124672770315323, -0.7915536871547171, 0.41759793142858515, -0.48682331957198577], [-0.46088153175270086, 0.4816285054585374, -0.947005390592782, -0.9588453245602979, -0.687295609543884, -0.5604928310860826, -0.6207159701428964, -0.3135860509453765, 0.23286395192840548, 0.7589244656286747, 0.1250579234703666, 0.721691168082357, -0.08732876919906074, 0.4075294907604996, -0.9175999975581397, -0.25166936378472027, -0.8294091961947474, 0.37002811355902376, 0.4795675484696018, 0.3920851047841831], [0.3375875224977869, 0.9998099426975686, -0.16272588907305452, -0.41010224072376733, 0.7179254329207452, 0.8775703960879591, 0.9426929982818344, 0.670291151702797, 0.4342135539470282, 0.28881876166053466, 0.4641725253267841, 0.990616164811114, 0.05810169824002265, -0.9015948424035649, -0.4173988901626544, 0.9053994887440397, -0.861275245289713, 0.7673839142856211, 0.2861945945921953, -0.10829965970437683], [0.17232087932204854, 0.3991813414041021, 0.3344290013574267, -0.2796735995078443, -0.33880370462091247, 0.04565488368172321, 0.15212031115385027, -0.7814651910081396, 0.9096457008782395, 0.46524606188654105, 0.5623152592172618, -0.4343752248248913, 0.47525654059510636, -0.8382528276670953, 0.6728419535717405, -0.7162136641629839, 0.645077528709258, 0.24971812225957613, 0.07625626385902096, -0.7247887373430184], [0.7268107547484413, 0.6649358284524454, 0.49677351765301747, -0.3902183472085947, -0.9080825658638243, 0.3168115790311148, -0.7603805484939021, 0.0007070243595279635, 0.7003766505804481, -0.34630803979034797, 0.7792864376738746, 0.07025862584601317, 0.13237090418960462, 0.5709073784150129, 0.3608812309028131, -0.0354171485729422, 0.3591375186937329, -0.849237613039026, -0.4023544100957752, 0.5990728458185277]], [[0.8701979836581821, 0.14051512092724305, 0.8668771333646756, -0.03772827275647339, 0.5570514726269775, 0.9550412030335174, 0.5831883696627069, -0.2770473831766136, -0.9948723697889019, -0.2904513322044249, -0.2247020504231021, 0.5940970948742037, 0.5368437997518156, 0.7842512121888083, 0.7176395832927682, -0.26260902025083155, 0.10416403237443861, 0.19186926705566143, 0.08048366967059817, -0.43203969470377435], [0.8500249888967606, -0.6626852893749895, -0.37231008158111534, 0.0277648044706158, -0.7396116768245564, -0.48677171560017163, -0.4715527851481247, 0.5810797000024324, 0.07962972588357209, -0.36222969881683764, -0.8639809436280175, -0.8796281836370121, 0.06873414487519214, 0.3606846643504755, -0.6173740994754553, 0.29508057840625224, -0.44699296380093045, -0.8392237253781512, -0.7193343956032412, 0.7334320601585311], [0.6479431290431825, 0.0899347522138021, 0.07162209231899674, 0.11540522796444308, -0.10595264263376625, -0.9310429138333538, 0.4538884173874349, -0.22584257699795263, 0.8699539356852766, -0.5509985351771882, 0.3683056657328614, 0.803664619887251, -0.3312219485836012, 0.8203660817004599, 0.045305358313941335, -0.6672958543749157, -0.11687693624117279, -0.8470157486795729, -0.8107953576475537, -0.15385102709225884], [0.30840674618963626, -0.15208918493743795, 0.8364074677351678, -0.23457112974996686, 0.22122555676170141, -0.8417571855416994, -0.9371131048306169, -0.5108422846343685, -0.47813566960644494, 0.9972816772226714, 0.8329729237669508, 0.4898362164961141, -0.503931544075751, 0.26830037697352016, 0.1321394147624626, -0.1837182922427565, -0.31014926574002866, -0.980203880778937, 0.9887721920085741, 0.4878319894220715], [-0.5925862315678696, -0.06823391245166288, -0.5533353776493901, 0.020559766858686768, -0.29053943529334236, -0.7255092341285752, -0.3875391298891375, 0.9313789845515601, 0.5688325718049556, 0.6854805442054035, -0.3533233328290972, 0.9627178686541515, -0.5639477185478381, 0.10752536709657057, 0.04369492263374042, 0.6246496637374501, -0.45897733277656605, 0.46402134438702003, 0.43669911772504166, 0.6056991741911357], [0.7934792600623077, -0.47258634404567146, -0.30584442285295665, 0.16203677883553835, 0.15388560474080792, 0.47406892826400004, 0.7357232875242454, 0.6997756471647745, 0.0012333684499126196, -0.9808216956058382, -0.7815388261012042, -0.2154166935533628, -0.340403788117676, -0.4495183200692501, -0.09020199165368892, -0.44312583752693, -0.6667342183280331, 0.2175736065682774, 0.13559255622582533, -0.969249858708783], [-0.547463367425608, 0.24162388639560928, 0.393606122776857, -0.45818045546024755, 0.499548948246888, 0.6118109252307478, -0.5383059492706364, 0.4079724507361131, 0.913710708171237, -0.3828577660755308, -0.8621928081017205, 0.6622059417587027, -0.4614704586436682, 0.24320502436659863, 0.7412975408875835, 0.9815931877887634, -0.41273695265116417, -0.21873321449617777, 0.5115188326552205, -0.6590097904273189], [0.3280033150674091, 0.49467412010195466, 0.21862711592152495, -0.08804361104871061, -0.19397571816189751, 0.9111197001540718, -0.380311875046071, 0.8928135577836682, 0.5104894875604602, -0.4747728137609364, -0.922806611588791, -0.428713196632599, 0.3231332880988729, -0.3804978693174985, -0.03234196432367198, -0.2517993818941142, -0.43287573762650955, 0.3601431647645752, -0.40184653230482903, 0.4655147890224205], [0.22094175224246348, 0.6698836707758762, 0.9903536366602017, -0.30660743595674655, -0.30663423681374735, -0.8155056312562516, 0.28975915082689996, -0.4665312659679004, 0.26485574327256045, -0.27820378005755786, -0.44490384250972914, 0.9973462582172137, -0.00762797375753399, -0.04816867646102163, 0.4993109410632546, 0.8052109230923887, -0.8175624445991794, -0.5223627350510212, 0.6540323477564283, 0.002799498135549472], [-0.2372852014247786, -0.4451150550940419, 0.5421042175892479, -0.3702546559700597, -0.3786012526547218, -0.4603892194621344, 0.9420470375664174, -0.7254829607192845, -0.5087225104199813, -0.03857752697393657, -0.8098254466388957, -0.2738555856231031, -0.5862432042693355, -0.6500874313082177, 0.6255706634589404, 0.8357656595408087, -0.7049626814106873, 0.25459183609117764, -0.40702173712117684, 0.6511202453601443], [-0.773235783877473, 0.5872494780027004, -0.6349531639658044, 0.2837331681519113, -0.44330647560073766, -0.031815421031286206, -0.361168253051094, -0.09774847475369541, -0.7116810537674156, -0.4570958143551618, 0.566865432571191, 0.8048227986916707, 0.740757367029744, 0.19879210147681126, 0.9583729868789526, 0.27050560606896745, 0.20669119964483484, 0.6848805593008647, -0.8551661619368756, 0.09369143899392052], [0.7550235719369554, -0.9706456049618692, -0.7523339541778573, -0.026096033814535957, 0.31179584079766265, 0.8498445688601819, 0.11450588180241761, -0.23161222501028056, 0.5307437265529951, -0.5773585233210339, -0.5364988902098469, 0.5496803372785615, 0.4014413057250976, 0.15489704826531625, -0.9480419280755767, 0.8283237500894567, -0.09845081085941954, -0.9684646467424478, -0.18814064726510193, 0.7166451452285756], [0.07795309361529523, -0.781429261411893, -0.44210611742316175, 0.40908765652263157, 0.6962677277470393, 0.14680242602344884, 0.6971357799627111, 0.20506528086902565, 0.892455916461079, 0.5016986763157771, 0.370175308334167, 0.8421761210417271, -0.41526006222030265, -0.2589708087064504, 0.18431337906951462, -0.4478363801430283, 0.7823421789017566, -0.7476156476508979, 0.2556997844221909, 0.005105200789640163], [-0.35838096719701085, -0.8273785994435869, -0.630233000883138, -0.8589228059332463, 0.3597630015803921, -0.2788694105658074, -0.2651568299341256, -0.27091958011849515, -0.6026491441329165, 0.7261463075529433, 0.26644884746262143, 0.24117191362710888, -0.7798228999667989, -0.5581121346662026, -0.10420311996017495, -0.5136934931848103, 0.6785783232829479, -0.762656230044771, -0.10231189753448366, -0.734592701398769], [0.1834571183892304, 0.8089256472591879, -0.549201379830532, 0.9204729294963063, -0.33625141491062194, 0.37466987373146554, 0.7803477159232706, -0.7711120196623475, -0.26271553711735796, 0.9023295880598436, 0.5701141657616886, -0.47358063049116494, 0.19898395295003768, -0.6323402254880399, 0.42400630649711135, -0.5623404227300097, -0.5316539783296053, -0.3725055033715732, 0.60467480155848, -0.6822914474861099], [0.045645166685853056, -0.6620426896013876, 0.2914988374151477, -0.12790482134181347, 0.9946241220231109, -0.2774532001287797, 0.14795023925452422, 0.272400381668904, -0.20254610506507165, 0.9283585768854112, 0.0020781770094635554, -0.3589999052517483, -0.16801344075750246, 0.28559712502080936, -0.8481076385394628, 0.9690954981029205, -0.096980730195801, 0.3151132643380121, 0.684541906915191, 0.08445258262266675], [-0.13964183545490982, -0.9796464779155494, 0.9175126986736633, 0.6409498182386186, 0.29033192663502816, -0.6389155486832527, -0.2774118705345643, -0.555433446672005, -0.7137770862587474, -0.24149923762711945, -0.8542168864450264, -0.8783866565285392, 0.7936312469520048, -0.17942811930099767, 0.3275243750256236, -0.1936009749249039, -0.6039233331212717, -0.9356937225861419, 0.0019135984974958387, -0.10064910863268484], [0.16161255139010455, 0.6916850503558092, -0.1974877820794203, 0.002845946210465078, -0.1292243267162383, -0.7639444624634151, 0.8751792693645222, -0.5235148962769889, 0.6611165450809582, -0.343871359453904, -0.3528902806882728, 0.2914161300796221, 0.14304671077112374, -0.07647510844082772, -0.7348841080338537, 0.6778449890766769, -0.9541148751956576, -0.08179714004632554, -0.4848345016462474, -0.5653560918309803], [0.5484525462059939, -0.4197748470718077, -0.32175135506452635, -0.31774635670217655, -0.09328108448793149, 0.05269066844899273, 0.5414895795468557, -0.570782794857458, 0.07787545892941594, -0.5159306854060821, -0.9723247534084463, 0.5262153024266896, -0.030208862144111448, -0.17450348487025158, 0.25482083356099716, -0.8867412755811619, -0.8466499134158603, 0.440484526326675, 0.22171716459317592, 0.5232104501228045], [0.23202755914027118, -0.5929310561024599, 0.5441258155430064, 0.6251777127462417, -0.9347401433466869, -0.1688437957003599, 0.9214441267878606, 0.9648363945233422, 0.7986388970465683, -0.3379628936856971, -0.9293889019073147, 0.6150672964966226, -0.641384545485272, -0.2735961506699729, -0.3199951543070796, 0.22367261351405876, 0.5198372018412827, 0.9489201632340092, -0.6539409735057, 0.5242504097090848]], [[-0.9865472644785407, -0.49224111673181326, 0.6653168929475235], [-0.023437506873905667, -0.9204072397303376, -0.2782379241523163], [-0.8226474506680324, 0.81029220953037, -0.2707709914227836], [0.2735559968876542, -0.7611479105589549, 0.3886693180636047], [-0.13465858216832705, 0.7626471254992166, -0.8996394472690716], [-0.754484378571548, -0.7545829307416669, -0.047190225241495076], [-0.41139683091683743, -0.7827699783319635, -0.353014712541982], [0.8964481498609262, -0.4905641762034141, -0.2872641640893454], [0.29343882888810935, -0.46891498714797364, 0.2158709920530193], [-0.7038763428553705, 0.6176125603427207, -0.3256479601732152], [-0.449131170183253, -0.8955136157273631, 0.25016876395828835], [0.9419084707876493, -0.4980335233735378, 0.8464569094972998], [0.513378137949382, -0.8303286201084139, -0.37612738428680204], [0.5552746880263211, -0.6187148819741952, -0.7310377295011039], [-0.4663813521821276, -0.30892266078913866, -0.16822314454102094], [0.07220851876996548, 0.613694078807566, -0.5931273828776946], [-0.7549690325394995, 0.15789417175015008, -0.7192735909747516], [0.8113924854296575, 0.48179150463452913, -0.7769610411380359], [0.03127280782696129, 0.1704269313761546, -0.3420517960764542], [-0.07580152394072726, -0.7761161444830842, -0.28584938487148737]]], "biases": [[[-0.9991756662041931, -0.5179909216513758, -0.4501204707957793, -0.2239881870354974, -0.01387994514092128, -0.7117941347517758, 0.12336380379077982, 0.6709824903775778, -0.5118313502651304, 0.09962343976807841, 0.42234138331662496, 0.6495918030207433, 0.7122947416443639, 0.1935863821588768, 0.5724027314118583, 0.8463753164747885, -0.3454395568969959, -0.9225882841334769, -0.4052280996378257, -0.045036394496265286]], [[0.46819055257558184, -0.5668271026183633, 0.010127152487841018, 0.2874997006251667, -0.12989481787069912, 0.750503265670482, -0.008683302133060344, 0.08222770875205287, 0.735960271381404, 0.5845067213572797, -0.7926203579990547, 0.6155896999031545, -0.41630204769344137, 0.9632868152807914, -0.9513533889489172, -0.48529651598492674, -0.39411006749781774, 0.0005020979638894474, -0.8438972619483363, 0.597175649667733]], [[-0.5741775608833368, -0.6663374374750175, 0.2315508434625464]]]}