{"weights": [[[-0.696261654284966, 0.9183936340653405, 0.4793910050629786, -0.683032662403644, -0.30303526657166757, -0.932393774608332, -0.9737503055227414, 0.7925327847375236, -0.4657808019324061, -0.05109139651203942, 0.12639450458554213, 0.007901194052095883, 0.12222192095244622, -0.8757998285253443, -0.2272276355065379, -0.04219814356661944, 0.6057951461118334, 0.7394841612652061, -0.813348419180691, -0.6486778660505024], [-0.983533169701023, -0.5150407920603841, -0.019800207193104935, -0.058873875870108394, -0.6926419940995756, 0.8505228250192614, -0.7742325627730553, -0.619426119642305, 0.9206389398633317, -0.06141439093583534, -0.015031183579455432, -0.07372377324982082, -0.4815377675199679, 0.7029994992732704, 0.20086981500446632, 0.5811588621957764, 0.5576577180562781, -0.571230803583114, 0.4081141388724778, -0.3588214670969023], [-0.9764048685849909, 0.058879699954968334, -0.7752126427245876, 0.4614700411145085, 0.6026166428619519, 0.14413863324058274, -0.3768242974145064, -0.8633462304234296, -0.46833798244393376, -0.7559220495499024, -0.6794783052033511, 0.9907920127590495, 0.294970058943846, -0.3675823237746223, -0.2660684832326874, 0.6798071946140616, -0.7309357648699599, -0.9126686642205193, -0.8705284374142781, 0.4482942642776171], [-0.9524938051449341, 0.01471113964257964, 0.0568570543734761, 0.791156297468615, -0.5829147878814118, -0.8582810677760577, -0.3020569777298523, 0.3016348981639885, -0.5542392260559059, -0.50202449286213, -0.34926173719675546, -0.9574495945214492, 0.013297309052016093, 0.3928064277529304, -0.8120408855297145, -0.8057002837921192, -0.7465776177864094, 0.3427820501750649, 0.22315071624349025, -0.9772960960742687], [0.5592912665991994, -0.9762585054345954, 0.7543711393899828, -0.24325863284367988, 0.8404202972145671, 0.44242121175698523, -0.47787103098569195, 0.8200266574541994, 0.9131187747368124, 0.6294920718259998, -0.11301526947149143, -0.6486003274906169, -0.8292110569530096, -0.9482153623893459, 0.7818635713574409, -0.7800803697699115, -0.023691975931834808, 0.32593013848251884, 0.46204032521544325, -0.514108214560332], [0.46940326251311193, 0.22260220371272754, 0.9144530034797438, -0.641541801404623, -0.9922623379097975, 0.8755903817164656, 0.9434311333226864, 0.02154126483988006, 0.2196560058114423, 0.06520334813902795, -0.10287559240179744, 0.9303115843608165, -0.27937569631636827, 0.15040113097424568, -0.9393211645591422, -0.2582972421573111, -0.04537878234189896, -0.6506245085669342, -0.9956551314027744, 0.36823094464091977], [0.6124116484820061, -0.5090250262250289, -0.4420121932150154, -0.5352236433275521, -0.4970994833809017, 0.1924805302057555, -0.7945680853040655, -0.31728597568798755, -0.7072016916988295, -0.650741730473777, 0.18349667121217728, 0.49875147749769155, 0.6245652903182952, -0.5259756789193839, 0.8303982546271995, -0.19677417066524572, -0.18312170532064775, 0.8805393312197174, 0.9340627509613746, 0.342330739204997], [0.613116422958238, 0.9775326490333442, 0.4963349010899736, -0.9664664315094911, 0.072651758420337, -0.3435918811169081, -0.49590537796881184, -0.04269490523706265, 0.6595474722720214, -0.45738883006136866, -0.664351744383513, 0.6631443540227597, -0.9470304326767256, -0.18362447276040905, 0.6754729523777672, 0.7264197970305284, -0.23758955061069176, -0.5963822857104049, 0.19268830228579925, 0.409313000228398], [0.040239196731810756, -0.9830640670993309, 0.5166521137174154, 0.7813891642675295, 0.4600780314278423, -0.5412864673870326, -0.6505056361213388, 0.0021496037733708118, 0.9923992946577032, 0.7480680540670908, -0.15482753581666442, -0.7014647384023549, 0.9380836193847937, 0.9698721232071084, 0.3756889724027883, -0.879163244304519, -0.2182849574429495, 0.6276298891543286, -0.03023226103462484, 0.036288493439388114], [-0.6607556777157013, -0.024421417398073686, 0.006422542337139792, 0.8078215653129037, 0.2528200978512367, -0.7932623961525387, -0.7113204520164869, 0.0032453383204986697, -0.8040215983516728, -0.9824881650917527, 0.9499516302377615, -0.5590195518053074, 0.25866671660584717, -0.4657735120759068, -0.6647675524472696, 0.0558630024055784, 0.6284710109725546, -0.5314320078615797, 0.7024308050153545, 0.7157037596380256], [-0.07296421772876172, -0.2259977757129219, 0.8983811146419798, 0.9230901812790286, -0.9200181027514303, 0.4689907697458533, 0.16189735592334698, -0.43499388532700634, 0.6546617415548346, 0.8883799685053158, -0.4787991989580913, -0.4271562048893891, -0.2641019210700324, -0.40476210485322706, 0.6879389183855442, -0.8612429276114073, -0.06381283364311963, 0.04074046849119273, -0.49306675377552, -0.010104681507372426], [-0.941287700189479, 0.8527391709901173, -0.6332082270432693, -0.6402963795011456, 0.7483566803707862, -0.6194061213467503, -0.9195088991329754, -0.9336833264461475, -0.10201927378451647, 0.20212003201001205, 0.36732875164733514, 0.7251746843837772, 0.0539760454759739, 0.5166873878443323, -0.7180377102174, 0.19293848111785405, 0.5762765931055256, 0.102748571957199, -0.8600719050830059, 0.40329231466420934], [-0.4863033596135433, 0.2995096914541562, 0.8826029986962547, -0.42260570022598976, -0.8884856689744673, -0.5067125187216517, 0.8215719879953323, -0.9771033204171755, -0.7744435424594698, 0.16264959654649846, 0.2885478913807187, -0.10317276375776574, -0.3021260277876663, 0.639436504741693, -0.45933626173809894, 0.012467141302740181, 0.7283289341137378, -0.9536653762059928, -0.379994035566132, -0.41735821929033623], [-0.528777549841684, -0.9344042838863369, -0.9376704753919023, 0.1800467594993096, -0.9285882746765006, -0.9675648245535711, 0.6327061003529844, -0.3269258383057292, -0.6898200036583435, 0.6016217044299124, -0.15311763271973589, -0.6241149750126287, 0.35524419175642263, 0.505362979055983, 0.9643743790016444, -0.9654041603494368, -0.8916218925078039, 0.07065244788062142, 0.5230276631007604, 0.17012567862955752]], [[-0.2160290362157642, -0.0656338903343825, -0.1814071582304555, 0.5817807256405312, -0.8396624478203947, -0.49115791546961796, -0.5129053991017494, 0.9027377088466941, -0.8124012033268602, -0.13060823166191482, -0.2742068518241014, 0.4190127486315762, 0.13065672490513092, -0.8304054597251112, -0.61101734264448, -0.13193160497495682, 0.6656158104091083, 0.43241997458311343, 0.6144593035693471, 0.2351783028906762], [0.7485101552217417, -0.997564165206398, 0.6954355115633548, -0.46467470867486926, -0.217385889694379, 0.22208827609637805, -0.21897976811634012, 0.4373129483823708, -0.08294563025405388, 0.23429757766974646, 0.019939428817475457, 0.008533214483888552, 0.7013026742748019, -0.19608841511732367, -0.6841512312742328, -0.8086590495374766, -0.7383550057466715, -0.26533759663598055, -0.3476369228247935, 0.6685523283454124], [-0.14417310984688858, -0.1565132245844989, 0.9049433638694182, 0.3394332661971864, 0.05067631806033113, -0.16249578538502174, -0.7890523493235908, 0.8556132582416371, 0.2112044702165441, -0.10086585158502026, 0.7564014171081275, 0.12327076566557582, -0.21206364390178378, -0.3240548812604833, 0.33954361255512233, 0.9516944858600909, -0.7361341448173373, -0.1116047967874616, 0.4966041913460064, 0.5841473621139486], [-0.5191780129866816, 0.08879816955810371, 0.5010171096440157, -0.589895334464136, 0.2283339989869817, -0.10957829015126674, 0.49381100484481744, -0.13855695247110789, -0.6958756799680135, -0.6943196554586206, 0.13706999045657065, -0.16702962540700206, -0.37669104173034773, -0.798158847935218, 0.5915123778098752, 0.33277037089859784, -0.4610111421079863, -0.6513571855422897, 0.5093990143430773, 0.6631145176386453], [-0.8648473646179116, -0.38221088597818365, 0.4259476520110874, -0.15195955562350472, -0.4172813611748978, -0.3291956975936854, -0.37304484761858125, 0.20048208772187404, 0.3254298752559317, 0.5537754908987855, 0.14237910399767295, -0.9225463886857275, -0.09000504295855971, 0.526719758667282, 0.46758858905264367, -0.5355652612510564, 0.33627680526575476, -0.7304093449565909, 0.45003137207031263, 0.9995278536477259], [-0.3814538035148205, 0.18842660329613792, 0.3926167087535539, 0.5804374716281406, -0.41449371531753765, -0.002635364729413503, 0.9788155565293823, 0.18059149570546795, -0.09703241333544876, 0.6995003782453577, -0.33332083131608714, 0.6695827621670962, 0.9762013226038238, 0.22018411639362911, 0.48854765027167124, 0.48751674965492886, -0.018979819162628253, -0.769406913021909, 0.44140936461142344, 0.7377618352005151], [-0.3308965974533742, -0.21239645179289313, -0.8060342990418001, 0.37100645641161334, -0.46645055454036854, 0.9296984979805014, 0.8638814622539914, 0.9947654455129364, 0.3974383069034024, 0.8296261230715689, 0.7551659572482776, -0.1436752107834991, -0.9368310739701273, -0.013044353985932622, 0.3660905424085006, 0.7670836117260582, -0.6481239236319243, -0.6327274766681172, 0.06497638838271746, 0.678563217300499], [-0.5035215175966519, -0.1742228788663116, -0.8944301648396755, -0.6727841534019001, -0.7169736276454579, -0.1300784735476994, 0.9394682104086782, -0.11239392269461179, -0.8896623067806724, -0.9566214485365598, 0.7307359628916617, -0.652216400020492, 0.08180038847409388, 0.38974677004032654, 0.01431865939643151, -0.19644982450658932, -0.28742547560784226, 0.5970724832373844, 0.756645206154517, -0.1555567915064877], [0.6606631192512329, -0.842009831200276, 0.02900692452900744, -0.8111829002713582, 0.3025908133186237, -0.936789709911426, 0.5561406603445109, 0.1489743725902759, 0.3931888812444395, 0.1006052189765052, -0.8939860491806146, 0.14853157807972517, -0.5539897548333577, 0.10481741599589411, 0.39514899250636937, 0.5645439691883014, -0.9107446402010215, 0.04856403134976417, 0.5994733319870811, -0.47524739395273574], [-0.6238079574180677, 0.47560736937531845, 0.8204253643554145, -0.009637297906540887, 0.5602120193317426, -0.6814877142704558, 0.25777944225059213, -0.27861127720162937, -0.8436292340490399, -0.9960852136018739, 0.13173225852392045, 0.4000308629489069, 0.09813200340351735, 0.884855380889187, 0.39745375717218745, -0.7159896335632219, -0.2439773407692567, 0.8937954380296094, -0.7485210543501746, 0.07293423251115194], [-0.4935902304557478, -0.45903882625447867, -0.19137982942560128, 0.851584194949474, -0.399525520138571, -0.053460030979160855, -0.8145647149143977, 0.9860161112524155, 0.5663591445472373, 0.3029428472999973, -0.8963140749258334, -0.5888563850874418, 0.5417484676533155, 0.5736520228076569, 0.5718270945759616, -0.026626275185654524, -0.9590997557795709, -0.7900773209561753, -0.08900468671719097, 0.02357162303815974], [-0.08088230868084989, -0.8268243829917841, -0.06970776953504987, -0.18873295175508487, 0.7343505610234795, 0.20116116434256304, -0.5189684710443867, 0.4167089174233811, -0.7338255678923093, 0.10373203384765861, 0.17478793203179088, -0.5353443352001457, -0.19200755441892947, -0.22725868717364395, 0.9049897530635942, -0.0006816084690539626, 0.07770082720406468, -0.709634900797637, -0.0728330509130326, -0.8296627459442332], [-0.5046259936490063, -0.6906225535411641, -0.43694246146061544, -0.9042501113461217, -0.05133206774687471, 0.9270914299467519, 0.4285519922143064, 0.28417596526116196, -0.7734889831869332, 0.9270302435526767, 0.39578920589540156, 0.2914278269849635, 0.654744069022376, -0.13900350775970782, 0.570183625490001, -0.32276185475306396, -0.7754176276446252, 0.5609555291700932, -0.12658572313191607, 0.7883107019159399], [-0.5087031309724022, -0.44383695433908676, -0.04656922375892392, 0.7847434756162508, 0.6449831995522814, -0.059693394234038744, -0.6019825605531008, -0.6750891964728041, 0.7796306102463593, 0.4006892610928283, 0.027311984998674932, 0.7598378952520581, 0.9531352884514821, 0.39052298142480146, 0.5274068109900203, -0.7104317645398046, -0.7408643016441863, -0.8002150171238835, 0.5405790944311952, -0.8475358413172531], [0.40469461890619685, -0.8947974295149346, -0.7932269337059026, 0.22396355219940478, 0.7314615440860934, -0.7800340665206833, 0.3897085550873354, 0.13825486293293587, -0.5328409454561889, 0.18226978383650216, -0.8546640534718251, -0.961060291868975, 0.9300199114440229, 0.9975361043870052, 0.19735291912084785, 0.4799157665538738, 0.7517406314910224, 0.8422855228744128, -0.695792677580261, 0.12816645485513534], [-0.5346490880834232, 0.01945508209832103, 0.5780837568279051, 0.5040429351507094, 0.8431108619791854, 0.8008395646208797, -0.33238127457151956, -0.36877742339314135, -0.22757636349521015, -0.30502528531960116, -0.09732032102987453, 0.675490990937025, 0.9641364850061653, 0.6832939961223168, 0.5489230384764747, -0.18067200539447037, -0.47711665069633735, -0.029018242311801945, -0.9706347147535876, -0.6505486958160442], [0.07807998352215484, -0.013308562674748226, -0.06957959541572079, -0.41619524878823144, -0.9097874725320438, 0.9263161893107583, 0.41373446541343917, -0.47868902810644687, -0.13203535670993571, 0.406281774891768, -0.08269265941428561, -0.5683033019387003, 0.29501965536084973, -0.6336961783933812, 0.7977966304386253, -0.8332816965933381, 0.9447199383530156, 0.7242457108982758, -0.6230060746516051, 0.7521061642099407], [-0.1609100889739743, 0.1862483080438495, -0.9419402745935432, -0.7871565163291436, 0.4890332675887765, 0.011172460177229615, 0.7611179734481146, 0.45229264826302806, 0.17612350962880452, -0.07970553176856532, -0.6255878616802821, 0.7714074799172912, -0.6688425056219576, 0.7653168240200816, -0.572324765405529, 0.622258419622495, 0.2764678801536311, 0.11674857710441833, 0.9822676973713307, -0.156456078045083], [0.8796545627680785, -0.9360453338273333, -0.42480675892765807, 0.2945154779941479, 0.34295534331191635, 0.9478409140755244, 0.2717785429211197, -0.45429414582905214, 0.5885536133017457, -0.14624651162999713, -0.7614121270129308, -0.4204219842240742, -0.5531176409840348, 0.6332958382352993, -0.5898050678630222, 0.7480936483215532, -0.14789608075853744, -0.20027518026402702, 0.6374173612083991, -0.8652682014542481], [0.5798137497276226, -0.7006108515235661, -0.05314337430645932, 0.5187575163806251, -0.8448203526003544, 0.9351002228387215, 0.9512600605563646, -0.45605015142008876, 0.01331473137147654, 0.23962256619380606, 0.4754375904001771, 0.7235683512246562, -0.10490713154232578, -0.929771698252029, -0.4952648390239087, 0.18732394775523376, 0.6369163818453538, 0.7145523426795704, -0.49893926859584803, 0.11354463759758371]], [[-0.04783671138587353, 0.7278774077219936, 0.48945117624897594, 0.22217434760613775, 0.953275573768362], [-0.5888570905000754, -0.19895970378683825, -0.828193200691175, -0.0945545612086447, -0.06564319566830168], [0.8309185829106063, -0.3261063407041458, -0.41837326500159744, -0.06142213884780334, 0.022665899877650775], [-0.3940800834337317, 0.49392956828941004, -0.9765517920695201, 0.29455503852989606, 0.811919384651586], [0.4598584067011757, -0.1707546430411433, 0.8682817496416786, -0.2826566050293122, -0.6885146995693929], [0.29743468723886757, 0.6475778564506023, -0.08410454864024475, -0.2460193596817326, -0.15095666504947025], [0.49563243503085497, -0.4471985385599804, 0.7635689389502558, -0.7293525845535394, -0.247850452120028], [-0.2057625379924981, 0.4056011831306947, -0.7172587471210272, -0.29754494888580996, -0.45542256796622604], [0.43770921403856744, -0.4234720454245964, -0.013950206348754435, -0.01758250647760695, -0.7691671843867156], [-0.23192328516898342, 0.9176767694891126, -0.18869644469457247, 0.26678322386808984, 0.9092227037288643], [-0.5971383812919739, -0.4241297144792011, 0.019810939751171874, -0.8154351172997878, 0.6288498098198034], [-0.8497215617355884, -0.7284469489912433, 0.7203066092778192, -0.15147176121986128, 0.4710059459723319], [0.569768812971365, -0.21449415894803736, -0.5841349963506934, -0.697449514256173, -0.6787633465166074], [0.11596121569387852, 0.03514888464620558, 0.7000182971106668, -0.5197062423533128, -0.06773587118009572], [0.7116500060984974, 0.06962963176924197, 0.05125690992461385, -0.830049718280297, -0.6796591707820343], [0.8122919763966259, 0.8230076746529582, -0.06048616499608195, 0.38581146675160793, -0.5747834749498297], [-0.18889748221021785, -0.4048507431654498, -0.8335647689684904, 0.642629375600227, -0.4529612250578883], [-0.598889460857571, -0.4373090635702348, -0.058761429170022694, 0.6495487007442999, 0.63767620531553], [0.30421987976595544, 0.5543258660986636, -0.21277230469087915, -0.004079486048243597, 0.944893920034918], [-0.7967215085190094, 0.5592212546580808, 0.9688389359373606, 0.6500830543849514, -0.06122925061744655]]], "biases": [[[0.7676217185619727, -0.8293543204831333, 0.9461386232893398, -0.6989347918242506, -0.3050500501501543, -0.024181199609736526, 0.09417210966172651, 0.7631973254355306, 0.4743751401391809, 0.5046721465254429, -0.5839182296639276, 0.38957523131163585, -0.09943833978211036, 0.04964684065083591, 0.18151239622547655, -0.6581292925412088, 0.31944900506213814, -0.3640092724189876, -0.13896118647192757, -0.5786004951906041]], [[-0.8681280301910943, 0.6439742222346685, -0.601567268661936, 0.7736510666585661, 0.7915578700898782, 0.5570177110859851, -0.2688307733287407, -0.9536714472998464, 0.15487190672501572, 0.7586564310848323, 0.30770374241259524, 0.17598482323463016, 0.8398023628305855, 0.7000206719512709, -0.9144460974398967, -0.3337721888645997, 0.2853259975071081, -0.45267449326521225, -0.36310478197058904, -0.7535904588347775]], [[0.8279004343931473, 0.38251283368854794, -0.6765473808950981, -0.07818520116333794, 0.2092096967756929]]]}