{"weights": [[[0.20377730037677177, -0.9475747781646744, -0.7627804170165577, -0.07156175545447252, 0.802076941621853, 0.8535683056567975, -0.9959061665637421, 0.9303935026465546, -0.5273149742164187, -0.20706964291899865, 0.31681955135330764, -0.6348535562590267, 0.8823123368986767, -0.9049186641483882, -0.396678169630156, 0.5585341630072271, -0.08356487240138799, -0.02364594750232385, 0.6054437863290159, 0.7831334136382617], [-0.7771945957145519, 0.9486048989877651, 0.2756309343182708, 0.9387230343766253, -0.211752726364145, 0.017663314132677188, 0.9138281686351926, 0.7549516182604463, 0.25131894040568126, 0.7469943551586664, 0.24714110408725176, -0.39426738684498286, -0.7551605826790422, 0.40305523703449286, -0.5174098418036746, 0.02098590888442642, 0.9169165182909491, 0.14368369962700522, -0.6004398702008475, 0.7495371238428665], [0.5790581873195741, 0.7501593915911278, -0.39969027866674955, 0.8164314745159922, -0.6592536401258784, 0.3240189449235531, 0.954695837758589, 0.30004121762431235, 0.29410799454745407, 0.6898631770197732, -0.34794644020443855, 0.8961834150086072, -0.268106591197967, 0.931548031287238, 0.02496847388923462, -0.5349191650526302, 0.6228354881768254, 0.1831990720352239, -0.36858737799882, -0.18942490347691465], [0.218640617720683, 0.40503390453449684, 0.563290565305476, -0.7389485578322004, -0.3052108332245864, -0.7424526079309148, 0.3345081230933773, -0.4161569176218316, -0.5218980314916648, -0.3928116876395644, -0.2123970830124049, 0.32092189911796654, -0.2057686778347274, -0.7980265645423708, 0.008515599757402681, 0.009424140631935973, 0.8472360444703813, -0.11303394259000887, -0.04883571473174264, -0.942695486212678], [-0.05373165594838025, -0.19073342270094074, -0.6359673127080314, 0.7717884768303822, -0.49263340160183033, 0.6601107717638692, -0.5105627883764856, -0.3101030332388748, -0.004429043267673238, 0.05425468876858175, -0.7901741168152636, 0.15930370590666154, -0.027799244176451188, -0.5908072588258451, 0.24663927141719655, 0.17845095247470977, 0.07791104550824901, -0.8605414620674177, 0.8972184188068366, -0.6763667761762286], [0.625691448212568, 0.742830214146083, 0.7353979939290951, 0.20186732424545495, -0.9580019287714749, -0.6838237526038031, 0.5534810857148649, 0.6664398157849882, 0.3257410572001185, 0.049088947739604594, -0.11017215945411629, -0.5540590487601234, 0.5686979864706361, 0.8473477512567829, 0.07166477692691964, 0.927486329019318, 0.5978131245554432, -0.8852045379574951, -0.2991878449548637, -0.1554088659505406], [-0.9200740837254091, 0.5956461292490327, -0.5149938886830678, -0.7273522327573954, 0.28911692363729613, 0.5148140965427037, 0.6173022245292936, -0.6710257347496935, 0.912325980823848, 0.1989308403498633, 0.7702905486362863, 0.37053639213457834, -0.28441659674852726, 0.2100333946429671, 0.9319885134998018, 0.8569674133057748, 0.7579463583505592, -0.3998690225507515, -0.03257186693296066, 0.768596848224117], [-0.36286659510764663, -0.03730940707998709, -0.6641679266199003, 0.7299074949648545, -0.8633125047303218, -0.2197351224062789, 0.12347971728662754, 0.14341258704528026, -0.1219948412576981, 0.6970445075357663, -0.5860474807044769, -0.4727460538674184, -0.3933381669671101, 0.43575924136257393, 0.11750988363896941, 0.805990292619865, 0.45012166141093335, -0.7487983497035466, -0.677789847912694, -0.34894358496097144], [-0.011927291035843668, 0.7163682354240559, 0.33907630110611975, -0.3428775725187114, -0.20502658421494235, -0.15112649596105654, -0.18778672135143704, -0.7870745935845844, -0.8594081467924457, -0.9383356886930303, 0.4029293486427794, -0.58364103800239, 0.7442005390919895, 0.9751341067228796, -0.6274304883801312, 0.1862933937362563, 0.48995806810021736, -0.6608192935873738, -0.5285340658632474, 0.8242546267722539], [-0.32146522179015546, -0.44187517132517184, -0.3864282590435981, -0.518436201269185, 0.02617113864818421, 0.5410664877384705, -0.9161258788052986, 0.8548567241216221, 0.7358059547186746, 0.823327578225572, 0.01803944003890323, -0.6568850316979258, 0.4833908526125046, 0.4343207681716559, -0.9218885153761573, -0.693181024017745, 0.9105773393755916, -0.4350265260042221, 0.19519355996835008, 0.9715129011037644], [0.443616679908611, -0.29343533578330727, 0.46441325996582883, 0.14799181831188823, -0.21521338988733785, 0.4645611594854857, -0.7268456136982311, -0.8231112595741481, -0.9187877712541739, 0.7957638206292179, 0.2999718669885316, -0.2977912058952039, 0.4803559377758877, 0.22693868071985457, -0.5042496979314224, -0.13375183702217686, 0.09315754962837719, -0.3077792760163969, 0.9434916803927036, 0.2856674079894408], [-0.24126831112687874, 0.4846008055251696, 0.24626502011889784, -0.5997178321414784, -0.84076479625081, 0.5299392033866561, -0.7825740249890711, 0.6507804401471236, -0.24649043801694526, 0.010016437253054233, -0.654846469697524, -0.12745394648049668, 0.07262327535938895, -0.3222161081179078, -0.005683318922310665, 0.35351564571294314, 0.36287396130403304, 0.3275886386202862, 0.3317943495887212, -0.8648731691800862], [0.7552485889654263, -0.6746151706887662, -0.017283308950101883, -0.36660264227880246, 0.03662096067488663, 0.7547466917194012, -0.18373842087547287, -0.31713865523978835, -0.5607195164540482, 0.80053123620012, 0.8079470249833232, 0.31493845016390454, -0.2700110035610628, 0.6930301134278745, 0.6837071843985152, -0.21245776930956373, 0.6627329885273596, 0.607451087059609, 0.26948174425272486, 0.7699855773686364], [0.60771103228261, -0.26475343442044474, -0.46325226451793977, 0.2619280904367731, 0.8801578014899651, 0.6286090101755482, -0.865484557564588, -0.9472995759304514, -0.719692903328085, 0.14739376003008164, -0.4571063065128611, 0.9376213993054674, -0.8357325291754512, 0.33791582029471323, -0.6955542219982478, -0.557486038589633, -0.31208577826618167, -0.27788444176039606, -0.7140071451851195, -0.545591161647442]], [[0.19784885096188964, 0.7526309724143938, 0.9298871880481336, 0.5936060112208357, 0.49719571531636886, -0.1509631458084213, 0.8662415227871396, 0.8670765334323673, -0.19181630439891295, 0.5271607416880519, 0.21152678714284612, -0.8155621609504962, 0.8634656214655838, 0.8645813115338974, 0.6275338933473129, 0.19265725779612475, 0.7881276886922883, 0.5639530138343274, 0.10590402121320808, 0.901485436950263], [-0.16501627744543157, 0.310097713884105, 0.49911395018774574, 0.45818400698232686, 0.2964554843853753, -0.5597869040777259, 0.3078916915617196, -0.7960806254478803, -0.7433362455187171, -0.6497557087583825, -0.6968506774295737, -0.4505169677174976, -0.7459765933030076, -0.2552968805920135, 0.8591591496330964, -0.24245879940503268, 0.8965282889216684, 0.5772643753881146, 0.5351202794850913, -0.2770772944047146], [0.701541411482508, -0.6895662963372273, 0.021448013570884106, 0.3097038465012465, -0.8219124075253823, -0.34423485621516736, 0.8980240138431637, -0.46796834336212134, -0.08820211742662276, 0.130614268140407, 0.19347578421412792, 0.7427007531929286, 0.44864647048299644, -0.8939196683624981, -0.2488593304654314, -0.3965628449223537, 0.9458024682730508, 0.366349545892948, -0.7532460173984223, 0.3919758931309294], [0.8521713237682922, -0.01961172092203234, 0.31016940853979946, -0.17398459389276044, -0.12230568495183669, 0.013234934594381631, 0.23513048244443113, 0.41400430181641057, 0.4424233785276641, -0.8725356903281596, 0.43167190406661815, 0.7914341019469997, 0.7409340202231858, -0.9480090298406718, 0.8012119698784261, -0.7226611959420084, -0.09974305629189728, -0.2965264481985943, 0.9912267314450274, -0.9907839182237854], [0.21920721687107325, 0.11812830585869616, 0.15121150545928974, 0.43172770850625297, 0.17839541682285454, -0.5817842124040489, -0.5294595011680565, 0.9011411777810054, -0.9204411186184087, 0.6906724246044873, 0.7610305844605705, 0.18135457489549323, 0.18460939542627375, 0.564468457333974, -0.3349565124834464, 0.2600795766395232, -0.6997953332024052, -0.28057760889019745, 0.24747323774037633, 0.14441354872989942], [-0.6922266008900821, -0.3217123933682582, -0.5504869363325617, 0.8420618698670082, 0.756365204332603, 0.09695652368231222, -0.7220763109896953, -0.14436670538000507, 0.5177982132046355, 0.958903787112412, -0.5007052900820603, -0.9715321838023823, 0.34511308244535055, 0.3325104694686709, -0.03626147792036427, -0.08904456253176951, -0.46525576687661996, 0.26289155063778447, -0.46514565675722674, -0.7159097515484218], [0.2861158031860209, -0.8941805625032577, 0.17987404119794137, 0.5266065050077595, 0.3193950764438944, -0.3638590840881708, -0.33988955470696713, 0.9555057648214402, -0.7213994924448686, 0.0842295105965778, -0.5458710805445957, 0.09130564688226772, -0.7135879799132236, 0.40493770391541783, 0.39548615868062065, -0.6088840617159275, -0.04854559363321731, 0.005076592227906129, 0.010478350208842357, -0.13432895371367892], [0.5497728455514954, 0.10293957242323715, 0.7911222202721058, -0.5285178019054426, -0.9621286379140292, -0.8909533346841387, -0.8579584134056033, -0.021779997385734218, 0.1373162525936642, 0.9017104194186418, -0.7985594510501035, 0.022620367693246823, 0.2867876755173826, -0.01147137580643176, 0.8900079093587672, 0.5127254025629093, 0.15423826758919512, -0.7941918575299978, -0.5592541951420635, 0.007858088154757858], [-0.8263915053126765, -0.6681959714146817, 0.8528238284517657, -0.4517384676857503, 0.9130555568068395, 0.49195441968458065, 0.26478174432014034, -0.18938606946280823, -0.9956974162112697, -0.23345950629048517, -0.5372349024951177, -0.4574175197506969, -0.04617000214747513, -0.8503313910515744, -0.10477616225748454, 0.8304183906283964, -0.825094074429704, -0.006365609059812094, 0.8492683352106811, -0.7731437857312164], [0.20756111059052174, -0.18760776235585297, 0.851812875330139, -0.31500438540787745, 0.45750143502805396, 0.5201167600237413, -0.6517678496502208, -0.8869235535316624, -0.6864002558094024, 0.31524232225308313, -0.5864910818673104, 0.0030506844147564216, 0.09087882626181232, 0.10339961817419896, 0.5327779261594523, -0.6301652227908332, 0.5370924805114126, -0.6904212643573673, 0.4874169220795921, -0.4961313683820294], [-0.27517845423111575, 0.07792980565935026, 0.43390866119291194, -0.2417785437308302, -0.7548739725564233, 0.8114608621322972, 0.6176134774072863, -0.5266413404839656, 0.08233765065429743, 0.13083332760133315, -0.6943160632415843, -0.861495592498857, 0.3969976226787253, 0.8945661822445061, -0.8317624456376775, 0.46961854756356103, -0.9669249406184872, -0.6820381752623546, 0.7424083823635508, 0.2581693062638646], [0.8571814416448289, -0.3784424300925373, -0.293881112666565, 0.9792946250347851, 0.8861377431521515, 0.5152388221264799, -0.24088412511321122, -0.2985546513549677, 0.475741749410973, 0.7040660201535478, -0.8977691692027445, -0.678943606698605, -0.6312708874470712, 0.47002654062385707, -0.954036579585428, -0.7391160758871174, -0.48790140259953296, 0.911847259485967, 0.5480407426819938, 0.9847952799771407], [0.21142385727525292, -0.600813072427888, -0.866470744810075, 0.8322077668667525, -0.42238746082604317, -0.4124240388058791, -0.47963840385120116, -0.3924162810207694, -0.39181146815483503, -0.9227998071043113, 0.970537793294757, 0.462716278880241, 0.010693799988551467, 0.01074662927131631, 0.6647940706444266, -0.13984778975554546, -0.9535252485665349, 0.7055318432961926, 0.3527838280848541, 0.15166707918073463], [-0.568467618436012, -0.31865617914909694, -0.4765526204874597, 0.946625514442055, -0.500660060754216, -0.6310108337864442, -0.15760192139732743, 0.4465586855992154, 0.037259417317863974, 0.42829424502926927, 0.09621967466111703, -0.26548467581161184, -0.232878458155664, 0.5143288610358163, -0.6349814521642934, 0.21131522560610194, -0.5096262611646771, -0.5855412103320299, -0.7224376210244312, -0.5762728595359181], [-0.7677552776313361, 0.3334534006771066, 0.7423030515158662, 0.4307584207634476, -0.8231356168944939, -0.2225521357744109, -0.5123935170193947, 0.6754545302300405, -0.1824887107399391, -0.12110561873969017, 0.5656939895655102, -0.4742355037019419, 0.4969561281912114, -0.4269279354670261, 0.6238432167141834, 0.7334429382336434, -0.12121547482396888, 0.9410049018155127, -0.8423051668062123, -0.10855949173796331], [0.38797508271452363, -0.266384646241673, -0.345992671653941, 0.03642431336297669, -0.3976094939215302, 0.1176028453233906, -0.12580579193956143, -0.7410024782710862, -0.6314845136135732, -0.26484777305466123, -0.7343635064060521, -0.5990349623461702, -0.8661729820987973, 0.405803031318259, 0.3726937021543042, -0.10650592093218059, -0.621991689253516, -0.36255185206673257, 0.30261861823988045, 0.6000715802929042], [-0.26594624696261926, -0.5409903796442082, -0.13413940023458992, -0.06986097587625428, -0.6634070229617475, 0.8616020906199011, -0.850119208163169, 0.0624464310078805, -0.2756956897587053, 0.3383136222921084, 0.6806766541798432, -0.5838521231111911, -0.0480028899677678, -0.22638082308769691, -0.6456705465327575, 0.8489181092839504, -0.6929844798842777, -0.1618956133766476, -0.7502723326347602, -0.678973711870686], [0.32973148560539345, -0.012846154309614555, -0.010129552278271614, -0.2778378375892001, 0.36176607937632776, -0.03339395125409084, -0.018577320704168176, -0.2511577734993342, 0.8904991806934115, -0.7856698558542721, 0.9582296137669088, 0.24700731415447774, 0.6709222074163002, -0.8046373979899251, 0.1077857010036769, -0.04200454995417724, -0.7989071137423884, 0.6150412589731018, 0.834107336853213, -0.474050431090697], [-0.9283796446800814, -0.6791359879733165, 0.5503331324269232, 0.13526365056772005, 0.5645317121172353, 0.5114871744544494, 0.827974246906829, -0.7458450022480114, -0.5829343942399736, 0.041632521271019796, 0.874054490861724, -0.5460464542814452, 0.6160584668393854, 0.4479704658063943, 0.5911400813709817, -0.746571224673982, -0.08919647517155638, 0.9560981238453257, -0.5940417243022771, 0.9136490694084232], [-0.26741718575597684, -0.5710486985304286, 0.5095218601115794, -0.4767024732201506, 0.6460665709729729, -0.5112491018621443, -0.28284942173435956, 0.171786980269915, 0.9710988621385201, -0.6406252587924544, -0.8070450107495128, -0.6596377981233319, 0.7008595032472356, -0.3971100678687567, -0.49641887586738465, 0.8136384199693167, -0.769328310172686, 0.30777011213356165, 0.9414315802270838, -0.13376543701685129]], [[-0.33933926224357935, -0.8937784070476003, -0.9623700218941407], [0.8247854103899548, -0.685029463296962, 0.5791685712172183], [-0.34925139688556195, 0.9241552147766727, 0.20380782890025984], [0.2879802262261886, -0.4694224604618755, -0.5711345184860128], [0.30578280464200236, -0.9591838262707151, -0.17985914094503608], [-0.10606015483528752, -0.5978486320405481, -0.6800034279512728], [0.17485915036669564, -0.0162577555840131, -0.19266804839014173], [-0.7631827620847809, 0.8683120220898541, -0.6325554975685459], [-0.11930284045373063, 0.24933866793137693, -0.7310732447752981], [0.2797152507174958, 0.18003127981425093, -0.20919910858278157], [-0.3462460340858402, -0.19654163352554122, -0.984619874516435], [0.7893170210173428, 0.1913692665760509, 0.802208834095461], [0.6953828986078883, -0.16707626746234094, 0.1710785538700772], [-0.43782099649017603, 0.9388108115918781, -0.8406312835999459], [-0.03128056816548708, -0.9373896476624832, 0.14994617322395642], [-0.5406757553964479, -0.4602210744707982, 0.8471057833249152], [0.9118117552827787, 0.9136574751434534, 0.05538590539626087], [-0.7098003214418855, 0.3025469417714477, -0.09050836597708778], [-0.7858510530363536, -0.8537776139044229, 0.25167474239183374], [-0.3005689391101991, 0.8506760776977111, 0.7838927698876594]]], "biases": [[[0.8447533691883597, -0.5381950511179969, 0.6918674147335286, -0.593451979464124, 0.40216309060321653, 0.9753351421002601, 0.31118661570186257, 0.5363512603419325, 0.04587548429764876, 0.5605377277326009, -0.6852325250940612, 0.4920556703303842, -0.37103403107188915, -0.7314307473258999, -0.5694367020983442, 0.562512820692777, -0.10342504385322493, -0.6549933837526554, -0.05832659779879923, 0.24941224372857795]], [[-0.05186233276169161, 0.6182370857893145, -0.8397287084411298, -0.3269165373090779, 0.39824957070001243, 0.5498859778122827, -0.9442635246031006, -0.5375902028815611, -0.8535655068013774, 0.5752736115471293, -0.3235457462721698, -0.7963648868298814, 0.3787427341490164, -0.33788011073892155, 0.6215198999092331, 0.012297011762811838, 0.16306418076721774, -0.21359438118596108, 0.17227775510458354, -0.7685062086325223]], [[0.6776043701205261, 0.6592830747838141, -0.05434674693136454]]]}