{"weights": [[[-0.3424953887009621, 0.26311879572861807, 0.8406340011304338, -0.10571732935179257, -0.2684849547146029, 0.7949169800798417, -0.5491371871000477, -0.4352679185218813, 0.5264102576648171, -0.7291004445704756, 0.42367737172553865, -0.21666569941012304, 0.14549328838614595, 0.6148852006953114, 0.8711222692618357, -0.7589574244669668, 0.6370825642518307, -0.6645671807419387, 0.7740423721780239, 0.15155107513188004], [0.6836484123716124, -0.0038860801328262085, 0.8870812784553297, 0.2391856497829843, -0.35375552241389685, -0.7851694939385523, 0.6334101549097759, -0.22807144295285853, -0.5375440184138593, -0.008503173161080069, 0.06897475443604062, -0.8774318151731977, 0.27406637796766486, 0.2812016122644816, -0.18681028154111012, -0.05048829957997225, -0.18316914930831185, 0.2366478866397692, 0.908517403727952, 0.6945036880304643], [0.8307483482683655, -0.817815047847678, 0.49102304418616827, -0.04027397024897339, -0.305678581357542, -0.1146110166714489, -0.36712427283365723, -0.6625446136902267, -0.24373912535470144, -0.4354402741859891, 0.549341927386463, 0.9824918809484964, -0.258489655093314, 0.013595219012176862, -0.9905535227591433, 0.34603121565082984, -0.3141972127808985, 0.9780854104387402, -0.04112674617377943, 0.03775186434797151], [0.4217283632475919, -0.2263325680617574, -0.06017896612374951, 0.05478910159998196, 0.27656224916917993, -0.3893852110615861, -0.6622264523772945, 0.15699005215088335, -0.28772921415486663, -0.03926398469789261, -0.6376820614126926, 0.7618877520456391, 0.9143614173965273, 0.057663227206908196, -0.01245079430198337, 0.3828888361384477, -0.6503441036056774, -0.7333778928491939, -0.6477627789196065, 0.583106807916068], [0.8516196167875469, 0.22246081941510076, -0.340551266194723, 0.5947492077071186, 0.18094536386023896, 0.3299289516886559, -0.513959074044199, -0.7864150203442068, 0.6106103341969502, -0.5730792744998046, 0.019020530920316414, -0.8462201087128594, -0.2619387128363093, 0.38157300650188386, -0.6039265018609214, 0.01755143484449695, -0.5532421546139781, 0.5979998992319344, 0.37973360897901864, -0.5829252569219552], [-0.5525927030840427, 0.34733868720692374, -0.598527936459516, 0.3314197045685263, 0.7598958666331836, 0.9028987892839007, 0.878939379844631, -0.8747247210714912, 0.8110490065742917, -0.08048843878743073, 0.02204020081854452, 0.4707269734466555, 0.492223570714027, -0.19173799375658884, 0.007949981234013803, 0.7550673817427183, 0.9490795454890835, 0.5658259506218914, 0.05103524177775398, -0.7972272259416822], [-0.6200790868565429, 0.20438967882913017, -0.17591923047826996, -0.7461670650147003, 0.03932057599004146, -0.4042163855923868, 0.042783598209392926, 0.03261881632197938, 0.7477149386336643, -0.9289222632562824, -0.3737012839991778, 0.35346351899974593, -0.19305627915873802, -0.36955143070367735, 0.7010100101037804, 0.35688421462560993, 0.4201857966376077, 0.6938067039957303, 0.3755935543880422, -0.7827000167357785], [-0.1353526122111819, -0.9554196995058553, -0.5739994330835314, 0.23261876885481425, 0.2708795395297705, -0.10152123117192513, -0.23106505314730397, -0.4855466355904543, -0.4051541613497316, -0.6681942241107934, 0.6809277347829712, 0.1961733673963697, 0.15494702501320545, -0.5515548264299188, 0.21409977981234873, -0.3113965866985642, -0.4829821499407463, -0.4808848947531086, -0.897482284056651, 0.696690213124403], [-0.606620317081846, -0.9982697165852845, -0.3183686560423675, 0.47124666912495927, 0.7954031440674274, 0.28545917117187125, -0.48392619992579733, 0.6523190999886128, -0.20787136897538017, 0.6962038785244935, -0.590486239648822, 0.5711851516472011, -0.5832054154477937, -0.5251210544396883, -0.4154793275237241, 0.12051052483351254, -0.8163955074063374, -0.84376634093002, -0.3727182404557583, 0.46392882760090504], [-0.028560876304445593, 0.36360229434261426, -0.03856188277133632, -0.7423779333344656, 0.11634126425915259, 0.029792736910628337, 0.4830215069509445, 0.06674329417813119, 0.0414301286697476, 0.6252163109350806, -0.2744635184876745, -0.2821007579000445, 0.5980796490876095, -0.5854532783133555, 0.5449999364507991, 0.5408099995895266, -0.4239675117441064, 0.1146153727441015, 0.7874650672765366, 0.5183567434581431], [-0.10901618194398965, -0.16704673902982003, -0.4344259181085406, -0.9160342150333751, 0.6974071385005958, -0.3722704436523725, -0.37574575117832487, 0.91392203519374, -0.5601046030212835, 0.8180996576950219, -0.9056422110703743, 0.5118336319014689, -0.8139083698860565, 0.3312926643300165, -0.483046736908473, 0.34791434718233005, -0.27624757604393113, -0.9022627304232016, 0.6097068128983876, -0.11004666064705115], [-0.2911938060693873, 0.479106023853922, -0.4117131084519816, 0.7745435046286946, 0.8469903432637578, 0.7145730753417279, 0.759455232854835, -0.37084198473315766, -0.2661697413941384, 0.05756250300254506, -0.5896308161203792, -0.7233773560932162, -0.31400869249134433, 0.7477172926853748, 0.604548374597893, -0.24221831629577606, -0.2714226312070571, 0.598071120990809, 0.8004144366632309, -0.049836658904969244], [0.043783658189453956, 0.8800853497333399, 0.042590821430637194, -0.752976801817961, 0.17661590017822304, -0.800596715461392, 0.20063960019103622, -0.9802333951258635, -0.7301491199275589, 0.6034468548103646, -0.48553024806922473, -0.7152825393219855, -0.8367718368664347, 0.7244079718106937, 0.6666600171261696, 0.9647471615027243, 0.9150082904889374, 0.3628747147848572, -0.49489356981621047, -0.20002004570500742], [0.27632071411769443, -0.1496305404739675, 0.29178891491861214, 0.0688732366112701, 0.8025841122175319, 0.6179086536198779, 0.2526231483948078, 0.016555932690302422, 0.979920920968187, 0.6116976727199406, -0.586869582427741, 0.6396642269733059, -0.9808588640631253, 0.693985789780549, 0.6328906004210146, 0.3427989025029725, 0.29727094702853774, -0.5079689818132747, 0.0178869252496745, -0.6215176887601335]], [[-0.5849686987384006, 0.932201469285078, 0.32545897510456734, 0.5552895294702602, -0.8525918851118957, 0.1596562698740276, 0.4092525654286989, 0.7644128726809356, -0.009210690726002335, 0.041148626074909433, -0.3220926044795964, 0.541479030900816, -0.715507015546686, 0.17365784102215343, -0.7708553170503076, -0.5472444073609413, -0.23622311554596664, -0.5555233836419171, -0.14247389780051867, -0.8600896766790023], [0.3344212264295885, -0.39974895540334887, 0.44972427265654136, -0.6535237296993863, -0.6965886505110863, 0.1066765550817137, -0.06939609815391057, 0.8493533687241681, 0.7788631408334659, -0.8441380905630718, -0.25628169012400015, 0.7437677744973159, 0.14376839447560297, 0.26549123760599547, 0.4366035285196981, 0.5548986075796745, 0.2734470891237377, 0.7159631984711063, 0.5773462271036847, -0.6446179682242157], [0.5897290575007734, -0.8252148136056918, 0.0803144444913515, -0.328939723242726, 0.47314729296924307, 0.42555264980350427, 0.036693789185990866, -0.8416047600632284, -0.283353927229276, -0.8008008446971941, -0.6986697988362198, 0.08766917864020018, 0.7730040111617866, 0.27936956442146155, -0.031771422033676444, 0.8575360776818857, -0.7648384909271322, 0.39119542391941975, -0.7128927816814192, -0.8348845882100686], [0.0995336410705614, 0.8085451649616779, 0.4112410846199541, 0.630548908003429, 0.8630544192595133, -0.9561037276472402, -0.08320865246658493, -0.48206717749680195, 0.9469180345499999, -0.8978530497646524, 0.07379235478513624, -0.9061549141350052, 0.4194037815474285, 0.3308153828939635, -0.17829252080198366, -0.01984609147740546, -0.48135227469647446, 0.7705333702414325, -0.16141608715403644, -0.5823496269731525], [-0.5532267935649722, 0.7115368663182691, 0.10106136197313176, 0.394362620468768, 0.5620811218268065, -0.8183054849839255, -0.45920057675515236, -0.23036260221757843, -0.5296719273327257, 0.4312325588197947, 0.3625252915441135, 0.3768561611762091, -0.02424460041142895, -0.8646723783055119, 0.6568716774699563, -0.4915975787276121, 0.9598569775327144, 0.8581049592209427, 0.5421764787064285, -0.5679232058504546], [0.9347494919515946, 0.5777072300464905, 0.49852894237972634, -0.029275272787783635, 0.6588342590460239, -0.8128733599750841, 0.18327465712262359, 0.06206818608999343, 0.4691168938793391, 0.7815130605402387, 0.7647324693543767, -0.4080726036524487, 0.08974902589264833, -0.8620726395227964, 0.6139138796465724, 0.10831914021271016, 0.39717625676090806, -0.705301725820777, -0.2268044950098309, 0.12878427239529677], [-0.7684184358267248, -0.4492201308646713, -0.4552641948942886, 0.971133345363278, 0.03906831215713913, 0.9720812669132772, 0.6690746708879369, -0.5677320677948547, 0.8691410289462835, 0.7058038280588537, -0.33453535081364016, -0.21351143773144754, -0.33020092556036484, -0.6625662701217361, 0.47513207311481676, -0.980423359309299, 0.7578512345234614, -0.6089539591810891, -0.545206271352372, -0.7718822412970399], [0.17277682524502946, -0.3575029073193716, -0.6478834426622488, 0.7554478352955618, -0.009928774643588989, -0.27953948911012483, -0.5468630782533423, 0.3815851162655344, 0.3093996797716616, -0.3799301380325453, -0.5080412025420957, 0.3930423311151041, 0.8297074622493685, -0.9645072358574622, -0.8568444588091522, -0.3504397016533025, 0.026323786082229628, -0.1831033165960314, -0.41456794341096637, 0.9600100373740756], [0.23080617070216158, -0.19597423363107236, -0.6591532223692567, -0.4882897250281315, 0.13516901630082523, 0.9052258590094102, 0.5121825819370629, 0.004317137965436091, 0.44204825862857233, -0.6553299988609007, 0.057851244640835686, 0.9317074668666165, -0.10906793478446097, -0.1620856212170656, 0.13216245324780695, 0.962687041943918, -0.34967511765602244, -0.4410237265346517, 0.6697499710342654, 0.3087736747722545], [-0.5144114240941673, -0.7815626075629176, -0.6701454761852581, 0.4795571171706139, -0.35834682541674345, -0.3022520027313418, -0.6817684380072251, 0.6332007976172969, 0.40358809041408383, 0.17341880554379308, -0.7637950497743522, 0.2403878211437398, 0.38003465521224955, -0.4912955360774376, -0.8509739064353905, -0.820858047955094, -0.20289649882035588, -0.10169140430162593, -0.9128504923075507, 0.3808225256441504], [0.173455803241777, -0.6456777845240342, 0.17329606794376828, 0.768683328984487, 0.8952271142848549, -0.21984274225260347, 0.5856537313705039, -0.8105497142280484, 0.7876733303449925, 0.6683443335763759, 0.8431710444601437, -0.1769936979975737, 0.057897531832907356, 0.7121125141409594, 0.4600336925543358, 0.5396393175801817, 0.9416670981530606, 0.44726680389298035, -0.8909711506882141, 0.9770468924295341], [-0.39011349204773715, 0.1951464218028358, 0.8078532166582928, -0.638753807159405, 0.14892833768674407, -0.7807215146495039, -0.03259885077332392, -0.6989365210827769, -0.9588761804588661, 0.3310358365338355, -0.16804084653152573, 0.6223720911431474, 0.30528892972371113, 0.7344154965442657, 0.8476060005415518, -0.25362058689937195, 0.0497789761152696, 0.20636413032348688, -0.13773812527613427, -0.6339505275947488], [-0.3079790504686073, 0.5741448395114752, -0.02143663455177136, 0.44154258189424045, 0.6616538635489082, 0.6817654932906365, 0.29077571985135386, -0.6711869825494019, 0.21331262496687486, -0.13849194017122568, 0.6636127173858404, 0.21983599927327502, -0.3402589526756039, -0.84695003052859, 0.7844714803166013, 0.7441442794862927, -0.9154320677326002, -0.5605792315652449, -0.751945405692173, 0.8645696854946212], [-0.2593461670796744, -0.05030423845640963, -0.5573641500460509, 0.9622102926152771, -0.06889866264008182, -0.4370805997622156, 0.9839385887494183, -0.7511652345409441, 0.20104123005366636, -0.23522657838829542, 0.5072223810851606, 0.87168019654502, 0.9167530592036022, -0.520501558313077, 0.07155648988787244, 0.5734086606776929, -0.5407324724950273, -0.4096363681632875, -0.7573546030981535, 0.675941537913713], [0.674666666274458, 0.621120459050531, 0.9777402482928359, 0.43821325005738765, 0.7315728115757743, -0.6152036487058548, -0.2912333515405723, 0.26749090529979824, 0.6269526888800285, 0.4125674839727236, 0.9869760276376474, 0.055069210466094365, -0.8249421808605886, -0.665149436959785, -0.4071498307789567, -0.5864876137932415, -0.4579910932126008, 0.6027885673042532, -0.004747831166945549, -0.8015950998637569], [0.7158785726031556, -0.7976389661736039, -0.9195120225744351, 0.41765018262445097, 0.06783616397444514, 0.25419506187517293, 0.4943002083998971, -0.17136172615263146, 0.49820676658875307, 0.1889824743567894, -0.5212395707195028, 0.9741396914414131, 0.9961015561153366, -0.4679796056911676, 0.1419601747491439, -0.10718050726986394, -0.7673442301679949, -0.19485535288115852, -0.4509668079107112, -0.9929875436101776], [0.491382378571237, -0.7907649083209431, 0.9154900894449844, 0.20601829745387934, -0.7557609147475977, -0.7927894937590414, 0.6163276788668237, 0.39467099051235, 0.6356551543625817, 0.1921455695365626, 0.22470237373811508, -0.13668788468713844, 0.17510319545246356, -0.36908123627504175, -0.2232762331168785, -0.18613187207170445, 0.7126830251880878, 0.8205606457003907, 0.10455298846653993, 0.6892406643575044], [0.6259530153493682, -0.34398837815829, -0.7099574196876965, -0.09890010959811213, -0.32671297804304533, -0.8337960000874838, -0.23573709196801373, 0.883683868630132, 0.9620328317624043, 0.4060043068146366, -0.5062223947093298, -0.9011923558780295, 0.8090741842465043, 0.9300502378589923, 0.2424912419064249, 0.8219126637176801, 0.5415432563423808, 0.714316939474892, 0.3873799920154364, -0.6514876960146541], [-0.5518923385899461, 0.05055680515752625, 0.44389651708540434, -0.35081196662781067, 0.13687418651939853, -0.4633453192719501, -0.9531740345113271, 0.8901975523979799, 0.3881194621115034, 0.7748518377379379, -0.44710318867686727, 0.033142165752259256, -0.3069884207653717, 0.14698699295509865, -0.07391541824926207, -0.44864038381684446, -0.3319354563530492, -0.46566328090347886, -0.8808386286311471, 0.5954162556599598], [0.8470241962467713, -0.11381761097620346, 0.008207197480837536, -0.4507539274484571, 0.7472549142365135, 0.27678216247675214, 0.5554142134387132, 0.9190330190882132, 0.5479235129136748, 0.10520016066212512, -0.07650116433663334, -0.9578115651137085, 0.31178214918640634, -0.9087443861448874, -0.5385900745712322, -0.22182281555612082, 0.8920121780375116, -0.5591580118445953, 0.8313530684664949, 0.7043324494859518]], [[-0.2847107223979919, -0.5700848696929253, 0.5006380529765837, -0.5635215951140942, -0.19277663018273716], [0.738449859727397, 0.9132710580828183, 0.08057794849606381, -0.3329379157280872, -0.44295278561743867], [0.3358287309408008, 0.5315104278427563, 0.1862175530299679, 0.868348719408748, 0.959098774602384], [0.2848829084885467, 0.8978943315995116, -0.7346437424524763, 0.8806356458651887, -0.8493143329548234], [0.28944503072040284, 0.43684386372364936, -0.3376942210050413, 0.6323552398680121, 0.21988936038951912], [-0.852133462915134, -0.4053588301829225, -0.6013843072507081, -0.15640056572498784, 0.5409292097534522], [-0.24094886745722222, -0.626605410371706, 0.8855968674065773, -0.00950582446424697, -0.599913489807026], [-0.6569869076449586, -0.20922503687657557, -0.10742663604391467, 0.4517225509976006, -0.20653071166387593], [0.12342890082295654, -0.22805710133903268, -0.6840180955305255, 0.18212053462605926, -0.46345116821285104], [0.5807444215560644, -0.06298092148906664, 0.15333466981507815, 0.03530146358690267, 0.8545990536217398], [-0.874429446635645, 0.29612345044455024, -0.5420275852083307, -0.9518261106005186, -0.328934092874551], [-0.241485573288726, 0.8981946937854617, 0.38650288176579894, -0.30967864533382716, 0.5103415502401907], [0.8496444972744766, -0.7263661288033152, 0.18059844691656424, -0.44850256886650364, 0.548178046929672], [-0.7104420004830494, -0.3322342362063724, 0.22363849660801716, -0.2847835741512974, -0.7631345306430062], [-0.3634497946621513, -0.5787959931683997, 0.3177078903193875, -0.8391581742907277, -0.051502989775488395], [-0.6296257825877569, -0.3049868950137731, -0.44154525354677454, -0.44438743090721333, -0.43825519106513466], [0.20941508756289084, -0.8911069212096976, -0.8689722453445834, -0.8359136250271055, -0.05464457413744217], [-0.5194056159127738, -0.9903833562230329, 0.17354643222098054, 0.982805105753467, -0.21437222528044209], [-0.011406568199831657, -0.6976348248232722, -0.9429178327885404, 0.37259981159044986, 0.048795429148538405], [0.45150810178889267, 0.5627132625116014, -0.9339293956929018, 0.531317480735003, -0.09407855468722004]]], "biases": [[[-0.7460081531754328, -0.040672051569921264, -0.3555387633356677, -0.3301582436232575, 0.7508335995143434, 0.29197439893393384, -0.12922673395139572, 0.7019371916612489, 0.4717250903196972, -0.5147100724115354, 0.5073618256351884, -0.8642120416661512, 0.06824590933358987, -0.7846717493793465, 0.38866400381846766, 0.3134231725835981, 0.950389967097963, -0.2776380080898506, -0.9700000698521598, -0.5795900773333917]], [[-0.7126054598036913, 0.3329338506741446, 0.9187106413758122, -0.9707011711204272, -0.6157372161612995, 0.36028530095933786, 0.9785111860834796, -0.8646275098657992, 0.5794156003932938, -0.5904631947984169, -0.42273286901561646, -0.7860331546861608, 0.792233743760484, -0.7822133121169359, -0.011565607158941393, -0.28795976908011656, -0.8210333581093754, 0.6091970579928307, 0.20064491791931305, -0.5157956875768195]], [[0.9872980251443393, 0.37444837083487514, -0.5934069101154875, -0.7020891534811984, 0.3117376342389613]]]}